tree
version=v4
num_class=1
num_tree_per_iteration=1
label_index=0
max_feature_idx=239
objective=binary sigmoid:1
feature_names=Column_0 Column_1 Column_2 Column_3 Column_4 Column_5 Column_6 Column_7 Column_8 Column_9 Column_10 Column_11 Column_12 Column_13 Column_14 Column_15 Column_16 Column_17 Column_18 Column_19 Column_20 Column_21 Column_22 Column_23 Column_24 Column_25 Column_26 Column_27 Column_28 Column_29 Column_30 Column_31 Column_32 Column_33 Column_34 Column_35 Column_36 Column_37 Column_38 Column_39 Column_40 Column_41 Column_42 Column_43 Column_44 Column_45 Column_46 Column_47 Column_48 Column_49 Column_50 Column_51 Column_52 Column_53 Column_54 Column_55 Column_56 Column_57 Column_58 Column_59 Column_60 Column_61 Column_62 Column_63 Column_64 Column_65 Column_66 Column_67 Column_68 Column_69 Column_70 Column_71 Column_72 Column_73 Column_74 Column_75 Column_76 Column_77 Column_78 Column_79 Column_80 Column_81 Column_82 Column_83 Column_84 Column_85 Column_86 Column_87 Column_88 Column_89 Column_90 Column_91 Column_92 Column_93 Column_94 Column_95 Column_96 Column_97 Column_98 Column_99 Column_100 Column_101 Column_102 Column_103 Column_104 Column_105 Column_106 Column_107 Column_108 Column_109 Column_110 Column_111 Column_112 Column_113 Column_114 Column_115 Column_116 Column_117 Column_118 Column_119 Column_120 Column_121 Column_122 Column_123 Column_124 Column_125 Column_126 Column_127 Column_128 Column_129 Column_130 Column_131 Column_132 Column_133 Column_134 Column_135 Column_136 Column_137 Column_138 Column_139 Column_140 Column_141 Column_142 Column_143 Column_144 Column_145 Column_146 Column_147 Column_148 Column_149 Column_150 Column_151 Column_152 Column_153 Column_154 Column_155 Column_156 Column_157 Column_158 Column_159 Column_160 Column_161 Column_162 Column_163 Column_164 Column_165 Column_166 Column_167 Column_168 Column_169 Column_170 Column_171 Column_172 Column_173 Column_174 Column_175 Column_176 Column_177 Column_178 Column_179 Column_180 Column_181 Column_182 Column_183 Column_184 Column_185 Column_186 Column_187 Column_188 Column_189 Column_190 Column_191 Column_192 Column_193 Column_194 Column_195 Column_196 Column_197 Column_198 Column_199 Column_200 Column_201 Column_202 Column_203 Column_204 Column_205 Column_206 Column_207 Column_208 Column_209 Column_210 Column_211 Column_212 Column_213 Column_214 Column_215 Column_216 Column_217 Column_218 Column_219 Column_220 Column_221 Column_222 Column_223 Column_224 Column_225 Column_226 Column_227 Column_228 Column_229 Column_230 Column_231 Column_232 Column_233 Column_234 Column_235 Column_236 Column_237 Column_238 Column_239
feature_infos=[-7.2386941909790039:9.5747213363647461] [-0.78305840492248535:2.3965311050415039] [-5.5377426147460938:9.5747213363647461] [-0.7830965518951416:2.3965311050415039] [-5.5377426147460938:9.5747213363647461] [-0.78309023380279541:2.3965311050415039] [0:0.97826087474822998] none [-1:1] [-1:1] [-48.520000457763672:42.869998931884766] none [-7.2386941909790039:9.5747213363647461] [-0.78306156396865845:2.3965311050415039] [-5.5377426147460938:9.5747213363647461] [-0.7830965518951416:2.3965311050415039] [-5.5377426147460938:9.5747213363647461] [-0.7830965518951416:2.3965311050415039] [0:0.97727274894714355] [-152.24334716796875:158.58616638183594] [-1:1] [-1:0.99999046325683594] [-48.520000457763672:42.869998931884766] none [-7.2386941909790039:5.917236328125] [-0.78305685520172119:2.3965311050415039] [-5.5377426147460938:9.5747213363647461] [-0.7830662727355957:2.3965311050415039] [-5.5377426147460938:14.018787384033203] [-0.7830965518951416:2.3965311050415039] [0:0.97681432962417603] [-77.655662536621094:87.614669799804688] [-1:1] [-1:0.99996191263198853] [-48.520000457763672:32.739997863769531] none [-7.2386941909790039:9.5747213363647461] [-0.7830965518951416:2.3965311050415039] [-5.5377426147460938:3.7932510375976562] [-0.7830965518951416:2.3965311050415039] [-5.3636817932128906:9.5747213363647461] [-0.7830965518951416:2.3965311050415039] [0:0.97727274894714355] [-52.35894775390625:55.688888549804688] [-1:1] [-1:0.99991434812545776] [-36.959999084472656:42.869998931884766] [-0.26955556869506836:0.26955556869506836] [-7.2386941909790039:9.5747213363647461] [-0.78306156396865845:2.3965311050415039] [-5.5377426147460938:9.5747213363647461] [-0.7830662727355957:2.3965311050415039] [-5.4363908767700195:14.018787384033203] [-0.7830965518951416:2.3965311050415039] [0:0.97680902481079102] [-51.962223052978516:55.688888549804688] [-1:1] [-1:0.99984771013259888] [-48.520000457763672:42.869998931884766] [-0.26955556869506836:0.26955556869506836] [-6.6834611892700195:9.5747213363647461] [-0.78306156396865845:2.3965311050415039] [-5.5377426147460938:9.5747213363647461] [-0.7830965518951416:2.3965311050415039] [-5.5377426147460938:14.018787384033203] [-0.7830965518951416:2.3965311050415039] [0:0.97681432962417603] [-52.35894775390625:55.270557403564453] [-1:1] [-1:0.99976199865341187] [-48.520000457763672:42.869998931884766] [-0.17733334004878998:0.26955556869506836] [-6.6834611892700195:5.917236328125] [-0.7830965518951416:2.3965311050415039] [-5.5377426147460938:9.5747213363647461] [-0.78306251764297485:2.3965311050415039] [-5.4363908767700195:14.018787384033203] [-0.7830965518951416:2.3965311050415039] [0:0.97680902481079102] [-52.35894775390625:55.270557403564453] [-1:1] [-1:0.99965733289718628] [-48.520000457763672:32.739997863769531] [-0.26955556869506836:0.25805556774139404] [-6.2868661880493164:9.5747213363647461] [-0.78304249048233032:2.3965311050415039] [-5.5377426147460938:6.5077214241027832] [-0.7830965518951416:2.3965311050415039] [-5.5377426147460938:5.2782783508300781] [-0.7830965518951416:2.3965311050415039] [0:0.97666162252426147] [-50.312393188476562:53.905887603759766] [-1:1] [-1:0.99953359365463257] [-31.489999771118164:42.869998931884766] [-0.26955556869506836:0.26955556869506836] [-6.2868661880493164:3.8483335971832275] [-0.7830965518951416:2.3965311050415039] [-5.1741976737976074:9.5747213363647461] [-0.78306251764297485:2.3965311050415039] [-5.5377426147460938:14.018787384033203] [-0.7830965518951416:2.3965311050415039] [0:0.97642946243286133] [-52.35894775390625:53.905887603759766] [-1:1] [-1:0.99939084053039551] [-48.520000457763672:29.690000534057617] [-0.26955556869506836:0.15505555272102356] [-6.2868661880493164:9.5747213363647461] [-0.7830965518951416:2.3965311050415039] [-5.5377426147460938:9.5747213363647461] [-0.7830965518951416:2.3965311050415039] [-5.665534496307373:14.018787384033203] [-0.7830965518951416:2.3965311050415039] [0:0.97642946243286133] [-52.35894775390625:52.494667053222656] [-1:1] [-1:0.99922901391983032] [-48.520000457763672:42.869998931884766] [-0.17733334004878998:0.26955556869506836] [-6.2868661880493164:9.5747213363647461] [-0.78306156396865845:2.3965311050415039] [-4.9230213165283203:6.5077214241027832] [-0.7830965518951416:2.3965311050415039] [-5.5377426147460938:14.018787384033203] [-0.7830965518951416:2.3965311050415039] [0:0.97642946243286133] [-51.962223052978516:52.494667053222656] [-1:1] [-1:0.99904823303222656] [-28.979999542236328:42.869998931884766] [-0.26955556869506836:0.26955556869506836] [-4.5440530776977539:9.5747213363647461] [-0.7830965518951416:2.3965311050415039] [-5.5377426147460938:9.5747213363647461] [-0.7830965518951416:2.3965311050415039] [-5.665534496307373:5.2782783508300781] [-0.7830965518951416:2.3965311050415039] [0:0.97642946243286133] [-52.35894775390625:53.905887603759766] [-1:1] [-1:0.99884837865829468] [-48.520000457763672:42.869998931884766] [-0.11500000208616257:0.26955556869506836] [-3.8698415756225586:9.5747213363647461] [-0.78306156396865845:2.3965311050415039] [-5.5377426147460938:6.5077214241027832] [-0.7830965518951416:2.3965311050415039] [-5.5377426147460938:14.018787384033203] [-0.7830965518951416:2.3965311050415039] [0:0.97642946243286133] [-50.312393188476562:53.905887603759766] [-1:1] [-1:0.99904823303222656] [-28.169998168945312:42.869998931884766] [-0.26955556869506836:0.26955556869506836] [-4.5440530776977539:6.5077214241027832] [-0.7830965518951416:2.3965311050415039] [-5.5377426147460938:14.018787384033203] [-0.7830965518951416:2.3965311050415039] [-5.665534496307373:14.018787384033203] [-0.7830965518951416:2.3965311050415039] [0:0.97642946243286133] [-52.35894775390625:50.191444396972656] [-1:1] [-1:0.99922901391983032] [-65.709999084472656:34.479999542236328] [-0.26955556869506836:0.13950000703334808] [-4.325925350189209:14.018787384033203] [-0.7830965518951416:2.3965311050415039] [-5.3636817932128906:14.018787384033203] [-0.7830965518951416:2.3965311050415039] [-5.665534496307373:6.5077214241027832] [-0.7830965518951416:2.3965311050415039] [0:0.97642946243286133] [-52.35894775390625:53.905887603759766] [-1:1] [-1:0.99939084053039551] [-65.709999084472656:51.110000610351562] [-0.26955556869506836:0.35899999737739563] [-4.325925350189209:14.018787384033203] [-0.78309339284896851:2.3965311050415039] [-5.5377426147460938:14.018787384033203] [-0.7830965518951416:2.3965311050415039] [-5.665534496307373:14.018787384033203] [-0.7830965518951416:2.3965311050415039] [0:0.97642946243286133] [-52.35894775390625:50.191444396972656] [-1:1] [-1:0.99953359365463257] [-65.709999084472656:51.110000610351562] [-0.26955556869506836:0.35899999737739563] [-4.325925350189209:9.5747213363647461] [-0.7830965518951416:2.3965311050415039] [-5.3636817932128906:6.5077214241027832] [-0.7830965518951416:2.3965311050415039] [-5.665534496307373:6.5077214241027832] [-0.7830965518951416:2.3965311050415039] [0.00032959436066448689:0.9753836989402771] [-48.160167694091797:53.905887603759766] [-1:1] [-1:0.99965733289718628] [-28.169998168945312:42.869998931884766] [-0.17733334004878998:0.26955556869506836] [-4.325925350189209:14.018787384033203] [-0.7830965518951416:2.3965311050415039] [-5.665534496307373:14.018787384033203] [-0.7830965518951416:2.3965311050415039] [-5.665534496307373:6.5077214241027832] [-0.7830965518951416:2.3965311050415039] [0.0051014539785683155:0.97642946243286133] [-48.160167694091797:53.905887603759766] [-1:1] [-1:0.99976199865341187] [-65.709999084472656:51.110000610351562] [-0.38161110877990723:0.35899999737739563] [-2.5456554889678955:9.5747213363647461] [-0.7830965518951416:2.3965311050415039] [-5.665534496307373:14.018787384033203] [-0.7830965518951416:2.3965311050415039] [-5.5377426147460938:14.018787384033203] [-0.7830965518951416:2.3965311050415039] [0.034521158784627914:0.97826087474822998] [-47.967777252197266:52.494667053222656] [-1:1] [-1:0.99984771013259888] [-65.709999084472656:42.869998931884766] [-0.38161110877990723:0.26955556869506836] [-2.574298620223999:9.5747213363647461] [-0.7830965518951416:2.3965311050415039] [-5.2821598052978516:14.018787384033203] [-0.7830965518951416:2.3965311050415039] [-5.665534496307373:14.018787384033203] [-0.7830965518951416:2.3965311050415039] [0.043936025351285934:0.95651501417160034] [-48.160167694091797:53.905887603759766] [-1:1] [-1:0.99991434812545776] [-65.709999084472656:42.869998931884766] [-0.26955556869506836:0.26955556869506836]
tree_sizes=6802 6857 6856 6879 6888 6919 6936 6957 6946 6983 6977 6977 7011 7006 6997 7007 6995 7025 7002 7003 7001 6991 7008 7030 7020 7021 7008 7020 7004 6997 7016 7010 6993 7018 7009 6999 6980 6977 6995 7052 6959 6988 6991 7016 6997 6999 6973 7027 6989 6996 7002 7061 7037 7023 7017 7024 7047 7007

Tree=0
num_leaves=63
num_cat=0
split_feature=229 121 229 217 234 169 217 9 229 229 109 193 43 228 192 145 216 235 77 115 75 53 231 133 228 16 229 234 223 127 178 217 193 220 230 99 220 132 119 228 125 82 6 1 21 218 103 1 171 13 79 234 127 59 28 12 191 123 192 51 223 47
split_gain=1.13521e+06 66860.8 51788.9 30636.1 26120.1 17516.5 11303 10387.2 10333.7 9826.9 9414.91 8295.31 8072.96 6615.02 5973.6 5779.11 5660.97 5640.58 5390.76 5345.91 4840.22 4266.27 4245.99 4066.63 4059.55 3988.78 3805.56 5291.27 3827.19 3774.47 3752 3750.86 3692.66 3691.58 3998.27 3613.84 3516.28 3512.57 3510.35 3455.89 3452.88 3342.76 3180.91 3253.82 3146.41 3142.01 3071.5 3041.05 2943.32 2933.76 2896.38 2861.4 2854.12 2825.39 2751.71 2719.62 2688.31 2609.72 2570.47 2538.14 2430.06 2419.9
threshold=-0.63990670442581166 -0.68760907649993885 -0.71052545309066761 -0.72290614247322071 0.91131508350372326 -0.71839505434036244 -0.10509066656231879 0.22707572579383853 -0.68621402978897084 -0.75972390174865712 0.051442496478557594 -0.71425595879554737 -3.0494722127914424 -0.29718354344367975 0.057548459619283683 -0.70268929004669178 -0.039396943524479859 -3.4083887338638301 -0.30373086035251612 -8.0004711151123029 -0.56354233622550953 -0.64887088537216175 -0.77722135186195362 -0.66983652114868153 1.4742731451988222 1.1746237277984621 -0.58986884355545033 0.88857597112655651 -10.392666816711424 2.6186662912368779 3.6349998712539677 -0.71265107393264759 -0.63327163457870472 1.8069722056388857 -1.0066475272178648 -0.62813651561737049 -1.0066475272178648 -0.67615190148353566 0.030805556103587154 -0.017363921739161011 -0.63799175620079029 3.5500000715255742 0.64359089732170116 0.24599443376064303 0.22282424569129947 -0.95597150921821583 8.4488921165466326 0.50151580572128307 -0.77343049645423878 -0.71718600392341603 -22.984304428100582 0.31414715945720678 -3.1550292968749996 0.025694444775581363 -0.71140474081039418 2.0074728727340703 -0.0023611111100763078 -0.19230552762746808 2.243226289749146 0.42571902275085455 -0.94827780127525318 0.021027777343988422
decision_type=2 2 2 2 2 2 2 2 2 2 2 2 2 2 2 2 2 2 2 2 2 2 2 2 2 2 2 2 2 2 2 2 2 2 2 2 2 2 2 2 2 2 2 2 2 2 2 2 2 2 2 2 2 2 2 2 2 2 2 2 2 2
left_child=2 11 9 -3 8 21 19 10 24 -1 17 20 61 -11 25 18 38 35 29 49 -2 -5 -18 -16 31 -14 27 55 -28 -13 -29 -4 -9 34 -25 -8 -27 -23 41 60 -41 52 43 44 50 -37 -34 -30 -17 -7 -19 53 -12 -50 -20 -21 -44 -31 -36 -53 -33 -10
right_child=1 3 4 5 -6 6 7 32 12 13 16 15 14 -15 23 48 22 42 54 26 -22 37 -24 33 -26 36 28 30 47 57 -32 39 46 -35 58 45 -38 -39 -40 40 -42 -43 56 -45 -46 -47 -48 -49 51 -51 -52 59 -54 -55 -56 -57 -58 -59 -60 -61 -62 -63
leaf_value=-1.8932254895347855 -3.357211321078029 -2.1345935885685154 -2.2527197998377257 -2.0974810362549499 -1.9863864559127997 -2.356156100256416 -2.1752070394363221 -2.2513546283829577 -2.2064025657906488 -2.2547200152938478 -3.5387560660712469 -3.3585559753720124 -3.3058086266763671 -2.0009142754157265 -2.3983014863744807 -2.0716947103515766 -2.1308208447737322 -2.3824675179352024 -2.9405362349907795 -3.4129709203630858 -2.1491660988055692 -2.3086686508177912 -3.2766626575207587 -2.5194902963878931 -2.0072183012785478 -2.1956580123599094 -2.3925840876545914 -3.1327476265890812 -3.4551797624791325 -3.5387560660712465 -2.2686370591404743 -2.489342950767246 -3.4950780070378884 -2.1248434906261284 -3.4277423776621094 -2.2245307546107149 -3.5387560660712469 -3.3120115810249606 -3.5387560660712469 -3.5387560660712469 -2.3293802324806192 -3.5387560660712469 -2.4471203535237729 -2.1965653085548675 -2.0227210350797327 -3.446852865260591 -2.489342950767246 -2.4448550018399735 -3.5387560660712469 -3.3127637999127053 -3.4065408593565589 -3.3841566349232433 -2.3210001149768278 -1.9084311260982618 -2.1588649873113299 -2.568832419020576 -3.328655473141064 -2.1865171265534178 -2.2320933091378246 -2.3871588050527226 -3.261425796571833 -3.0423652039787603
leaf_weight=1777.2876947261393 9.0047086924314481 52.390012286603451 119.48901683837175 29.490343790501356 274.8518883716315 17.970445355400443 19.182383751496673 6.3490590248256913 69.937280120328069 367.93743425607681 5.0970839504152528 27.21570566855371 91.230228235945106 849.35348033718765 70.237886758521199 6.6858452931046477 9.2888224888592941 7.0689861364662638 13.663518479093907 168.95355920866132 104.70241206511855 14.618743963539599 62.37308875285089 24.057869771495461 66.178562497720122 17.040159907191995 8.5576557833701354 32.211301723495126 2308.0871230140328 4.5211422611027983 20.593440890312195 15.577826496213673 299.41944848001003 12.718136388808487 44.177188418805599 7.4633665736764696 6.8249090183526269 21.629071282222867 8.3223574105650169 6.479344004765152 66.235092017799616 6.796111933887004 19.467893747612834 6.0898852646350852 4.3132447730749837 17.787819454446435 7.7889132481068364 7.4721453189849845 3.9739976562559596 14.467375995591281 296.74484512209892 63.444898774847388 85.915804950520396 8.0217507723718864 63.97382278740406 10.112698344513772 15.561665205284951 16.9249715693295 5.0043748002499333 7.0977832209318867 29.473117850720882 9.8798608202487213
leaf_count=5015 281 393 1170 200 1272 212 159 62 622 3617 177 850 2756 4170 886 42 69 87 316 5455 815 159 1849 360 333 148 107 865 76410 157 208 224 10144 93 1439 69 237 656 289 225 747 236 264 53 23 586 112 101 138 439 9544 2013 955 25 510 161 477 144 47 88 865 248
internal_value=-2.67061 -3.27233 -2.06938 -3.33484 -2.39544 -3.35261 -3.36791 -3.21366 -2.5672 -1.96819 -3.08678 -2.59037 -2.75189 -2.07763 -2.88194 -2.77267 -2.78479 -3.22317 -2.55505 -3.42065 -2.24483 -2.54405 -3.12814 -2.68054 -2.3535 -3.15526 -3.42875 -3.23559 -3.44802 -2.96765 -2.79575 -2.45009 -3.44491 -2.91116 -3.0477 -2.69256 -2.57976 -2.90736 -2.55295 -2.65034 -2.43714 -2.46907 -3.29067 -3.34106 -3.36368 -3.08558 -3.46958 -3.45192 -3.08071 -2.78281 -3.38271 -3.16244 -2.3892 -2.44853 -2.29643 -3.3653 -2.83874 -2.47159 -3.30608 -3.28384 -2.99445 -2.30988
internal_weight=7844.79 3920.82 3923.97 3591.58 929.393 3539.19 3473.46 885.031 654.541 2994.58 571.473 329.231 351.108 1217.29 271.291 215.523 177.793 393.68 126.299 2588.43 113.707 65.7382 71.6619 156.195 303.433 115.095 2555.99 231.871 2324.12 48.6618 52.8047 237.254 313.557 85.9576 73.2394 44.4336 23.8651 36.2478 106.131 117.765 72.7144 97.809 349.247 314.217 308.127 25.2512 307.208 2315.56 89.2243 32.4378 303.814 82.5384 91.0129 11.9957 77.6373 179.066 35.0296 21.4461 49.1816 70.5427 45.0509 79.8171
internal_count=140374 115900 24474 110521 11672 110128 109113 25155 10400 12802 14837 5379 6836 7787 5966 4283 3575 11262 1977 83958 1096 1015 1918 2825 3564 3141 83307 6689 76618 1151 1073 3231 10318 1939 1846 814 385 815 1657 2061 972 1368 10448 9707 9654 655 10256 76511 2306 651 9631 2264 1132 163 826 5616 741 301 1486 2101 1089 870
is_linear=0
shrinkage=1


Tree=1
num_leaves=63
num_cat=0
split_feature=229 121 229 61 86 9 217 61 169 13 115 235 132 31 235 172 27 202 167 30 154 174 37 104 17 205 51 51 226 73 232 169 206 16 8 10 230 5 180 145 229 192 45 229 230 158 211 4 47 226 112 53 205 144 89 204 185 59 215 226 217 83
split_gain=68385.3 12882.1 6825.98 4027 3861.11 3065.55 2816.9 2506.78 2496.39 2360.13 2526.67 2082.8 2076.25 2021.54 1987.02 1955.41 2500.65 1830.2 1758.87 1755.85 1693.33 1647.12 1562.65 1522.31 1484.66 1475.16 1531.33 1612.24 1903.32 1465.16 1440.1 2250.86 1402.27 1256.21 2865.83 1239.05 1209.45 1157.45 1892.9 2050.34 1136.4 1306.82 1114.4 1670.01 1084.24 1075.27 1065.94 1035.19 1029.14 1027.8 1023.61 998.261 981.377 1089.98 968.659 1101.07 1228.42 1056.55 964.087 932.844 913.475 889.315
threshold=-0.63000613451004017 -0.67987465858459462 -0.21978466957807538 -0.75147747993469227 0.58413815498352062 0.90352019667625438 -0.64056646823883046 0.0076899908017367133 -0.71839505434036244 -0.74070492386817921 3.9374722242355351 -1.3098612427711485 2.1881437301635747 -2.6306246519088741 -1.4128056168556211 0.6722702980041505 -0.72736793756484974 3.3750000000000004 -0.026972222141921517 0.045745683833956725 0.34000004827976232 0.81684657931327831 -0.76672780513763417 -0.63439178466796864 -0.62606894969940174 -0.76514431834220875 -0.63215795159339894 -0.64366343617439259 2.2999998331069951 0.91074120998382579 1.7078233957290652 -0.049688810482621186 0.95869991183280956 2.5891450643539433 -0.95819556713104237 -7.2799999713897696 -1.4429018497467039 -0.77188119292259205 -0.97800457477569569 -0.31328724324703211 -0.66236677765846241 -1.0000376701354978 -0.25671049952507013 -0.13297206163406369 -1.1146094202995298 -1.0925764441490171 -4.1394445896148673 -1.1168127655982969 0.0078611113131046313 -8.5250000953674299 -0.22006788104772565 0.038578467443585403 -0.73994338512420643 -0.037193641066551202 0.054693659767508514 -0.47565117478370661 -0.35200479626655573 0.018249999731779102 0.085583332926034941 -1.9799997210502622 -0.6845288574695586 -0.062305556610226624
decision_type=2 2 2 2 2 2 2 2 2 2 2 2 2 2 2 2 2 2 2 2 2 2 2 2 2 2 2 2 2 2 2 2 2 2 2 2 2 2 2 2 2 2 2 2 2 2 2 2 2 2 2 2 2 2 2 2 2 2 2 2 2 2
left_child=40 50 3 -3 5 7 23 9 -8 10 -4 13 21 -11 15 16 45 -14 -9 -20 32 30 -10 35 -21 -6 27 -27 -29 46 60 -32 -18 36 -35 -5 -24 38 39 -38 -1 -42 43 -26 -43 -15 49 -39 -44 -28 -2 -47 -52 -54 55 -46 57 -57 -48 -37 -13 -23
right_child=1 2 4 6 25 -7 8 18 22 11 -12 12 17 14 -16 -17 20 -19 19 24 -22 61 33 -25 42 26 29 28 -30 -31 31 -33 -34 34 -36 59 37 47 -40 -41 41 44 48 -45 54 51 58 -49 -50 -51 52 -53 53 -55 -56 56 -58 -59 -60 -61 -62 -63
leaf_value=0.36249793130204866 0.36619920265577693 0.37218240221185944 0.39442221274652678 1.0234424559227671 0.52257641359364959 -0.035883719930721113 0.32721676386060672 0.031449287940786018 0.4203217692131147 0.0088501641613306144 1.448213950474033 0.43106399331625617 0.27755326925404228 1.5500304215076153 1.0999332611087469 -0.052256014061318905 0.44594146394484113 1.4102475463319444 -0.052375323817940946 0.019904805034180247 -0.052292531231134969 0.77091356275347289 0.43724956910501905 -0.053012351620615732 1.0428548596136988 0.13946131766223069 0.74664275013996917 0.28432183702375385 1.4541696459750433 1.1732149988002238 -0.051897585658877789 1.2406868717725026 -0.052153283989904653 1.3322719466152517 -0.051590272652954176 -0.052633851925252842 -0.051648887720699366 0.84647426970612849 0.061680904358509869 1.3521460103616345 0.047465397193438764 0.37813110593410326 0.37556086563858332 0.46773875751524319 -0.020369526362042364 -0.051981385255440764 -0.03796735902023244 0.0025142344598858115 -0.052572339699576587 0.11326810256188023 0.37057072593659746 1.3368136093338314 0.0012046631889843856 0.26813852259079496 0.3603214031757192 0.39106856812805713 0.021774586312466745 -0.053273395328259546 0.72164305092778069 0.43827386582001582 0.010748376255269419 0.22327442131193501
leaf_weight=13229.993290631101 546.90961366146803 95.761756524443626 43.714290857315063 7.6005461849272242 16.975029952824116 102.60646075569093 68.430388271808624 38.721051264554262 24.158541426062584 53.306722454726696 6.5391520634293547 13.43813434243202 9.8470237981528026 6.1241741552948952 8.5177911520004255 30.195729348808527 140.46584551781416 5.5912221502512685 21.472141304984689 22.336372397840023 24.369701800867915 7.937425520271062 16.632119260728359 22.294901110231876 13.430965527892111 76.402238892391324 8.1791638880968076 9.6719540618360025 5.428266078233718 2.6695753559470168 7.2041090093553066 6.3249674886465055 15.710591396316884 5.9065294601023224 10.204723957926033 11.837782122194765 4.1435855850577354 3.6398896276950827 28.764663964509964 6.987384866923092 48.34220340102911 350.25723565369844 76.065340576693416 209.71541545912623 49.229528779163957 2.8721063509583455 351.22578243352473 2051.3150800578296 17.212812900543213 29.530143933370709 99.715478859841824 2.3547799997031689 59.725047741085291 106.32477761059999 129.68278279155493 102.76400378532708 43.250415399670601 15.380442498251794 4.2273724619299164 53.0209752433002 339.612888161093 112.24811377562582
leaf_count=20585 2919 744 393 76 43 3325 433 886 304 1456 22 39 114 16 93 901 1034 23 598 484 719 69 120 554 94 1599 86 129 21 30 230 50 476 40 342 320 137 54 823 42 869 1145 675 1068 1015 90 10932 65384 467 671 303 13 1278 1055 581 779 819 347 75 252 10377 1756
internal_value=0.302057 0.144678 0.109823 0.0544489 0.182285 0.226726 0.0413053 0.248538 0.0299109 0.199346 0.531545 0.178109 0.116916 0.286351 0.350496 0.321754 0.380605 0.687778 0.351666 0.386086 0.335348 0.0988106 0.0204559 0.308287 0.413877 0.0643826 0.0484226 0.232767 0.704862 0.00580868 0.0461466 0.552398 0.395836 0.0159155 0.455746 0.419454 0.0125595 0.00918764 0.275925 0.829573 0.359128 0.298783 0.441688 0.502354 0.316376 1.10045 -0.00211802 0.00400912 0.296557 0.250647 0.327082 0.573689 0.246584 0.172127 0.252815 0.186623 0.249761 0.333223 -0.0289334 0.348675 0.0267468 0.259442
internal_weight=19034.5 5065.62 4252.94 2410.7 1842.24 1337.94 2314.94 1235.33 2220.18 836.375 50.2534 786.121 502.204 283.917 230.611 222.093 191.897 15.4382 398.954 360.233 180.546 486.766 2151.75 94.7542 338.761 504.31 487.334 91.5025 15.1002 395.832 366.58 13.5291 156.176 2127.59 16.1113 72.4593 2111.48 2094.85 39.8956 11.131 13968.9 738.907 316.425 223.146 690.564 11.3511 393.162 2054.95 93.2782 37.7093 812.675 5.22689 265.765 166.05 340.307 210.624 161.395 118.144 355.453 64.8588 353.051 120.186
internal_count=140374 114234 108679 69625 39054 25468 68881 22143 67679 17871 415 17456 12658 4798 3342 3249 2348 137 4272 3386 2229 12521 67246 1202 2788 13586 13543 1749 150 11794 10696 280 1510 66942 382 648 66560 66440 1002 179 26140 5555 2304 1162 4686 119 11764 65438 1142 757 5555 103 2636 2333 3541 2960 1945 1126 11007 572 10416 1825
is_linear=0
shrinkage=0.05


Tree=2
num_leaves=63
num_cat=0
split_feature=229 121 229 73 9 53 125 173 5 159 43 169 187 82 83 88 109 182 139 25 144 139 130 96 62 31 217 192 209 39 136 148 46 96 71 239 58 215 225 157 48 169 78 30 157 76 19 142 184 215 193 31 215 28 229 67 218 106 3 222 178 86
split_gain=36248.3 7452.36 4081.21 2667.09 2182.94 1964.52 1966.08 1812.37 1657.62 2037.01 1626.9 1502.53 1218.57 1188.39 1084.02 1060.47 1056.82 1045.43 1145.1 1048.63 1033.75 1324.17 1964.74 2577.72 1384.63 1169.52 1166.09 1390.19 1013.97 1013.41 990.826 1939.47 944.701 939.207 913.566 897.504 882.364 851.583 850.414 1170.17 939.739 958.632 854.045 840.712 786.374 784.501 779.42 761.89 741.821 1956.99 722.708 721.604 720.584 663.62 732.946 713.016 659.48 657.763 641.032 731.396 706.958 655.275
threshold=-0.63000613451004017 -0.68384838104248036 -0.042250836268067353 -0.704372078180313 0.90352019667625438 -0.74858248233795155 0.18358865380287173 0.16213493794202807 -0.52716103196144093 -0.2869106382131576 -2.6604168415069576 -0.77630084753036488 1.4416941404342654 -1.9399997591972349 0.01419444475322962 -1.0947797298431394 0.051442496478557594 1.6042681336402895 1.9745832681655886 -0.42079290747642512 -0.86563608050346363 1.3813337683677676 -1.1499999165534971 -0.79953694343566883 -1.1013895869255064 6.0386254787445077 -0.60935762524604786 1.5822350382804873 -0.70715665817260731 -0.75639638304710377 0.98954623937606823 2.0030660629272465 -4.5099999904632559 0.62600097060203563 0.085694443434476866 0.023972222581505779 12.355000019073488 0.085583332926034941 -0.50188699364662159 -0.17325717210769651 -0.098886158317327486 -0.10950795188546179 0.71641200780868541 0.045745683833956725 -0.77881914377212513 1.3971574306488039 -3.6188338994979854 -3.3200002908706661 1.8951042294502261 0.053638888522982604 -0.051334284245967858 -3.7784576416015621 0.025416666641831401 2.2476329803466801 -0.60864856839179982 -1.4906112551689146 1.8003621101379397 -1.7600000500679014 1.7872641086578371 0.85030058026313793 1.0000000180025095e-35 0.96751314401626598
decision_type=2 2 2 2 2 2 2 2 2 2 2 2 2 2 2 2 2 2 2 2 2 2 2 2 2 2 2 2 2 2 2 2 2 2 2 2 2 2 2 2 2 2 2 2 2 2 2 2 2 2 2 2 2 2 2 2 2 2 2 2 2 2
left_child=-1 56 3 47 16 12 11 33 9 -9 13 -7 29 -11 -12 -14 38 36 -19 -20 21 34 23 30 46 -25 27 -22 -17 -5 31 -23 -29 -8 37 -35 53 50 39 42 41 57 45 -18 -28 -4 -24 -3 -46 -50 -13 -41 -16 54 55 -10 -2 -40 59 60 61 -53
right_child=1 2 4 5 -6 6 7 8 17 10 14 20 15 -15 52 28 43 18 19 -21 26 22 24 25 -26 -27 44 32 -30 -31 -32 -33 -34 35 -36 -37 -38 -39 40 51 -42 -43 -44 -45 48 -47 -48 -49 49 -51 -52 58 -54 -55 -56 -57 -58 -59 -60 -61 -62 -63
leaf_value=0.26142390147992312 0.24551392029485175 -0.053421898688160233 -0.052474047302220911 0.40302097823813771 -0.019189449679495582 0.35841391307337611 0.31315577739275158 -0.051934254690310794 0.45425111645243049 1.2265598611349275 0.0045153780035862429 -0.028824914686419834 -0.052367854577633002 0.48460531467545576 0.27447083961832935 -0.052414666717797098 -0.0055129616202085228 -0.0037819174845272435 0.97727657108023092 0.28380797516616019 0.042724223097292714 -0.052128684275785424 0.46365957749286224 0.11154618601788434 -0.032590982827187413 0.94357693497992612 0.61382793445201145 0.87483222899228164 0.41291038140887748 -0.012734125608333965 1.5024964011857023 1.629223565198521 0.25707165868007581 0.35769183501468116 0.76462114165848805 1.3852950404171283 0.52032384288940858 0.70025688763110749 0.0035791965850115698 -0.052351154420997581 -0.025778218711953689 -0.006019572790404569 0.28083922390405563 0.24934662449265121 -0.028819840544565073 0.30990171090525265 -0.051869582895748625 0.2620148134406482 0.031710892186279878 0.80320393790885669 0.23800704853211374 0.35666418086270535 0.71357270016861851 0.24537639009089351 -0.029166803053454194 -0.052616589319967592 -0.055228691733087656 0.27012741468861079 0.80093525678001964 0.011331352401502633 0.063388529251591136 -0.052682148395030493
leaf_weight=18090.341655397788 1009.6083876490593 21.228272419422865 90.336675269529223 17.821717800572515 150.07242537662387 31.453158255666494 30.970417411997914 41.928009631112218 16.063387934118513 7.6706543210893896 28.919635323807597 283.73977599479258 18.760542469099164 18.206977620720863 34.642766930162907 13.370033055543898 34.464047646149993 33.667502176016569 6.35207725316286 38.44636476226151 84.397179739549756 4.1612734533846361 28.323542097583413 29.672905595973134 84.333305235952139 4.9243460167199364 4.8862525112926951 8.811330286785962 94.130235146731138 82.54455722682178 6.3114826437085867 2.9178090691566467 20.791480535641313 3.9859116114675981 4.0053937677294007 4.550814488902688 8.554362175986169 4.3403835240751496 28.66793280467391 17.627037072554231 122.73112531192601 69.610931824892759 38.805364970117807 529.59097829647362 1496.1244973037392 17.893715741112828 9.8924058601260167 194.86861943826079 58.720201294869184 9.5577921345829946 27.868658496066928 170.43964982405305 12.793600788339971 27.316633827984333 355.59921372868121 12.213724927976726 18.563704015687108 120.1399873867631 5.744366154074668 25.107897067442536 28.047304451465607 10.371375963091849
leaf_count=26140 5033 497 2525 102 4848 40 182 1301 72 51 840 8942 544 102 293 395 820 969 53 280 1711 125 100 612 2603 22 15 47 450 2439 22 3 118 78 69 25 117 22 631 497 3417 1726 271 3905 47812 155 313 1220 1773 113 306 1208 87 451 10902 304 297 912 26 525 628 288
internal_value=0.22651 0.117945 0.0917251 0.0611666 0.161437 0.049378 0.0382509 0.112452 0.0922367 0.241551 0.361915 0.0153071 0.191131 0.704536 0.245798 0.294502 0.182136 0.0490315 0.21655 0.382137 0.0103426 0.0742179 0.186746 0.457954 0.0805461 0.229972 -0.00826993 0.146133 0.355037 0.0610902 1.04699 0.64088 0.440949 0.441148 0.01424 0.905493 0.0177163 0.00472718 0.143067 0.192117 0.0849271 0.147133 0.0795931 0.233775 -0.0194864 0.00743749 0.330212 0.231028 -0.0214645 0.139707 -0.00496083 0.256409 0.392897 0.00726017 -0.00968417 0.23532 0.240084 0.218777 0.279114 0.266302 0.296953 0.333184
internal_weight=23908 5817.66 4789.49 3329.84 1459.65 3113.74 2887.12 681.882 642.375 144.162 102.234 2205.23 226.627 25.8776 76.356 126.261 1309.58 498.213 78.4659 44.7984 2173.78 490.491 170.537 47.9878 122.549 34.5973 1683.29 114 107.5 100.366 13.3906 7.07908 29.6028 39.5071 319.954 8.53673 419.747 315.949 745.523 404.373 341.15 218.419 147.036 564.055 1569.29 108.23 38.2159 216.097 1564.4 68.278 311.608 257.338 47.4364 411.193 383.876 28.2771 1028.17 148.808 239.711 233.966 208.858 180.811
internal_count=140374 114234 108904 86522 22382 84805 80875 16107 15822 2674 1373 64768 3930 153 1220 1389 17534 13148 1302 333 64728 13139 3800 784 3016 634 51589 1876 845 2541 150 128 165 285 9339 103 11846 9270 12809 6123 6686 3269 2951 4725 49713 2680 413 1717 49698 1886 9248 3172 380 11729 11278 376 5330 1543 2675 2649 2124 1496
is_linear=0
shrinkage=0.05


Tree=3
num_leaves=63
num_cat=0
split_feature=229 73 229 169 9 109 86 53 216 63 33 208 144 31 96 34 31 235 139 216 231 34 234 216 218 142 115 175 139 205 112 70 76 156 12 229 112 22 17 106 226 230 71 217 38 19 192 185 87 25 142 58 231 180 123 217 103 79 34 24 26 232
split_gain=23405.2 4966.25 2646.12 2279.1 1635.03 1335.08 1269.11 1200.26 1131.28 1129.95 947.484 911.835 783.62 766.441 742.58 734.484 954.269 1068.35 932.753 1276.12 1307.79 1237.59 1139.05 975.317 1194.3 960.126 726.663 722.166 693.716 716.003 691.748 680.375 669.782 647.374 643.621 642.016 641.322 668.554 628.268 622.602 617.164 610.09 608.173 592.398 590.755 585.861 563.022 559.868 557.744 564.495 562.067 1435.03 550.4 546.528 544.807 690.576 531.949 522.105 518.618 517.217 511.27 510.897
threshold=-0.63000613451004017 -0.67897877097129811 -0.23265501111745832 -0.60922962427139271 0.90352019667625438 -0.71382433176040638 0.58413815498352062 -0.74858248233795155 0.41228044033050543 1.0000000180025095e-35 -0.54280677437782276 -0.98461449146270741 -0.58140978217124928 -1.446583569049835 0.97632634639740001 -0.19999999552965161 6.3189990520477304 4.1526677608489999 1.4364159703254702 -0.33684302866458887 -0.77179932594299305 -3.6799999475479122 0.59091451764106762 1.6571474075317385 -0.96478480100631703 -6.309999704360961 -1.4720275998115537 0.62241670489311229 -0.91327786445617665 -0.77054572105407704 1.588844954967499 -7.6399996280670157 -0.73123452067375172 -0.04821015149354934 2.0537421703338627 -0.66236677765846241 -0.21125467866659162 1.4800001978874209 -0.78052341938018788 -8.24999952316284 7.2300002574920663 -0.38311243057250971 0.085694443434476866 -0.752863049507141 1.0137825608253481 -3.9874999523162837 -1.0000376701354978 -0.7744479477405547 0.21170058846473697 -0.7728835642337798 12.440000057220461 6.8900001049041757 -0.67009568214416493 1.7673125863075259 -0.77655288577079762 -0.49902048707008356 -0.020750597119331356 -2.584082722663879 -2.6800001859664913 -0.94054841995239247 -0.012957264203578232 1.3244484066963198
decision_type=2 2 2 2 2 2 2 2 2 2 2 2 2 2 2 2 2 2 2 2 2 2 2 2 2 2 2 2 2 2 2 2 2 2 2 2 2 2 2 2 2 2 2 2 2 2 2 2 2 2 2 2 2 2 2 2 2 2 2 2 2 2
left_child=35 36 3 11 6 -5 8 27 10 14 31 -3 28 47 43 16 18 -18 48 20 -20 -22 25 -21 45 -23 -13 -7 -8 -30 32 -4 -29 39 -14 -1 -2 41 -6 -15 46 56 -17 -10 52 -25 -37 -12 49 -9 54 -52 -33 61 55 -51 -38 -46 -35 -11 -27 -48
right_child=1 2 4 5 38 7 12 15 9 59 13 26 34 33 -16 42 17 -19 19 23 21 22 -24 24 -26 60 -28 30 29 -31 -32 44 -34 58 -36 40 37 -39 -40 -41 -42 -43 -44 -45 57 -47 53 -49 -50 50 51 -53 -54 -55 -56 -57 -58 -59 -60 -61 -62 -63
leaf_value=0.21123896790920696 0.21562351338442839 0.19649199512547494 -0.0085622014297063644 0.23442678184889762 0.47824401972308311 0.0013795774270961726 0.214280208423475 0.87513974416953977 0.21084862322244313 0.33050645055454025 0.25567767915841938 0.23110629029052787 -0.016733519209722415 0.27239655966002779 0.14173726998387812 -0.030552530246200582 0.18374730073118806 1.003861049010278 0.84749337548946857 -0.051783741199399429 -0.023666258183156871 1.0774371930888076 -0.051973924888663071 0.80659341814660024 -0.051826286119797907 0.35948320048105153 0.0016018865247457823 -0.052055402156024222 0.30435501044271646 -0.052532207085416949 0.72489394931002793 0.055988422878680978 0.25156432742044071 0.0015506795165035532 0.23416990938374221 0.027969916969215077 0.20137790745131406 0.20439777957618355 -0.035386352026729566 0.016033866128663692 -0.055883287805198412 -0.055143487940613439 0.45911196504692919 -0.052510447379075266 0.20108656564016641 0.19386908012214191 0.19741042661450436 -0.025641785288773436 0.23337166707298432 0.9391118911973525 -0.051614308450675675 1.5302583728039401 0.23772923261208001 -0.057536984288285645 -0.030777095192978887 -0.051687088163312522 -0.055637629424037917 -0.053165005828295357 0.22499408374887328 0.11775112870470578 -0.051615440829583609 -0.055727287247971873
leaf_weight=20247.149667672813 849.93716527335346 301.49169371835887 36.458923757076263 72.502919623628259 6.1392340380698434 59.65817055106163 114.98899494297802 1.762573018670081 23.99282942712307 50.533271780237556 20.809603502973914 45.338978102430701 273.28436612896621 29.756550481542945 98.743976032361388 921.72451292350888 27.38077481277287 4.644689477980136 7.2704467959702006 153.04621312767267 57.478821163997054 4.3434573318809262 21.981727676466107 9.5083712358027714 16.288954813033342 66.746850909665227 144.13449024781585 23.139909306541085 17.927457306534052 65.040933851152658 6.3106880877166978 44.376640703529119 84.471711032092571 29.251058308407664 28.196998316794634 58.818617802113295 81.996599750593305 173.68715838715434 196.95031098276377 116.03759374842048 28.830697797238827 65.246503185480833 6.3851054348051539 194.06386903859675 44.026129726320505 6.6156221628189078 997.34743171185255 117.81932642310858 22.782999865710735 3.2979713007807732 4.6795195769518605 2.0669631883502007 680.37312536500394 22.361423127353191 619.25891149789095 3.7678954154252997 26.683731019496918 37.297075567767024 231.4343122895807 65.713867519050837 8.5295501202344877 20.338867802172899
leaf_count=20585 3226 2035 850 359 35 1569 1317 10 33 175 86 376 7428 226 1300 29538 401 38 96 4988 1777 52 690 49 520 266 2685 701 12 1847 63 828 596 616 297 802 537 837 6471 2308 427 1155 74 5319 298 118 3764 2844 388 24 157 8 4606 276 19810 123 430 929 1655 770 288 286
internal_value=0.184037 0.100377 0.0793452 0.0450055 0.116181 0.0234075 0.128089 0.0162687 0.147457 0.0769052 0.169474 0.142474 0.0574832 0.118109 0.0279803 0.00516041 0.0339846 0.302689 0.0254595 0.0911721 0.19172 0.161749 0.266644 0.000983789 0.250139 0.354609 0.0565198 0.142311 0.134774 0.0245825 0.216113 0.202707 0.186276 0.152733 0.00673302 0.209194 0.192223 0.135009 -0.0198597 0.0683574 0.172476 0.0657159 -0.0271838 -0.023533 0.212263 0.555195 0.178467 0.0165871 -0.00969518 -0.0184184 -0.0209062 0.433034 0.226601 0.186979 -0.0257958 0.410765 0.138274 0.0844797 0.199922 0.210237 0.312902 0.192351
internal_weight=27802.2 6427.38 5229.83 2706.61 2523.22 2215.65 2320.13 2143.14 1820.69 433.048 1387.64 490.965 499.439 545.108 316.801 1969.56 1041.45 32.0255 1009.43 351.81 166.351 159.08 101.602 185.459 32.4129 79.6199 189.473 173.58 197.957 82.9684 113.922 842.532 107.612 406.48 301.481 21374.8 1197.55 347.614 203.09 145.794 1127.7 173.927 928.11 218.057 806.073 16.124 1098.87 138.629 657.617 634.834 633.071 6.74648 724.75 1040.05 626.325 7.06587 108.68 81.3232 260.685 116.247 75.2764 1017.69
internal_count=140374 114234 108049 67799 40250 62703 33744 62344 22843 7597 15246 5096 10901 7735 6652 59415 29803 439 29364 8844 3169 3073 1296 5675 687 606 3061 2929 3176 1859 1360 7511 1297 4805 7725 26140 6185 2959 6506 2534 5555 2122 29612 5352 6661 167 5128 2930 20520 20132 20122 165 5434 4326 19957 147 967 1227 2271 945 554 4050
is_linear=0
shrinkage=0.05


Tree=4
num_leaves=63
num_cat=0
split_feature=229 133 229 181 183 15 171 9 13 192 130 17 88 4 223 2 197 60 53 124 61 204 187 55 139 203 217 207 60 229 62 232 96 230 232 234 86 96 96 77 145 71 167 142 65 133 122 157 193 228 106 25 181 14 234 91 191 59 156 167 58 120
split_gain=16760.9 3495.89 1745.28 1513.65 1278.35 1318.61 1860.58 1117.13 1063.02 1061.2 1002.99 915.446 823.467 813.45 774.969 747.657 737.359 696.384 677.802 677.353 673.002 713.673 670.71 639.027 592.484 572.618 666.873 707.356 558.074 591.711 593.577 549.772 548.902 522.955 719.564 531.86 520.379 1024.14 522.457 500.576 499.163 497.281 829.425 488.139 484.044 478.593 444.194 442.592 440.961 489.79 755.08 510.176 439.254 429.328 428.823 426.652 426.232 424.724 422.304 417.095 417.007 410.931
threshold=-0.64274770021438588 -0.68593740463256825 -0.042250836268067353 -0.57095801830291737 0.10954304039478303 -0.51199659705162037 -0.39301009476184839 0.90352019667625438 -0.71339985728263844 -0.23549102991819379 -5.5799996852874747 -0.39608795940876002 2.0427256822586064 -1.0947797298431394 7.6211109161376962 2.4833865165710454 -0.53396540880203236 -0.10990266874432562 -0.77788752317428578 -0.20023816823959348 0.14808494597673419 -0.92071866989135731 0.46122215688228613 4.3714714050292978 0.47230631113052374 -0.053916666656732552 0.0048720289487391719 -0.32697713375091547 -0.8524162471294402 -0.470068410038948 1.055645287036896 -1.0837631821632383 1.5734217762947085 2.2696659564971928 0.51142913103103649 0.24126599729061129 2.2388197183609013 -1.1146094202995298 1.8906976580619814 -0.77313396334648121 -0.59541973471641529 0.0051388889551162728 0.036027776077389724 1.0099999308586123 -0.69615516066551197 -0.60018280148506153 -0.98461449146270741 -0.083502568304538713 -0.77654016017913807 -1.1146094202995298 -13.429999828338621 -0.10259225964546202 -0.26010635495185846 2.0669618844985966 0.89288336038589489 4.7308056354522714 -0.00047222223656717682 -0.066361110657453523 -0.30159014463424677 0.0054166666232049474 13.125000000000002 1.0358156561851504
decision_type=2 2 2 2 2 2 2 2 2 2 2 2 2 2 2 2 2 2 2 2 2 2 2 2 2 2 2 2 2 2 2 2 2 2 2 2 2 2 2 2 2 2 2 2 2 2 2 2 2 2 2 2 2 2 2 2 2 2 2 2 2 2
left_child=-1 -2 3 22 5 6 9 20 15 10 12 39 19 16 33 24 31 41 -11 56 21 54 32 -15 -7 47 27 -27 40 30 44 -12 57 35 -35 46 38 -38 55 -8 -24 42 61 -22 -30 -42 -10 -23 -28 50 -50 -52 -29 -16 -4 -19 -5 -3 -43 -47 -9 -6
right_child=1 2 7 4 17 8 11 60 14 18 13 -13 -14 23 53 -17 -18 36 -20 -21 43 25 28 -25 -26 26 48 52 29 -31 -32 -33 -34 34 -36 -37 37 -39 -40 -41 45 58 -44 -45 -46 59 -48 -49 49 -51 51 -53 -54 -55 -56 -57 -58 -59 -60 -61 -62 -63
leaf_value=0.17677904635379182 0.16129973603297776 0.23501994277127866 0.17816307225643668 -0.051748676584273068 -0.018074133827880978 -0.054042814360857165 0.60316557906529455 -0.03984714536402123 0.25246563939864392 0.52208224679341053 0.54478101447619276 -0.052450349354167251 0.8012047271031959 -0.042619025484869427 0.12047568455218288 0.62768255298241871 -0.0011394780707488187 -0.027439459050255889 -0.027597848922056419 -0.051739448752623755 0.19561308026517393 -0.053164123189356483 -0.054173433156209372 0.24455729333500981 0.1757509480448558 -0.024306055911236912 0.25766781282238244 0.061010840903681952 0.13302971980351866 0.18412234537360223 0.16833485306742405 0.17849655615739607 0.19266628381922846 -0.051870039605056331 0.38771213229424983 -0.029266058993812419 0.9028980525498268 -0.052632465390881261 0.16984975554028503 0.23676431370313186 0.40403658082659277 0.35962563987676277 0.23930171655157181 -0.0053965476092347163 -0.053095753890402803 0.22849990167164741 -0.051819925416833883 0.25780237325936101 0.81864908213269971 -0.0054750588107358479 -0.053207886134977525 0.19364074990931987 0.22947652522090292 0.52879184283424974 0.048989431611537126 0.18486147718744836 0.28879430746119156 -0.031415963533511643 0.11508876353989442 -0.053089150782595664 0.31561226723027969 0.14789828290727888
leaf_weight=23670.738798871636 1395.5441551525146 16.672194821760058 384.75102392397821 10.381419939920304 90.610869012773037 40.771689182147384 9.9452774655073863 137.76409282721579 31.212965622544289 5.6896247044205657 16.381152151152492 27.562801687046885 5.7411008831113568 173.9553600512445 27.473447684198618 7.1922142822295418 31.651706453412771 188.92908617295325 391.85419946163893 23.48723191395402 389.4288092982024 13.797385632991789 15.688761945813892 21.798931865021586 89.902126222848892 55.454142309725285 20.414500948041677 55.113403372466564 51.050264300778508 165.94889624044299 85.874122789129615 27.345794551074505 45.410750918090343 18.774618538096547 18.46617310680449 1427.0230209901929 5.1304905954748392 6.1844843402504903 56.567789193242788 148.67648325115442 35.427561463788152 47.19846261292696 93.068901987746358 32.742406936362386 110.62909421883523 118.76869986951351 19.478098686784506 67.037842430174351 3.7524363901466122 368.15086073055863 35.039244521409273 51.986850757151842 129.86929113417864 8.407995503395794 77.129379790276289 27.053943201899529 79.959446823224425 145.44116010516882 28.206482259556651 14.787917859852312 8.7765885144472104 63.37997979298234
leaf_count=23919 5331 71 2529 342 2260 918 27 4806 162 67 86 813 26 5484 318 7 874 5028 11646 761 1667 321 322 254 479 1195 27 820 478 602 615 189 321 602 154 44509 19 182 413 657 64 250 470 527 2770 461 620 294 18 7261 826 394 772 30 1031 284 332 3197 339 388 46 699
internal_value=0.15635 0.0901261 0.0733094 0.0550898 0.0399626 0.0250444 0.0713607 0.113855 -0.00168142 0.0377824 0.0963027 0.213521 0.216939 0.0431024 -0.0135094 0.13137 0.182667 0.105486 -0.0197309 0.18747 0.125373 0.107098 0.116475 -0.0106395 0.104053 0.0785451 0.0643744 0.132328 0.143345 0.11107 0.0620992 0.315715 0.0390232 -0.0189489 0.166101 -0.0236125 0.0483748 0.380629 0.0345812 0.259737 0.215612 0.155762 0.121459 0.180023 0.00567337 0.240659 0.135544 0.204725 0.030289 0.0201745 0.124196 0.0942523 0.179284 0.216155 0.156592 -0.000846733 0.249661 -0.00401494 0.268153 0.197321 -0.018558 0.0502373
internal_weight=30972.7 7301.92 5906.37 4075.16 3269.46 2663.13 974.431 1831.21 1688.7 788.246 390.702 186.185 119.569 271.133 1550.84 137.866 75.3787 606.33 397.544 113.828 1684.67 1262.5 805.699 195.754 130.674 800.616 719.781 240.437 598.175 413.502 247.553 43.7269 207.524 1514.95 37.2408 1477.71 283.866 11.315 272.551 158.622 184.673 322.465 247.06 422.171 161.679 168.984 50.6911 80.8352 479.344 458.929 90.7785 87.0261 184.983 35.8814 461.88 215.983 90.3409 162.113 75.4049 133.557 146.541 153.991
internal_count=140374 116455 111124 88590 79301 69357 21558 22534 47799 20061 8348 1497 1461 6887 46395 1404 1149 9944 11713 1435 17682 15488 9289 5738 1397 11928 11313 2787 5700 4465 3863 275 3589 46047 756 45291 5926 201 5725 684 1235 4018 3429 2194 3248 913 782 615 8526 8499 1238 1220 1592 348 3560 5312 674 3268 589 849 4852 2959
is_linear=0
shrinkage=0.05


Tree=5
num_leaves=63
num_cat=0
split_feature=229 193 25 49 27 9 236 193 51 106 112 229 171 49 206 229 238 217 86 145 115 26 233 17 20 216 63 4 223 98 96 75 19 218 230 67 139 106 191 214 26 161 59 203 87 124 83 94 115 110 94 142 17 183 139 13 195 181 99 125 22 183
split_gain=12832.3 2858.19 2034.27 1910.1 1091.27 1084.49 1075.16 892.077 868.967 792.666 723.998 713.902 1046.02 620.319 611.023 607.31 893.514 725.001 608.642 597.108 571.039 558.096 557.612 827.452 515.175 671.62 688.273 507.215 496.716 489.991 479.78 474.17 594.236 467.986 621.927 478.137 621.009 443.181 441.606 437.027 433.085 417.132 408.97 401.172 397.138 384.88 382.704 378.707 373.734 366.487 462.846 365.93 364.27 351.761 667.6 383.315 341.346 332.251 377.8 357.88 328.371 323.896
threshold=-0.63000613451004017 -0.66957104206085194 -0.63388767838478077 -0.015426713507622479 -0.51955297589302052 0.90352019667625438 -0.19294966012239453 -0.59710893034934986 0.092450942844152464 8.9549999237060565 0.96971648931503307 -0.29934693872928614 -0.40297980606555933 -0.2864933162927627 -0.33023312687873835 -0.7273607850074767 -0.3599999994039535 -0.70892214775085438 0.93666687607765209 -0.76669043302536 -2.01247227191925 0.17432358115911487 -0.53864267468452443 -0.12907703220844266 -0.063225833699107156 -0.92512530088424672 0.11109229549765588 0.30211521685123449 8.1013054847717303 0.6722702980041505 -0.072446528822183595 -0.31651218235492701 -7.1284160614013663 -0.61225607991218556 2.2696659564971928 -2.2059719562530513 1.5896667838096621 -8.24999952316284 -0.044249998405575745 -9.6449999809265119 0.57532495260238659 -0.68518623709678639 0.062250001356005676 0.012305555865168573 -0.77747893333435047 -0.054820058867335313 -1.0000000180025095e-35 -1.2099999785423277 0.61841699481010448 -0.54395365715026844 4.7449998855590829 2.8600000143051152 -0.78052341938018788 1.6843410432338717 -2.7856386899948116 0.026909242384135727 -0.66495025157928456 -0.30590017139911646 -0.62452527880668629 -0.50539806485176075 4.0099999904632577 -0.7817094326019286
decision_type=2 2 2 2 2 2 2 2 2 2 2 2 2 2 2 2 2 2 2 2 2 2 2 2 2 2 2 2 2 2 2 2 2 2 2 2 2 2 2 2 2 2 2 2 2 2 2 2 2 2 2 2 2 2 2 2 2 2 2 2 2 2
left_child=15 39 7 4 6 10 11 -3 9 19 24 12 20 27 -11 -1 17 49 30 -6 21 -4 43 42 41 -26 -27 -10 33 38 31 32 -19 34 35 36 -21 -31 -9 -2 -20 -5 44 57 -24 -25 -14 -38 -33 50 -17 -23 -7 -35 -55 -56 -41 59 -59 -13 -40 -22
right_child=1 2 3 5 8 52 -8 29 13 14 -12 22 46 -15 -16 16 -18 18 40 28 61 51 23 45 25 26 -28 -29 -30 37 -32 48 -34 53 -36 -37 47 -39 60 56 -42 -43 -44 -45 -46 -47 -48 -49 -50 -51 -52 -53 -54 54 55 -57 -58 58 -60 -61 -62 -63
leaf_value=0.15792277923719744 -0.05730092833591454 -0.034848754276429111 -0.052202397726778364 -0.054001282881682815 0.18969264128166421 0.25864777052241456 -0.021667025107732954 -0.054402099570319107 0.18038530838381545 0.16120194589994433 -0.053806716352262141 0.16383541301094012 -0.0073271370837148771 -0.01781757979300963 -0.052186365627549872 0.047338333148629577 0.15143195475680626 0.22852374197808611 0.17093437489570293 -0.00076064629313931981 0.23269142108794935 0.071972868590977471 0.20716528442857679 0.18717717707379058 0.17202797759615829 -0.054317779420946427 0.12914817410874355 0.0045522255769041252 0.15679004181794889 0.12958102241516459 -0.013287124158189129 0.1536183966155294 -0.059629672937157346 -0.040891565590548039 0.25832472861903649 -0.014029809484228571 -0.052357844089667496 -0.054657909515800344 0.16890701122283899 -0.057108090457531971 -0.059774404836780703 0.1712147982532396 0.35314893010780546 0.0052516382941725608 -0.041130293627703908 0.019677190676645927 0.17497200586196282 0.2159089434514998 -0.018516903158906584 0.1513859086116609 0.16752320384472358 0.33139894375718587 -0.051810912315622605 0.24274230021720344 -0.052352360153788483 0.55746378069671276 0.15993741257939226 0.19891027004419018 -0.052606621278472203 0.42988036296840221 0.038099068996199227 -0.041211980234472353
leaf_weight=18413.114207655191 24.480996552854776 78.069548273459077 31.579995423555374 21.292380893602967 39.09850412607193 10.25998126156628 262.96091644093394 24.533904697746038 170.53785233572125 131.22695498727262 52.908587938174605 21.718990815803409 34.901791082695127 89.110660074278712 45.068688480183482 218.66602030023932 5750.168004039675 22.418559517711401 189.04747856408358 122.99406651593745 11.215215448290108 25.222852397710085 18.20239126496017 172.1628984734416 139.25007130764425 111.42363740876317 94.454410284757614 54.000937089323997 44.929187674075365 77.261757913976908 208.84915441647172 188.01493679732084 88.605590857565403 1037.4463781211525 25.932783203199506 582.95216288976371 15.848805930465458 56.517487797886133 778.28950779885054 18.423838444054127 22.794291999191046 597.39348631724715 8.0358330067247135 27.374035226181149 139.71950699388981 42.826541790738702 164.38972196541727 77.416197707876563 37.887048285454512 967.35443512350321 126.42334809526801 29.479921093210578 119.43921882286668 32.669630037620664 69.426803862676024 2.6762323528528205 1079.9377207476646 149.72073682770133 16.584065621718764 30.241065364331007 51.129225952550769 286.83186591230333
leaf_count=10019 355 1271 989 454 123 20 7324 455 1341 973 1152 151 774 2032 1418 859 9236 27 535 3243 61 440 66 1120 491 2246 595 1076 339 649 1784 492 878 33434 226 16268 470 1117 3747 249 223 3233 92 603 3702 835 710 590 299 1633 155 172 4168 229 2053 19 2747 556 462 46 636 8712
internal_value=0.136606 0.0782128 0.064972 0.0519847 0.0357295 0.108906 0.0699689 0.12786 0.0158816 0.00491084 0.126276 0.08988 0.0500891 0.0938009 0.106651 0.152965 0.141291 0.113123 0.0741771 -0.00383265 0.00188692 0.115161 0.126943 0.0890667 0.136161 0.0872176 0.0298542 0.138098 -0.00759281 0.140721 0.0462565 0.0831656 -0.00144427 -0.0113469 0.0173447 0.00952536 0.0730211 0.0517459 0.154659 0.15164 0.14611 0.163464 0.00519437 0.185682 -0.0125113 0.153811 0.143046 0.170322 0.124749 0.135605 0.091368 0.21178 -0.0272518 -0.0320738 0.0552391 -0.029718 0.156297 0.208311 0.173829 0.318675 0.160843 -0.0309053
internal_weight=33582.9 7349.57 6226.73 5160.93 4014.5 1146.42 1473.17 1065.8 2541.34 2227.69 1016.72 1210.21 583.621 313.649 176.296 26233.3 7820.23 2070.06 757.617 2051.39 384.33 86.2828 626.586 380.947 963.814 345.128 205.878 224.539 2012.29 987.732 545.775 336.926 111.024 1967.36 825.144 799.211 216.259 133.779 853.953 1122.84 211.842 618.686 165.958 245.639 157.922 214.989 199.292 93.265 225.902 1312.44 345.089 54.7028 129.699 1142.22 104.773 72.103 1098.36 218.265 166.305 51.9601 829.419 298.047
internal_count=140374 114234 110883 103008 90649 12359 26815 7875 63834 59385 8171 19491 11858 4449 2391 26140 16121 6885 4238 56994 10374 1601 7633 5815 7019 3332 2841 2417 56871 6604 3480 1696 905 56532 20797 20571 4303 1766 4838 3351 758 3687 3860 1818 3768 1955 1484 1060 791 2647 1014 612 4188 35735 2301 2072 2996 1215 1018 197 4383 8773
is_linear=0
shrinkage=0.05


Tree=6
num_leaves=63
num_cat=0
split_feature=229 121 229 53 125 15 235 201 229 144 207 169 180 183 62 161 229 238 152 124 229 234 199 107 142 52 218 217 195 48 79 24 9 8 234 194 10 144 178 72 236 71 184 84 28 73 147 46 159 184 166 119 24 90 233 68 187 208 48 63 239 63
split_gain=10292.6 2114.68 1249.42 1085.7 1305.2 839.074 838.061 767.376 721.583 714.353 676.976 620.859 614.824 562.427 473.357 469.565 464.802 624.646 461.697 528.44 516.025 507.004 585.239 465.704 461.123 455.411 458.524 452.75 463.76 594.02 447.416 424.867 409.465 455.279 400.627 516.805 398.906 395.833 557.131 535.443 511.464 573.717 486.807 446.007 383.156 370.828 416.636 367.637 349.768 349.35 344.356 340.736 379.988 337.322 331.891 330.82 327.116 392.768 322.416 348.256 332.243 316.202
threshold=-0.64274770021438588 -0.70004937052726735 -0.042250836268067353 -0.74858248233795155 0.18358865380287173 -0.55415689945220936 -1.4841111898422239 0.95037782192230236 -0.58986884355545033 -0.64750891923904408 -0.58369323611259449 -0.77174684405326832 -0.31921662390232081 0.10954304039478303 1.7717192173004153 -0.5354018211364745 -0.7273607850074767 -0.3599999994039535 -0.62762191891670216 -0.58581641316413868 -0.60864856839179982 0.71607187390327465 -0.15544433891773221 0.043972222134470947 10.360000133514406 -0.083463039249181734 0.12144427746534349 -0.70892214775085438 -0.1082869842648506 -0.62327256798744191 7.1698331832885751 0.27347229421138769 0.72386917471885692 0.72386917471885692 0.23301019519567492 0.14347729831933978 -14.565000057220457 -0.75106424093246449 0.9599999487400056 1.0490353703498843 -0.76181921362876881 0.022861110977828506 0.11924097314476968 1.1063212752342226 -1.1146094202995298 -0.1930296719074249 -0.26751407980918879 5.0350000858306894 -0.49948710203170771 -0.70920145511627186 -5.2700002193450919 0.03897222317755223 -0.7863171100616454 0.60448780655860912 -0.78195026516914357 -0.94480377435684193 -0.12894456833600995 0.77802902460098278 0.80446863174438488 -0.35760171711444849 -0.054194444790482514 -0.64520397782325734
decision_type=2 2 2 2 2 2 2 2 2 2 2 2 2 2 2 2 2 2 2 2 2 2 2 2 2 2 2 2 2 2 2 2 2 2 2 2 2 2 2 2 2 2 2 2 2 2 2 2 2 2 2 2 2 2 2 2 2 2 2 2 2 2
left_child=16 58 3 56 5 6 10 14 25 12 44 -8 15 -14 37 -10 -1 27 19 53 -20 22 31 -21 51 61 45 -18 32 -30 -23 -22 33 36 -17 -36 -29 39 40 47 42 43 -39 48 -5 46 -27 -4 -42 -12 -43 -13 -53 -6 -16 -55 57 -3 60 -60 -2 -7
right_child=1 2 7 4 18 8 11 -9 9 -11 49 24 13 -15 54 34 17 -19 20 23 21 30 -24 -25 -26 26 -28 28 29 -31 -32 -33 -34 -35 35 -37 -38 38 -40 -41 41 50 -44 -45 -46 -47 -48 -49 -50 -51 -52 52 -54 55 -56 -57 -58 -59 59 -61 -62 -63
leaf_value=0.14052996544884763 -0.059298464168289169 -0.052861902291315023 0.14698070074274663 0.13687702030496926 0.17952012725669564 0.16156965035896856 0.17705192387313995 -0.051579870156973864 -0.052268110648268952 -0.036242318669974981 -0.054393637894208174 -0.037997392836191399 -0.045558453741858601 0.20431810484218504 0.47902600188054961 0.5335028077345344 0.1194154422381225 0.13458276553126591 0.13083967525513196 -0.052823401838292164 0.18405036549151679 -0.026463358844465341 -0.052276292235451632 0.16983407583699159 0.20474282105826075 -0.0076971552324148615 -0.018416695932249635 0.22067487000834204 -0.062273479649935584 0.13718838460125377 0.16078847561964282 -0.052302619422854614 0.18292723953712009 0.14557198428231199 0.14070310763292959 -0.05216977201271851 -0.02856548802563252 -0.022680694449917521 0.00051818377235001215 -0.054654929762679938 0.0451700579933699 0.14283972126570707 0.12811696871494077 0.000192687368135761 -0.052466675317312 0.46991390010876022 0.19700788567480987 -0.054048427069441685 0.15792150247422643 0.17676950530201463 -0.054577589135742566 0.18138332432621043 -0.051819020254403415 -0.055341240799232354 -0.053631997462686369 0.1274509447053411 0.13935523280501846 0.15830542674300277 -0.058130645109101313 0.10042085742278095 0.13652177148830333 -0.053769140888814383
leaf_weight=19622.876880884171 22.016982529312372 53.910557970404625 691.27926505170763 41.640727587044239 249.83827379904687 21.379480930045247 53.104479361325502 89.879139078781009 51.394571781158447 1105.3958578873426 17.547599738463759 335.64999880455434 236.14673147909343 24.893155450001359 3.0584846921265116 5.5737383328378192 1384.7982427626848 5854.7250652201474 167.81446932815015 72.042297381907701 119.97594699449837 301.98657815530896 49.957672223448753 34.84179200977087 24.904416788369417 33.671470183879137 44.930038334801793 17.120701715350151 42.652145776897669 298.96215835958719 35.668506568297744 22.594724798575044 39.783495027571917 54.17004506662488 184.71696614660323 42.774206638336182 257.57566373050213 146.31165606528521 169.4939443860203 37.018198190256953 78.079020695760846 32.013910783454776 84.38633162714541 58.307210654020309 74.559403149411082 9.3274003379046899 94.946630734950304 23.516343344002962 577.66742005012929 238.32387066073716 71.250909635797143 41.086268002167344 30.387359842658043 33.474413745105267 66.713690038770437 94.997299673035741 362.64910987764597 37.22522309795022 44.309131879359484 158.60592092201114 1340.1550718024373 84.133450724184513
leaf_count=10019 229 1481 3742 446 1416 41 20 3436 1623 35261 401 10091 7553 252 4 59 2610 7797 662 2054 723 8339 1520 178 259 647 851 18 336 743 71 658 85 109 1596 1358 2202 2429 2905 748 957 233 422 1020 2206 14 507 467 3164 1245 1460 454 999 749 1539 784 2459 290 519 636 3395 1883
internal_value=0.121822 0.0723731 0.0599179 0.0447995 0.0364444 0.017819 0.0590138 0.0914011 -0.000389971 -0.0131374 0.115466 0.0157177 0.0336823 -0.0217299 0.0977034 0.0845324 0.136398 0.126199 0.0804657 0.117928 0.054425 0.0302381 0.0949899 0.0197579 -0.0041134 0.0725832 0.12031 0.102769 0.070314 0.112285 -0.00668284 0.146593 0.0314213 0.0130934 0.114699 0.104438 -0.0130314 0.102238 0.0846227 0.130764 0.0982248 0.116782 0.0324791 0.132713 0.0153853 0.165494 0.143417 0.140367 0.144496 0.160916 0.00662525 -0.0168895 0.0822362 0.145664 -0.0302828 0.0798229 0.118074 0.0333913 0.124598 0.0657991 0.133357 -0.0101363
internal_weight=35700.2 8127.53 6562.44 4433.46 3979.68 2796.49 857.204 2128.98 1939.28 1650.9 372.072 485.133 545.499 261.04 2039.1 284.459 27572.7 7949.79 1183.19 485.194 697.998 530.183 192.528 106.884 432.028 288.388 182.876 2095.06 710.264 341.614 337.655 142.571 368.65 328.866 233.065 227.491 274.696 1969.32 1217.51 751.814 1048.02 817.318 230.698 714.054 116.2 137.946 128.618 714.796 655.746 255.871 103.265 407.124 71.4736 378.31 69.7722 128.472 453.785 91.1358 1565.09 202.915 1362.17 105.513
internal_count=140374 116455 111676 89150 84920 67766 16121 22526 51645 47702 4298 11823 12441 7805 19090 4636 23919 13900 17154 5181 11973 11311 2901 2232 11803 3943 2019 6103 3493 1079 8410 1381 2414 2329 3013 2954 2220 17547 12590 4957 9685 6834 2851 5141 2652 1168 1154 4209 4121 1646 1693 11544 1453 2949 1543 1533 4230 1771 4779 1155 3624 1924
is_linear=0
shrinkage=0.05


Tree=7
num_leaves=63
num_cat=0
split_feature=229 121 229 234 73 201 5 144 227 238 209 63 51 233 217 229 230 122 72 144 143 120 168 130 101 12 159 112 218 145 91 157 202 228 131 89 64 60 179 96 203 179 178 91 50 32 98 196 61 235 34 148 218 78 71 178 18 238 194 106 20 171
split_gain=8535.75 1693.03 1070.52 1044.03 1059.27 805.356 695.868 549.277 761.07 594.896 534.141 489.074 516.203 499.538 479.392 462.646 480.653 455.431 446.076 427.347 420.923 484.819 413.481 409.089 406.533 395.21 459.98 394.817 383.164 405.928 535.326 375.532 421.528 366.979 361.593 350.141 348.5 420.429 345.544 344.271 416.891 341.282 335.27 334.338 512.281 563.987 453.965 324.307 321.505 319.383 314.703 314.535 306.083 304.007 296.402 293.05 291.725 286.188 285.923 283.301 282.337 292.541
threshold=-0.64274770021438588 -0.68384838104248036 -0.21550966054201123 0.85211575031280529 -0.72845143079757679 0.95037782192230236 -0.70717570185661305 -0.75106424093246449 0.010138888843357565 2.7600001096725468 -0.70715665817260731 0.0128839029930532 -0.54553768038749684 -0.46084031462669367 -0.47485454380512232 -0.73071846365928639 -1.1146094202995298 -0.93173518776893605 1.0490353703498843 -0.68937173485755909 -0.028805555775761601 1.0358156561851504 -0.73784440755844105 -6.0999996662139884 -0.77789387106895436 -0.61445936560630787 -0.71514546871185292 -0.27955712378025049 -0.68276181817054737 -0.61377650499343861 -1.5740831494331358 -0.60036402940750111 -7.6249999999999991 1.5690152049064638 0.012916666455566885 -0.67640966176986683 -0.42938183248043055 -0.588019698858261 -0.04530555568635463 -0.98241120576858509 -0.013805555645376442 -0.056138889864087098 1.0000000180025095e-35 -2.1379442214965816 -0.68055850267410267 -0.9993099272251128 0.20516981929540637 0.23601609468460086 -0.21699851751327512 -0.55463892221450795 2.2099999189376835 1.2297063469886782 1.8003621101379397 0.56523102521896373 -0.013249999843537806 0.33999980986118322 0.045473223552107818 -11.079999446868895 -0.47785447537899012 -8.384999752044676 -0.045798758044838898 -0.33908911049365992
decision_type=2 2 2 2 2 2 2 2 2 2 2 2 2 2 2 2 2 2 2 2 2 2 2 2 2 2 2 2 2 2 2 2 2 2 2 2 2 2 2 2 2 2 2 2 2 2 2 2 2 2 2 2 2 2 2 2 2 2 2 2 2 2
left_child=15 52 3 4 34 7 10 9 17 18 -6 12 13 14 -8 -1 -17 27 59 -13 -5 23 38 55 -18 26 47 49 29 36 -31 -24 54 39 -3 48 -26 -38 -19 40 -10 -29 -16 44 46 -46 -14 -15 -34 -9 -51 -48 -2 56 -33 -22 -40 -30 -21 -4 61 -12
right_child=1 2 5 20 6 -7 11 8 33 -11 60 19 43 25 42 16 24 22 -20 58 21 -23 31 -25 28 -27 -28 41 57 30 -32 32 35 -35 -36 -37 37 -39 53 -41 -42 -43 -44 -45 45 -47 51 -49 -50 50 -52 -53 -54 -55 -56 -57 -58 -59 -60 -61 -62 -63
leaf_value=0.1273589018996959 0.11102449982324719 0.14299453574983204 -0.012707097627190965 0.14362196672354288 -0.052556567779914978 -0.051478526227440979 -0.052804334969598687 0.18884885393143719 0.16441359195348126 -0.054513329822669855 0.056217046755109093 0.1577885552996009 -0.052047499574159932 -0.052090920901632032 0.13749642638434031 0.12989469833655701 -0.066041704895023576 -0.053568925731578149 -0.0090484644778903046 0.10410114541575943 -0.054885515580960456 0.13346128203782334 0.14250018549179155 -0.03422142384934982 0.12511226622254987 -0.051999704356041489 -0.034739920438356997 0.26244955105455542 0.009264264671832936 0.10110568794434767 -0.012788604808676669 0.14227782228037986 0.16037596671624033 0.096384801356300412 -0.055947441954789373 -0.032091091704494965 -0.067010735486870268 0.085009361309929588 -0.053135696084012064 -0.041892041836880702 -0.053382001109539085 -0.054219971407231643 -0.051695917553807813 -0.036860339747367403 0.26708142154900649 -0.051943162742156192 0.12605396273884348 0.17021009280826221 -0.053945548604030419 0.11900406006850456 -0.055316248664409352 0.38196942942335421 -0.057949434017913803 -0.053349452252695821 -0.053244974165414238 0.15300081776742952 0.15785275668592091 0.11490973863350656 -0.053067324211992166 0.12788669213257284 -0.052513145246135762 0.16075252147240132
leaf_weight=19961.899577990174 1804.6613652296364 216.59624592773616 37.141472345218062 249.71077257394791 66.352763369679451 120.53867429122329 53.006641056388617 166.59611452370882 51.068399829789996 54.333892961964011 111.825204718858 89.118815306574106 30.510224452242255 20.873108722269535 193.96504538878798 3041.5726839900017 34.347822897136211 29.885749878361821 68.176673661917448 49.889085398986936 22.642767177894711 141.39840830862522 69.783348102122545 148.91837123595178 586.01033801585436 213.04408527910709 88.603324387222528 10.200668174773453 65.028811864554882 198.31874587014318 215.03838481754065 92.592022253200412 51.178663274273276 93.359837349504232 25.533137304708362 296.71922156959772 53.188937179744244 313.84802070632577 17.694550765678287 279.74971772916615 38.563219448551536 51.282038873061538 26.632019195705652 1039.6950262170285 15.06493150629103 172.28512436151505 61.308501001447439 76.667365197092295 26.589414551854134 285.92531987279654 28.468642240390182 14.930420489981769 27.204308338463306 21.676220064982772 24.515267543494701 67.454781943932176 221.05094075948 4510.9839086011052 68.90403782390058 1015.2792818266898 26.330226870253682 166.68912519142032
leaf_count=9463 5371 523 618 1303 1911 4708 1511 387 481 1215 1691 716 973 676 1711 2677 229 729 1310 668 543 1109 137 3080 838 7044 2694 65 314 360 1247 294 322 1057 386 6886 334 676 470 6679 960 1179 922 33793 145 5765 688 412 622 1759 502 82 323 485 647 298 1166 7781 1892 5886 767 894
internal_value=0.110224 0.0659808 0.0541936 0.0349818 0.0220129 0.0752676 0.0126484 0.0803067 0.063378 0.107062 0.0760033 0.0020288 -0.00553483 0.0301724 0.0822129 0.123113 0.113714 0.0818197 0.114896 0.0750264 0.0931828 0.0600737 0.0590123 0.0166586 0.105479 -0.00549626 0.0477276 0.117627 0.106471 0.083236 0.0418551 0.0339593 0.0185516 0.00781633 0.122016 -0.00733963 0.101184 0.0629795 0.107458 -0.014569 0.0707089 -0.00168096 0.114656 -0.0235462 0.0235216 -0.0262902 0.110944 0.122639 0.087098 0.132878 0.103219 0.176172 0.108515 0.125938 0.101347 0.100756 0.142215 0.113408 0.0129381 0.122925 0.103986 0.118781
internal_weight=37422.4 8442.18 6610.32 3457.95 2827.82 3152.37 2585.7 3031.83 1856.9 1174.93 371.197 2214.5 2006.59 672.792 273.604 28980.2 9018.34 1394.16 1120.6 207.912 630.125 380.414 851.685 239.016 5976.76 399.188 186.144 542.473 5942.42 1366.4 413.357 561.378 491.595 462.741 242.129 374.487 953.047 367.037 290.307 369.381 89.6316 61.4827 220.597 1333.79 294.099 187.35 106.749 97.5405 77.7681 480.99 314.394 76.2389 1831.87 260.422 117.107 90.0975 238.745 4576.01 118.793 1052.42 304.845 278.514
internal_count=140374 116455 110761 72197 65864 38564 64955 33856 24827 9029 5263 59692 56416 14970 4144 23919 14456 15650 7814 3276 6333 5030 11758 3921 11779 10826 3782 3892 11550 3455 1607 8908 8771 9177 909 7830 1848 1010 2850 8120 1441 1244 2633 41446 7653 5910 1743 1088 944 2648 2261 770 5694 2121 941 841 1636 8095 2560 6504 3352 2585
is_linear=0
shrinkage=0.05


Tree=8
num_leaves=63
num_cat=0
split_feature=229 193 25 25 218 216 193 191 168 60 145 217 182 180 167 188 134 103 234 229 234 192 222 62 46 214 62 227 163 60 63 172 228 143 17 181 22 178 175 58 118 215 167 29 190 47 22 70 59 47 185 61 167 9 130 8 202 223 136 26 31 1
split_gain=7279.56 1439.12 1024.93 974.109 869.789 790.247 670.896 603.429 607.386 515.35 493.848 452.265 444.938 524.772 444.848 419.296 567.86 391.664 387.881 505.195 394.64 512.488 395.833 482.945 388.637 373.266 359.856 446.684 582.304 433.461 359.732 353.684 350.207 364.859 343.161 342.339 339.303 333.377 322.586 322.318 319.973 318.564 318.416 316.286 308.993 308.431 307.993 307.629 307.342 306.252 304.162 354.382 297.731 296.53 296.201 306.616 318.463 292.485 288.242 296.727 355.802 340.59
threshold=-0.64579537510871876 -0.66957104206085194 -0.63388767838478077 -0.18870141357183454 -0.22227118909358975 -0.79953694343566883 -0.60383301973342884 -0.011305555701255797 0.72955626249313366 0.24482931196689608 -0.73986625671386708 -0.752863049507141 -0.28837032616138453 -0.3456562459468841 0.041916666552424438 -0.37662759423255915 -0.97139468789100636 -3.8617502450942989 0.91322371363639843 -0.70008355379104603 0.68672648072242748 -0.91410875320434559 0.79418534040451061 -1.1146094202995298 2.3600000143051152 -9.6449999809265119 -0.27735382318496699 -0.016972222365438935 -4.4554164409637442 2.2366164922714238 1.0000000180025095e-35 -1.1146094202995298 2.351188182830811 0.029805555939674381 -0.7327216863632201 -0.60864856839179982 6.0349998474121103 3.084999799728394 1.0000000180025095e-35 -4.439999818801879 1.0000000180025095e-35 0.036361111328005798 0.059527778998017318 -0.75662770867347706 -8.2000002861022931 0.04313888959586621 4.0099999904632577 -8.9299998283386213 -0.038694443181157105 -0.018638888373970982 -0.65392330288887013 -0.65612041950225819 0.013749999925494196 -0.63439178466796864 -2.49999988079071 -0.9993099272251128 1.5899999737739565 2.9902222156524663 0.92565041780471813 0.68549025058746349 1.8548744320869448 -0.2688495516777038
decision_type=2 2 2 2 2 2 2 2 2 2 2 2 2 2 2 2 2 2 2 2 2 2 2 2 2 2 2 2 2 2 2 2 2 2 2 2 2 2 2 2 2 2 2 2 2 2 2 2 2 2 2 2 2 2 2 2 2 2 2 2 2 2
left_child=11 25 6 4 9 41 -3 38 15 12 -11 -1 17 40 26 54 52 -4 19 -13 24 -22 23 37 36 -2 27 49 -29 -28 -12 -16 33 -32 -8 -26 44 -23 -7 -24 53 -5 -10 -25 -21 58 -36 -33 -15 -6 51 -46 57 -14 -9 -56 -57 -17 59 60 61 -19
right_child=1 2 3 5 14 7 34 8 42 10 30 18 13 48 31 16 -18 45 -20 20 21 22 39 43 35 -27 29 28 -30 -31 32 47 -34 -35 46 -37 -38 -39 -40 -41 -42 -43 -44 -45 50 -47 -48 -49 -50 -51 -52 -53 -54 -55 55 56 -58 -59 -60 -61 -62 -63
leaf_value=0.11958093407667354 -0.05911765010936533 -0.03908248607384996 -0.05422086559064955 0.11495295859185627 0.12399935031418413 0.037546690715731114 -0.055867055734994481 0.028415941112833389 -0.036213450550597041 0.12678310241332641 -0.020054891944746606 0.10832390460796 0.14211033055449726 0.077973134297101718 0.12617586864760627 0.095103789930150201 -0.016141928052205601 -0.031697363058919632 0.12346189146900091 -0.024745165099380583 -0.06171759671344948 -0.062214656329207613 -0.064183385132127596 0.10687430993163974 -0.031639359085204724 0.10958850469843617 -0.049704185826041213 0.10259650312405658 -0.05257544330048608 0.10718743911430942 -0.0546497575613085 0.17419470346283242 0.44019910379264859 0.15983104413859378 0.11152970378667582 0.10442124258424422 -0.028416374387198254 0.14713664321750455 -0.053024445711024874 0.107152532215392 -0.027714283330545837 -0.022732920697789614 0.13110899257130357 -0.038335339786664972 0.10344955572498669 -0.054106208728812347 0.0067587054408923862 -0.036488175135520405 -0.05293084718334904 0.011220805330440125 0.1235145459148001 -0.062248066321630359 -0.054415076586999227 0.027812373841784446 0.38814481458171196 0.13145932531654861 -0.053523508537408615 0.25900119625589213 0.15639821333764314 0.12639802858367818 0.099270252992264052 0.11358450981557935
leaf_weight=13221.31371210888 33.534767808392644 91.836917215958238 48.291814813390374 789.82831326499581 119.98817084543407 203.44554540142417 33.985511047765613 90.025101905688643 181.10401764139533 81.672299133613706 515.87230342626572 11021.155129179358 150.76094703748822 57.668577909469604 111.37355414032936 110.85359391756356 195.23263250477612 143.04664129018784 3004.5390050560236 40.363758690655231 80.960512526333332 23.246943295001984 29.060755118727684 46.23448858037591 100.84490206837654 1469.6728469450027 623.07460646703839 76.373922556638718 290.14448483288288 47.371148740872741 36.701516401022673 21.156685344874859 6.6000271365046492 43.129927441477776 1158.8332779370248 85.365426477044821 44.599008113145828 104.4906122982502 190.24500658363104 494.93554213643074 62.640063744038343 44.37055541574955 33.728659227490425 198.49474285542965 93.974816743284464 34.768710570409894 74.66493340022862 95.703021315857768 201.55196408927441 120.79743880964816 1246.7373904511333 49.143035426735878 24.053298549726605 90.99567255936563 11.024513773620127 419.86359387636185 24.631750449538231 36.080428965389729 168.88886145502329 256.9245554599911 244.73007669858634 56.186790220439434
leaf_count=5470 433 1356 1192 4875 987 3377 510 1241 4619 111 13552 8665 1254 797 943 787 4328 3480 1403 236 680 183 206 104 679 3578 20355 508 8994 463 816 301 24 186 5461 243 289 71 5354 909 1666 807 268 1413 196 954 963 2924 6182 2865 2223 394 532 1622 58 2233 628 234 944 2052 1621 575
internal_value=0.100843 0.0612128 0.0521752 0.0433748 0.0273985 0.0685246 0.0914141 0.0470673 0.0656887 0.0474366 0.0114068 0.112676 0.0636873 0.0284728 -0.00187963 0.0835095 0.0421254 0.0845173 0.107197 0.103619 0.0839665 0.0587583 0.0696386 0.0302309 0.0988002 0.105825 -0.0133647 0.0145152 -0.0202412 -0.0386188 -0.00423817 0.0624186 0.0901651 0.0612262 0.100869 0.0307357 0.107394 0.109037 -0.00622044 0.0976503 0.0729951 0.10763 -0.00994388 -0.0109022 0.111629 0.0919242 0.105188 0.00165458 -0.0238087 0.0674206 0.11559 0.0465532 0.108655 0.0990893 0.11129 0.127669 0.121208 0.13535 0.0977617 0.0836324 0.0588836 0.00927429
internal_weight=38808.9 8923.43 7420.22 6060.9 3706.41 2354.49 1359.32 1520.29 1126.6 2200.43 683.976 29885.5 1516.45 563.617 1505.98 911.765 366.22 952.837 16664.1 13659.6 2638.45 977.424 896.463 372.467 1661.03 1503.21 1277.75 607.304 366.518 670.446 602.304 228.233 86.4315 79.8314 1267.48 186.21 1474.82 127.738 393.691 523.996 304.397 834.199 214.833 244.729 1430.22 904.546 1233.5 116.86 259.221 240.786 1389.86 143.118 170.987 241.757 545.545 455.52 444.495 146.934 869.777 700.888 443.964 199.233
internal_count=140374 117010 112999 104709 75368 29341 8290 23659 14928 37028 14689 23364 22339 11521 38340 10041 5881 10818 17894 16491 7826 3566 2886 1771 4260 4011 34172 13354 9502 20818 14578 4168 1026 1002 6934 922 3338 254 8731 1115 4542 5682 4887 1517 3049 9626 6424 3225 6979 3852 2813 590 1553 2876 4160 2919 2861 1021 8672 7728 5676 4055
is_linear=0
shrinkage=0.05


Tree=9
num_leaves=63
num_cat=0
split_feature=229 193 25 25 218 216 193 6 167 217 168 216 72 103 229 51 110 15 127 234 228 217 218 145 148 236 27 191 51 172 215 146 206 107 155 47 214 127 185 59 171 220 95 83 203 17 62 218 49 95 95 58 190 16 18 236 58 5 24 182 192 12
split_gain=6368.54 1217.45 841.874 883.746 709.197 615.885 608.078 591.027 504.678 503.795 494.071 593.508 571.861 503.839 491.097 466.619 501.767 603.609 455.973 387.118 400.57 423.393 382.434 499.169 373.097 364.577 361.169 355.914 337.367 327.861 326.883 318.959 313.644 310.435 308.427 332.69 303.647 301.629 361.368 301.578 298.235 345.531 297.694 293.568 283.738 282.324 278.13 274.708 267.289 267.276 264.853 261.147 284.707 254.188 243.807 242.08 241.926 279.285 276.023 241.83 348.786 240.285
threshold=-0.64274770021438588 -0.66957104206085194 -0.63388767838478077 -0.25642354786396021 -0.22227118909358975 -0.79953694343566883 -0.59710893034934986 0.025251974351704124 0.041916666552424438 -0.49902048707008356 0.34618131816387182 0.49159942567348486 0.8441281020641328 7.0843877792358407 -0.73809602856636036 -0.008472865913063286 -1.0485103130340574 -0.52302351593971241 -1.6975002288818357 0.91297489404678356 0.80887514352798473 -0.70892214775085438 -0.74445432424545277 -0.63412058353424061 1.2297063469886782 -0.99993813037872303 -0.5872194468975066 -0.020638888701796528 -0.31458294391632075 -1.1146094202995298 0.036361111328005798 1.5007128119468691 2.2145833969116215 -0.023138888180255886 -0.02091666683554649 0.018638888373970989 -9.6449999809265119 0.98019474744796764 -0.75836777687072743 -0.064527776092290864 -0.66156151890754689 -0.16057867556810376 -0.042416667565703385 -0.015138888731598852 0.025361111387610439 -0.7327216863632201 1.4786797761917116 -0.64750891923904408 -0.20792941004037854 -0.0077500001061707726 -0.041027778759598725 -8.009999752044676 -8.3449997901916486 2.7742226123809819 0.56522133946418773 -0.97387465834617604 6.620000123977662 -0.054239694029092782 -1.1146094202995298 -0.38531573116779322 -0.40294215083122248 -1.1146094202995298
decision_type=2 2 2 2 2 2 2 2 2 2 2 2 2 2 2 2 2 2 2 2 2 2 2 2 2 2 2 2 2 2 2 2 2 2 2 2 2 2 2 2 2 2 2 2 2 2 2 2 2 2 2 2 2 2 2 2 2 2 2 2 2 2
left_child=14 36 6 4 15 30 -3 -7 26 -9 11 12 24 25 -1 16 33 18 43 20 21 22 23 59 27 -12 40 -11 34 -10 46 54 39 -4 35 -23 -2 38 -36 -19 -6 -42 -20 -18 -31 -8 -5 -35 -29 61 -47 -52 -53 -27 -30 -26 58 -58 -13 60 -16 -17
right_child=1 2 3 5 8 7 45 9 29 10 13 56 -14 -15 19 49 17 32 42 -21 -22 28 -24 -25 55 53 -28 48 31 44 -32 -33 -34 47 37 -37 -38 -39 -40 -41 41 -43 -44 -45 -46 50 -48 -49 -50 -51 51 52 -54 -55 -56 -57 57 -59 -60 -61 -62 -63
leaf_value=0.1085310303828818 -0.058552604918052621 -0.039372051043402662 -0.053974856637016712 0.10191629910327218 -0.052393113815618092 -0.043501858849484418 -0.05550126721333596 0.11462507801393201 0.11892554198078426 -0.02945370893079265 0.14650666624881256 0.069657439832429377 -0.053142541985831494 0.13912698712286214 -0.073561200039780603 0.32707189621576105 -0.053655625422595603 0.090005437122648746 0.11554334521683018 0.1113419027722181 0.10398785968218685 0.09385545630664624 0.1018097269339337 -0.041851166242863912 0.33789406411364892 -0.039823333634108199 -0.041753700703244301 -0.052433012414563655 0.090638337397684954 -0.035197728438271639 -0.028342808797579794 -0.066822932017244804 0.13372521079391561 0.10313928996781413 0.088941543484369362 -0.064231936466937575 0.099762048447534918 0.052934554213998279 -0.049617347235690119 -0.036626645454042678 -0.053094479011177746 0.097625683074455183 -0.026738082987717682 0.11764041876314985 0.23322751231715488 -0.02159251159849028 -0.053954216885353581 -0.053067084706878799 0.10263117252037091 0.045548291390718004 -0.020939848037732172 -0.056731376936886048 0.10789584945939917 0.36615066233178012 -0.067679826464869683 0.14527914287280974 -0.052437901180366869 0.22271404066783493 -0.052883243505101277 0.10434619665400624 0.082417731570869526 0.12633913926043855
leaf_weight=19810.98385772109 30.913488566875458 95.249587340280414 41.01299492828548 933.02038187161088 87.451039815321565 181.59639587253332 31.853721953928471 266.18061680160463 114.3573955334723 65.428334459662437 29.639888525009155 61.615021549165249 71.37696691788733 54.841357130557299 54.851767495274544 17.048272673040628 27.961414186283946 51.249335054308176 46.349772062152624 2842.3237155973911 3157.5598538406193 332.69444186240435 2473.9194350875914 105.34359485656023 20.624219899997115 372.64188305102289 737.76189349032938 29.409246871247888 1086.6035087890923 88.243212390691042 54.862027727067471 34.709684226661921 32.264845481142402 354.2934173643589 60.503521680831909 36.979297246783972 1496.339782319963 316.95206022262573 211.72829685360193 569.28098018281162 51.36341599188745 146.4462426751852 177.74677361175418 237.15437323786318 11.081185340881346 46.737174028530717 29.525057090446353 30.574772603809834 504.91783185303211 105.83402485214174 43.27080886438489 26.876728054136038 1148.9392461851239 3.8959707412868729 24.87450897693634 78.025459310039878 15.319807359948753 23.171149360015988 180.79931797645986 309.33763134479523 103.403335981071 118.77268517948687
leaf_count=8351 424 1465 1113 6223 2776 5594 503 1348 809 1448 22 767 1942 126 261 105 743 473 517 1422 3408 731 2967 450 46 10466 24231 873 2461 2753 1132 229 241 2764 132 281 3444 1099 1488 16399 1424 1201 4625 1590 57 643 713 911 2960 1191 702 418 4499 48 157 442 458 137 5023 332 150 666
internal_value=0.0930716 0.0559061 0.0475343 0.039433 0.0204999 0.0588071 0.0825655 0.0424196 -0.00868262 0.0511957 0.0400271 0.0589616 0.0816625 -0.00312563 0.103807 0.0404442 0.0304762 0.013203 0.0551937 0.0954136 0.0899652 0.0813708 0.093285 0.0564753 0.0954395 -0.0223323 -0.0232803 0.0806182 0.0641262 0.0612055 0.0903689 0.0824342 -0.0182653 0.0767946 0.0422414 0.0780416 0.0965576 0.0197792 -0.0188226 -0.0261682 0.0244968 0.0584896 0.00268991 0.099574 -0.00525071 0.0915157 0.0971351 0.0907299 0.0940965 0.105118 0.0952153 0.0996934 0.104133 -0.0356228 0.0870952 0.185548 -0.00324703 0.113201 -0.0217368 0.0786272 0.0283549 0.151535
internal_weight=39906.1 8943.32 7416.07 6023.14 3046.25 2976.89 1392.93 1959.48 1236.7 1777.89 1511.71 1050.69 769.782 461.019 30962.8 1809.54 1567.89 1142.01 489.212 11151.8 8309.46 5151.9 3046.86 572.936 698.405 406.178 1023.02 599.755 2105.05 213.682 1017.41 1146.19 652.795 425.881 958.858 369.674 1527.25 589.184 272.232 620.53 285.261 197.81 224.097 265.116 99.3244 1297.68 962.545 384.868 534.327 241.655 1265.82 1219.09 1175.82 376.538 1111.48 98.6497 280.905 38.491 242.414 467.593 158.255 135.821
internal_count=140374 116455 112587 104357 64589 39768 8230 31700 33251 26106 24758 14096 7711 10662 23919 31338 29376 24588 7475 15568 14146 10738 4160 1193 5769 10536 29632 5281 6578 3619 8068 2847 17113 4788 3731 1012 3868 2719 1620 16872 5401 2625 5142 2333 2810 6765 6936 3675 3833 1962 6262 5619 4917 10514 2618 488 6385 595 5790 743 411 771
is_linear=0
shrinkage=0.05


Tree=10
num_leaves=63
num_cat=0
split_feature=229 121 144 227 205 211 229 70 1 144 73 147 230 72 25 145 47 3 101 229 139 217 231 58 119 228 206 227 29 228 153 235 202 47 181 84 194 91 58 64 185 157 13 55 48 168 227 36 154 12 101 122 199 127 218 199 60 215 238 183 108 107
split_gain=5654.58 1040.18 677.185 578.522 673.319 539.027 466.758 447.097 466.866 410.695 398.001 366.202 353.952 353.869 365.07 331.628 382.116 321.308 331.818 427.428 380.911 315.487 298.867 331.537 290.324 282.784 320.216 299.173 281.335 280.961 279.162 275.137 378.703 293.256 272.533 269.535 267.817 317.63 263.76 262.371 271.768 258.021 256.71 244.031 325.03 240.157 237.33 236.817 332.19 271.399 284.325 237.371 328.726 299.568 234.281 234.008 233.526 341.035 261.267 227.454 224.475 224.34
threshold=-0.64579537510871876 -0.68384838104248036 -0.75106424093246449 0.010138888843357565 -0.55148920416831959 -4.1394445896148673 -0.73809602856636036 4.8900001049041757 -0.19966795295476911 0.98293629288673412 -0.74202048778533924 1.7107876539230349 -1.1146094202995298 1.0820849537849428 -0.50754272937774647 -0.19458054006099698 0.035749999806284911 0.5502627193927766 -0.70903983712196339 -0.59549999237060536 -1.9791103601455686 -0.66336920857429493 -0.7737658917903899 7.1949999332427987 0.017249999567866329 1.5447788834571841 -0.26413400471210474 -0.018583333119750019 -0.70384901762008656 0.71413320302963268 0.050157042220234878 -4.5456104278564444 -4.7100002765655509 -0.030138889327645298 -0.77879846096038807 0.29770861566066747 0.14347729831933978 -2.3882771730422969 -1.0000000180025095e-35 -0.72682788968086232 -0.74228996038436879 -0.26670487225055689 -0.77343368530273426 0.50722181797027599 -0.33904634416103357 1.4037674069404604 -0.04530555568635463 1.0137825608253481 3.4200001955032353 0.66125383973121654 -0.64845594763755787 -0.40514545142650599 3.2648328542709355 4.8204722404479989 1.8003621101379397 14.120416641235353 -0.68496510386466969 -0.0037500000325962897 -0.98999997973442067 -0.77735015749931324 1.0000000180025095e-35 -0.0022500000195577736
decision_type=2 2 2 2 2 2 2 2 2 2 2 2 2 2 2 2 2 2 2 2 2 2 2 2 2 2 2 2 2 2 2 2 2 2 2 2 2 2 2 2 2 2 2 2 2 2 2 2 2 2 2 2 2 2 2 2 2 2 2 2 2 2
left_child=6 54 13 5 39 24 -1 8 10 28 35 59 -8 15 -15 16 31 18 20 36 61 29 -21 -24 -4 26 27 -23 -10 47 -17 -3 -33 -34 -22 -7 37 -20 -13 -5 -41 -35 -9 45 60 -30 -11 51 49 50 -49 52 53 56 -2 -46 57 58 -14 -6 -45 -12
right_child=1 2 3 4 11 7 12 42 9 46 17 38 21 14 -16 30 -18 -19 19 22 34 25 23 -25 -26 -27 -28 -29 43 -31 -32 32 33 41 -36 -37 -38 -39 -40 40 -42 -43 -44 44 55 -47 -48 48 -50 -51 -52 -53 -54 -55 -56 -57 -58 -59 -60 -61 -62 -63
leaf_value=0.10125091257659483 0.085303606106578916 0.11815519688767387 0.11396163224799127 0.10301891430188842 0.079947745302353643 -0.056015166146126671 0.10162780744873237 0.13894329846525566 -0.054639281010685187 0.083308353323647999 0.16048380518917021 -0.034753121688646957 -0.071544463479393861 0.082950518984714797 -0.043020115033069274 0.10239996298949983 -0.052712473856820402 0.12543682657832692 0.089362415926776906 0.10888412047113782 0.24558885547023768 0.054904457343320716 -0.030825704518061464 0.064125821262332156 -0.054646618149768102 0.091702558205850881 0.061033028386756442 -0.065158645804946277 0.10956263412176302 0.099743994631188104 0.017472667460541901 -0.052685344174459005 -0.02226418186336343 0.079377838638918244 -0.021876264610107304 0.13236171841912756 0.11086962998102774 -0.058163172171433422 0.072278736683102002 0.12307565526267264 -0.027735671169530036 -0.027247654831499109 -0.036006010465968401 -0.055925816965210796 -0.037925526314715602 -0.054125827795828807 -0.040931245602274152 -0.073172604388305876 -0.069859864377683406 -0.043119012120620998 0.085396971637443558 0.092163848113264182 -0.032404470618286045 -0.071393187976125191 -0.059012954042884015 0.35309715737904701 0.087095946104175578 -0.072107293067525363 0.11139368690898539 -0.036081421529803585 0.11806236311110366 -0.053315283565250893
leaf_weight=20163.724738374352 2078.1207842975855 178.35918167605996 338.17751858197153 203.88154656626284 44.659971343353391 22.33015276491642 3533.0043564960361 22.7630923576653 36.383587677031755 56.365889636799693 99.041321747004986 84.809342581778765 24.584785029292107 95.925927793607116 143.63316910713911 872.22456255368888 78.759680030867457 67.146898588165641 69.407649816945195 47.69378387182951 10.52395987510681 91.112039774656296 778.6862866319716 104.23876619338989 27.615756211802363 373.08447095006704 452.92392771318555 120.51353424042463 616.69584519602358 2501.5519766695797 108.8349729385227 81.35893426835537 95.643342688679695 694.09836805053055 100.24771330878139 126.90647651068866 127.84952699951828 76.922583486884832 179.14898550324142 41.800026109442115 104.68715177476406 61.788752404972911 265.89772793464363 21.697997026145458 98.955804733559489 23.252701757475734 120.86076759174466 30.420828234404325 54.118454251438379 55.695998169481754 399.70864593982697 2415.1201227009296 80.903350573033094 35.276548936963081 28.507668210193515 3.9800907503813496 897.47135546430945 60.438452694565058 94.683033172041178 778.72114874236286 127.30064668320119 14.004713293164967
leaf_count=8351 5464 547 1375 918 492 331 2719 28 738 614 271 1961 139 806 4022 4074 2364 214 237 556 2 315 23444 1700 629 518 1413 910 3373 2053 1914 2428 2265 6798 2434 177 719 1288 2034 163 1838 1569 7118 460 2342 610 3056 161 322 280 591 3243 383 196 324 4 1353 338 79 24474 463 372
internal_value=0.08653 0.0524219 0.043439 0.03266 0.00606453 0.0438897 0.0967023 0.0369879 0.0432007 0.0683291 0.0263135 -0.0133589 0.0885282 0.0650928 0.00742193 0.0714563 0.0537131 0.0185451 0.013521 0.00313492 0.0694288 0.082508 -0.0130301 -0.0196157 0.101232 0.056866 0.0373084 -0.0134674 0.0816453 0.0865091 0.0929785 0.061256 0.0503774 0.0602245 0.00353449 0.104175 0.0580021 0.0118115 0.0378896 0.0663434 0.0152982 0.0706619 -0.0222099 0.0872049 0.0455211 0.103615 -0.00141758 0.0785283 0.0476451 0.0607345 0.0741822 0.0831494 0.064906 0.071983 0.0833507 -0.0228064 0.0766784 0.0246521 0.0736845 -0.029788 0.0927253 0.133997
internal_weight=40744.2 9359.91 7253.28 4842.66 1437.71 3404.95 31384.3 3039.15 2750.49 1105.49 1645 1087.34 11220.6 2410.63 239.559 2171.07 1190.01 1495.76 1428.62 1204.8 223.818 7687.61 930.619 882.925 365.793 1037.63 664.55 211.626 928.267 6649.97 981.06 1111.25 932.889 851.53 110.772 149.237 274.18 146.33 263.958 350.369 146.487 755.887 288.661 891.883 251.935 639.949 177.227 4148.42 539.944 485.825 430.129 3608.48 1193.36 1112.45 2106.63 102.936 1077.18 179.706 119.268 823.381 148.999 113.046
internal_count=140374 117010 111222 84435 31880 52555 23364 50551 43405 11660 31745 28961 15013 26787 4828 21959 15971 31237 31023 27944 3079 12294 25700 25144 2004 3156 2638 1225 7990 9138 5988 13607 13060 10632 2436 508 2244 1525 3995 2919 2001 8367 7146 7252 3269 3983 3670 7085 1354 1032 752 5731 2488 2105 5788 2346 1909 556 218 24966 923 643
is_linear=0
shrinkage=0.05


Tree=11
num_leaves=63
num_cat=0
split_feature=229 217 235 98 148 145 229 119 71 61 1 181 235 217 3 30 42 218 206 106 234 34 179 168 236 228 217 172 218 73 223 235 226 159 182 67 163 131 219 223 146 20 9 130 197 234 151 228 86 191 132 47 113 52 48 155 155 58 238 175 103 26
split_gain=5079.08 947.261 692.476 623.737 645.802 651.736 476.336 451.445 455.406 402.829 437.427 384.17 380.366 456.113 376.647 359.274 352.45 348.923 416.722 408.966 347.321 345.886 381.712 391.632 324.146 315.425 332.249 315.075 306.326 350.047 353.454 340.74 298.168 288.59 300.359 287.968 285.077 320.614 273.833 410.919 290.822 272.126 453.722 309.219 262.972 316.534 258.798 252.829 252.741 276.437 251.601 251.528 248.767 243.562 285.35 238.426 237.636 310.944 232.59 229.412 216.962 216.477
threshold=-0.64579537510871876 -0.71606117486953724 -4.1295552253723136 -0.31921662390232081 -0.46683797240257258 -0.7787325084209441 -0.73809602856636036 0.023361111059784893 0.034416666254401214 0.14808494597673419 -0.72904047369956959 -0.55658611655235279 -1.3098612427711485 -0.33207647502422327 -0.68626096844673146 0.15344864875078204 0.077322266995906844 -0.23549102991819379 -0.5263271927833556 12.50500011444092 0.91297489404678356 -0.45000018179416651 0.034583332017064101 -0.35446944832801813 -0.44814813137054438 0.80887514352798473 -0.70892214775085438 -0.13193574547767636 -0.59022298455238331 -0.70024573802947987 2.1888061761856084 0.5807500183582307 2.8500000238418584 -0.12826062738895413 0.78904548287391674 -13.084499835968016 3.2807223796844487 -0.039861110970377915 -0.14343222975730893 2.9902222156524663 0.40787383913993841 0.17149884253740313 -0.37258200347423548 -14.519999980926512 0.010801269207149746 0.71194857358932506 7.3171684741973886 -0.62106928229331959 -0.66293206810951222 0.016750000417232517 -0.10108945891261099 0.078638888895511641 -0.77073177695274342 1.9722200036048891 -0.87665259838104237 0.021583333611488346 0.027972222305834297 -7.1050002574920645 1.9200000166893008 0.47986076772212988 0.26813897490501409 1.6461308598518374
decision_type=2 2 2 2 2 2 2 2 2 2 2 2 2 2 2 2 2 2 2 2 2 2 2 2 2 2 2 2 2 2 2 2 2 2 2 2 2 2 2 2 2 2 2 2 2 2 2 2 2 2 2 2 2 2 2 2 2 2 2 2 2 2
left_child=6 -2 36 9 7 -6 -1 8 21 10 53 15 13 -13 27 -12 -9 18 19 -14 25 56 23 44 -15 26 28 -7 29 -8 31 -31 -17 34 41 -16 37 -3 39 -20 -40 42 43 -28 -23 -46 -45 59 49 -35 -29 -18 -19 54 -4 -11 57 -5 -59 -47 -51 -58
right_child=1 2 3 4 5 14 20 16 -10 55 11 12 17 24 35 32 51 52 38 -21 -22 22 -24 -25 -26 -27 33 50 -30 30 -32 -33 -34 48 -36 -37 -38 -39 40 -41 -42 -43 -44 46 45 47 -48 -49 -50 60 -52 -53 -54 -55 -56 -57 61 58 -60 -61 -62 -63
leaf_value=0.095077901176153057 0.10025798671916936 -0.059980000483890461 -0.061961455882385288 -0.054248801468508939 0.13460056346380711 -0.053559929766056759 0.088169602280775541 0.073562191107573116 -0.022591779647152473 0.10330214104839373 -0.054773757035694162 -0.052287556574674092 -0.011303305459641533 0.10205200258350361 0.098268632543869541 0.088453057455993189 -0.043600958394635785 0.11857681017677948 -0.022131838485143388 0.14420710855022617 0.097643149038920074 -0.0531981609429528 0.090286883147215072 -0.031330508108370958 -0.01230589207096203 0.089542370635862401 0.26070178796989468 0.097939775846559787 0.088381763726375448 -0.01504096982167779 -0.073426550214005931 0.092923605284939301 -0.058170362044151991 -0.06805550802775788 -0.026396118598436553 -0.025535648420622316 -0.029906965434710071 0.088639414364195007 0.11599467343326836 0.12713670106079053 -0.053982057774182225 0.090408261686670641 0.063351323597794648 -0.034714249726133281 0.11839655937193715 -0.055160156202245625 0.1111120906921876 -0.054809443199013735 0.089407011813459239 0.12733267194254727 -0.053951816101396703 0.17518167757916003 -0.039276687503119828 0.2124664783245972 0.096216315811918529 -0.022081300144471031 -0.035210508823815899 0.10781066458794759 -0.0010543117898833222 0.14283252839790841 -0.064286119444120715 0.092104849685635176
leaf_weight=20392.690697267652 819.74550793319941 37.476512221619487 31.268732190132141 34.422934260219336 84.244721502065659 62.555334858596325 338.48262398689985 102.30963022261858 187.77333513274789 487.60575649701059 53.111475523561239 72.25221661105752 547.67224279604852 373.71862233057618 48.974831888452172 628.38175467960536 290.59537066705525 26.936586929485202 155.24369343742728 45.814046211540699 2799.8237987607718 51.978296982124448 235.723623290658 257.80055503360927 74.281650206074119 3299.9054958224297 10.156001158058642 175.9530486818403 2488.5973035730422 134.26632618904114 82.389993317425251 160.36725410073996 36.698154775425792 57.699736632406712 150.78981248661876 1146.8709931913763 57.680588528513908 1144.9312702622265 234.39085406623781 65.584203522652388 28.191126469522715 291.5309502184391 529.85531754419208 291.03160770982504 152.69657729193568 21.209262391552329 33.976880796253681 67.864608269184828 708.67958090826869 56.230557680130005 32.262764690443873 13.759152337908743 339.94358208216727 39.96995105035603 323.3973659966141 41.111987685784698 76.276574034243822 653.84857896156609 53.043358698487282 47.166483612731099 20.035933457314968 59.379759991541505
leaf_count=8351 799 681 424 917 38 1626 351 1215 4186 1647 1158 2464 9492 1704 254 3137 7159 276 4442 159 1310 1514 1993 6002 1767 3316 6 841 2770 467 403 151 579 386 853 30792 1000 4819 1154 460 774 498 1378 1739 569 410 24 1575 1160 52 846 72 10575 52 902 612 1773 4382 1063 240 149 466
internal_value=0.0809151 0.0488752 0.0440351 0.0382854 0.0243084 -0.000639844 0.0904951 0.041088 0.0513255 0.0532359 0.046308 0.0390766 0.0276339 0.0642894 -0.00840826 0.070369 -0.00672241 0.0144254 0.0287723 0.000701287 0.0823357 0.0594356 0.0363917 0.0151724 0.0830906 0.0773833 0.0698892 0.0448412 0.0800921 0.0512598 0.018123 0.0437235 0.0803626 0.0546839 0.039977 -0.0204654 0.078634 0.0839289 0.0632354 0.0221998 0.0977458 0.0486307 0.0345507 -0.0109797 0.050338 0.0689636 -0.0194693 0.0135597 0.0775012 0.0145199 0.0744044 -0.0337103 -0.027687 0.0954574 0.0822708 0.0935526 0.0813618 0.0924958 0.0996417 0.0814178 0.0769926 0.0205182
internal_weight=41368.6 9522.12 8702.37 7462.28 3856.71 1550.86 31846.5 2305.85 1899.18 3605.57 3076.86 2682.22 1964.03 520.252 1466.62 718.191 406.664 1443.78 1076.9 593.486 11453.8 1711.41 834.439 598.716 448 8654 5354.09 270.771 3204.1 715.506 377.024 294.634 665.08 2149.99 1307.34 1195.85 1240.09 1182.41 483.41 220.828 262.582 1156.55 865.02 335.164 340.915 288.937 325.008 136.24 842.646 133.966 208.216 304.355 366.88 394.636 354.666 528.718 876.971 741.315 706.892 68.3757 76.2665 135.656
internal_count=140374 117010 116211 109711 67933 34397 23364 33536 25090 41778 39519 38141 33267 5935 34359 4874 8446 27332 16481 9651 15013 20904 12303 10310 3471 13703 10387 3313 4142 1372 1021 618 3716 6245 4498 31046 6500 5500 6830 4902 1928 3645 3147 1769 4308 2794 1763 2225 1747 587 1687 7231 10851 1378 1326 2259 8601 6362 5445 650 201 2239
is_linear=0
shrinkage=0.05


Tree=12
num_leaves=63
num_cat=0
split_feature=229 217 235 219 164 15 118 229 229 76 166 24 185 181 121 198 79 214 159 97 34 135 55 48 25 218 157 43 228 158 107 229 46 203 59 3 58 67 28 203 50 163 75 235 211 214 60 100 160 217 143 31 91 107 115 143 8 223 161 220 168 203
split_gain=4629.27 860.612 505.374 558.856 595.996 562.234 441.845 408.459 397.509 384.918 399.188 368.398 359.103 341.189 394.295 336.674 437.851 335.682 327.045 406.984 394.946 315.17 323.358 308.208 295.257 286.859 286.557 280.844 270.969 304.001 307.301 302.3 279.014 268.912 261.711 255.407 248.188 247.363 247.072 239.68 252.424 256.475 252.951 239.414 239.332 239.239 229.985 226.243 224.121 221.177 227.684 268.986 365.544 276.479 220.696 216.456 223.305 252.695 215.841 361.278 225.789 220.305
threshold=-0.66236677765846241 -0.71265107393264759 -4.706500530242919 -0.043766750022768967 -0.30278503894805903 -0.57814082503318776 -2.4599999189376827 -0.61209449172019947 -0.76309669017791737 0.46956634521484381 -5.2700002193450919 -0.0019407529325690118 -0.12166766822338103 -0.035587938502430909 -0.75425094366073597 0.81213864684104931 -1.8664726614952085 -10.929999828338621 -0.33076567947864527 -0.19351298362016675 0.37000042200088507 1.7107876539230349 -3.4320000410079952 -0.97800457477569569 -0.52373653650283802 -0.51971727609634388 -0.016726395115256306 -1.0000000180025095e-35 -0.76869067549705494 -0.76208075881004322 0.005194444442167879 -0.69345086812973011 1.0900000929832461 0.0081944447010755556 0.0010833333362825217 -0.15691941976547238 4.180000066757203 0.32924973964691168 2.2476329803466801 -0.060250001028180115 1.0159859061241152 0.60624980926513683 -0.18930156528949735 4.8333065509796151 -7.2942781448364249 -10.929999828338621 -0.90529555082321156 2.761002898216248 -0.30599674582481379 -0.76577785611152638 0.031361112371087081 -2.1836667060852046 2.9809427261352544 -0.036083333194255822 -1.6330282092094419 0.042694443836808212 -0.95037782192230214 -4.122333049774169 -0.38758721947669977 -0.77530059218406666 0.20957647264003756 -0.04691666550934314
decision_type=2 2 2 2 2 2 2 2 2 2 2 2 2 2 2 2 2 2 2 2 2 2 2 2 2 2 2 2 2 2 2 2 2 2 2 2 2 2 2 2 2 2 2 2 2 2 2 2 2 2 2 2 2 2 2 2 2 2 2 2 2 2
left_child=8 -2 45 4 5 23 17 12 -1 18 25 39 -6 14 -9 16 46 -7 19 24 35 22 -18 44 34 -11 -15 -17 29 30 31 -10 -32 -21 -8 -20 -28 -23 -37 -5 55 -42 -43 47 -4 -3 -13 -19 -36 -31 51 53 54 -51 -53 56 57 -41 -25 60 -60 -61
right_child=1 2 3 11 7 6 9 13 28 10 -12 15 -14 26 -16 27 21 43 20 33 -22 37 -24 58 -26 -27 36 -29 -30 49 32 -33 -34 -35 48 38 -38 -39 -40 40 41 42 -44 -45 -46 -47 -48 -49 -50 50 -52 52 -54 -55 -56 -57 -58 -59 59 61 -62 -63
leaf_value=0.091958742807291091 0.092227522981438881 -0.055474911598458548 0.10533878327599261 0.11764628909782848 -0.038528507571066836 0.093472190122911969 -0.055536901939408315 0.11341616321971607 -0.037461025999677953 0.10623060202510781 -0.054062415829150327 -0.055068533796365872 0.092371518368913261 0.098884411677838263 -0.038573358297112607 -0.0050333344984839455 0.096851352927879789 -0.050041605479511211 0.10382904917316203 0.096905873358219805 -0.054333682933760945 -0.055329497092963899 -0.055496920779984721 0.08763312453429653 -0.053169552906666688 -0.055262813410083246 -0.05487125046884711 0.072970985521859918 0.083503820297108372 0.10171184483718086 0.080569942239696948 0.065813251396874592 -0.044801701038815728 -0.054366046913336741 -0.057886762425663707 -0.055449063646500034 0.092284715824859406 0.06179566075608528 0.35873002325357617 0.10571134800510305 -0.055711558127979316 -0.056287614885025462 0.097523558692024281 0.074450595291494434 -0.032002332604745332 0.080448734868945548 0.081206641327514803 0.30557845775822495 0.098999149714357471 0.087555342764023297 0.093821820673559805 -0.023511240144784055 -0.075086566078273756 -0.076059485874054603 0.075772310819849503 -0.010076620010732291 0.076518200835217764 -0.016352033108779331 0.108109005748837 0.090483564623932144 -0.057071811966529398 -0.043146948688936544
leaf_weight=14295.453363090754 986.53775876015425 33.444707538932562 41.923619989305735 203.3571015112102 73.032309129834175 58.973747342824936 58.469530766829848 45.166548043489456 192.72618439048529 90.931715680286288 209.36657593399286 35.210078820586205 185.40282604843378 106.29257407039404 772.3312051165849 140.44676500745118 38.996821889653802 393.11727121472359 436.33552487008274 208.92049288004637 50.973063850775361 59.21781188249588 325.93306149728596 798.98848014138639 182.52661129646003 39.41792257130146 95.330153139308095 646.77536351233721 13896.35316240415 607.82097644358873 382.93609448522329 112.05931526422501 50.195023566484451 34.18608196824789 28.069853903725743 42.08612672239542 40.965262148529291 188.80389146320522 3.9375789836049071 60.825770307332277 88.437678083777428 37.184445960447192 95.075106291100383 46.033582611009479 130.33685109205544 1010.2490463145077 256.51768164150417 4.5238824840635052 120.43862516991794 39.405086994171143 498.60857712477446 60.109586276113987 46.394613087177277 74.893792018294334 813.40635231882334 87.641366628929973 1623.6124973148108 139.96749900467694 170.06696689128876 40.345547160133719 23.553408281877637 130.94743453525007
leaf_count=4458 1081 733 29 675 860 420 1300 121 702 513 5838 847 573 696 25335 1869 231 11026 2420 1237 1359 1275 7930 5017 6059 1050 2070 3106 11683 360 468 234 212 878 474 978 322 1958 12 75 1998 807 597 479 2763 3817 2195 33 539 58 453 228 245 374 1110 1275 10387 1735 844 281 541 3131
