tree
version=v4
num_class=1
num_tree_per_iteration=1
label_index=0
max_feature_idx=539
objective=binary sigmoid:1
feature_names=Column_0 Column_1 Column_2 Column_3 Column_4 Column_5 Column_6 Column_7 Column_8 Column_9 Column_10 Column_11 Column_12 Column_13 Column_14 Column_15 Column_16 Column_17 Column_18 Column_19 Column_20 Column_21 Column_22 Column_23 Column_24 Column_25 Column_26 Column_27 Column_28 Column_29 Column_30 Column_31 Column_32 Column_33 Column_34 Column_35 Column_36 Column_37 Column_38 Column_39 Column_40 Column_41 Column_42 Column_43 Column_44 Column_45 Column_46 Column_47 Column_48 Column_49 Column_50 Column_51 Column_52 Column_53 Column_54 Column_55 Column_56 Column_57 Column_58 Column_59 Column_60 Column_61 Column_62 Column_63 Column_64 Column_65 Column_66 Column_67 Column_68 Column_69 Column_70 Column_71 Column_72 Column_73 Column_74 Column_75 Column_76 Column_77 Column_78 Column_79 Column_80 Column_81 Column_82 Column_83 Column_84 Column_85 Column_86 Column_87 Column_88 Column_89 Column_90 Column_91 Column_92 Column_93 Column_94 Column_95 Column_96 Column_97 Column_98 Column_99 Column_100 Column_101 Column_102 Column_103 Column_104 Column_105 Column_106 Column_107 Column_108 Column_109 Column_110 Column_111 Column_112 Column_113 Column_114 Column_115 Column_116 Column_117 Column_118 Column_119 Column_120 Column_121 Column_122 Column_123 Column_124 Column_125 Column_126 Column_127 Column_128 Column_129 Column_130 Column_131 Column_132 Column_133 Column_134 Column_135 Column_136 Column_137 Column_138 Column_139 Column_140 Column_141 Column_142 Column_143 Column_144 Column_145 Column_146 Column_147 Column_148 Column_149 Column_150 Column_151 Column_152 Column_153 Column_154 Column_155 Column_156 Column_157 Column_158 Column_159 Column_160 Column_161 Column_162 Column_163 Column_164 Column_165 Column_166 Column_167 Column_168 Column_169 Column_170 Column_171 Column_172 Column_173 Column_174 Column_175 Column_176 Column_177 Column_178 Column_179 Column_180 Column_181 Column_182 Column_183 Column_184 Column_185 Column_186 Column_187 Column_188 Column_189 Column_190 Column_191 Column_192 Column_193 Column_194 Column_195 Column_196 Column_197 Column_198 Column_199 Column_200 Column_201 Column_202 Column_203 Column_204 Column_205 Column_206 Column_207 Column_208 Column_209 Column_210 Column_211 Column_212 Column_213 Column_214 Column_215 Column_216 Column_217 Column_218 Column_219 Column_220 Column_221 Column_222 Column_223 Column_224 Column_225 Column_226 Column_227 Column_228 Column_229 Column_230 Column_231 Column_232 Column_233 Column_234 Column_235 Column_236 Column_237 Column_238 Column_239 Column_240 Column_241 Column_242 Column_243 Column_244 Column_245 Column_246 Column_247 Column_248 Column_249 Column_250 Column_251 Column_252 Column_253 Column_254 Column_255 Column_256 Column_257 Column_258 Column_259 Column_260 Column_261 Column_262 Column_263 Column_264 Column_265 Column_266 Column_267 Column_268 Column_269 Column_270 Column_271 Column_272 Column_273 Column_274 Column_275 Column_276 Column_277 Column_278 Column_279 Column_280 Column_281 Column_282 Column_283 Column_284 Column_285 Column_286 Column_287 Column_288 Column_289 Column_290 Column_291 Column_292 Column_293 Column_294 Column_295 Column_296 Column_297 Column_298 Column_299 Column_300 Column_301 Column_302 Column_303 Column_304 Column_305 Column_306 Column_307 Column_308 Column_309 Column_310 Column_311 Column_312 Column_313 Column_314 Column_315 Column_316 Column_317 Column_318 Column_319 Column_320 Column_321 Column_322 Column_323 Column_324 Column_325 Column_326 Column_327 Column_328 Column_329 Column_330 Column_331 Column_332 Column_333 Column_334 Column_335 Column_336 Column_337 Column_338 Column_339 Column_340 Column_341 Column_342 Column_343 Column_344 Column_345 Column_346 Column_347 Column_348 Column_349 Column_350 Column_351 Column_352 Column_353 Column_354 Column_355 Column_356 Column_357 Column_358 Column_359 Column_360 Column_361 Column_362 Column_363 Column_364 Column_365 Column_366 Column_367 Column_368 Column_369 Column_370 Column_371 Column_372 Column_373 Column_374 Column_375 Column_376 Column_377 Column_378 Column_379 Column_380 Column_381 Column_382 Column_383 Column_384 Column_385 Column_386 Column_387 Column_388 Column_389 Column_390 Column_391 Column_392 Column_393 Column_394 Column_395 Column_396 Column_397 Column_398 Column_399 Column_400 Column_401 Column_402 Column_403 Column_404 Column_405 Column_406 Column_407 Column_408 Column_409 Column_410 Column_411 Column_412 Column_413 Column_414 Column_415 Column_416 Column_417 Column_418 Column_419 Column_420 Column_421 Column_422 Column_423 Column_424 Column_425 Column_426 Column_427 Column_428 Column_429 Column_430 Column_431 Column_432 Column_433 Column_434 Column_435 Column_436 Column_437 Column_438 Column_439 Column_440 Column_441 Column_442 Column_443 Column_444 Column_445 Column_446 Column_447 Column_448 Column_449 Column_450 Column_451 Column_452 Column_453 Column_454 Column_455 Column_456 Column_457 Column_458 Column_459 Column_460 Column_461 Column_462 Column_463 Column_464 Column_465 Column_466 Column_467 Column_468 Column_469 Column_470 Column_471 Column_472 Column_473 Column_474 Column_475 Column_476 Column_477 Column_478 Column_479 Column_480 Column_481 Column_482 Column_483 Column_484 Column_485 Column_486 Column_487 Column_488 Column_489 Column_490 Column_491 Column_492 Column_493 Column_494 Column_495 Column_496 Column_497 Column_498 Column_499 Column_500 Column_501 Column_502 Column_503 Column_504 Column_505 Column_506 Column_507 Column_508 Column_509 Column_510 Column_511 Column_512 Column_513 Column_514 Column_515 Column_516 Column_517 Column_518 Column_519 Column_520 Column_521 Column_522 Column_523 Column_524 Column_525 Column_526 Column_527 Column_528 Column_529 Column_530 Column_531 Column_532 Column_533 Column_534 Column_535 Column_536 Column_537 Column_538 Column_539
feature_infos=[-5.221592903137207:4.7174110412597656] [-0.86116659641265869:3.1393942832946777] [-18.460952758789062:7.3048324584960938] [-4.8164644241333008:4.0407133102416992] [-0.86116659641265869:2.9592044353485107] [-34.152454376220703:5.741854190826416] [-4.7341036796569824:4.4124517440795898] [-0.86116659641265869:3.8682053089141846] [-35.583099365234375:5.741854190826416] [-5.3507003784179688:4.7174110412597656] [-0.86116659641265869:3.1384341716766357] [-18.460952758789062:7.3048324584960938] [-4.7919788360595703:4.1119441986083984] [-0.86116659641265869:2.9501354694366455] [-34.152454376220703:5.741854190826416] [-5.036837100982666:4.1475601196289062] [-0.86116659641265869:3.8682053089141846] [-35.583099365234375:5.741854190826416] [-5.3507003784179688:4.7174110412597656] [-0.86116659641265869:3.1384341716766357] [-18.460952758789062:7.3048324584960938] [-5.0590968132019043:4.1119441986083984] [-0.86116659641265869:2.9410669803619385] [-34.152454376220703:5.741854190826416] [-5.036837100982666:4.6728916168212891] [-0.86116659641265869:3.8682053089141846] [-35.583099365234375:5.741854190826416] [-5.3507003784179688:4.3523502349853516] [-0.86116659641265869:3.137092113494873] [-18.460952758789062:7.3048324584960938] [-5.0590968132019043:6.838770866394043] [-0.86116659641265869:2.974003791809082] [-18.809013366699219:5.741854190826416] [-5.036837100982666:4.6728916168212891] [-0.86116659641265869:3.8682053089141846] [-35.583099365234375:5.741854190826416] [-6.0808219909667969:4.3011527061462402] [-0.86116659641265869:3.132115364074707] [-18.460952758789062:7.3048324584960938] [-5.0590968132019043:4.2276954650878906] [-0.86116659641265869:2.9862205982208252] [-18.809013366699219:5.741854190826416] [-4.8164644241333008:6.4113831520080566] [-0.86116659641265869:3.8682053089141846] [-35.583099365234375:5.741854190826416] [-6.0808219909667969:4.3011527061462402] [-0.86116659641265869:3.1265866756439209] [-22.298454284667969:7.3048324584960938] [-4.7830748558044434:4.2276954650878906] [-0.86116659641265869:2.9984374046325684] [-19.925205230712891:5.741854190826416] [-4.8164644241333008:6.838770866394043] [-0.86116659641265869:3.8682053089141846] [-35.583099365234375:5.741854190826416] [-5.1792998313903809:5.0357265472412109] [-0.86116659641265869:3.1210577487945557] [-22.298454284667969:7.3048324584960938] [-4.8209166526794434:4.7174110412597656] [-0.86116659641265869:3.0205032825469971] [-20.016422271728516:5.741854190826416] [-4.8164644241333008:6.4113831520080566] [-0.86116659641265869:3.8682053089141846] [-35.583099365234375:5.741854190826416] [-5.0234813690185547:6.0908412933349609] [-0.86116659641265869:3.0205976963043213] [-22.298454284667969:7.3048324584960938] [-5.0991640090942383:4.7174110412597656] [-0.86116659641265869:3.0573489665985107] [-20.016422271728516:7.3048324584960938] [-4.7341036796569824:4.490361213684082] [-0.86116659641265869:3.8682053089141846] [-35.583099365234375:5.741854190826416] [-5.5109705924987793:6.0908412933349609] [-0.86116659641265869:3.0146675109863281] [-18.460952758789062:7.3048324584960938] [-4.8209166526794434:5.7369108200073242] [-0.86116659641265869:3.0941884517669678] [-20.016422271728516:7.3048324584960938] [-4.9210858345031738:5.9528307914733887] [-0.86116659641265869:3.8682053089141846] [-35.583099365234375:5.741854190826416] [-5.5109705924987793:6.0908412933349609] [-0.86116659641265869:3.0054748058319092] [-18.460952758789062:7.3048324584960938] [-4.7118434906005859:5.7369108200073242] [-0.86116659641265869:3.121025562286377] [-20.099235534667969:7.3048324584960938] [-4.9210858345031738:5.9528307914733887] [-0.86116659641265869:3.8682053089141846] [-35.583099365234375:5.741854190826416] [-5.4619989395141602:6.0908412933349609] [-0.86116659641265869:2.9832098484039307] [-18.460952758789062:7.3048324584960938] [-7.3874721527099609:4.1809496879577637] [-0.86116659641265869:3.1245131492614746] [-20.099235534667969:7.3048324584960938] [-5.0947127342224121:4.4770054817199707] [-0.86116659641265869:3.8682053089141846] [-35.583099365234375:5.741854190826416] [-5.4619989395141602:5.7369108200073242] [-0.86116659641265869:2.9609482288360596] [-18.460952758789062:7.3048324584960938] [-7.3874721527099609:4.728541374206543] [-0.86116659641265869:3.1279976367950439] [-20.099235534667969:7.3048324584960938] [-5.0590968132019043:4.0251312255859375] [-0.86116659641265869:3.8682053089141846] [-35.583099365234375:5.741854190826416] [-5.4486432075500488:5.3518157005310059] [-0.86116659641265869:2.9386796951293945] [-18.460952758789062:7.3048324584960938] [-7.3874721527099609:4.728541374206543] [-0.86116659641265869:3.1333005428314209] [-20.204853057861328:7.3048324584960938] [-5.0590968132019043:4.7908682823181152] [-0.86116659641265869:3.8682053089141846] [-35.583099365234375:5.741854190826416] [-5.1592659950256348:4.5994343757629395] [-0.86116659641265869:2.9164180755615234] [-18.460952758789062:7.3048324584960938] [-4.7452335357666016:4.728541374206543] [-0.86116659641265869:3.1416802406311035] [-22.298454284667969:7.3048324584960938] [-4.892148494720459:4.7908682823181152] [-0.86116659641265869:3.8682053089141846] [-35.583099365234375:5.741854190826416] [-5.2304973602294922:4.1119441986083984] [-0.86116659641265869:2.8941531181335449] [-18.460952758789062:7.3048324584960938] [-4.9077296257019043:4.1876277923583984] [-0.86116659641265869:3.1500599384307861] [-22.298454284667969:5.8144493103027344] [-4.892148494720459:4.7908682823181152] [-0.86116659641265869:3.8682053089141846] [-35.583099365234375:5.741854190826416] [-5.2304973602294922:4.1119441986083984] [-0.86116659641265869:2.8706502914428711] [-18.460952758789062:7.3048324584960938] [-4.9077296257019043:5.017918586730957] [-0.86116659641265869:3.1573452949523926] [-22.298454284667969:5.8144493103027344] [-4.7318778038024902:4.6484060287475586] [-0.86116659641265869:3.8682053089141846] [-35.583099365234375:5.741854190826416] [-5.2861471176147461:4.1119441986083984] [-0.86116659641265869:2.8595669269561768] [-18.460952758789062:7.3048324584960938] [-4.778623104095459:5.017918586730957] [-0.86116659641265869:3.1644546985626221] [-20.323673248291016:5.8144493103027344] [-4.8743400573730469:4.6484060287475586] [-0.86116659641265869:3.8682053089141846] [-35.583099365234375:5.741854190826416] [-5.413027286529541:4.7908687591552734] [-0.86116659641265869:2.8595669269561768] [-18.460952758789062:7.3048324584960938] [-4.5627026557922363:4.8954892158508301] [-0.86116659641265869:3.1715610027313232] [-20.323673248291016:5.8144493103027344] [-4.8743400573730469:4.8954892158508301] [-0.86116659641265869:3.8682053089141846] [-35.583099365234375:5.741854190826416] [-5.413027286529541:4.7908687591552734] [-0.86116659641265869:2.8595669269561768] [-18.460952758789062:7.3048324584960938] [-4.6762275695800781:4.8954892158508301] [-0.86116659641265869:3.1782879829406738] [-20.434093475341797:7.3048324584960938] [-4.8743400573730469:4.8954892158508301] [-0.86116659641265869:3.8682053089141846] [-35.583099365234375:5.741854190826416] [-5.413027286529541:6.6562404632568359] [-0.86116659641265869:2.8595669269561768] [-18.460952758789062:7.3048324584960938] [-5.0947127342224121:4.8954892158508301] [-0.86116659641265869:3.1728832721710205] [-20.434093475341797:7.3048324584960938] [-4.9121818542480469:4.8954892158508301] [-0.86116659641265869:3.8682053089141846] [-35.583099365234375:5.741854190826416] [-5.3840899467468262:6.6562404632568359] [-0.86116659641265869:2.8595669269561768] [-18.514963150024414:7.3048324584960938] [-5.2304973602294922:4.5549149513244629] [-0.86116659641265869:3.1472647190093994] [-20.508506774902344:7.3048324584960938] [-4.9121818542480469:4.5571403503417969] [-0.86116659641265869:3.8682053089141846] [-35.583099365234375:5.741854190826416] [-5.3840899467468262:6.6562404632568359] [-0.86116659641265869:2.8595669269561768] [-18.514963150024414:7.3048324584960938] [-10.241179466247559:3.9182839393615723] [-0.86116659641265869:3.1208128929138184] [-20.508506774902344:7.3048324584960938] [-4.9121818542480469:4.5571403503417969] [-0.86116659641265869:3.8682053089141846] [-35.583099365234375:5.741854190826416] [-5.3840899467468262:4.0251312255859375] [-0.86116659641265869:2.8595669269561768] [-18.460952758789062:7.3048324584960938] [-10.241179466247559:4.5682706832885742] [-0.86116659641265869:3.0910208225250244] [-20.508506774902344:7.3048324584960938] [-5.2616605758666992:4.0407133102416992] [-0.86116659641265869:3.8682053089141846] [-35.583099365234375:5.741854190826416] [-5.4441909790039062:3.6667482852935791] [-0.86116659641265869:2.8732104301452637] [-26.082265853881836:7.3048324584960938] [-5.0702266693115234:4.5682706832885742] [-0.86116659641265869:3.0612318515777588] [-20.616523742675781:7.3048324584960938] [-5.2616605758666992:5.017918586730957] [-0.86116659641265869:3.8682053089141846] [-35.583099365234375:5.741854190826416] [-5.8092522621154785:3.9383177757263184] [-0.86116659641265869:3.0773282051086426] [-18.809013366699219:7.3048324584960938] [-4.9210858345031738:4.5682706832885742] [-0.86116659641265869:3.103809118270874] [-20.616523742675781:7.3048324584960938] [-6.025172233581543:5.0357265472412109] [-0.86116659641265869:3.8682053089141846] [-35.583099365234375:5.741854190826416] [-6.3345832824707031:4.5549149513244629] [-0.86116659641265869:3.0647847652435303] [-18.809013366699219:7.3048324584960938] [-4.9900913238525391:6.5271334648132324] [-0.86116659641265869:3.1059966087341309] [-17.893255233764648:7.3048324584960938] [-6.025172233581543:5.0357265472412109] [-0.86116659641265869:3.8682053089141846] [-35.583099365234375:5.741854190826416] [-6.3345832824707031:4.5549149513244629] [-0.86116659641265869:3.0522446632385254] [-18.809013366699219:7.3048324584960938] [-5.0034470558166504:6.5271334648132324] [-0.86116659641265869:3.1081850528717041] [-17.893255233764648:7.3048324584960938] [-6.025172233581543:5.0357265472412109] [-0.86116659641265869:3.8682053089141846] [-35.583099365234375:5.741854190826416] [-6.3345832824707031:5.0980539321899414] [-0.86116659641265869:3.0406453609466553] [-18.809013366699219:7.3048324584960938] [-5.1013903617858887:6.5271334648132324] [-0.86116659641265869:3.1071071624755859] [-17.893255233764648:7.3048324584960938] [-4.9077301025390625:4.5059432983398438] [-0.86116659641265869:3.8682053089141846] [-35.583099365234375:5.741854190826416] [-5.7580547332763672:5.0980539321899414] [-0.86116659641265869:3.0374646186828613] [-18.809013366699219:7.3048324584960938] [-5.1013903617858887:4.5571403503417969] [-0.86116659641265869:3.0984206199645996] [-17.893255233764648:7.3048324584960938] [-4.8120131492614746:4.5059432983398438] [-0.86116659641265869:3.8682053089141846] [-35.583099365234375:5.741854190826416] [-5.7580547332763672:5.0980539321899414] [-0.86116659641265869:3.0342874526977539] [-18.809013366699219:7.3048324584960938] [-5.1013903617858887:12.236774444580078] [-0.86116659641265869:3.0897307395935059] [-18.809013366699219:7.3048324584960938] [-4.8609843254089355:4.1030402183532715] [-0.86116659641265869:3.8682053089141846] [-35.583099365234375:5.741854190826416] [-5.7580547332763672:4.2121138572692871] [-0.86116659641265869:3.0340163707733154] [-18.809013366699219:7.3048324584960938] [-5.1013903617858887:12.236774444580078] [-0.86116659641265869:3.0810444355010986] [-18.809013366699219:7.3048324584960938] [-4.8609843254089355:3.8426008224487305] [-0.86116659641265869:3.8682053089141846] [-35.583099365234375:6.8505892753601074] [-5.0791306495666504:4.2855710983276367] [-0.86116659641265869:3.0354628562927246] [-18.809013366699219:7.3048324584960938] [-21.190780639648438:4.574948787689209] [-0.86116659641265869:3.072354793548584] [-20.812158584594727:7.3048324584960938] [-4.8609843254089355:3.8693125247955322] [-0.86116659641265869:3.8682053089141846] [-35.583099365234375:6.8505892753601074] [-5.0947127342224121:4.2855710983276367] [-0.86116659641265869:3.036909818649292] [-18.809013366699219:7.3048324584960938] [-21.190780639648438:4.574948787689209] [-0.86116659641265869:3.0636680126190186] [-20.951381683349609:7.3048324584960938] [-4.8721146583557129:4.385739803314209] [-0.86116659641265869:3.8682053089141846] [-35.583099365234375:6.8505892753601074] [-5.1459102630615234:4.2855710983276367] [-0.86116659641265869:3.0383560657501221] [-18.809013366699219:7.3048324584960938] [-5.3751864433288574:4.2811188697814941] [-0.86116659641265869:3.0631976127624512] [-20.951381683349609:7.3048324584960938] [-4.8854703903198242:4.385739803314209] [-0.86116659641265869:3.8682053089141846] [-35.583099365234375:6.8505892753601074] [-5.1459102630615234:4.2855710983276367] [-0.86116659641265869:3.0398027896881104] [-18.809013366699219:7.3048324584960938] [-4.7096176147460938:4.0941367149353027] [-0.86116659641265869:3.0767924785614014] [-20.951381683349609:7.3048324584960938] [-5.0947127342224121:4.385739803314209] [-0.86116659641265869:3.8682053089141846] [-35.583099365234375:6.8505892753601074] [-5.1459102630615234:4.2811188697814941] [-0.86116659641265869:3.0410864353179932] [-18.809013366699219:7.3048324584960938] [-4.769719123840332:4.3523502349853516] [-0.86116659641265869:3.0903871059417725] [-21.112209320068359:7.3048324584960938] [-5.0947127342224121:5.0134663581848145] [-0.86116659641265869:3.8682053089141846] [-35.583099365234375:6.8505892753601074] [-5.1459102630615234:5.5009565353393555] [-0.86116659641265869:3.0421280860900879] [-18.809013366699219:7.3048324584960938] [-5.7580547332763672:5.1759629249572754] [-0.86116659641265869:2.9379351139068604] [-21.112209320068359:7.3048324584960938] [-5.1214241981506348:5.8482098579406738] [-0.86116659641265869:3.8682053089141846] [-35.583099365234375:6.8505892753601074] [-5.1013903617858887:5.5009565353393555] [-0.86116659641265869:3.0431699752807617] [-18.809013366699219:7.3048324584960938] [-5.7580547332763672:5.1759629249572754] [-0.86116659641265869:2.9379088878631592] [-21.112209320068359:7.3048324584960938] [-4.6762275695800781:5.8482098579406738] [-0.86116659641265869:3.8682053089141846] [-35.583099365234375:6.8505892753601074] [-5.1013903617858887:4.728541374206543] [-0.86116659641265869:3.0432674884796143] [-18.809013366699219:7.3048324584960938] [-5.413027286529541:5.6011257171630859] [-0.86116659641265869:2.9378764629364014] [-21.112209320068359:7.3048324584960938] [-4.6762275695800781:5.8482098579406738] [-0.86116659641265869:3.8682053089141846] [-35.619106292724609:6.8505892753601074] [-5.1013903617858887:4.728541374206543] [-0.86116659641265869:3.0419549942016602] [-18.809013366699219:7.3048324584960938] [-5.3017282485961914:7.4687232971191406] [-0.86116659641265869:2.938784122467041] [-21.250232696533203:7.3048324584960938] [-4.7674932479858398:4.5549149513244629] [-0.86116659641265869:3.8682053089141846] [-35.619106292724609:6.8505892753601074] [-5.1013903617858887:4.728541374206543] [-0.86116659641265869:3.040642261505127] [-18.809013366699219:7.3048324584960938] [-5.0301589965820312:5.6011257171630859] [-0.86116659641265869:2.9388952255249023] [-21.286239624023438:7.3048324584960938] [-4.7341032028198242:4.5549149513244629] [-0.86116659641265869:3.8682053089141846] [-35.65631103515625:6.8505892753601074] [-4.9077296257019043:4.3145089149475098] [-0.86116659641265869:3.3209888935089111] [-18.809013366699219:7.3048324584960938] [-4.8876962661743164:4.5326547622680664] [-0.86116659641265869:2.9390032291412354] [-21.286239624023438:7.3048324584960938] [-4.9900913238525391:4.0295834541320801] [-0.86116659641265869:3.8682053089141846] [-35.65631103515625:6.8505892753601074] [-4.9077296257019043:4.3145089149475098] [-0.86116659641265869:3.3336007595062256] [-18.809013366699219:7.3048324584960938] [-4.8031091690063477:67.559074401855469] [-0.86116659641265869:2.944678783416748] [-21.286239624023438:5.8144493103027344] [-5.0501928329467773:4.7908687591552734] [-0.86116659641265869:3.8682053089141846] [-35.65631103515625:7.3048324584960938] [-4.9077296257019043:4.385739803314209] [-0.86116659641265869:3.34621262550354] [-18.809013366699219:7.3048324584960938] [-22.041105270385742:4.1186223030090332] [-0.86116659641265869:2.9543123245239258] [-21.286239624023438:5.8144493103027344] [-5.0501928329467773:4.7908687591552734] [-0.86116659641265869:3.8682053089141846] [-35.65631103515625:7.3048324584960938] [-5.1481356620788574:4.385739803314209] [-0.86116659641265869:3.0747711658477783] [-18.809013366699219:7.3048324584960938] [-22.041105270385742:4.3011527061462402] [-0.86116659641265869:2.9639458656311035] [-21.286239624023438:7.3048324584960938] [-5.535456657409668:4.7908687591552734] [-0.86116659641265869:3.8682053089141846] [-35.65631103515625:7.3048324584960938] [-5.1481356620788574:7.4687232971191406] [-0.86116659641265869:3.066401481628418] [-18.809013366699219:7.3048324584960938] [-5.7335686683654785:4.8999414443969727] [-0.86116659641265869:2.9538977146148682] [-21.336648941040039:7.3048324584960938] [-5.0501928329467773:4.316734790802002] [-0.86116659641265869:3.8682053089141846] [-18.728599548339844:6.8505892753601074] [-5.535456657409668:4.2811188697814941] [-0.86116659641265869:3.0580317974090576] [-18.809013366699219:7.3048324584960938] [-5.7335686683654785:4.7619309425354004] [-0.86116659641265869:2.9203042984008789] [-21.371454238891602:7.3048324584960938] [-5.0501928329467773:3.9561254978179932] [-0.86116659641265869:3.8682053089141846] [-18.667388916015625:6.8505892753601074] [-5.036837100982666:4.9578170776367188] [-0.86116659641265869:3.0425913333892822] [-18.809013366699219:7.3048324584960938] [-5.7335686683654785:4.7619309425354004] [-0.86116659641265869:2.8867108821868896] [-21.371454238891602:7.3048324584960938] [-5.4486432075500488:3.9605777263641357] [-0.86116659641265869:3.8682053089141846] [-18.675790786743164:6.8505892753601074] [-5.036837100982666:4.9578170776367188] [-0.86116659641265869:3.0165584087371826] [-18.781408309936523:7.3048324584960938] [-5.2727909088134766:37.129920959472656] [-0.86116659641265869:2.6521937847137451] [-21.371454238891602:7.3048324584960938] [-5.4486432075500488:4.5326547622680664] [-0.86116659641265869:3.8682053089141846] [-18.628982543945312:6.8505892753601074] [-5.0902605056762695:4.3723845481872559] [-0.86116659641265869:2.9905250072479248] [-18.809013366699219:7.3048324584960938] [-5.2727909088134766:3.8715384006500244] [-0.86116659641265869:2.879366397857666] [-21.371454238891602:7.3048324584960938] [-5.4486432075500488:4.5326547622680664] [-0.86116659641265869:3.8682053089141846] [-18.628982543945312:6.8505892753601074] [-5.0902605056762695:4.2544069290161133] [-0.86116659641265869:2.9710385799407959] [-18.809013366699219:7.3048324584960938] [-5.2304973602294922:5.0980539321899414] [-0.86116659641265869:2.8730342388153076] [-21.371454238891602:7.3048324584960938] [-5.1971073150634766:4.5326547622680664] [-0.86116659641265869:3.8682053089141846] [-18.628982543945312:6.8505892753601074] [-5.0902605056762695:4.2544069290161133] [-0.86116659641265869:2.9668424129486084] [-18.770606994628906:7.3048324584960938] [-5.4486432075500488:5.0980539321899414] [-0.86116659641265869:2.8667056560516357] [-21.370254516601562:7.3048324584960938] [-5.2349491119384766:4.5126214027404785] [-0.86116659641265869:3.8682053089141846] [-18.667388916015625:6.8505892753601074] [-5.123650074005127:5.1759634017944336] [-0.86116659641265869:2.9673910140991211] [-18.781408309936523:7.3048324584960938] [-5.4486432075500488:5.0980539321899414] [-0.86116659641265869:2.8702816963195801] [-21.370254516601562:7.3048324584960938] [-5.2349491119384766:4.7841906547546387] [-0.86116659641265869:3.8682053089141846] [-18.667388916015625:7.3048324584960938] [-5.123650074005127:5.1759634017944336] [-0.86116659641265869:2.9727141857147217] [-18.781408309936523:7.3048324584960938] [-5.5109705924987793:4.6484060287475586] [-0.86116659641265869:2.8801565170288086] [-21.370254516601562:7.3048324584960938] [-5.2349491119384766:4.7841906547546387] [-0.86116659641265869:3.8682053089141846] [-18.667388916015625:7.3048324584960938] [-5.123650074005127:5.1759634017944336] [-0.86116659641265869:2.9780368804931641] [-18.628982543945312:7.3048324584960938] [-5.5109705924987793:4.6484060287475586] [-0.86116659641265869:2.8900284767150879] [-21.396657943725586:7.3048324584960938] [-5.7335686683654785:4.7841906547546387] [-0.86116659641265869:3.8682053089141846] [-18.634983062744141:7.3048324584960938] [-5.8137040138244629:5.017918586730957] [-0.86116659641265869:2.9808814525604248] [-18.628982543945312:7.3048324584960938] [-4.9077301025390625:4.241051197052002] [-0.86116659641265869:2.8974514007568359] [-21.396657943725586:7.3048324584960938] [-4.9077301025390625:4.5393328666687012] [-0.86116659641265869:3.8682053089141846] [-18.634983062744141:7.3048324584960938] [-5.8137040138244629:5.017918586730957] [-0.86116659641265869:2.9550895690917969] [-18.628982543945312:7.3048324584960938] [-4.9077301025390625:4.5549149513244629] [-0.86116659641265869:2.8972551822662354] [-21.396657943725586:7.3048324584960938] [-5.0657744407653809:4.7619309425354004] [-0.86116659641265869:3.8682053089141846] [-18.634983062744141:7.3048324584960938] [-5.8137040138244629:5.2360649108886719] [-0.86116659641265869:2.9443359375] [-18.667388916015625:7.3048324584960938] [-6.025172233581543:4.5549149513244629] [-0.86116659641265869:2.9019415378570557] [-21.480672836303711:7.3048324584960938] [-5.0657744407653809:4.7619309425354004] [-0.86116659641265869:3.8682053089141846] [-18.628982543945312:7.3048324584960938] [-5.161491870880127:5.2360649108886719] [-0.86116659641265869:2.933582067489624] [-18.667388916015625:7.3048324584960938] [-6.025172233581543:4.6127901077270508] [-0.86116659641265869:2.9306690692901611] [-21.480672836303711:7.3048324584960938] [-5.0657744407653809:4.7619309425354004] [-0.86116659641265869:3.8682053089141846] [-18.628982543945312:7.3048324584960938] [-4.9656052589416504:5.2360649108886719] [-0.86116659641265869:2.9230015277862549] [-18.667388916015625:7.3048324584960938] [-6.025172233581543:4.6127901077270508] [-0.86116659641265869:2.9594001770019531] [-21.480672836303711:7.3048324584960938] [-4.9923171997070312:4.2811188697814941] [-0.86116659641265869:3.8682053089141846] [-18.628982543945312:7.3048324584960938]
tree_sizes=6760 6820 6846

Tree=0
num_leaves=63
num_cat=0
split_feature=532 208 532 1 517 469 271 217 450 397 46 210 350 492 145 522 273 532 234 135 154 406 95 226 97 298 21 153 519 172 195 330 512 63 495 424 390 525 274 174 207 397 152 168 493 408 127 412 174 105 351 321 207 486 333 511 186 99 166 96 261 174
split_gain=53382.8 5405.79 3117.85 1319.5 1287.84 1094.6 782.079 566.688 520.245 490.854 450.774 446.766 427.914 417.621 410.781 394.944 431.278 393.447 402.171 427.63 397.303 376.02 374.355 378.519 366.696 491.952 423.602 415.313 358.298 336.325 356.216 352.422 329.626 318.118 314.419 338.232 306.486 305.521 326.698 354.17 305.12 472.899 300.591 297.485 296.569 292.784 291.515 324.797 291.232 318.08 304.786 289.812 330.653 305.93 289.793 286.696 283.314 301.748 306.724 281.915 279.997 276.852
threshold=-0.61506476998329151 -0.49515293538570399 -0.72659212350845326 -0.46745233237743372 -0.71905672550201405 -0.64504641294479359 -0.72725018858909596 -0.83211079239845265 1.8381050229072573 -0.84604188799858082 -0.83334025740623463 -0.55371144413948048 0.27753323316574102 -0.19087655097246167 -0.30077847838401789 1.2237342596054079 1.422959625720978 -0.79361897706985463 -0.79300436377525318 -0.38564987480640406 -0.80194303393363942 -0.82497215270996083 0.022446023300290111 -0.30283418297767634 -0.11685401573777197 -0.2567367404699325 -0.65944552421569813 1.3038695454597475 0.92545288801193248 -0.84020626544952381 0.76073023676872265 0.52700224518775951 -0.3258212655782699 1.3561801910400393 0.54703614115715038 -0.65199726819992054 1.1057572960853579 -0.22092729061841962 0.4115163534879685 1.4040387868881228 0.15526349097490313 -0.82220450043678273 0.55008232593536388 -0.12743613123893735 3.3418301343917851 0.2977262288331986 -0.43660369515419001 -0.29369047284126276 -0.027266979217529293 0.83530059456825267 -0.6961742341518401 -0.26655989885330195 0.81637975573539745 -1.1346923708915708 1.7134501338005068 -0.67417901754379261 1.9037714600563052 1.3795529603958132 -0.43835729360580439 -0.11185422539710997 -0.92322424054145802 0.71843659877777111
decision_type=2 2 2 2 2 2 2 2 2 2 2 2 2 2 2 2 2 2 2 2 2 2 2 2 2 2 2 2 2 2 2 2 2 2 2 2 2 2 2 2 2 2 2 2 2 2 2 2 2 2 2 2 2 2 2 2 2 2 2 2 2 2
left_child=2 6 4 8 21 12 33 -4 14 -7 -8 13 -5 29 34 16 37 -6 19 20 -19 -1 23 -16 26 27 28 -26 51 -12 -31 -32 -30 44 -3 -36 -34 -13 39 45 41 -9 46 59 -2 54 48 -48 49 50 -43 53 61 -11 -39 -17 57 -28 -59 -37 -52 -53
right_child=1 3 7 5 17 9 10 40 -10 24 11 15 -14 -15 22 55 -18 18 -20 -21 -22 -23 -24 -25 25 -27 56 -29 32 30 31 -33 36 -35 35 43 -38 38 -40 -41 -42 42 -44 -45 -46 -47 47 -49 -50 -51 60 52 -54 -55 -56 -57 -58 58 -60 -61 -62 -63
leaf_value=-1.8890732892471123 -2.1322899350295632 -2.4339177604427515 -1.991539447399987 -2.0857471220472874 -1.9975279441793738 -2.0461566333185175 -2.100112264146917 -1.9945177411700996 -2.081078722093574 -2.2098525293462932 -1.9563146734540804 -2.4169313970814108 -2.5390733177662796 -2.5218635415846973 -2.004263170778803 -2.5390733177662796 -2.0956330696235712 -2.0856586681534477 -2.031996759262678 -2.0586797147299194 -2.4252686019992842 -1.9692648659164322 -2.14872004480402 -2.4617867312079977 -2.4021986130102069 -2.4660655915079972 -2.4542528836799447 -2.1739498501226167 -2.0552946745802072 -2.4233198911016589 -2.3908277009214585 -1.9355018641046826 -2.4264066491633232 -2.3825918332549549 -1.9591713335575021 -2.4035118179561552 -2.0805461702260115 -2.4521838562300058 -2.5390733177662796 -2.0247254725776149 -2.0973807080594882 -2.3560408230062344 -2.4408175021944971 -2.5013501029726779 -2.341797048955375 -2.1725672827500877 -2.4961799161625398 -2.2152594401919803 -2.0956700045109531 -2.4815903237386587 -2.5390733177662796 -2.3392047195103105 -2.5390733177662796 -2.4980040583972825 -2.0269520866826896 -2.0876542706930747 -2.2125032603749588 -2.1812557176832117 -2.4315669546230749 -2.0923772674357473 -2.0961767511658214 -2.1342828857743861
leaf_weight=308.30768637359142 227.14792736619711 79.881657429039478 73.420117303729057 33.088757082819939 824.30768088251352 8.520709961652754 32.804733440279961 31.952662274241447 26.201183177530766 10.93491120636463 6.1775146946310988 54.035503335297108 6.1775148734450331 34.863905750215054 5.6094673797488239 3.8343195766210547 24.355029366910458 14.556212879717348 313.56212636828423 48.710058644413948 21.088757552206516 277.98816143721342 52.260354697704315 23.289941042661667 149.04142104834318 698.55621959269047 318.31952943652868 23.00591704249382 18.603550091385841 41.467455923557281 8.0946746021509188 8.9467454105615598 21.301775306463245 15.337278187274931 7.242603436112403 13.278106592595575 9.1597632244229299 27.621302016079426 9.7278107777237874 16.33136074244976 228.21301572024822 19.668639130890369 12.213017851114271 15.905325621366499 18.248520769178867 29.467455469071865 13.988165833055971 38.911242485046387 94.721892639994621 10.437869928777216 3.8343195766210547 54.035503126680851 14.201183617115019 58.437870465219021 4.6863904744386664 42.532543979585171 14.698224805295466 21.798816464841366 27.905325658619404 16.118343047797683 51.479289479553699 23.715976163744926
leaf_count=668 1505 971 297 191 3425 43 198 131 149 88 21 640 87 480 24 54 145 84 1501 257 253 1011 362 295 1725 8903 3988 170 97 496 92 27 256 172 25 154 52 345 137 76 1366 211 150 213 191 217 186 317 564 136 54 563 200 779 22 247 119 164 338 95 307 158
internal_value=-2.18699 -2.35579 -2.02034 -2.40032 -1.98802 -2.4176 -2.22703 -2.12134 -2.29135 -2.42455 -2.27642 -2.29495 -2.15707 -2.38237 -2.31715 -2.25402 -2.29001 -2.01724 -2.05807 -2.15498 -2.28658 -1.9271 -2.22857 -2.37298 -2.42676 -2.44741 -2.39644 -2.37168 -2.33944 -2.30719 -2.34423 -2.15178 -2.22113 -2.16168 -2.37143 -2.27644 -2.32241 -2.32338 -2.26583 -2.2318 -2.1402 -2.17545 -2.19902 -2.32716 -2.14787 -2.28654 -2.18635 -2.28954 -2.15604 -2.22299 -2.18699 -2.37543 -2.31722 -2.45258 -2.3905 -2.12498 -2.42777 -2.43636 -2.32179 -2.23291 -2.12688 -2.2767
internal_weight=4744.33 2356.97 2387.36 1751.29 1808.52 1511.5 605.68 578.84 239.787 1472.24 344.947 312.142 39.2663 99.5503 213.586 212.592 166.225 1222.22 397.917 84.355 35.645 586.296 81.1598 28.8994 1463.72 870.604 593.112 172.047 210.391 64.6864 58.5089 17.0414 49.0651 260.734 132.426 52.5444 30.4615 141.87 87.8343 78.1065 505.42 277.207 245.254 45.3018 245.396 61.7751 233.041 52.8994 180.142 85.4201 74.9822 161.325 91.9527 69.3728 32.3077 46.3669 382.722 368.024 49.7041 29.3964 55.3136 77.7515
internal_count=36192 25274 10918 20209 7199 17921 5065 3719 2288 17643 3197 2999 278 1116 2139 1883 1582 5520 2095 594 337 1679 681 319 17600 10798 6802 1895 2193 636 615 119 405 1868 1458 487 308 1437 797 660 3422 2056 1925 462 1696 584 1775 503 1272 708 572 1788 921 867 367 301 4609 4490 502 249 361 721
is_linear=0
shrinkage=1


Tree=1
num_leaves=63
num_cat=0
split_feature=532 208 532 433 1 478 253 406 337 136 124 289 451 531 132 145 6 291 117 532 532 178 494 158 162 219 190 81 471 357 100 184 235 90 144 300 89 486 513 300 210 456 258 138 68 246 393 243 144 63 300 462 237 189 530 48 534 213 60 41 498 324
split_gain=21826.4 2962.29 1030.54 774.341 680.931 533.374 449.79 378.1 345.21 307.648 305.167 304.379 330.806 317.013 306.4 298.567 317.554 282.936 357.923 280.957 291.263 283.474 279.58 276.085 386.265 297.535 292.718 313.053 268.379 259.837 258.999 264.917 255.002 254.882 254.489 277.557 265.456 266.077 243.383 279.697 294.679 339.343 283.094 273.957 265.657 241.778 290.942 248.147 240.738 236.131 226.264 273.023 283.355 221.24 240.844 218.054 229.216 217.987 261.085 217.303 215.546 213.363
threshold=-0.60075321793556202 -0.49515293538570399 -0.70694455504417408 -0.78158512711524952 -0.46745233237743372 -0.83781909942626942 -0.80515635013580311 -0.68537026643753041 -0.64551338553428639 -0.41188296675682062 -0.090113501995801912 -0.24875558167695996 -0.1729132533073425 0.37007062137126928 0.91877487301826488 -0.13470389693975446 -0.58042320609092701 1.6622525453567507 0.42238120734691625 0.84071967005729686 0.93471068143844616 3.3951641321182255 0.91829183697700512 0.013875546865165235 1.0501077771186831 0.73513150215148937 -0.84513735771179188 1.1959095001220705 0.24207671731710437 2.1018837690353398 -0.68725126981735218 -0.53091797232627858 -0.83260062336921681 1.0979664325714114 -0.44909033179283137 -0.34001725912094111 0.017308680340647701 -0.10517628863453864 -0.61826488375663746 -0.21647533029317853 0.44241501390933996 -0.080690521746873842 0.476917713880539 -1.1346923708915708 1.1068170666694643 -0.13967898488044736 0.87870725989341747 0.99223223328590404 -0.069560576230287538 -0.41347461938858027 0.31330808997154241 0.26433655619621282 0.48470860719680792 0.075128149241209044 -0.098916221410036073 -0.45799423754215235 -0.70841708779335011 1.8158451914787295 1.104644298553467 0.53025344014167797 -1.1335794329643247 0.38676549494266516
decision_type=2 2 2 2 2 2 2 2 2 2 2 2 2 2 2 2 2 2 2 2 2 2 2 2 2 2 2 2 2 2 2 2 2 2 2 2 2 2 2 2 2 2 2 2 2 2 2 2 2 2 2 2 2 2 2 2 2 2 2 2 2 2
left_child=2 7 6 -3 15 -6 -1 55 45 -4 17 12 14 -14 50 16 59 29 28 22 21 -21 -13 24 25 -10 -25 30 -19 38 32 -32 -28 -11 35 -18 -36 -38 39 40 41 -7 -43 -41 -40 46 47 60 -24 -31 -12 -52 -53 54 -17 -2 -57 58 -16 -5 -9 -26
right_child=1 3 9 4 5 10 -8 8 23 33 11 19 13 -15 57 53 34 18 -20 20 -22 -23 48 26 61 -27 27 -29 -30 49 31 -33 -34 -35 36 -37 37 -39 44 43 -42 42 -44 -45 -46 -47 -48 -49 -50 -51 51 52 -54 -55 -56 56 -58 -59 -60 -61 -62 -63
leaf_value=0.33614528117861386 0.29782156971088142 0.28441614388403835 0.25674550076559416 -0.030377216689468408 0.35720173599692862 -0.033430234447603971 0.29514539753037872 0.19515194133333075 -0.035268621259380122 0.19174343203996611 -0.044961056817556778 0.00074463939620453235 0.04953590569140344 0.39321253536984241 0.042641415922834068 0.26698739922070408 0.044034937337571745 0.079408045774516933 -0.054548189709020957 0.019331115372615875 0.042040973608072192 0.38557243991195167 0.35863321215237498 0.32457877344189756 0.3101595064994751 0.16350652358599593 -0.055467909218725076 0.27636264303037511 0.35411806201816332 0.41210569679199643 0.28645723903682352 0.037750181437962993 0.23039908707459489 -0.055637887411035238 -0.054759294127050467 0.32365686089322088 -0.018105297220889906 0.21802514934898493 0.03598289603369062 0.23502679306306828 0.2641377247592695 0.084408914987448874 0.37294291282133102 0.013408862992508895 0.38923120643582138 0.31861682850740469 0.35077882585923326 0.29588978452485354 -0.054242848580882519 0.032979041225315607 -0.029046557559955694 0.30072086316703506 -0.054731185766164016 0.31339372722784076 0.010833499561002607 0.064841119589142376 0.23444912829246123 0.46283344283805611 0.33862786192808969 0.21428427434380504 -0.055146605624233506 0.015808250156251102
leaf_weight=1059.0364790409803 106.92098951339722 42.3121422752738 560.02527165412903 49.171339690685272 14.521830447018145 28.465717919170856 1816.0162890404463 14.375144146382807 60.308183670043945 101.8629402667284 61.957306332886219 589.0136474147439 11.518017232418062 16.073951467871666 24.660027869045734 18.598787754774094 12.104605495929716 13.407810166478155 11.553912602365015 8.154568627476694 49.851062394678593 15.006194770336149 10.172468543052672 28.392555929720402 22.957435838878158 27.369472943246365 8.9051604643464071 41.568780958652496 26.390155367553234 10.278711996972563 12.272758044302462 83.932898938655853 62.921261057257652 11.597779922187327 20.42435135692358 33.258305251598358 16.385369338095188 43.87590679526329 403.96052407473326 16.566755063831806 43.280723221600056 21.56296568363905 14.03395541012287 88.109945066273212 5.3933893218636504 54.479524180293083 17.705982357263565 13.659054458141325 5.4072748348116866 6.8400033488869658 23.42314088344574 20.246913947165016 7.753906585276126 37.395738407969475 18.113393940031528 24.920580841600895 99.27456371486187 5.7984902933239928 10.675789497792719 11.129790708422659 21.414686419069767 8.4123257249593717
leaf_count=2183 482 194 2627 607 45 368 5732 104 706 675 790 7551 127 74 273 98 126 137 153 102 603 87 64 112 99 192 102 214 123 41 57 873 370 130 262 169 200 288 4618 125 305 223 74 1033 15 216 60 68 75 77 291 120 99 164 187 228 574 21 58 77 259 85
internal_value=0.216779 0.106015 0.297207 0.0729575 0.0680537 0.0555889 0.310248 0.19296 0.167603 0.241535 0.0527623 0.0328861 0.0902746 0.249748 0.0617974 0.142906 0.109147 0.0775329 0.190444 0.0174628 0.110111 0.256624 0.00627443 0.142819 0.0806532 0.0267811 0.173916 0.153507 0.261569 0.0684518 0.123114 0.0694772 0.194957 0.166456 0.154292 0.249043 0.101021 0.15382 0.0631575 0.106639 0.163349 0.0952561 0.198162 0.0484834 0.0406371 0.240351 0.176858 0.114582 0.215336 0.260621 0.0193882 0.0969184 0.20229 0.227796 0.140604 0.245479 0.200416 0.178693 0.132066 0.01478 0.0453869 0.231224
internal_weight=6125.18 2576.64 3548.54 1866.85 1824.54 1564.08 2875.05 709.791 478.675 673.486 1549.56 859.713 182.108 27.592 154.516 260.458 186.35 689.845 51.3519 677.605 73.0118 23.1608 604.593 357.041 119.047 87.6777 237.993 209.601 39.798 638.493 168.032 96.2057 71.8264 113.461 126.049 45.3629 80.6856 60.2613 621.374 212.02 107.343 64.0626 35.5969 104.677 409.354 121.634 67.1549 49.4489 15.5797 17.1187 113.381 51.424 28.0008 74.1079 36.7122 231.116 124.195 41.1343 35.3358 60.3011 35.7898 31.3698
internal_count=36192 24845 11347 20044 19850 17672 7915 4801 3517 3432 17627 10335 1853 201 1652 2178 1729 7292 413 8482 792 189 7690 2810 1082 898 1728 1616 260 6879 1402 930 472 805 1045 295 750 488 6761 2128 970 665 297 1158 4633 707 491 431 139 118 1300 510 219 449 285 1284 802 352 331 684 363 184
is_linear=0
shrinkage=0.05


Tree=2
num_leaves=63
num_cat=0
split_feature=523 64 469 478 199 10 106 532 423 336 447 83 532 347 492 76 442 133 480 63 307 70 1 393 417 30 36 222 117 417 48 502 523 489 23 504 438 28 216 323 235 186 133 35 315 480 492 531 35 183 276 419 30 432 189 208 188 9 246 42 471 405
split_gain=12395.6 1873.59 685.298 673.812 487.028 376.778 303.07 284.38 310.987 341.765 286.609 270.843 264.518 218.874 221.798 307.462 218.491 217.641 234.6 216.613 213.7 208.821 209.409 235.123 201.503 239.902 244.115 226.816 225.893 222.053 198.374 245.845 195.079 204.087 231.077 255.837 207.062 194.738 191.741 215.631 196.443 188.154 187.059 244.399 184.669 184.642 193.084 210.327 249.676 183.692 201.774 248.414 183.034 179.223 176.544 209.134 203.395 258.698 178.931 175.433 174.17 179.105
threshold=-0.58653306961059559 -0.56635808944702137 -0.54257461428642262 -0.75443804264068592 -0.8043595254421233 -0.84273383021354664 -0.10785068571567534 -0.57707095146179188 0.85867342352867138 1.3439372181892397 -0.95772698521614064 -2.8317632675170894 -0.66503524780273426 1.1173028945922854 0.34892380237579351 -0.84072712063789357 -0.83092534542083729 -0.1354761719703674 -0.0050071387086063615 2.0128444433212285 -0.63492953777313221 0.52463901042938244 -0.57977816462516774 0.38676549494266516 0.099613968282938017 -1.1346923708915708 0.22649486362934115 -0.087368458509445177 -0.40568371117115015 1.5064339041709902 -0.55259844660758961 -0.80057957768440235 -0.84845849871635426 1.5086598396301272 0.39430524408817297 1.4285244941711428 1.7512916922569277 -0.73361971974372853 1.5531795024871828 0.10047879442572595 -0.56151029467582692 -0.10517628863453864 -0.31702493131160731 0.060414345934987075 -0.19644152373075482 -0.47246313095092768 0.55148807168006908 1.5787782669067385 0.25102365016937261 0.30885612964630133 -0.47691510617732996 -0.22135902196168897 -0.46133323013782496 0.8608994483947755 0.18197523802518847 -0.76881659030914296 -0.17413432151079175 -0.50919178128242482 -0.94659706950187672 1.4040387868881228 0.050642382353544242 -0.89985144138336171
decision_type=2 2 2 2 2 2 2 2 2 2 2 2 2 2 2 2 2 2 2 2 2 2 2 2 2 2 2 2 2 2 2 2 2 2 2 2 2 2 2 2 2 2 2 2 2 2 2 2 2 2 2 2 2 2 2 2 2 2 2 2 2 2
left_child=3 11 20 16 -4 -6 13 -8 -9 19 -11 -2 -5 14 17 -16 -1 24 -19 45 -3 49 23 -23 25 26 28 -26 -7 44 31 -17 -14 34 54 36 -36 -25 40 -40 -27 -24 -33 -44 52 46 47 48 -10 50 -13 -52 -29 -31 55 -34 57 -57 -56 -58 61 -22
right_child=1 2 4 12 5 6 7 8 9 10 -12 21 32 -15 15 30 -18 18 -20 -21 60 22 41 37 27 38 -28 29 -30 53 -32 42 33 -35 35 -37 -38 -39 39 -41 -42 -43 43 -45 -46 -47 -48 -49 -50 -51 51 -53 -54 -55 58 56 59 -59 -60 -61 -62 -63
leaf_value=0.25745441081605702 0.27609655513789261 0.043562302680958301 0.23101163652503331 0.21231538173329581 0.2425346512100014 0.019666208363034589 0.20821021954326532 0.012263481500251684 -0.025215210840624742 0.37843457736014319 0.11044616613548155 0.18120482797573098 0.34518872506885517 0.30764327540538949 0.2450665661494639 0.28328062049560637 0.22855986777488582 0.0013249740583533515 0.27586585214996562 0.26259056875123471 -0.055852530804959381 0.00081540221609042963 0.0073585135123067809 0.22222097614461833 -0.012438096586123073 0.21054599326686582 -0.002695450941160641 -0.054983842741469703 0.31486280129296662 0.085231076744838152 -0.017990279761925982 -0.017796966262276493 0.21154519830016946 0.23869924478121951 -0.056798605907808435 0.23201251433688724 0.27570795492131372 -0.0097619529200535741 0.016209538419528529 0.32999832490035691 0.054217320007180984 0.26514758072418476 0.2425449363459051 -0.054997789069966135 -0.025019129693693767 0.0037636851567629278 -0.054480305335875862 0.35275029444768896 0.21767778608959254 0.20096123007053568 -0.034551356343607467 0.13051449713964081 0.18253151809371843 0.34696727656439075 0.0024219198849019462 -0.056651104572765044 -0.0024802899720802879 0.2355845000705572 0.22189389775346521 0.21651282390484483 0.24654504304617553 0.16939051067827723
leaf_weight=1152.0803493708372 46.748720526695251 29.861746482551098 39.554744765162468 1354.8799597620964 26.039793387055397 8.0088690221309644 22.592689320445061 734.68122822791338 20.388180054724216 15.216668397188185 28.97400489449501 156.12619689851999 14.935217797756193 9.8942056223750097 15.928013570606707 12.363971710205076 1514.057464748621 10.645109608769415 28.924638472497463 11.328868061304091 10.588507376611231 63.088719420135021 9.4798606187105161 30.067206293344498 98.53218337893486 22.444098599255085 11.364506937563418 10.784486360847948 33.96333284676075 12.783362679183485 146.0833483338356 48.289570063352585 51.231293417513371 70.907665520906448 35.237154200673103 14.501814052462576 5.3995501399040213 12.939707711338995 8.4473980888724345 15.558822467923163 192.04498064517975 27.939747124910355 20.070176109671596 10.518389254808424 40.168707527220249 133.3095079511404 14.770321831107138 10.298569634556769 21.992720119655132 220.78698982298374 27.885984696447849 124.80005986988544 32.723084107041359 13.392535991966723 10.035406522452829 9.6778605505824071 55.224979378283024 34.818959109485149 124.50001945346594 10.960083208978174 69.122481383383274 53.009897574782372
leaf_count=1803 135 238 161 4100 108 85 104 8693 256 62 269 823 39 39 82 51 3662 120 139 71 119 602 94 129 1140 115 123 134 132 115 1725 560 191 257 346 51 15 127 96 67 1960 106 99 131 484 1584 198 50 160 1023 292 780 225 43 81 97 485 131 464 47 270 304
internal_value=0.17353 0.0903488 0.0659251 0.225108 0.0574173 0.0536907 0.0509835 0.0328057 0.0288067 0.0762316 0.202726 0.159721 0.201401 0.0739296 0.0710137 0.0324096 0.241046 0.0891258 0.202008 0.0498753 0.164413 0.151638 0.0981401 0.0622711 0.0801962 0.107012 0.202875 0.0426414 0.258535 0.092045 0.0181372 0.0759791 0.167596 0.161318 0.145711 0.0517221 -0.0126172 0.152423 0.085574 0.219581 0.0705755 0.199839 0.0434851 0.14023 0.0522853 0.0378717 0.105284 0.150079 0.100829 0.166135 0.141236 0.100368 0.123657 0.219145 0.163193 0.128021 0.0893603 0.172025 0.205523 0.0337844 0.191603 0.13189
internal_weight=7222.97 2764.53 2044.66 4458.45 1882.08 1842.53 1816.49 1013.55 990.96 256.279 44.1907 719.863 1792.31 802.934 793.04 253.253 2666.14 539.786 39.5697 212.088 162.583 673.114 143.515 106.096 500.216 291.832 53.3367 208.384 41.9722 109.852 237.325 91.2421 437.43 422.495 351.587 55.1385 40.6367 43.0069 238.495 24.0062 214.489 37.4196 78.8781 30.5886 83.6763 200.759 67.4498 52.6795 42.3809 529.599 308.812 152.686 43.5076 26.1759 296.449 161.913 110.682 44.4968 134.535 66.1851 132.721 63.5984
internal_count=36192 24423 20312 11769 19381 19220 19112 11447 11343 2650 331 4111 6304 7665 7626 2648 5465 4978 259 2319 931 3976 1058 858 4719 2578 340 2141 217 1001 2566 841 2204 2165 1908 412 361 256 2238 163 2075 200 790 230 843 2248 664 466 416 2918 1895 1072 359 158 1496 951 760 228 545 532 693 423
is_linear=0
shrinkage=0.05


end of trees

feature_importances:
Column_532=9
Column_1=3
Column_63=3
Column_174=3
Column_208=3
Column_300=3
Column_492=3
Column_30=2
Column_35=2
Column_48=2
Column_117=2
Column_133=2
Column_144=2
Column_145=2
Column_186=2
Column_189=2
Column_207=2
Column_210=2
Column_235=2
Column_246=2
Column_393=2
Column_397=2
Column_406=2
Column_417=2
Column_469=2
Column_471=2
Column_478=2
Column_480=2
Column_486=2
Column_523=2
Column_531=2
Column_6=1
Column_9=1
Column_10=1
Column_21=1
Column_23=1
Column_28=1
Column_36=1
Column_41=1
Column_42=1
Column_46=1
Column_60=1
Column_64=1
Column_68=1
Column_70=1
Column_76=1
Column_81=1
Column_83=1
Column_89=1
Column_90=1
Column_95=1
Column_96=1
Column_97=1
Column_99=1
Column_100=1
Column_105=1
Column_106=1
Column_124=1
Column_127=1
Column_132=1
Column_135=1
Column_136=1
Column_138=1
Column_152=1
Column_153=1
Column_154=1
Column_158=1
Column_162=1
Column_166=1
Column_168=1
Column_172=1
Column_178=1
Column_183=1
Column_184=1
Column_188=1
Column_190=1
Column_195=1
Column_199=1
Column_213=1
Column_216=1
Column_217=1
Column_219=1
Column_222=1
Column_226=1
Column_234=1
Column_237=1
Column_243=1
Column_253=1
Column_258=1
Column_261=1
Column_271=1
Column_273=1
Column_274=1
Column_276=1
Column_289=1
Column_291=1
Column_298=1
Column_307=1
Column_315=1
Column_321=1
Column_323=1
Column_324=1
Column_330=1
Column_333=1
Column_336=1
Column_337=1
Column_347=1
Column_350=1
Column_351=1
Column_357=1
Column_390=1
Column_405=1
Column_408=1
Column_412=1
Column_419=1
Column_423=1
Column_424=1
Column_432=1
Column_433=1
Column_438=1
Column_442=1
Column_447=1
Column_450=1
Column_451=1
Column_456=1
Column_462=1
Column_489=1
Column_493=1
Column_494=1
Column_495=1
Column_498=1
Column_502=1
Column_504=1
Column_511=1
Column_512=1
Column_513=1
Column_517=1
Column_519=1
Column_522=1
Column_525=1
Column_530=1
Column_534=1

parameters:
[boosting: gbdt]
[objective: binary]
[metric: binary_logloss]
[tree_learner: serial]
[device_type: cpu]
[data_sample_strategy: bagging]
[data: ]
[valid: ]
[num_iterations: 300]
[learning_rate: 0.05]
[num_leaves: 63]
[num_threads: 32]
[seed: 2021]
[deterministic: 0]
[force_col_wise: 0]
[force_row_wise: 0]
[histogram_pool_size: -1]
[max_depth: -1]
[min_data_in_leaf: 50]
[min_sum_hessian_in_leaf: 0.001]
[bagging_fraction: 1]
[pos_bagging_fraction: 1]
[neg_bagging_fraction: 1]
[bagging_freq: 0]
[bagging_seed: 5064]
[bagging_by_query: 0]
[feature_fraction: 1]
[feature_fraction_bynode: 1]
[feature_fraction_seed: 6682]
[extra_trees: 0]
[extra_seed: 17862]
[early_stopping_round: 0]
[early_stopping_min_delta: 0]
[first_metric_only: 0]
[max_delta_step: 0]
[lambda_l1: 0]
[lambda_l2: 0]
[linear_lambda: 0]
[min_gain_to_split: 0]
[drop_rate: 0.1]
[max_drop: 50]
[skip_drop: 0.5]
[xgboost_dart_mode: 0]
[uniform_drop: 0]
[drop_seed: 14392]
[top_rate: 0.2]
[other_rate: 0.1]
[min_data_per_group: 100]
[max_cat_threshold: 32]
[cat_l2: 10]
[cat_smooth: 10]
[max_cat_to_onehot: 4]
[top_k: 20]
[monotone_constraints: ]
[monotone_constraints_method: basic]
[monotone_penalty: 0]
[feature_contri: ]
[forcedsplits_filename: ]
[refit_decay_rate: 0.9]
[cegb_tradeoff: 1]
[cegb_penalty_split: 0]
[cegb_penalty_feature_lazy: ]
[cegb_penalty_feature_coupled: ]
[path_smooth: 0]
[interaction_constraints: ]
[verbosity: -1]
[saved_feature_importance_type: 0]
[use_quantized_grad: 0]
[num_grad_quant_bins: 4]
[quant_train_renew_leaf: 0]
[stochastic_rounding: 1]
[linear_tree: 0]
[max_bin: 255]
[max_bin_by_feature: ]
[min_data_in_bin: 3]
[bin_construct_sample_cnt: 200000]
[data_random_seed: 6638]
[is_enable_sparse: 1]
[enable_bundle: 1]
[use_missing: 1]
[zero_as_missing: 0]
[feature_pre_filter: 1]
[pre_partition: 0]
[two_round: 0]
[header: 0]
[label_column: ]
[weight_column: ]
[group_column: ]
[ignore_column: ]
[categorical_feature: ]
[forcedbins_filename: ]
[precise_float_parser: 0]
[parser_config_file: ]
[objective_seed: 14162]
[num_class: 1]
[is_unbalance: 0]
[scale_pos_weight: 12]
[sigmoid: 1]
[boost_from_average: 1]
[reg_sqrt: 0]
[alpha: 0.9]
[fair_c: 1]
[poisson_max_delta_step: 0.7]
[tweedie_variance_power: 1.5]
[lambdarank_truncation_level: 30]
[lambdarank_norm: 1]
[label_gain: ]
[lambdarank_position_bias_regularization: 0]
[eval_at: ]
[multi_error_top_k: 1]
[auc_mu_weights: ]
[num_machines: 1]
[local_listen_port: 12400]
[time_out: 120]
[machine_list_filename: ]
[machines: ]
[gpu_platform_id: -1]
[gpu_device_id: -1]
[gpu_use_dp: 0]
[num_gpu: 1]

end of parameters

pandas_categorical:null
