tree
version=v4
num_class=1
num_tree_per_iteration=1
label_index=0
max_feature_idx=539
objective=binary sigmoid:1
feature_names=Column_0 Column_1 Column_2 Column_3 Column_4 Column_5 Column_6 Column_7 Column_8 Column_9 Column_10 Column_11 Column_12 Column_13 Column_14 Column_15 Column_16 Column_17 Column_18 Column_19 Column_20 Column_21 Column_22 Column_23 Column_24 Column_25 Column_26 Column_27 Column_28 Column_29 Column_30 Column_31 Column_32 Column_33 Column_34 Column_35 Column_36 Column_37 Column_38 Column_39 Column_40 Column_41 Column_42 Column_43 Column_44 Column_45 Column_46 Column_47 Column_48 Column_49 Column_50 Column_51 Column_52 Column_53 Column_54 Column_55 Column_56 Column_57 Column_58 Column_59 Column_60 Column_61 Column_62 Column_63 Column_64 Column_65 Column_66 Column_67 Column_68 Column_69 Column_70 Column_71 Column_72 Column_73 Column_74 Column_75 Column_76 Column_77 Column_78 Column_79 Column_80 Column_81 Column_82 Column_83 Column_84 Column_85 Column_86 Column_87 Column_88 Column_89 Column_90 Column_91 Column_92 Column_93 Column_94 Column_95 Column_96 Column_97 Column_98 Column_99 Column_100 Column_101 Column_102 Column_103 Column_104 Column_105 Column_106 Column_107 Column_108 Column_109 Column_110 Column_111 Column_112 Column_113 Column_114 Column_115 Column_116 Column_117 Column_118 Column_119 Column_120 Column_121 Column_122 Column_123 Column_124 Column_125 Column_126 Column_127 Column_128 Column_129 Column_130 Column_131 Column_132 Column_133 Column_134 Column_135 Column_136 Column_137 Column_138 Column_139 Column_140 Column_141 Column_142 Column_143 Column_144 Column_145 Column_146 Column_147 Column_148 Column_149 Column_150 Column_151 Column_152 Column_153 Column_154 Column_155 Column_156 Column_157 Column_158 Column_159 Column_160 Column_161 Column_162 Column_163 Column_164 Column_165 Column_166 Column_167 Column_168 Column_169 Column_170 Column_171 Column_172 Column_173 Column_174 Column_175 Column_176 Column_177 Column_178 Column_179 Column_180 Column_181 Column_182 Column_183 Column_184 Column_185 Column_186 Column_187 Column_188 Column_189 Column_190 Column_191 Column_192 Column_193 Column_194 Column_195 Column_196 Column_197 Column_198 Column_199 Column_200 Column_201 Column_202 Column_203 Column_204 Column_205 Column_206 Column_207 Column_208 Column_209 Column_210 Column_211 Column_212 Column_213 Column_214 Column_215 Column_216 Column_217 Column_218 Column_219 Column_220 Column_221 Column_222 Column_223 Column_224 Column_225 Column_226 Column_227 Column_228 Column_229 Column_230 Column_231 Column_232 Column_233 Column_234 Column_235 Column_236 Column_237 Column_238 Column_239 Column_240 Column_241 Column_242 Column_243 Column_244 Column_245 Column_246 Column_247 Column_248 Column_249 Column_250 Column_251 Column_252 Column_253 Column_254 Column_255 Column_256 Column_257 Column_258 Column_259 Column_260 Column_261 Column_262 Column_263 Column_264 Column_265 Column_266 Column_267 Column_268 Column_269 Column_270 Column_271 Column_272 Column_273 Column_274 Column_275 Column_276 Column_277 Column_278 Column_279 Column_280 Column_281 Column_282 Column_283 Column_284 Column_285 Column_286 Column_287 Column_288 Column_289 Column_290 Column_291 Column_292 Column_293 Column_294 Column_295 Column_296 Column_297 Column_298 Column_299 Column_300 Column_301 Column_302 Column_303 Column_304 Column_305 Column_306 Column_307 Column_308 Column_309 Column_310 Column_311 Column_312 Column_313 Column_314 Column_315 Column_316 Column_317 Column_318 Column_319 Column_320 Column_321 Column_322 Column_323 Column_324 Column_325 Column_326 Column_327 Column_328 Column_329 Column_330 Column_331 Column_332 Column_333 Column_334 Column_335 Column_336 Column_337 Column_338 Column_339 Column_340 Column_341 Column_342 Column_343 Column_344 Column_345 Column_346 Column_347 Column_348 Column_349 Column_350 Column_351 Column_352 Column_353 Column_354 Column_355 Column_356 Column_357 Column_358 Column_359 Column_360 Column_361 Column_362 Column_363 Column_364 Column_365 Column_366 Column_367 Column_368 Column_369 Column_370 Column_371 Column_372 Column_373 Column_374 Column_375 Column_376 Column_377 Column_378 Column_379 Column_380 Column_381 Column_382 Column_383 Column_384 Column_385 Column_386 Column_387 Column_388 Column_389 Column_390 Column_391 Column_392 Column_393 Column_394 Column_395 Column_396 Column_397 Column_398 Column_399 Column_400 Column_401 Column_402 Column_403 Column_404 Column_405 Column_406 Column_407 Column_408 Column_409 Column_410 Column_411 Column_412 Column_413 Column_414 Column_415 Column_416 Column_417 Column_418 Column_419 Column_420 Column_421 Column_422 Column_423 Column_424 Column_425 Column_426 Column_427 Column_428 Column_429 Column_430 Column_431 Column_432 Column_433 Column_434 Column_435 Column_436 Column_437 Column_438 Column_439 Column_440 Column_441 Column_442 Column_443 Column_444 Column_445 Column_446 Column_447 Column_448 Column_449 Column_450 Column_451 Column_452 Column_453 Column_454 Column_455 Column_456 Column_457 Column_458 Column_459 Column_460 Column_461 Column_462 Column_463 Column_464 Column_465 Column_466 Column_467 Column_468 Column_469 Column_470 Column_471 Column_472 Column_473 Column_474 Column_475 Column_476 Column_477 Column_478 Column_479 Column_480 Column_481 Column_482 Column_483 Column_484 Column_485 Column_486 Column_487 Column_488 Column_489 Column_490 Column_491 Column_492 Column_493 Column_494 Column_495 Column_496 Column_497 Column_498 Column_499 Column_500 Column_501 Column_502 Column_503 Column_504 Column_505 Column_506 Column_507 Column_508 Column_509 Column_510 Column_511 Column_512 Column_513 Column_514 Column_515 Column_516 Column_517 Column_518 Column_519 Column_520 Column_521 Column_522 Column_523 Column_524 Column_525 Column_526 Column_527 Column_528 Column_529 Column_530 Column_531 Column_532 Column_533 Column_534 Column_535 Column_536 Column_537 Column_538 Column_539
feature_infos=[-5.221592903137207:4.7174110412597656] [-0.86116659641265869:3.1393942832946777] [-18.460952758789062:7.3048324584960938] [-4.8164644241333008:4.0407133102416992] [-0.86116659641265869:2.9592044353485107] [-34.152454376220703:5.741854190826416] [-4.7341036796569824:4.4124517440795898] [-0.86116659641265869:3.8682053089141846] [-35.583099365234375:5.741854190826416] [-5.3507003784179688:4.7174110412597656] [-0.86116659641265869:3.1384341716766357] [-18.460952758789062:7.3048324584960938] [-4.7919788360595703:4.1119441986083984] [-0.86116659641265869:2.9501354694366455] [-34.152454376220703:5.741854190826416] [-5.036837100982666:4.1475601196289062] [-0.86116659641265869:3.8682053089141846] [-35.583099365234375:5.741854190826416] [-5.3507003784179688:4.7174110412597656] [-0.86116659641265869:3.1384341716766357] [-18.460952758789062:7.3048324584960938] [-5.0590968132019043:4.1119441986083984] [-0.86116659641265869:2.9410669803619385] [-34.152454376220703:5.741854190826416] [-5.036837100982666:4.6728916168212891] [-0.86116659641265869:3.8682053089141846] [-35.583099365234375:5.741854190826416] [-5.3507003784179688:4.3523502349853516] [-0.86116659641265869:3.137092113494873] [-18.460952758789062:7.3048324584960938] [-5.0590968132019043:6.838770866394043] [-0.86116659641265869:2.974003791809082] [-18.809013366699219:5.741854190826416] [-5.036837100982666:4.6728916168212891] [-0.86116659641265869:3.8682053089141846] [-35.583099365234375:5.741854190826416] [-6.0808219909667969:4.3011527061462402] [-0.86116659641265869:3.132115364074707] [-18.460952758789062:7.3048324584960938] [-5.0590968132019043:4.2276954650878906] [-0.86116659641265869:2.9862205982208252] [-18.809013366699219:5.741854190826416] [-4.8164644241333008:6.4113831520080566] [-0.86116659641265869:3.8682053089141846] [-35.583099365234375:5.741854190826416] [-6.0808219909667969:4.3011527061462402] [-0.86116659641265869:3.1265866756439209] [-22.298454284667969:7.3048324584960938] [-4.7830748558044434:4.2276954650878906] [-0.86116659641265869:2.9984374046325684] [-19.925205230712891:5.741854190826416] [-4.8164644241333008:6.838770866394043] [-0.86116659641265869:3.8682053089141846] [-35.583099365234375:5.741854190826416] [-5.1792998313903809:5.0357265472412109] [-0.86116659641265869:3.1210577487945557] [-22.298454284667969:7.3048324584960938] [-4.8209166526794434:4.7174110412597656] [-0.86116659641265869:3.0205032825469971] [-20.016422271728516:5.741854190826416] [-4.8164644241333008:6.4113831520080566] [-0.86116659641265869:3.8682053089141846] [-35.583099365234375:5.741854190826416] [-5.0234813690185547:6.0908412933349609] [-0.86116659641265869:3.0205976963043213] [-22.298454284667969:7.3048324584960938] [-5.0991640090942383:4.7174110412597656] [-0.86116659641265869:3.0573489665985107] [-20.016422271728516:7.3048324584960938] [-4.7341036796569824:4.490361213684082] [-0.86116659641265869:3.8682053089141846] [-35.583099365234375:5.741854190826416] [-5.5109705924987793:6.0908412933349609] [-0.86116659641265869:3.0146675109863281] [-18.460952758789062:7.3048324584960938] [-4.8209166526794434:5.7369108200073242] [-0.86116659641265869:3.0941884517669678] [-20.016422271728516:7.3048324584960938] [-4.9210858345031738:5.9528307914733887] [-0.86116659641265869:3.8682053089141846] [-35.583099365234375:5.741854190826416] [-5.5109705924987793:6.0908412933349609] [-0.86116659641265869:3.0054748058319092] [-18.460952758789062:7.3048324584960938] [-4.7118434906005859:5.7369108200073242] [-0.86116659641265869:3.121025562286377] [-20.099235534667969:7.3048324584960938] [-4.9210858345031738:5.9528307914733887] [-0.86116659641265869:3.8682053089141846] [-35.583099365234375:5.741854190826416] [-5.4619989395141602:6.0908412933349609] [-0.86116659641265869:2.9832098484039307] [-18.460952758789062:7.3048324584960938] [-7.3874721527099609:4.1809496879577637] [-0.86116659641265869:3.1245131492614746] [-20.099235534667969:7.3048324584960938] [-5.0947127342224121:4.4770054817199707] [-0.86116659641265869:3.8682053089141846] [-35.583099365234375:5.741854190826416] [-5.4619989395141602:5.7369108200073242] [-0.86116659641265869:2.9609482288360596] [-18.460952758789062:7.3048324584960938] [-7.3874721527099609:4.728541374206543] [-0.86116659641265869:3.1279976367950439] [-20.099235534667969:7.3048324584960938] [-5.0590968132019043:4.0251312255859375] [-0.86116659641265869:3.8682053089141846] [-35.583099365234375:5.741854190826416] [-5.4486432075500488:5.3518157005310059] [-0.86116659641265869:2.9386796951293945] [-18.460952758789062:7.3048324584960938] [-7.3874721527099609:4.728541374206543] [-0.86116659641265869:3.1333005428314209] [-20.204853057861328:7.3048324584960938] [-5.0590968132019043:4.7908682823181152] [-0.86116659641265869:3.8682053089141846] [-35.583099365234375:5.741854190826416] [-5.1592659950256348:4.5994343757629395] [-0.86116659641265869:2.9164180755615234] [-18.460952758789062:7.3048324584960938] [-4.7452335357666016:4.728541374206543] [-0.86116659641265869:3.1416802406311035] [-22.298454284667969:7.3048324584960938] [-4.892148494720459:4.7908682823181152] [-0.86116659641265869:3.8682053089141846] [-35.583099365234375:5.741854190826416] [-5.2304973602294922:4.1119441986083984] [-0.86116659641265869:2.8941531181335449] [-18.460952758789062:7.3048324584960938] [-4.9077296257019043:4.1876277923583984] [-0.86116659641265869:3.1500599384307861] [-22.298454284667969:5.8144493103027344] [-4.892148494720459:4.7908682823181152] [-0.86116659641265869:3.8682053089141846] [-35.583099365234375:5.741854190826416] [-5.2304973602294922:4.1119441986083984] [-0.86116659641265869:2.8706502914428711] [-18.460952758789062:7.3048324584960938] [-4.9077296257019043:5.017918586730957] [-0.86116659641265869:3.1573452949523926] [-22.298454284667969:5.8144493103027344] [-4.7318778038024902:4.6484060287475586] [-0.86116659641265869:3.8682053089141846] [-35.583099365234375:5.741854190826416] [-5.2861471176147461:4.1119441986083984] [-0.86116659641265869:2.8595669269561768] [-18.460952758789062:7.3048324584960938] [-4.778623104095459:5.017918586730957] [-0.86116659641265869:3.1644546985626221] [-20.323673248291016:5.8144493103027344] [-4.8743400573730469:4.6484060287475586] [-0.86116659641265869:3.8682053089141846] [-35.583099365234375:5.741854190826416] [-5.413027286529541:4.7908687591552734] [-0.86116659641265869:2.8595669269561768] [-18.460952758789062:7.3048324584960938] [-4.5627026557922363:4.8954892158508301] [-0.86116659641265869:3.1715610027313232] [-20.323673248291016:5.8144493103027344] [-4.8743400573730469:4.8954892158508301] [-0.86116659641265869:3.8682053089141846] [-35.583099365234375:5.741854190826416] [-5.413027286529541:4.7908687591552734] [-0.86116659641265869:2.8595669269561768] [-18.460952758789062:7.3048324584960938] [-4.6762275695800781:4.8954892158508301] [-0.86116659641265869:3.1782879829406738] [-20.434093475341797:7.3048324584960938] [-4.8743400573730469:4.8954892158508301] [-0.86116659641265869:3.8682053089141846] [-35.583099365234375:5.741854190826416] [-5.413027286529541:6.6562404632568359] [-0.86116659641265869:2.8595669269561768] [-18.460952758789062:7.3048324584960938] [-5.0947127342224121:4.8954892158508301] [-0.86116659641265869:3.1728832721710205] [-20.434093475341797:7.3048324584960938] [-4.9121818542480469:4.8954892158508301] [-0.86116659641265869:3.8682053089141846] [-35.583099365234375:5.741854190826416] [-5.3840899467468262:6.6562404632568359] [-0.86116659641265869:2.8595669269561768] [-18.514963150024414:7.3048324584960938] [-5.2304973602294922:4.5549149513244629] [-0.86116659641265869:3.1472647190093994] [-20.508506774902344:7.3048324584960938] [-4.9121818542480469:4.5571403503417969] [-0.86116659641265869:3.8682053089141846] [-35.583099365234375:5.741854190826416] [-5.3840899467468262:6.6562404632568359] [-0.86116659641265869:2.8595669269561768] [-18.514963150024414:7.3048324584960938] [-10.241179466247559:3.9182839393615723] [-0.86116659641265869:3.1208128929138184] [-20.508506774902344:7.3048324584960938] [-4.9121818542480469:4.5571403503417969] [-0.86116659641265869:3.8682053089141846] [-35.583099365234375:5.741854190826416] [-5.3840899467468262:4.0251312255859375] [-0.86116659641265869:2.8595669269561768] [-18.460952758789062:7.3048324584960938] [-10.241179466247559:4.5682706832885742] [-0.86116659641265869:3.0910208225250244] [-20.508506774902344:7.3048324584960938] [-5.2616605758666992:4.0407133102416992] [-0.86116659641265869:3.8682053089141846] [-35.583099365234375:5.741854190826416] [-5.4441909790039062:3.6667482852935791] [-0.86116659641265869:2.8732104301452637] [-26.082265853881836:7.3048324584960938] [-5.0702266693115234:4.5682706832885742] [-0.86116659641265869:3.0612318515777588] [-20.616523742675781:7.3048324584960938] [-5.2616605758666992:5.017918586730957] [-0.86116659641265869:3.8682053089141846] [-35.583099365234375:5.741854190826416] [-5.8092522621154785:3.9383177757263184] [-0.86116659641265869:3.0773282051086426] [-18.809013366699219:7.3048324584960938] [-4.9210858345031738:4.5682706832885742] [-0.86116659641265869:3.103809118270874] [-20.616523742675781:7.3048324584960938] [-6.025172233581543:5.0357265472412109] [-0.86116659641265869:3.8682053089141846] [-35.583099365234375:5.741854190826416] [-6.3345832824707031:4.5549149513244629] [-0.86116659641265869:3.0647847652435303] [-18.809013366699219:7.3048324584960938] [-4.9900913238525391:6.5271334648132324] [-0.86116659641265869:3.1059966087341309] [-17.893255233764648:7.3048324584960938] [-6.025172233581543:5.0357265472412109] [-0.86116659641265869:3.8682053089141846] [-35.583099365234375:5.741854190826416] [-6.3345832824707031:4.5549149513244629] [-0.86116659641265869:3.0522446632385254] [-18.809013366699219:7.3048324584960938] [-5.0034470558166504:6.5271334648132324] [-0.86116659641265869:3.1081850528717041] [-17.893255233764648:7.3048324584960938] [-6.025172233581543:5.0357265472412109] [-0.86116659641265869:3.8682053089141846] [-35.583099365234375:5.741854190826416] [-6.3345832824707031:5.0980539321899414] [-0.86116659641265869:3.0406453609466553] [-18.809013366699219:7.3048324584960938] [-5.1013903617858887:6.5271334648132324] [-0.86116659641265869:3.1071071624755859] [-17.893255233764648:7.3048324584960938] [-4.9077301025390625:4.5059432983398438] [-0.86116659641265869:3.8682053089141846] [-35.583099365234375:5.741854190826416] [-5.7580547332763672:5.0980539321899414] [-0.86116659641265869:3.0374646186828613] [-18.809013366699219:7.3048324584960938] [-5.1013903617858887:4.5571403503417969] [-0.86116659641265869:3.0984206199645996] [-17.893255233764648:7.3048324584960938] [-4.8120131492614746:4.5059432983398438] [-0.86116659641265869:3.8682053089141846] [-35.583099365234375:5.741854190826416] [-5.7580547332763672:5.0980539321899414] [-0.86116659641265869:3.0342874526977539] [-18.809013366699219:7.3048324584960938] [-5.1013903617858887:12.236774444580078] [-0.86116659641265869:3.0897307395935059] [-18.809013366699219:7.3048324584960938] [-4.8609843254089355:4.1030402183532715] [-0.86116659641265869:3.8682053089141846] [-35.583099365234375:5.741854190826416] [-5.7580547332763672:4.2121138572692871] [-0.86116659641265869:3.0340163707733154] [-18.809013366699219:7.3048324584960938] [-5.1013903617858887:12.236774444580078] [-0.86116659641265869:3.0810444355010986] [-18.809013366699219:7.3048324584960938] [-4.8609843254089355:3.8426008224487305] [-0.86116659641265869:3.8682053089141846] [-35.583099365234375:6.8505892753601074] [-5.0791306495666504:4.2855710983276367] [-0.86116659641265869:3.0354628562927246] [-18.809013366699219:7.3048324584960938] [-21.190780639648438:4.574948787689209] [-0.86116659641265869:3.072354793548584] [-20.812158584594727:7.3048324584960938] [-4.8609843254089355:3.8693125247955322] [-0.86116659641265869:3.8682053089141846] [-35.583099365234375:6.8505892753601074] [-5.0947127342224121:4.2855710983276367] [-0.86116659641265869:3.036909818649292] [-18.809013366699219:7.3048324584960938] [-21.190780639648438:4.574948787689209] [-0.86116659641265869:3.0636680126190186] [-20.951381683349609:7.3048324584960938] [-4.8721146583557129:4.385739803314209] [-0.86116659641265869:3.8682053089141846] [-35.583099365234375:6.8505892753601074] [-5.1459102630615234:4.2855710983276367] [-0.86116659641265869:3.0383560657501221] [-18.809013366699219:7.3048324584960938] [-5.3751864433288574:4.2811188697814941] [-0.86116659641265869:3.0631976127624512] [-20.951381683349609:7.3048324584960938] [-4.8854703903198242:4.385739803314209] [-0.86116659641265869:3.8682053089141846] [-35.583099365234375:6.8505892753601074] [-5.1459102630615234:4.2855710983276367] [-0.86116659641265869:3.0398027896881104] [-18.809013366699219:7.3048324584960938] [-4.7096176147460938:4.0941367149353027] [-0.86116659641265869:3.0767924785614014] [-20.951381683349609:7.3048324584960938] [-5.0947127342224121:4.385739803314209] [-0.86116659641265869:3.8682053089141846] [-35.583099365234375:6.8505892753601074] [-5.1459102630615234:4.2811188697814941] [-0.86116659641265869:3.0410864353179932] [-18.809013366699219:7.3048324584960938] [-4.769719123840332:4.3523502349853516] [-0.86116659641265869:3.0903871059417725] [-21.112209320068359:7.3048324584960938] [-5.0947127342224121:5.0134663581848145] [-0.86116659641265869:3.8682053089141846] [-35.583099365234375:6.8505892753601074] [-5.1459102630615234:5.5009565353393555] [-0.86116659641265869:3.0421280860900879] [-18.809013366699219:7.3048324584960938] [-5.7580547332763672:5.1759629249572754] [-0.86116659641265869:2.9379351139068604] [-21.112209320068359:7.3048324584960938] [-5.1214241981506348:5.8482098579406738] [-0.86116659641265869:3.8682053089141846] [-35.583099365234375:6.8505892753601074] [-5.1013903617858887:5.5009565353393555] [-0.86116659641265869:3.0431699752807617] [-18.809013366699219:7.3048324584960938] [-5.7580547332763672:5.1759629249572754] [-0.86116659641265869:2.9379088878631592] [-21.112209320068359:7.3048324584960938] [-4.6762275695800781:5.8482098579406738] [-0.86116659641265869:3.8682053089141846] [-35.583099365234375:6.8505892753601074] [-5.1013903617858887:4.728541374206543] [-0.86116659641265869:3.0432674884796143] [-18.809013366699219:7.3048324584960938] [-5.413027286529541:5.6011257171630859] [-0.86116659641265869:2.9378764629364014] [-21.112209320068359:7.3048324584960938] [-4.6762275695800781:5.8482098579406738] [-0.86116659641265869:3.8682053089141846] [-35.619106292724609:6.8505892753601074] [-5.1013903617858887:4.728541374206543] [-0.86116659641265869:3.0419549942016602] [-18.809013366699219:7.3048324584960938] [-5.3017282485961914:7.4687232971191406] [-0.86116659641265869:2.938784122467041] [-21.250232696533203:7.3048324584960938] [-4.7674932479858398:4.5549149513244629] [-0.86116659641265869:3.8682053089141846] [-35.619106292724609:6.8505892753601074] [-5.1013903617858887:4.728541374206543] [-0.86116659641265869:3.040642261505127] [-18.809013366699219:7.3048324584960938] [-5.0301589965820312:5.6011257171630859] [-0.86116659641265869:2.9388952255249023] [-21.286239624023438:7.3048324584960938] [-4.7341032028198242:4.5549149513244629] [-0.86116659641265869:3.8682053089141846] [-35.65631103515625:6.8505892753601074] [-4.9077296257019043:4.3145089149475098] [-0.86116659641265869:3.3209888935089111] [-18.809013366699219:7.3048324584960938] [-4.8876962661743164:4.5326547622680664] [-0.86116659641265869:2.9390032291412354] [-21.286239624023438:7.3048324584960938] [-4.9900913238525391:4.0295834541320801] [-0.86116659641265869:3.8682053089141846] [-35.65631103515625:6.8505892753601074] [-4.9077296257019043:4.3145089149475098] [-0.86116659641265869:3.3336007595062256] [-18.809013366699219:7.3048324584960938] [-4.8031091690063477:67.559074401855469] [-0.86116659641265869:2.944678783416748] [-21.286239624023438:5.8144493103027344] [-5.0501928329467773:4.7908687591552734] [-0.86116659641265869:3.8682053089141846] [-35.65631103515625:7.3048324584960938] [-4.9077296257019043:4.385739803314209] [-0.86116659641265869:3.34621262550354] [-18.809013366699219:7.3048324584960938] [-22.041105270385742:4.1186223030090332] [-0.86116659641265869:2.9543123245239258] [-21.286239624023438:5.8144493103027344] [-5.0501928329467773:4.7908687591552734] [-0.86116659641265869:3.8682053089141846] [-35.65631103515625:7.3048324584960938] [-5.1481356620788574:4.385739803314209] [-0.86116659641265869:3.0747711658477783] [-18.809013366699219:7.3048324584960938] [-22.041105270385742:4.3011527061462402] [-0.86116659641265869:2.9639458656311035] [-21.286239624023438:7.3048324584960938] [-5.535456657409668:4.7908687591552734] [-0.86116659641265869:3.8682053089141846] [-35.65631103515625:7.3048324584960938] [-5.1481356620788574:7.4687232971191406] [-0.86116659641265869:3.066401481628418] [-18.809013366699219:7.3048324584960938] [-5.7335686683654785:4.8999414443969727] [-0.86116659641265869:2.9538977146148682] [-21.336648941040039:7.3048324584960938] [-5.0501928329467773:4.316734790802002] [-0.86116659641265869:3.8682053089141846] [-18.728599548339844:6.8505892753601074] [-5.535456657409668:4.2811188697814941] [-0.86116659641265869:3.0580317974090576] [-18.809013366699219:7.3048324584960938] [-5.7335686683654785:4.7619309425354004] [-0.86116659641265869:2.9203042984008789] [-21.371454238891602:7.3048324584960938] [-5.0501928329467773:3.9561254978179932] [-0.86116659641265869:3.8682053089141846] [-18.667388916015625:6.8505892753601074] [-5.036837100982666:4.9578170776367188] [-0.86116659641265869:3.0425913333892822] [-18.809013366699219:7.3048324584960938] [-5.7335686683654785:4.7619309425354004] [-0.86116659641265869:2.8867108821868896] [-21.371454238891602:7.3048324584960938] [-5.4486432075500488:3.9605777263641357] [-0.86116659641265869:3.8682053089141846] [-18.675790786743164:6.8505892753601074] [-5.036837100982666:4.9578170776367188] [-0.86116659641265869:3.0165584087371826] [-18.781408309936523:7.3048324584960938] [-5.2727909088134766:37.129920959472656] [-0.86116659641265869:2.6521937847137451] [-21.371454238891602:7.3048324584960938] [-5.4486432075500488:4.5326547622680664] [-0.86116659641265869:3.8682053089141846] [-18.628982543945312:6.8505892753601074] [-5.0902605056762695:4.3723845481872559] [-0.86116659641265869:2.9905250072479248] [-18.809013366699219:7.3048324584960938] [-5.2727909088134766:3.8715384006500244] [-0.86116659641265869:2.879366397857666] [-21.371454238891602:7.3048324584960938] [-5.4486432075500488:4.5326547622680664] [-0.86116659641265869:3.8682053089141846] [-18.628982543945312:6.8505892753601074] [-5.0902605056762695:4.2544069290161133] [-0.86116659641265869:2.9710385799407959] [-18.809013366699219:7.3048324584960938] [-5.2304973602294922:5.0980539321899414] [-0.86116659641265869:2.8730342388153076] [-21.371454238891602:7.3048324584960938] [-5.1971073150634766:4.5326547622680664] [-0.86116659641265869:3.8682053089141846] [-18.628982543945312:6.8505892753601074] [-5.0902605056762695:4.2544069290161133] [-0.86116659641265869:2.9668424129486084] [-18.770606994628906:7.3048324584960938] [-5.4486432075500488:5.0980539321899414] [-0.86116659641265869:2.8667056560516357] [-21.370254516601562:7.3048324584960938] [-5.2349491119384766:4.5126214027404785] [-0.86116659641265869:3.8682053089141846] [-18.667388916015625:6.8505892753601074] [-5.123650074005127:5.1759634017944336] [-0.86116659641265869:2.9673910140991211] [-18.781408309936523:7.3048324584960938] [-5.4486432075500488:5.0980539321899414] [-0.86116659641265869:2.8702816963195801] [-21.370254516601562:7.3048324584960938] [-5.2349491119384766:4.7841906547546387] [-0.86116659641265869:3.8682053089141846] [-18.667388916015625:7.3048324584960938] [-5.123650074005127:5.1759634017944336] [-0.86116659641265869:2.9727141857147217] [-18.781408309936523:7.3048324584960938] [-5.5109705924987793:4.6484060287475586] [-0.86116659641265869:2.8801565170288086] [-21.370254516601562:7.3048324584960938] [-5.2349491119384766:4.7841906547546387] [-0.86116659641265869:3.8682053089141846] [-18.667388916015625:7.3048324584960938] [-5.123650074005127:5.1759634017944336] [-0.86116659641265869:2.9780368804931641] [-18.628982543945312:7.3048324584960938] [-5.5109705924987793:4.6484060287475586] [-0.86116659641265869:2.8900284767150879] [-21.396657943725586:7.3048324584960938] [-5.7335686683654785:4.7841906547546387] [-0.86116659641265869:3.8682053089141846] [-18.634983062744141:7.3048324584960938] [-5.8137040138244629:5.017918586730957] [-0.86116659641265869:2.9808814525604248] [-18.628982543945312:7.3048324584960938] [-4.9077301025390625:4.241051197052002] [-0.86116659641265869:2.8974514007568359] [-21.396657943725586:7.3048324584960938] [-4.9077301025390625:4.5393328666687012] [-0.86116659641265869:3.8682053089141846] [-18.634983062744141:7.3048324584960938] [-5.8137040138244629:5.017918586730957] [-0.86116659641265869:2.9550895690917969] [-18.628982543945312:7.3048324584960938] [-4.9077301025390625:4.5549149513244629] [-0.86116659641265869:2.8972551822662354] [-21.396657943725586:7.3048324584960938] [-5.0657744407653809:4.7619309425354004] [-0.86116659641265869:3.8682053089141846] [-18.634983062744141:7.3048324584960938] [-5.8137040138244629:5.2360649108886719] [-0.86116659641265869:2.9443359375] [-18.667388916015625:7.3048324584960938] [-6.025172233581543:4.5549149513244629] [-0.86116659641265869:2.9019415378570557] [-21.480672836303711:7.3048324584960938] [-5.0657744407653809:4.7619309425354004] [-0.86116659641265869:3.8682053089141846] [-18.628982543945312:7.3048324584960938] [-5.161491870880127:5.2360649108886719] [-0.86116659641265869:2.933582067489624] [-18.667388916015625:7.3048324584960938] [-6.025172233581543:4.6127901077270508] [-0.86116659641265869:2.9306690692901611] [-21.480672836303711:7.3048324584960938] [-5.0657744407653809:4.7619309425354004] [-0.86116659641265869:3.8682053089141846] [-18.628982543945312:7.3048324584960938] [-4.9656052589416504:5.2360649108886719] [-0.86116659641265869:2.9230015277862549] [-18.667388916015625:7.3048324584960938] [-6.025172233581543:4.6127901077270508] [-0.86116659641265869:2.9594001770019531] [-21.480672836303711:7.3048324584960938] [-4.9923171997070312:4.2811188697814941] [-0.86116659641265869:3.8682053089141846] [-18.628982543945312:7.3048324584960938]
tree_sizes=6749 6816 6848

Tree=0
num_leaves=63
num_cat=0
split_feature=532 352 532 208 499 388 469 10 460 7 506 514 486 1 535 468 87 8 289 60 415 262 180 258 402 324 432 233 498 435 312 60 423 207 423 45 252 451 348 24 342 486 127 507 534 366 21 256 318 381 397 159 462 45 474 505 375 286 297 492 477 109
split_gain=59633.7 4133.43 3825.27 1185.07 1141.4 943.216 856.272 727.488 517.924 539.745 527.622 480.829 509.942 430.286 392.153 419.619 471.495 387.899 388.595 386.747 383.401 379.431 363.477 392.195 377.88 362.099 356.867 356.553 471.89 351.97 344.142 338.05 327.948 332.427 326.122 326.977 324.942 318.214 314.566 307.033 296.5 288.163 394.35 303.852 346.34 287.792 354.523 309.524 289.559 283.565 306.286 282.441 282.186 280.823 367.232 295.672 280.796 279.672 278.888 277.849 273.815 333.561
threshold=-0.60075321793556202 -0.52985990047454823 -0.72265544533729542 -0.57944998145103443 -0.76979628205299366 -0.55151420831680287 -0.64504641294479359 -0.83924615383148182 -0.83624181151390065 -0.035469900816678994 1.5641515254974367 -0.81571575999259938 -0.73067694902420033 -0.64946314692497242 -0.35738633573055262 0.35560172796249395 0.85644748806953441 0.14925956726074222 -0.80438408255577076 0.65610918402671825 -0.40717558562755579 -0.79904478788375843 0.64720526337623607 1.7891333699226382 -0.53701657056808461 1.5754392743110659 -1.3906802535057066 0.35228517651557928 0.6260584592819215 -0.43350847065448755 1.1324690580368044 -1.1346923708915708 1.7713255286216738 -0.14524395763874051 -0.43016950786113733 0.22649486362934115 0.70062875747680675 -0.82463416457176197 -0.48470604419708246 2.1519682407379155 0.39566941559314733 -0.65499356389045704 -0.47619439661502833 -1.1591782569885252 -0.49027097225189203 -0.12521009519696233 -0.8364109694957732 -0.46966150403022761 -0.11630618199706076 0.0729021690785885 -0.58954560756683339 1.7312579154968264 -0.1741816848516464 -0.11185422539710997 0.12187375500798227 -0.59042730927467335 -0.68615728616714466 -0.076838798820972429 -0.094046395272016511 -1.1346923708915708 -0.19866750389337537 -0.72248724102973927
decision_type=2 2 2 2 2 2 2 2 2 2 2 2 2 2 2 2 2 2 2 2 2 2 2 2 2 2 2 2 2 2 2 2 2 2 2 2 2 2 2 2 2 2 2 2 2 2 2 2 2 2 2 2 2 2 2 2 2 2 2 2 2 2
left_child=2 6 4 19 37 21 36 52 -9 14 20 29 17 22 15 26 34 -13 -19 27 31 -4 24 -24 38 39 -10 28 57 -6 40 58 -28 -34 -17 56 53 -1 -8 60 -20 42 43 -23 -45 49 -47 48 -48 -15 -51 -33 -5 -2 55 -55 -36 -3 -11 -26 61 -7
right_child=1 3 5 7 11 25 13 8 9 10 -12 12 -14 45 -16 16 -18 18 30 -21 -22 41 23 -25 59 -27 32 -29 -30 -31 -32 51 33 -35 35 -37 -38 -39 -40 -41 -42 -43 -44 44 -46 46 47 -49 -50 50 -52 -53 -54 54 -56 -57 -58 -59 -60 -61 -62 -63
leaf_value=-1.878461044212226 -2.116375553027757 -2.1637974336944046 -2.0111706159321807 -2.0644517385412291 -1.9305561866536269 -2.1075562246707409 -2.2048138554447738 -2.0578785324494384 -1.9925741463570548 -2.0343304256721457 -2.1289187951629174 -2.045564153079737 -2.0018960245756894 -2.4976858506583923 -2.4208630217432163 -2.3824146669388755 -2.52750539279381 -2.0096916281946458 -2.4524492685365242 -2.4367287229842791 -2.4555285393633328 -1.8742770735358554 -2.472681629014605 -2.0060642791492267 -2.52750539279381 -2.0545214474526095 -2.4177570425218744 -2.0811130724206635 -2.52750539279381 -2.0038707158759443 -2.0596896612002502 -2.4271861963565149 -2.0202770661566252 -2.52750539279381 -2.3857886232806398 -2.3299298546587339 -2.0249248425792166 -1.9587840104366476 -2.52750539279381 -1.9448395967356857 -2.1337382136069496 -2.0915930186484526 -2.4179992225565399 -2.3648911331078883 -2.0990969470053504 -2.1030664587496171 -2.039619860502389 -2.4134041366977468 -2.4403172477531254 -2.4779385678814823 -2.1403216343352356 -2.0890020614648259 -2.3564849334740425 -2.0788066691477427 -2.52750539279381 -2.4493769193997834 -2.0720329288610948 -2.3815367256101521 -2.4354659914075247 -2.0844851022719131 -2.2180282554105881 -2.4530349683062691
leaf_weight=293.31676567345858 62.029129214584827 53.810541547834873 117.15882903337479 20.492497682571411 314.94020879268646 8.4734594002366048 23.892522521317005 10.102835610508917 5.5434261411428443 13.228112772107126 13.391401946544645 135.36451218277216 538.22207915782928 39.777295596897602 328.11678460240364 28.613080352544785 15.918868616223333 20.616034969687462 23.705075778067112 26.13316272944212 865.17242684960365 9.0790670514106733 21.635521903634075 5.6868393719196311 3.728744000196456 20.062257990241051 183.73299065977335 31.886052370071411 15.41692230850458 340.91359788179398 13.945178925991057 70.942000187933445 10.523137331008909 4.6609300002455702 8.3697980567812902 27.015658870339394 49.562116108834743 212.73396683484316 11.042818769812582 6.1071410924196234 10.543013274669645 303.39742706716061 16.247587777674198 18.235497064888477 37.377647839486599 22.35686968266964 13.371526002883913 41.582039766013622 6.8021904900670043 11.965066798031332 15.317542590200899 6.7624386027455321 13.871331498026846 18.504588395357132 11.329645231366156 7.5909632593393352 48.177673660218716 20.314988911151886 6.4436574131250373 69.612295314669609 42.159974314272404 39.819188296794891
leaf_count=604 398 392 526 112 949 53 192 54 23 65 89 693 2325 533 3935 323 222 92 298 321 10925 18 280 25 52 106 2193 184 215 1485 75 859 49 65 95 279 235 751 154 20 71 1809 194 200 228 138 67 493 84 156 105 40 150 106 158 95 270 229 79 406 349 501
internal_value=-2.17886 -2.36512 -2.01165 -2.3981 -1.97657 -2.11973 -2.22674 -2.41003 -2.41478 -2.41698 -2.44061 -1.99986 -2.02742 -2.27727 -2.38208 -2.34382 -2.27286 -2.0947 -2.19136 -2.26224 -2.44494 -2.08994 -2.2126 -2.37556 -2.17148 -2.24781 -2.38827 -2.22469 -2.27582 -1.96867 -2.26908 -2.35088 -2.3993 -2.17598 -2.23672 -2.18684 -2.12952 -1.91223 -2.30681 -2.28797 -2.35434 -2.11395 -2.19778 -2.14247 -2.18625 -2.33527 -2.27367 -2.33544 -2.17473 -2.41253 -2.28839 -2.39775 -2.18233 -2.18164 -2.2898 -2.1866 -2.11847 -2.22347 -2.16573 -2.10701 -2.31113 -2.39242
internal_weight=4786.85 2264.43 2522.42 1828.64 1904.3 618.118 435.788 1681.08 1646.72 1636.61 975.94 1398.25 742.396 286.771 660.672 332.556 128.095 204.174 68.8093 147.562 962.549 501.496 135.599 27.3224 108.276 116.622 204.46 121.429 89.5425 655.854 48.1933 97.3762 198.917 15.1841 112.176 83.5631 149.016 506.051 34.9353 96.5598 34.2481 384.337 80.9398 64.6922 55.6131 151.173 84.1126 61.7558 20.1737 67.0599 27.2826 77.7044 34.3638 99.4543 37.4252 26.0956 56.5475 74.1255 19.6718 73.341 90.4526 48.2926
internal_count=36192 24845 11347 21168 7343 4004 3677 19827 19565 19511 12057 5988 3554 2685 7454 3519 1189 1229 536 1341 11968 2975 1109 305 804 1029 2330 1020 836 2434 444 1043 2307 114 967 644 992 1355 346 923 369 2449 640 446 428 1576 782 644 151 794 261 899 262 757 359 201 365 621 144 458 903 554
is_linear=0
shrinkage=1


Tree=1
num_leaves=63
num_cat=0
split_feature=532 352 532 208 10 289 396 469 169 133 506 0 522 267 414 426 513 309 426 534 244 159 538 238 205 42 27 315 60 279 141 372 189 495 198 62 150 342 97 109 93 429 378 402 393 51 16 517 307 266 444 153 219 246 27 432 532 520 237 267 84 195
split_gain=25015.5 2497.35 1095.34 724.627 460.873 430.011 483.66 393.482 380.884 347.138 329.398 302.855 313.473 377.155 303.155 414.886 298.017 310.967 293.142 289.212 530.593 328.826 314.082 278.641 278.495 292.367 272.426 271.188 264.545 317.939 296.877 308.801 272.646 279.054 264.132 253.635 251.95 248.549 243.052 240.133 231.234 253.631 230.422 434.094 293.156 227.317 226.023 225.098 221.9 285.799 218.545 218.258 213.133 207.046 221.173 205.811 195.892 194.664 196.417 192.449 316.667 214.338
threshold=-0.60075321793556202 -0.5112507939338683 -0.78350529074668873 -0.57944998145103443 -0.83924615383148182 -0.58875530958175648 0.56929591298103344 -0.84179165959358204 0.10091694816946985 1.3950746655464175 1.5641515254974367 -0.42126558721065516 0.37340956926345831 -0.73067694902420033 0.51142039895057689 -0.1741816848516464 0.54926210641860973 0.25765857100486761 -0.66834944486618031 -0.0027811599429696794 -0.80204099416732777 1.370649039745331 -0.80795338749885548 -0.85752379894256581 0.11553549021482469 -1.5498378872871397 0.21981692314147952 -0.61603888869285572 0.778538078069687 -1.13357937335968 -0.19644152373075482 0.65833511948585521 0.36005368828773504 0.3333419561386109 0.86980333924293529 0.5601327419281007 -0.7640666365623473 -0.76629260182380665 3.6928952932357793 -0.84665912389755238 0.81415382027626049 1.4641401767730715 1.5910211205482485 0.37007062137126928 0.40012136101722723 1.3383723497390749 -0.60621005296707142 -0.30931481719017023 -0.52770620584487904 0.12911843508481982 0.24207671731710437 1.0222830772399905 0.035060532391071327 1.9226922392845156 2.4257639646530156 2.1252565383911137 -0.66940465569496144 -0.7801123559474944 -0.67502740025520314 -0.65499356389045704 0.039512488991022117 -0.16305179148912427
decision_type=2 2 2 2 2 2 2 2 2 2 2 2 2 2 2 2 2 2 2 2 2 2 2 2 2 2 2 2 2 2 2 2 2 2 2 2 2 2 2 2 2 2 2 2 2 2 2 2 2 2 2 2 2 2 2 2 2 2 2 2 2 2
left_child=2 7 47 35 36 56 26 -2 11 19 23 12 24 -14 15 18 -11 -18 -15 20 -9 38 -21 -10 25 -6 57 -25 32 45 31 -31 -13 53 40 39 -5 -16 46 -3 41 -35 -29 -44 -45 50 52 -1 51 -50 -30 -41 -22 54 -34 -27 -4 -7 -59 -24 61 -61
right_child=1 3 5 4 8 6 -8 9 10 16 -12 28 13 14 37 -17 17 -19 -20 22 21 -23 59 27 -26 55 -28 42 29 30 -32 -33 33 34 -36 -37 -38 -39 -40 48 -42 -43 43 44 -46 -47 -48 -49 49 -51 -52 -53 -54 -55 -56 -57 -58 58 -60 60 -62 -63
leaf_value=0.33432732411931237 0.29875045410847095 0.31382608170234177 0.29230197182628154 -0.055505040496127422 0.34221146544596787 0.26410335143910973 0.2973884332375657 0.27818390758770722 0.37163552161691149 -0.014206470003085831 0.25368590741112745 0.00081027054020655135 0.018134430982826598 0.071920680141073223 -0.054512858416222755 -0.029043378810898069 -0.012270834149443148 0.28442211554344016 0.37153379175971102 -0.055024719606754841 0.0097999849596742301 0.26576080012641656 0.29809710374990733 -0.039819702690205752 0.34797482191444434 0.040722068858218108 0.23766265087628022 0.022753363353788903 0.14107214900104734 0.049515514584376065 -0.018915803036263387 0.28150119813858954 -0.0071638614934658347 0.078211457258992645 0.025013206396460416 0.3237632696273734 0.26983375422498829 0.33751357280304273 0.32425110318086886 -0.05507194997188733 0.36288949733579212 0.39541940430297307 -0.010476127939736535 0.44231669127235462 0.11398462742029561 0.020440637249038881 -0.019923851190319242 0.30136504841553813 0.060370316988635001 0.23797906054932985 0.45630700731554907 0.24143388673131422 0.24745010236106235 0.29178163053234635 0.3595989665431597 0.2904493514344208 0.24244955906689564 0.19417361691478779 0.060302030092801231 -0.05522765126715426 0.25498291644045851 0.17129570635881242
leaf_weight=1270.975870706141 66.848127566277981 17.669876851141453 877.12083677202463 7.1131718009710303 8.9358956739306432 24.060380637645721 134.1693127527833 51.495087556540966 5.5696332156658164 43.482802785933018 15.324185259640215 278.48432713747025 32.5949886739254 14.053900189697741 4.4389902204275122 23.204502545297146 13.834631808102129 24.421668224036694 19.479460120201111 9.5849039629101735 18.216671288013458 22.135562621057034 82.128118887543678 163.50613084435463 8.832277297973631 211.49761871993542 115.10296950489283 484.5125966668129 9.0850265026092583 34.213510096073151 49.953044176101685 24.701604045927525 100.11926558613777 31.238369487226009 29.816335760056973 21.872904531657696 36.420289412140846 45.34150705486536 7.8024539500474921 27.695266559720039 17.037180334329605 7.8941185250878325 27.049556858837605 13.13109563291073 14.097089394927023 7.8627147302031508 67.312276169657707 874.17103754729033 41.061689727008343 50.515105977654457 13.925702318549154 7.9990087747573844 19.56943541765213 6.8436411246657363 4.2865661531686774 8.5853537991642934 254.15118060261011 42.661661013960838 76.588472440838814 15.648314960300921 93.523650132119656 31.391387522220612
leaf_count=2507 262 85 2960 81 31 104 507 247 33 498 75 3385 381 149 59 293 158 126 99 119 194 114 375 2190 46 2394 603 5905 84 390 628 170 1233 328 350 85 177 245 31 338 86 28 348 56 150 87 773 2534 406 301 48 53 112 43 17 53 1201 257 674 188 504 234
internal_value=0.214823 0.0926196 0.297869 0.0654592 0.0560149 0.265456 0.220368 0.184813 0.0519382 0.169596 0.0243401 0.0720492 0.107342 0.166962 0.212503 0.133493 0.0753441 0.177129 0.245965 0.187992 0.141626 0.0895505 0.225226 0.0193751 0.0724722 0.0618473 0.180379 0.0165815 0.0504326 0.110915 0.0707528 0.146781 0.0326659 0.077644 0.145292 0.165054 0.216675 0.302556 0.0550024 0.141104 0.20914 0.142201 0.0336975 0.13139 0.272326 0.252539 0.0350135 0.320895 0.117124 0.158342 0.331847 0.0113744 0.132879 0.0253579 0.00789424 0.0504638 0.281102 0.13437 0.108195 0.237288 0.201759 0.09594
internal_weight=6162.36 2493.36 3669 1925.96 1759.15 1523.85 392.583 567.395 1715.62 500.547 723.19 992.426 376.964 139.113 106.518 56.7379 81.7391 38.2563 33.5334 418.808 186.531 135.036 232.276 707.866 237.851 229.019 258.413 702.296 615.461 139.742 108.868 58.9151 475.72 197.235 85.986 166.814 43.5335 49.7805 112.901 144.941 56.1697 39.1325 538.79 54.2777 27.2282 30.8734 105.098 2145.15 127.271 91.5768 23.0107 35.6943 37.7861 111.249 104.406 220.083 1131.27 143.311 119.25 222.691 140.563 47.0397
internal_count=36192 24845 11347 20910 19642 6306 2145 3935 19384 3673 8757 10627 3750 1226 845 541 782 284 248 2891 1471 1224 1420 8682 2524 2478 1638 8649 6877 1407 1188 560 5470 2085 792 1268 258 304 1110 1183 442 356 6459 554 206 219 1079 5041 1098 707 132 391 306 1293 1250 2447 4161 1035 931 1301 926 422
is_linear=0
shrinkage=0.05


Tree=2
num_leaves=63
num_cat=0
split_feature=505 379 532 46 532 7 415 383 426 157 51 522 3 138 477 126 495 94 460 405 186 217 189 99 333 537 469 300 524 502 115 484 162 12 60 522 383 26 141 381 230 411 327 201 300 360 453 156 324 183 451 216 219 282 238 450 153 203 98 492 369 231
split_gain=14396.2 1397.77 663.031 628.435 451.926 440.173 315.94 258.682 242.912 246.1 288.988 250.539 245.626 248.13 241.188 236.952 236.593 335.838 223.873 210.43 210.419 205.305 208.198 253.946 240.162 250.197 225.802 219.184 209.51 204.258 203.173 210.775 202.699 210.262 202.607 199.889 218.425 197.196 202.634 194.772 216.198 198.256 193.669 206.874 192.298 190.132 184.347 183.567 186.555 182.247 182.241 179.899 244.285 214.991 179.099 179.018 172.484 236.549 169.361 168.728 168.713 206.852
threshold=-0.58502274751663197 -0.58451980352401722 -0.72659212350845326 -0.78868621587753285 -0.51466661691665638 -0.035469900816678994 -0.43833282589912409 0.64942678809165966 0.11296984180808069 -0.34434671700000757 -0.69951316714286793 1.2237342596054079 -0.82416811585426319 -0.19866750389337537 0.47135274112224584 -0.85978382825851429 -0.23428321629762647 -0.64485210180282582 -0.80605441331863392 1.372874975204468 1.9538560509681704 -0.82740506529808033 1.6333147287368777 0.55148807168006908 0.63607537746429454 -0.46578519046306605 -0.57147204875946034 -0.61047396063804615 -5.0135512351989737 3.2298258543014531 0.49466881155967718 -0.15043597668409345 -0.042848831042647355 0.6182675063610078 -0.6961742341518401 -0.71509504318237294 0.6602434813976289 -1.1070220470428465 0.778538078069687 -0.4079096913337707 -0.023467884398996827 0.76963415741920482 0.43573707342147833 -0.42683053016662592 0.41125126183032995 1.2682539224624636 -0.27991577982902521 1.8180711269378664 -0.55482444167137135 0.59823366999626171 -0.83391827344894398 -0.65499356389045704 0.2487546503543854 0.273240476846695 -0.85752379894256581 1.4062647223472597 0.21091300994157794 -1.7087035775184629 0.9643118977546693 -0.21870131045579908 -0.062882637605071054 1.0211700201034548
decision_type=2 2 2 2 2 2 2 2 2 2 2 2 2 2 2 2 2 2 2 2 2 2 2 2 2 2 2 2 2 2 2 2 2 2 2 2 2 2 2 2 2 2 2 2 2 2 2 2 2 2 2 2 2 2 2 2 2 2 2 2 2 2
left_child=2 -2 50 29 6 8 44 21 9 11 12 37 13 -11 51 -13 17 -4 -19 55 32 -7 26 24 27 -26 -23 -24 -28 49 31 -20 -16 34 -34 -9 -37 -6 39 47 42 -42 43 -41 -5 -45 -46 48 -39 56 -1 52 -10 59 -30 -14 57 -3 -38 -54 -56 -62
right_child=1 3 16 4 5 7 -8 35 14 10 -12 15 19 -15 20 -17 -18 18 30 -21 -22 22 23 -25 25 -27 28 -29 54 -31 -32 -33 33 -35 -36 36 58 38 -40 40 41 -43 -44 45 46 -47 -48 -49 -50 -51 -52 -53 53 -55 60 -57 -58 -59 -60 -61 61 -63
leaf_value=0.25385457590737326 0.16358727510259433 0.31367854974741521 0.2258538420075672 -0.016619171935317787 -0.054941405853908276 0.17719698283006738 0.17928512810576888 0.18900535769678106 -0.0093755528129928351 0.016505374819165499 0.011238482941595233 -0.055122525570758654 -0.03700949707985212 0.33927461165589023 -0.010630404603861077 0.26593291274499226 0.21039960366101013 0.23820121893514046 0.087198786742331807 0.2591691778838226 0.32893012042943276 0.24877635708129678 0.20982105290674036 -0.054509768562208905 0.40026799784387201 0.091706763346974307 0.27655372302101439 -0.054580410362278987 0.23926866820743348 -0.055833104334555766 0.019387724183259184 0.19279261021150065 -0.0098527916353211027 -0.054863261467678018 0.21015356289088147 0.32521039818973729 -0.017356622257345623 0.14485455640304265 0.0030951482076553459 0.26139130099107766 -0.0047719451447707905 0.23071886124920368 0.33239088819337409 -0.055053836128044299 -0.055468000472313622 0.30838035252529461 0.20187951257857606 0.31934438612095756 -0.054953934369168227 0.2417743323584951 0.22916518012343468 -0.021098286293237872 0.031754608887268165 -0.054896381436773015 -0.024284546693535136 0.21857671590975489 0.20190827706013922 0.016362370816181668 0.28195182667988045 0.32208125914704389 0.035276072482325387 -0.054486520984252163
leaf_weight=1110.9359688162804 418.97357895225286 8.0003313869237882 144.13673914968967 45.484994255006313 17.24516972899437 20.2993283867836 120.27203521132469 41.083284266293049 38.784386001527309 8.3057354912161845 125.26585034281015 6.5308156013488761 33.130509309470654 21.032450452446938 39.856850430369377 47.883741825819016 773.38616294413805 42.024619303643703 102.47179765254259 11.286245562136171 9.2305413633584958 9.7340095713734609 13.44251214712858 21.233316257596016 14.338793858885767 12.124810844659804 7.1265473812818518 18.801298096776009 8.0335346832871419 10.371003270149229 46.583454787731171 87.70940613001585 13.149858027696608 13.050807587802408 51.247026138007641 6.238080605864524 47.592138543725014 20.683992758393288 30.468613885343075 24.265828356146812 23.433276124298573 14.448124907910822 29.022423259913921 13.772287838160993 9.3050226271152479 4.8716508075594893 27.598858885467052 6.2945423796772948 26.841976530849934 59.486072696745396 2284.2034313827753 140.38514123857021 6.8156127855181721 7.7963806837797156 352.16048838943243 8.6372086182236654 43.558825872838497 40.844884239137173 5.2473372966051093 18.831945575773716 408.82929807901382 76.133533179759979
leaf_count=1612 2288 22 487 484 215 120 629 251 437 93 1390 80 404 91 446 233 2804 125 663 55 26 56 104 283 66 118 33 248 41 117 383 405 153 165 315 33 584 154 333 116 258 71 113 169 109 15 178 14 334 232 5295 1678 71 98 4453 49 228 383 18 80 4667 1017
internal_value=0.17235 0.0797649 0.225965 0.064086 0.0566847 0.0490181 0.127615 0.0278313 0.0767194 0.0998579 0.0590753 0.131724 0.131805 0.247898 0.0444201 0.2274 0.193957 0.163888 0.131851 0.0676066 0.0990767 0.0198714 0.016481 0.0936719 0.147266 0.258895 0.00932257 0.0556491 0.00658775 0.158854 0.112974 0.135897 0.0809899 0.12814 0.165228 0.104303 0.0454004 0.107091 0.121487 0.143531 0.181721 0.0850452 0.232633 0.16516 0.0521865 0.0399113 0.136991 0.0656111 0.0320056 0.173513 0.237244 0.0118917 0.0760121 0.175035 0.00431134 0.0158436 0.129569 0.0650596 0.0123668 0.24493 0.00205655 0.0211844
internal_weight=7250.33 2658.88 4591.45 2239.91 2077.65 1874.99 202.661 1062.42 812.569 473.42 207.658 265.762 82.3921 29.3382 339.149 54.4146 1196.31 422.926 278.789 53.054 126.535 962.257 941.958 79.9407 58.7074 26.4636 862.017 32.2438 852.283 162.261 236.765 190.181 117.305 77.4477 64.3969 100.161 59.0776 211.348 194.103 163.634 109.814 37.8814 71.9322 42.9098 82.3889 18.6439 36.9039 53.8205 47.526 151.89 3395.14 212.613 72.2283 33.4439 845.157 41.7677 92.404 48.8452 52.8395 25.6476 837.123 484.963
internal_count=36192 24418 11774 22130 21148 19748 1400 12092 7656 4187 2082 2105 692 184 3469 313 4867 2063 1576 508 1105 11206 11086 819 536 184 10267 352 10211 982 1451 1068 1079 633 468 886 635 1792 1577 1244 742 329 413 300 771 184 287 502 488 865 6907 2364 686 249 10178 453 633 405 602 151 10137 5684
is_linear=0
shrinkage=0.05


end of trees

feature_importances:
Column_532=7
Column_60=4
Column_426=3
Column_469=3
Column_522=3
Column_7=2
Column_10=2
Column_27=2
Column_45=2
Column_51=2
Column_109=2
Column_141=2
Column_153=2
Column_159=2
Column_189=2
Column_208=2
Column_219=2
Column_238=2
Column_267=2
Column_289=2
Column_300=2
Column_324=2
Column_342=2
Column_352=2
Column_381=2
Column_383=2
Column_402=2
Column_415=2
Column_423=2
Column_432=2
Column_451=2
Column_460=2
Column_477=2
Column_486=2
Column_492=2
Column_495=2
Column_505=2
Column_506=2
Column_534=2
Column_0=1
Column_1=1
Column_3=1
Column_8=1
Column_12=1
Column_16=1
Column_21=1
Column_24=1
Column_26=1
Column_42=1
Column_46=1
Column_62=1
Column_84=1
Column_87=1
Column_93=1
Column_94=1
Column_97=1
Column_98=1
Column_99=1
Column_115=1
Column_126=1
Column_127=1
Column_133=1
Column_138=1
Column_150=1
Column_156=1
Column_157=1
Column_162=1
Column_169=1
Column_180=1
Column_183=1
Column_186=1
Column_195=1
Column_198=1
Column_201=1
Column_203=1
Column_205=1
Column_207=1
Column_216=1
Column_217=1
Column_230=1
Column_231=1
Column_233=1
Column_237=1
Column_244=1
Column_246=1
Column_252=1
Column_256=1
Column_258=1
Column_262=1
Column_266=1
Column_279=1
Column_282=1
Column_286=1
Column_297=1
Column_307=1
Column_309=1
Column_312=1
Column_315=1
Column_318=1
Column_327=1
Column_333=1
Column_348=1
Column_360=1
Column_366=1
Column_369=1
Column_372=1
Column_375=1
Column_378=1
Column_379=1
Column_388=1
Column_393=1
Column_396=1
Column_397=1
Column_405=1
Column_411=1
Column_414=1
Column_429=1
Column_435=1
Column_444=1
Column_450=1
Column_453=1
Column_462=1
Column_468=1
Column_474=1
Column_484=1
Column_498=1
Column_499=1
Column_502=1
Column_507=1
Column_513=1
Column_514=1
Column_517=1
Column_520=1
Column_524=1
Column_535=1
Column_537=1
Column_538=1

parameters:
[boosting: gbdt]
[objective: binary]
[metric: binary_logloss]
[tree_learner: serial]
[device_type: cpu]
[data_sample_strategy: bagging]
[data: ]
[valid: ]
[num_iterations: 300]
[learning_rate: 0.05]
[num_leaves: 63]
[num_threads: 32]
[seed: 2021]
[deterministic: 0]
[force_col_wise: 0]
[force_row_wise: 0]
[histogram_pool_size: -1]
[max_depth: -1]
[min_data_in_leaf: 50]
[min_sum_hessian_in_leaf: 0.001]
[bagging_fraction: 1]
[pos_bagging_fraction: 1]
[neg_bagging_fraction: 1]
[bagging_freq: 0]
[bagging_seed: 5064]
[bagging_by_query: 0]
[feature_fraction: 1]
[feature_fraction_bynode: 1]
[feature_fraction_seed: 6682]
[extra_trees: 0]
[extra_seed: 17862]
[early_stopping_round: 0]
[early_stopping_min_delta: 0]
[first_metric_only: 0]
[max_delta_step: 0]
[lambda_l1: 0]
[lambda_l2: 0]
[linear_lambda: 0]
[min_gain_to_split: 0]
[drop_rate: 0.1]
[max_drop: 50]
[skip_drop: 0.5]
[xgboost_dart_mode: 0]
[uniform_drop: 0]
[drop_seed: 14392]
[top_rate: 0.2]
[other_rate: 0.1]
[min_data_per_group: 100]
[max_cat_threshold: 32]
[cat_l2: 10]
[cat_smooth: 10]
[max_cat_to_onehot: 4]
[top_k: 20]
[monotone_constraints: ]
[monotone_constraints_method: basic]
[monotone_penalty: 0]
[feature_contri: ]
[forcedsplits_filename: ]
[refit_decay_rate: 0.9]
[cegb_tradeoff: 1]
[cegb_penalty_split: 0]
[cegb_penalty_feature_lazy: ]
[cegb_penalty_feature_coupled: ]
[path_smooth: 0]
[interaction_constraints: ]
[verbosity: -1]
[saved_feature_importance_type: 0]
[use_quantized_grad: 0]
[num_grad_quant_bins: 4]
[quant_train_renew_leaf: 0]
[stochastic_rounding: 1]
[linear_tree: 0]
[max_bin: 255]
[max_bin_by_feature: ]
[min_data_in_bin: 3]
[bin_construct_sample_cnt: 200000]
[data_random_seed: 6638]
[is_enable_sparse: 1]
[enable_bundle: 1]
[use_missing: 1]
[zero_as_missing: 0]
[feature_pre_filter: 1]
[pre_partition: 0]
[two_round: 0]
[header: 0]
[label_column: ]
[weight_column: ]
[group_column: ]
[ignore_column: ]
[categorical_feature: ]
[forcedbins_filename: ]
[precise_float_parser: 0]
[parser_config_file: ]
[objective_seed: 14162]
[num_class: 1]
[is_unbalance: 0]
[scale_pos_weight: 11.8614]
[sigmoid: 1]
[boost_from_average: 1]
[reg_sqrt: 0]
[alpha: 0.9]
[fair_c: 1]
[poisson_max_delta_step: 0.7]
[tweedie_variance_power: 1.5]
[lambdarank_truncation_level: 30]
[lambdarank_norm: 1]
[label_gain: ]
[lambdarank_position_bias_regularization: 0]
[eval_at: ]
[multi_error_top_k: 1]
[auc_mu_weights: ]
[num_machines: 1]
[local_listen_port: 12400]
[time_out: 120]
[machine_list_filename: ]
[machines: ]
[gpu_platform_id: -1]
[gpu_device_id: -1]
[gpu_use_dp: 0]
[num_gpu: 1]

end of parameters

pandas_categorical:null
