tree
version=v4
num_class=1
num_tree_per_iteration=1
label_index=0
max_feature_idx=539
objective=binary sigmoid:1
feature_names=Column_0 Column_1 Column_2 Column_3 Column_4 Column_5 Column_6 Column_7 Column_8 Column_9 Column_10 Column_11 Column_12 Column_13 Column_14 Column_15 Column_16 Column_17 Column_18 Column_19 Column_20 Column_21 Column_22 Column_23 Column_24 Column_25 Column_26 Column_27 Column_28 Column_29 Column_30 Column_31 Column_32 Column_33 Column_34 Column_35 Column_36 Column_37 Column_38 Column_39 Column_40 Column_41 Column_42 Column_43 Column_44 Column_45 Column_46 Column_47 Column_48 Column_49 Column_50 Column_51 Column_52 Column_53 Column_54 Column_55 Column_56 Column_57 Column_58 Column_59 Column_60 Column_61 Column_62 Column_63 Column_64 Column_65 Column_66 Column_67 Column_68 Column_69 Column_70 Column_71 Column_72 Column_73 Column_74 Column_75 Column_76 Column_77 Column_78 Column_79 Column_80 Column_81 Column_82 Column_83 Column_84 Column_85 Column_86 Column_87 Column_88 Column_89 Column_90 Column_91 Column_92 Column_93 Column_94 Column_95 Column_96 Column_97 Column_98 Column_99 Column_100 Column_101 Column_102 Column_103 Column_104 Column_105 Column_106 Column_107 Column_108 Column_109 Column_110 Column_111 Column_112 Column_113 Column_114 Column_115 Column_116 Column_117 Column_118 Column_119 Column_120 Column_121 Column_122 Column_123 Column_124 Column_125 Column_126 Column_127 Column_128 Column_129 Column_130 Column_131 Column_132 Column_133 Column_134 Column_135 Column_136 Column_137 Column_138 Column_139 Column_140 Column_141 Column_142 Column_143 Column_144 Column_145 Column_146 Column_147 Column_148 Column_149 Column_150 Column_151 Column_152 Column_153 Column_154 Column_155 Column_156 Column_157 Column_158 Column_159 Column_160 Column_161 Column_162 Column_163 Column_164 Column_165 Column_166 Column_167 Column_168 Column_169 Column_170 Column_171 Column_172 Column_173 Column_174 Column_175 Column_176 Column_177 Column_178 Column_179 Column_180 Column_181 Column_182 Column_183 Column_184 Column_185 Column_186 Column_187 Column_188 Column_189 Column_190 Column_191 Column_192 Column_193 Column_194 Column_195 Column_196 Column_197 Column_198 Column_199 Column_200 Column_201 Column_202 Column_203 Column_204 Column_205 Column_206 Column_207 Column_208 Column_209 Column_210 Column_211 Column_212 Column_213 Column_214 Column_215 Column_216 Column_217 Column_218 Column_219 Column_220 Column_221 Column_222 Column_223 Column_224 Column_225 Column_226 Column_227 Column_228 Column_229 Column_230 Column_231 Column_232 Column_233 Column_234 Column_235 Column_236 Column_237 Column_238 Column_239 Column_240 Column_241 Column_242 Column_243 Column_244 Column_245 Column_246 Column_247 Column_248 Column_249 Column_250 Column_251 Column_252 Column_253 Column_254 Column_255 Column_256 Column_257 Column_258 Column_259 Column_260 Column_261 Column_262 Column_263 Column_264 Column_265 Column_266 Column_267 Column_268 Column_269 Column_270 Column_271 Column_272 Column_273 Column_274 Column_275 Column_276 Column_277 Column_278 Column_279 Column_280 Column_281 Column_282 Column_283 Column_284 Column_285 Column_286 Column_287 Column_288 Column_289 Column_290 Column_291 Column_292 Column_293 Column_294 Column_295 Column_296 Column_297 Column_298 Column_299 Column_300 Column_301 Column_302 Column_303 Column_304 Column_305 Column_306 Column_307 Column_308 Column_309 Column_310 Column_311 Column_312 Column_313 Column_314 Column_315 Column_316 Column_317 Column_318 Column_319 Column_320 Column_321 Column_322 Column_323 Column_324 Column_325 Column_326 Column_327 Column_328 Column_329 Column_330 Column_331 Column_332 Column_333 Column_334 Column_335 Column_336 Column_337 Column_338 Column_339 Column_340 Column_341 Column_342 Column_343 Column_344 Column_345 Column_346 Column_347 Column_348 Column_349 Column_350 Column_351 Column_352 Column_353 Column_354 Column_355 Column_356 Column_357 Column_358 Column_359 Column_360 Column_361 Column_362 Column_363 Column_364 Column_365 Column_366 Column_367 Column_368 Column_369 Column_370 Column_371 Column_372 Column_373 Column_374 Column_375 Column_376 Column_377 Column_378 Column_379 Column_380 Column_381 Column_382 Column_383 Column_384 Column_385 Column_386 Column_387 Column_388 Column_389 Column_390 Column_391 Column_392 Column_393 Column_394 Column_395 Column_396 Column_397 Column_398 Column_399 Column_400 Column_401 Column_402 Column_403 Column_404 Column_405 Column_406 Column_407 Column_408 Column_409 Column_410 Column_411 Column_412 Column_413 Column_414 Column_415 Column_416 Column_417 Column_418 Column_419 Column_420 Column_421 Column_422 Column_423 Column_424 Column_425 Column_426 Column_427 Column_428 Column_429 Column_430 Column_431 Column_432 Column_433 Column_434 Column_435 Column_436 Column_437 Column_438 Column_439 Column_440 Column_441 Column_442 Column_443 Column_444 Column_445 Column_446 Column_447 Column_448 Column_449 Column_450 Column_451 Column_452 Column_453 Column_454 Column_455 Column_456 Column_457 Column_458 Column_459 Column_460 Column_461 Column_462 Column_463 Column_464 Column_465 Column_466 Column_467 Column_468 Column_469 Column_470 Column_471 Column_472 Column_473 Column_474 Column_475 Column_476 Column_477 Column_478 Column_479 Column_480 Column_481 Column_482 Column_483 Column_484 Column_485 Column_486 Column_487 Column_488 Column_489 Column_490 Column_491 Column_492 Column_493 Column_494 Column_495 Column_496 Column_497 Column_498 Column_499 Column_500 Column_501 Column_502 Column_503 Column_504 Column_505 Column_506 Column_507 Column_508 Column_509 Column_510 Column_511 Column_512 Column_513 Column_514 Column_515 Column_516 Column_517 Column_518 Column_519 Column_520 Column_521 Column_522 Column_523 Column_524 Column_525 Column_526 Column_527 Column_528 Column_529 Column_530 Column_531 Column_532 Column_533 Column_534 Column_535 Column_536 Column_537 Column_538 Column_539
feature_infos=[-5.221592903137207:4.7174110412597656] [-0.86116659641265869:3.1393942832946777] [-18.460952758789062:7.3048324584960938] [-4.8164644241333008:4.0407133102416992] [-0.86116659641265869:2.9592044353485107] [-34.152454376220703:5.741854190826416] [-4.7341036796569824:4.4124517440795898] [-0.86116659641265869:3.8682053089141846] [-35.583099365234375:5.741854190826416] [-5.3507003784179688:4.7174110412597656] [-0.86116659641265869:3.1384341716766357] [-18.460952758789062:7.3048324584960938] [-4.7919788360595703:4.1119441986083984] [-0.86116659641265869:2.9501354694366455] [-34.152454376220703:5.741854190826416] [-5.036837100982666:4.1475601196289062] [-0.86116659641265869:3.8682053089141846] [-35.583099365234375:5.741854190826416] [-5.3507003784179688:4.7174110412597656] [-0.86116659641265869:3.1384341716766357] [-18.460952758789062:7.3048324584960938] [-5.0590968132019043:4.1119441986083984] [-0.86116659641265869:2.9410669803619385] [-34.152454376220703:5.741854190826416] [-5.036837100982666:4.6728916168212891] [-0.86116659641265869:3.8682053089141846] [-35.583099365234375:5.741854190826416] [-5.3507003784179688:4.3523502349853516] [-0.86116659641265869:3.137092113494873] [-18.460952758789062:7.3048324584960938] [-5.0590968132019043:6.838770866394043] [-0.86116659641265869:2.974003791809082] [-18.809013366699219:5.741854190826416] [-5.036837100982666:4.6728916168212891] [-0.86116659641265869:3.8682053089141846] [-35.583099365234375:5.741854190826416] [-6.0808219909667969:4.3011527061462402] [-0.86116659641265869:3.132115364074707] [-18.460952758789062:7.3048324584960938] [-5.0590968132019043:4.2276954650878906] [-0.86116659641265869:2.9862205982208252] [-18.809013366699219:5.741854190826416] [-4.8164644241333008:6.4113831520080566] [-0.86116659641265869:3.8682053089141846] [-35.583099365234375:5.741854190826416] [-6.0808219909667969:4.3011527061462402] [-0.86116659641265869:3.1265866756439209] [-22.298454284667969:7.3048324584960938] [-4.7830748558044434:4.2276954650878906] [-0.86116659641265869:2.9984374046325684] [-19.925205230712891:5.741854190826416] [-4.8164644241333008:6.838770866394043] [-0.86116659641265869:3.8682053089141846] [-35.583099365234375:5.741854190826416] [-5.1792998313903809:5.0357265472412109] [-0.86116659641265869:3.1210577487945557] [-22.298454284667969:7.3048324584960938] [-4.8209166526794434:4.7174110412597656] [-0.86116659641265869:3.0205032825469971] [-20.016422271728516:5.741854190826416] [-4.8164644241333008:6.4113831520080566] [-0.86116659641265869:3.8682053089141846] [-35.583099365234375:5.741854190826416] [-5.0234813690185547:6.0908412933349609] [-0.86116659641265869:3.0205976963043213] [-22.298454284667969:7.3048324584960938] [-5.0991640090942383:4.7174110412597656] [-0.86116659641265869:3.0573489665985107] [-20.016422271728516:7.3048324584960938] [-4.7341036796569824:4.490361213684082] [-0.86116659641265869:3.8682053089141846] [-35.583099365234375:5.741854190826416] [-5.5109705924987793:6.0908412933349609] [-0.86116659641265869:3.0146675109863281] [-18.460952758789062:7.3048324584960938] [-4.8209166526794434:5.7369108200073242] [-0.86116659641265869:3.0941884517669678] [-20.016422271728516:7.3048324584960938] [-4.9210858345031738:5.9528307914733887] [-0.86116659641265869:3.8682053089141846] [-35.583099365234375:5.741854190826416] [-5.5109705924987793:6.0908412933349609] [-0.86116659641265869:3.0054748058319092] [-18.460952758789062:7.3048324584960938] [-4.7118434906005859:5.7369108200073242] [-0.86116659641265869:3.121025562286377] [-20.099235534667969:7.3048324584960938] [-4.9210858345031738:5.9528307914733887] [-0.86116659641265869:3.8682053089141846] [-35.583099365234375:5.741854190826416] [-5.4619989395141602:6.0908412933349609] [-0.86116659641265869:2.9832098484039307] [-18.460952758789062:7.3048324584960938] [-7.3874721527099609:4.1809496879577637] [-0.86116659641265869:3.1245131492614746] [-20.099235534667969:7.3048324584960938] [-5.0947127342224121:4.4770054817199707] [-0.86116659641265869:3.8682053089141846] [-35.583099365234375:5.741854190826416] [-5.4619989395141602:5.7369108200073242] [-0.86116659641265869:2.9609482288360596] [-18.460952758789062:7.3048324584960938] [-7.3874721527099609:4.728541374206543] [-0.86116659641265869:3.1279976367950439] [-20.099235534667969:7.3048324584960938] [-5.0590968132019043:4.0251312255859375] [-0.86116659641265869:3.8682053089141846] [-35.583099365234375:5.741854190826416] [-5.4486432075500488:5.3518157005310059] [-0.86116659641265869:2.9386796951293945] [-18.460952758789062:7.3048324584960938] [-7.3874721527099609:4.728541374206543] [-0.86116659641265869:3.1333005428314209] [-20.204853057861328:7.3048324584960938] [-5.0590968132019043:4.7908682823181152] [-0.86116659641265869:3.8682053089141846] [-35.583099365234375:5.741854190826416] [-5.1592659950256348:4.5994343757629395] [-0.86116659641265869:2.9164180755615234] [-18.460952758789062:7.3048324584960938] [-4.7452335357666016:4.728541374206543] [-0.86116659641265869:3.1416802406311035] [-22.298454284667969:7.3048324584960938] [-4.892148494720459:4.7908682823181152] [-0.86116659641265869:3.8682053089141846] [-35.583099365234375:5.741854190826416] [-5.2304973602294922:4.1119441986083984] [-0.86116659641265869:2.8941531181335449] [-18.460952758789062:7.3048324584960938] [-4.9077296257019043:4.1876277923583984] [-0.86116659641265869:3.1500599384307861] [-22.298454284667969:5.8144493103027344] [-4.892148494720459:4.7908682823181152] [-0.86116659641265869:3.8682053089141846] [-35.583099365234375:5.741854190826416] [-5.2304973602294922:4.1119441986083984] [-0.86116659641265869:2.8706502914428711] [-18.460952758789062:7.3048324584960938] [-4.9077296257019043:5.017918586730957] [-0.86116659641265869:3.1573452949523926] [-22.298454284667969:5.8144493103027344] [-4.7318778038024902:4.6484060287475586] [-0.86116659641265869:3.8682053089141846] [-35.583099365234375:5.741854190826416] [-5.2861471176147461:4.1119441986083984] [-0.86116659641265869:2.8595669269561768] [-18.460952758789062:7.3048324584960938] [-4.778623104095459:5.017918586730957] [-0.86116659641265869:3.1644546985626221] [-20.323673248291016:5.8144493103027344] [-4.8743400573730469:4.6484060287475586] [-0.86116659641265869:3.8682053089141846] [-35.583099365234375:5.741854190826416] [-5.413027286529541:4.7908687591552734] [-0.86116659641265869:2.8595669269561768] [-18.460952758789062:7.3048324584960938] [-4.5627026557922363:4.8954892158508301] [-0.86116659641265869:3.1715610027313232] [-20.323673248291016:5.8144493103027344] [-4.8743400573730469:4.8954892158508301] [-0.86116659641265869:3.8682053089141846] [-35.583099365234375:5.741854190826416] [-5.413027286529541:4.7908687591552734] [-0.86116659641265869:2.8595669269561768] [-18.460952758789062:7.3048324584960938] [-4.6762275695800781:4.8954892158508301] [-0.86116659641265869:3.1782879829406738] [-20.434093475341797:7.3048324584960938] [-4.8743400573730469:4.8954892158508301] [-0.86116659641265869:3.8682053089141846] [-35.583099365234375:5.741854190826416] [-5.413027286529541:6.6562404632568359] [-0.86116659641265869:2.8595669269561768] [-18.460952758789062:7.3048324584960938] [-5.0947127342224121:4.8954892158508301] [-0.86116659641265869:3.1728832721710205] [-20.434093475341797:7.3048324584960938] [-4.9121818542480469:4.8954892158508301] [-0.86116659641265869:3.8682053089141846] [-35.583099365234375:5.741854190826416] [-5.3840899467468262:6.6562404632568359] [-0.86116659641265869:2.8595669269561768] [-18.514963150024414:7.3048324584960938] [-5.2304973602294922:4.5549149513244629] [-0.86116659641265869:3.1472647190093994] [-20.508506774902344:7.3048324584960938] [-4.9121818542480469:4.5571403503417969] [-0.86116659641265869:3.8682053089141846] [-35.583099365234375:5.741854190826416] [-5.3840899467468262:6.6562404632568359] [-0.86116659641265869:2.8595669269561768] [-18.514963150024414:7.3048324584960938] [-10.241179466247559:3.9182839393615723] [-0.86116659641265869:3.1208128929138184] [-20.508506774902344:7.3048324584960938] [-4.9121818542480469:4.5571403503417969] [-0.86116659641265869:3.8682053089141846] [-35.583099365234375:5.741854190826416] [-5.3840899467468262:4.0251312255859375] [-0.86116659641265869:2.8595669269561768] [-18.460952758789062:7.3048324584960938] [-10.241179466247559:4.5682706832885742] [-0.86116659641265869:3.0910208225250244] [-20.508506774902344:7.3048324584960938] [-5.2616605758666992:4.0407133102416992] [-0.86116659641265869:3.8682053089141846] [-35.583099365234375:5.741854190826416] [-5.4441909790039062:3.6667482852935791] [-0.86116659641265869:2.8732104301452637] [-26.082265853881836:7.3048324584960938] [-5.0702266693115234:4.5682706832885742] [-0.86116659641265869:3.0612318515777588] [-20.616523742675781:7.3048324584960938] [-5.2616605758666992:5.017918586730957] [-0.86116659641265869:3.8682053089141846] [-35.583099365234375:5.741854190826416] [-5.8092522621154785:3.9383177757263184] [-0.86116659641265869:3.0773282051086426] [-18.809013366699219:7.3048324584960938] [-4.9210858345031738:4.5682706832885742] [-0.86116659641265869:3.103809118270874] [-20.616523742675781:7.3048324584960938] [-6.025172233581543:5.0357265472412109] [-0.86116659641265869:3.8682053089141846] [-35.583099365234375:5.741854190826416] [-6.3345832824707031:4.5549149513244629] [-0.86116659641265869:3.0647847652435303] [-18.809013366699219:7.3048324584960938] [-4.9900913238525391:6.5271334648132324] [-0.86116659641265869:3.1059966087341309] [-17.893255233764648:7.3048324584960938] [-6.025172233581543:5.0357265472412109] [-0.86116659641265869:3.8682053089141846] [-35.583099365234375:5.741854190826416] [-6.3345832824707031:4.5549149513244629] [-0.86116659641265869:3.0522446632385254] [-18.809013366699219:7.3048324584960938] [-5.0034470558166504:6.5271334648132324] [-0.86116659641265869:3.1081850528717041] [-17.893255233764648:7.3048324584960938] [-6.025172233581543:5.0357265472412109] [-0.86116659641265869:3.8682053089141846] [-35.583099365234375:5.741854190826416] [-6.3345832824707031:5.0980539321899414] [-0.86116659641265869:3.0406453609466553] [-18.809013366699219:7.3048324584960938] [-5.1013903617858887:6.5271334648132324] [-0.86116659641265869:3.1071071624755859] [-17.893255233764648:7.3048324584960938] [-4.9077301025390625:4.5059432983398438] [-0.86116659641265869:3.8682053089141846] [-35.583099365234375:5.741854190826416] [-5.7580547332763672:5.0980539321899414] [-0.86116659641265869:3.0374646186828613] [-18.809013366699219:7.3048324584960938] [-5.1013903617858887:4.5571403503417969] [-0.86116659641265869:3.0984206199645996] [-17.893255233764648:7.3048324584960938] [-4.8120131492614746:4.5059432983398438] [-0.86116659641265869:3.8682053089141846] [-35.583099365234375:5.741854190826416] [-5.7580547332763672:5.0980539321899414] [-0.86116659641265869:3.0342874526977539] [-18.809013366699219:7.3048324584960938] [-5.1013903617858887:12.236774444580078] [-0.86116659641265869:3.0897307395935059] [-18.809013366699219:7.3048324584960938] [-4.8609843254089355:4.1030402183532715] [-0.86116659641265869:3.8682053089141846] [-35.583099365234375:5.741854190826416] [-5.7580547332763672:4.2121138572692871] [-0.86116659641265869:3.0340163707733154] [-18.809013366699219:7.3048324584960938] [-5.1013903617858887:12.236774444580078] [-0.86116659641265869:3.0810444355010986] [-18.809013366699219:7.3048324584960938] [-4.8609843254089355:3.8426008224487305] [-0.86116659641265869:3.8682053089141846] [-35.583099365234375:6.8505892753601074] [-5.0791306495666504:4.2855710983276367] [-0.86116659641265869:3.0354628562927246] [-18.809013366699219:7.3048324584960938] [-21.190780639648438:4.574948787689209] [-0.86116659641265869:3.072354793548584] [-20.812158584594727:7.3048324584960938] [-4.8609843254089355:3.8693125247955322] [-0.86116659641265869:3.8682053089141846] [-35.583099365234375:6.8505892753601074] [-5.0947127342224121:4.2855710983276367] [-0.86116659641265869:3.036909818649292] [-18.809013366699219:7.3048324584960938] [-21.190780639648438:4.574948787689209] [-0.86116659641265869:3.0636680126190186] [-20.951381683349609:7.3048324584960938] [-4.8721146583557129:4.385739803314209] [-0.86116659641265869:3.8682053089141846] [-35.583099365234375:6.8505892753601074] [-5.1459102630615234:4.2855710983276367] [-0.86116659641265869:3.0383560657501221] [-18.809013366699219:7.3048324584960938] [-5.3751864433288574:4.2811188697814941] [-0.86116659641265869:3.0631976127624512] [-20.951381683349609:7.3048324584960938] [-4.8854703903198242:4.385739803314209] [-0.86116659641265869:3.8682053089141846] [-35.583099365234375:6.8505892753601074] [-5.1459102630615234:4.2855710983276367] [-0.86116659641265869:3.0398027896881104] [-18.809013366699219:7.3048324584960938] [-4.7096176147460938:4.0941367149353027] [-0.86116659641265869:3.0767924785614014] [-20.951381683349609:7.3048324584960938] [-5.0947127342224121:4.385739803314209] [-0.86116659641265869:3.8682053089141846] [-35.583099365234375:6.8505892753601074] [-5.1459102630615234:4.2811188697814941] [-0.86116659641265869:3.0410864353179932] [-18.809013366699219:7.3048324584960938] [-4.769719123840332:4.3523502349853516] [-0.86116659641265869:3.0903871059417725] [-21.112209320068359:7.3048324584960938] [-5.0947127342224121:5.0134663581848145] [-0.86116659641265869:3.8682053089141846] [-35.583099365234375:6.8505892753601074] [-5.1459102630615234:5.5009565353393555] [-0.86116659641265869:3.0421280860900879] [-18.809013366699219:7.3048324584960938] [-5.7580547332763672:5.1759629249572754] [-0.86116659641265869:2.9379351139068604] [-21.112209320068359:7.3048324584960938] [-5.1214241981506348:5.8482098579406738] [-0.86116659641265869:3.8682053089141846] [-35.583099365234375:6.8505892753601074] [-5.1013903617858887:5.5009565353393555] [-0.86116659641265869:3.0431699752807617] [-18.809013366699219:7.3048324584960938] [-5.7580547332763672:5.1759629249572754] [-0.86116659641265869:2.9379088878631592] [-21.112209320068359:7.3048324584960938] [-4.6762275695800781:5.8482098579406738] [-0.86116659641265869:3.8682053089141846] [-35.583099365234375:6.8505892753601074] [-5.1013903617858887:4.728541374206543] [-0.86116659641265869:3.0432674884796143] [-18.809013366699219:7.3048324584960938] [-5.413027286529541:5.6011257171630859] [-0.86116659641265869:2.9378764629364014] [-21.112209320068359:7.3048324584960938] [-4.6762275695800781:5.8482098579406738] [-0.86116659641265869:3.8682053089141846] [-35.619106292724609:6.8505892753601074] [-5.1013903617858887:4.728541374206543] [-0.86116659641265869:3.0419549942016602] [-18.809013366699219:7.3048324584960938] [-5.3017282485961914:7.4687232971191406] [-0.86116659641265869:2.938784122467041] [-21.250232696533203:7.3048324584960938] [-4.7674932479858398:4.5549149513244629] [-0.86116659641265869:3.8682053089141846] [-35.619106292724609:6.8505892753601074] [-5.1013903617858887:4.728541374206543] [-0.86116659641265869:3.040642261505127] [-18.809013366699219:7.3048324584960938] [-5.0301589965820312:5.6011257171630859] [-0.86116659641265869:2.9388952255249023] [-21.286239624023438:7.3048324584960938] [-4.7341032028198242:4.5549149513244629] [-0.86116659641265869:3.8682053089141846] [-35.65631103515625:6.8505892753601074] [-4.9077296257019043:4.3145089149475098] [-0.86116659641265869:3.3209888935089111] [-18.809013366699219:7.3048324584960938] [-4.8876962661743164:4.5326547622680664] [-0.86116659641265869:2.9390032291412354] [-21.286239624023438:7.3048324584960938] [-4.9900913238525391:4.0295834541320801] [-0.86116659641265869:3.8682053089141846] [-35.65631103515625:6.8505892753601074] [-4.9077296257019043:4.3145089149475098] [-0.86116659641265869:3.3336007595062256] [-18.809013366699219:7.3048324584960938] [-4.8031091690063477:67.559074401855469] [-0.86116659641265869:2.944678783416748] [-21.286239624023438:5.8144493103027344] [-5.0501928329467773:4.7908687591552734] [-0.86116659641265869:3.8682053089141846] [-35.65631103515625:7.3048324584960938] [-4.9077296257019043:4.385739803314209] [-0.86116659641265869:3.34621262550354] [-18.809013366699219:7.3048324584960938] [-22.041105270385742:4.1186223030090332] [-0.86116659641265869:2.9543123245239258] [-21.286239624023438:5.8144493103027344] [-5.0501928329467773:4.7908687591552734] [-0.86116659641265869:3.8682053089141846] [-35.65631103515625:7.3048324584960938] [-5.1481356620788574:4.385739803314209] [-0.86116659641265869:3.0747711658477783] [-18.809013366699219:7.3048324584960938] [-22.041105270385742:4.3011527061462402] [-0.86116659641265869:2.9639458656311035] [-21.286239624023438:7.3048324584960938] [-5.535456657409668:4.7908687591552734] [-0.86116659641265869:3.8682053089141846] [-35.65631103515625:7.3048324584960938] [-5.1481356620788574:7.4687232971191406] [-0.86116659641265869:3.066401481628418] [-18.809013366699219:7.3048324584960938] [-5.7335686683654785:4.8999414443969727] [-0.86116659641265869:2.9538977146148682] [-21.336648941040039:7.3048324584960938] [-5.0501928329467773:4.316734790802002] [-0.86116659641265869:3.8682053089141846] [-18.728599548339844:6.8505892753601074] [-5.535456657409668:4.2811188697814941] [-0.86116659641265869:3.0580317974090576] [-18.809013366699219:7.3048324584960938] [-5.7335686683654785:4.7619309425354004] [-0.86116659641265869:2.9203042984008789] [-21.371454238891602:7.3048324584960938] [-5.0501928329467773:3.9561254978179932] [-0.86116659641265869:3.8682053089141846] [-18.667388916015625:6.8505892753601074] [-5.036837100982666:4.9578170776367188] [-0.86116659641265869:3.0425913333892822] [-18.809013366699219:7.3048324584960938] [-5.7335686683654785:4.7619309425354004] [-0.86116659641265869:2.8867108821868896] [-21.371454238891602:7.3048324584960938] [-5.4486432075500488:3.9605777263641357] [-0.86116659641265869:3.8682053089141846] [-18.675790786743164:6.8505892753601074] [-5.036837100982666:4.9578170776367188] [-0.86116659641265869:3.0165584087371826] [-18.781408309936523:7.3048324584960938] [-5.2727909088134766:37.129920959472656] [-0.86116659641265869:2.6521937847137451] [-21.371454238891602:7.3048324584960938] [-5.4486432075500488:4.5326547622680664] [-0.86116659641265869:3.8682053089141846] [-18.628982543945312:6.8505892753601074] [-5.0902605056762695:4.3723845481872559] [-0.86116659641265869:2.9905250072479248] [-18.809013366699219:7.3048324584960938] [-5.2727909088134766:3.8715384006500244] [-0.86116659641265869:2.879366397857666] [-21.371454238891602:7.3048324584960938] [-5.4486432075500488:4.5326547622680664] [-0.86116659641265869:3.8682053089141846] [-18.628982543945312:6.8505892753601074] [-5.0902605056762695:4.2544069290161133] [-0.86116659641265869:2.9710385799407959] [-18.809013366699219:7.3048324584960938] [-5.2304973602294922:5.0980539321899414] [-0.86116659641265869:2.8730342388153076] [-21.371454238891602:7.3048324584960938] [-5.1971073150634766:4.5326547622680664] [-0.86116659641265869:3.8682053089141846] [-18.628982543945312:6.8505892753601074] [-5.0902605056762695:4.2544069290161133] [-0.86116659641265869:2.9668424129486084] [-18.770606994628906:7.3048324584960938] [-5.4486432075500488:5.0980539321899414] [-0.86116659641265869:2.8667056560516357] [-21.370254516601562:7.3048324584960938] [-5.2349491119384766:4.5126214027404785] [-0.86116659641265869:3.8682053089141846] [-18.667388916015625:6.8505892753601074] [-5.123650074005127:5.1759634017944336] [-0.86116659641265869:2.9673910140991211] [-18.781408309936523:7.3048324584960938] [-5.4486432075500488:5.0980539321899414] [-0.86116659641265869:2.8702816963195801] [-21.370254516601562:7.3048324584960938] [-5.2349491119384766:4.7841906547546387] [-0.86116659641265869:3.8682053089141846] [-18.667388916015625:7.3048324584960938] [-5.123650074005127:5.1759634017944336] [-0.86116659641265869:2.9727141857147217] [-18.781408309936523:7.3048324584960938] [-5.5109705924987793:4.6484060287475586] [-0.86116659641265869:2.8801565170288086] [-21.370254516601562:7.3048324584960938] [-5.2349491119384766:4.7841906547546387] [-0.86116659641265869:3.8682053089141846] [-18.667388916015625:7.3048324584960938] [-5.123650074005127:5.1759634017944336] [-0.86116659641265869:2.9780368804931641] [-18.628982543945312:7.3048324584960938] [-5.5109705924987793:4.6484060287475586] [-0.86116659641265869:2.8900284767150879] [-21.396657943725586:7.3048324584960938] [-5.7335686683654785:4.7841906547546387] [-0.86116659641265869:3.8682053089141846] [-18.634983062744141:7.3048324584960938] [-5.8137040138244629:5.017918586730957] [-0.86116659641265869:2.9808814525604248] [-18.628982543945312:7.3048324584960938] [-4.9077301025390625:4.241051197052002] [-0.86116659641265869:2.8974514007568359] [-21.396657943725586:7.3048324584960938] [-4.9077301025390625:4.5393328666687012] [-0.86116659641265869:3.8682053089141846] [-18.634983062744141:7.3048324584960938] [-5.8137040138244629:5.017918586730957] [-0.86116659641265869:2.9550895690917969] [-18.628982543945312:7.3048324584960938] [-4.9077301025390625:4.5549149513244629] [-0.86116659641265869:2.8972551822662354] [-21.396657943725586:7.3048324584960938] [-5.0657744407653809:4.7619309425354004] [-0.86116659641265869:3.8682053089141846] [-18.634983062744141:7.3048324584960938] [-5.8137040138244629:5.2360649108886719] [-0.86116659641265869:2.9443359375] [-18.667388916015625:7.3048324584960938] [-6.025172233581543:4.5549149513244629] [-0.86116659641265869:2.9019415378570557] [-21.480672836303711:7.3048324584960938] [-5.0657744407653809:4.7619309425354004] [-0.86116659641265869:3.8682053089141846] [-18.628982543945312:7.3048324584960938] [-5.161491870880127:5.2360649108886719] [-0.86116659641265869:2.933582067489624] [-18.667388916015625:7.3048324584960938] [-6.025172233581543:4.6127901077270508] [-0.86116659641265869:2.9306690692901611] [-21.480672836303711:7.3048324584960938] [-5.0657744407653809:4.7619309425354004] [-0.86116659641265869:3.8682053089141846] [-18.628982543945312:7.3048324584960938] [-4.9656052589416504:5.2360649108886719] [-0.86116659641265869:2.9230015277862549] [-18.667388916015625:7.3048324584960938] [-6.025172233581543:4.6127901077270508] [-0.86116659641265869:2.9594001770019531] [-21.480672836303711:7.3048324584960938] [-4.9923171997070312:4.2811188697814941] [-0.86116659641265869:3.8682053089141846] [-18.628982543945312:7.3048324584960938]
tree_sizes=6754 6800 6840 6830

Tree=0
num_leaves=63
num_cat=0
split_feature=532 217 532 460 415 19 280 342 450 27 208 102 120 321 351 523 486 141 51 189 146 522 526 465 211 426 187 10 366 174 486 246 67 483 358 297 343 187 126 450 119 219 19 454 474 402 516 438 505 486 12 339 258 232 171 221 480 534 432 15 468 352
split_gain=58822.1 4129.24 3654.53 1813.76 1096.94 794.741 674.846 481.862 472.125 463.173 448.411 515.338 481.305 409.144 400.928 391.433 380.106 445.975 375.405 372.643 383.973 379.175 371.524 367.067 354.566 348.781 345.648 339.171 326.276 438.199 310.069 307.266 333.445 332.887 313.191 303.011 294.089 290.996 341.868 339.812 289.094 297.339 288.59 288.026 283.248 279.978 277.491 311.554 272.12 445.364 271.072 267.817 338.178 259.569 259.567 271.986 259.379 255.628 253.521 264.459 327.19 266.274
threshold=-0.62474569678306568 -0.58699515461921681 -0.74941882491111744 -0.7352231740951537 -0.81141325831413258 -0.44377334415912623 -0.7043108046054839 -1.6333121657371519 1.6722694635391238 0.010574712418019773 -0.81439480185508717 0.72511455416679393 1.7668735980987551 1.094627380371094 -1.1346923708915708 -0.58653306961059559 -0.60268303751945485 0.066224236041307463 0.20200904458761218 1.6333147287368777 -0.37165446579456324 0.50474247336387645 -0.72035482525825489 0.46244882047176367 -0.85791075229644764 0.56484395265579235 3.3951641321182255 -0.62271121144294728 0.86757731437683117 -0.17195570468902585 0.62160646915435802 -0.83418503403663624 -0.13978680968284604 -0.074012532830238328 -0.19850260019302365 1.5598574280738833 0.25669834017753607 -0.78486058115959156 0.74069648981094371 -2.5136876106262203 1.1990609765052798 1.298304617404938 -0.857814460992813 -0.84099161624908436 0.29104830324649816 0.41125126183032995 0.4335110485553742 1.3884568810462954 -0.79546239972114552 -0.34335625171661371 -0.44686433672904963 0.25988459587097174 -0.58153620362281788 0.17827452719211581 0.23985073715448382 0.38196592032909399 -1.1346923708915708 0.52700224518775951 1.3595190644264223 1.7579696774482729 0.2042350769042969 -0.83151319622993458
decision_type=2 2 2 2 2 2 2 2 2 2 2 2 2 2 2 2 2 2 2 2 2 2 2 2 2 2 2 2 2 2 2 2 2 2 2 2 2 2 2 2 2 2 2 2 2 2 2 2 2 2 2 2 2 2 2 2 2 2 2 2 2 2
left_child=2 9 4 56 22 8 45 -7 13 10 11 18 14 37 36 46 17 57 -2 24 -21 -22 -1 -15 -17 -10 31 -6 43 -30 35 44 -33 -34 50 -23 -12 38 -5 -39 53 -42 -41 -16 -11 -4 47 -9 -29 54 -35 -19 -53 58 -50 -56 -3 -8 59 61 -61 -26
right_child=1 3 6 5 27 7 16 15 25 26 12 -13 -14 23 28 19 -18 51 -20 20 21 30 -24 -25 40 -27 -28 48 29 -31 -32 32 33 34 -36 -37 -38 39 -40 42 41 -43 -44 -45 -46 -47 -48 -49 49 -51 -52 52 -54 -55 55 -57 -58 -59 -60 60 -62 -63
leaf_value=-1.8848075120199548 -2.0711132169122699 -2.4223617292425015 -2.0835688312864149 -2.3886229811777335 -1.9778035497525255 -2.073098077060723 -2.2281498494412344 -2.4847564366966131 -2.3358614021888218 -2.2081641334071609 -2.2875081505539328 -2.5255884513333369 -2.0479673885674425 -2.1508471313677888 -2.1482071945740899 -2.1380673185354553 -2.1128502968240612 -2.4943516398032086 -2.3434104582017268 -2.0984171237466738 -2.4533735436304758 -2.4670712780877428 -1.9535394097197814 -2.4730409488263096 -2.0761823534969888 -2.0245778948404385 -2.4290146038385934 -2.0004579970949399 -2.0951406946238804 -2.5255884513333369 -2.1262649303060308 -2.0675871573560598 -2.1156720543279848 -2.0361487793066293 -2.5255884513333369 -2.0211707573710185 -1.9530311216796634 -1.9406134127785903 -2.0149196842088042 -2.0786196655322047 -2.3893775462415805 -2.0005111032569496 -2.4142182873875808 -2.4658518486220045 -2.5255884513333369 -1.9873104293956718 -2.0816837257130318 -2.0133326321277849 -2.125988333324361 -2.0094789602754841 -2.401354942079867 -2.0487350343104671 -2.4600960126861442 -2.4593059228682499 -2.5255884513333369 -2.1183726132992509 -2.0669687161076551 -2.0438512319906721 -2.3425058246305883 -2.4789839390964117 -2.1510654598723482 -2.4329819300294075
leaf_weight=361.19136941432953 57.307656079530716 5.7342689037322989 207.5679723918438 12.965233832597734 565.14751568436623 10.465279549360273 45.772085100412369 14.496707737445833 15.599509537219999 29.836644470691681 22.37634959816933 9.3370249867439252 14.871951729059218 41.068794727325439 7.842596471309661 10.692341983318327 255.27928575873375 18.949750423431396 16.245918959379196 15.24266070127487 57.377466917037964 20.230976641178135 431.49223467707634 11.264660626649855 5.2685514092445365 21.266490191221237 12.258593767881392 202.89693731069565 17.876936405897144 8.8342621028423292 22.234970569610596 99.516297996044159 43.3207688331604 10.884626537561418 12.353602290153502 4.693965256214141 9.3045146167278272 4.047555834054946 11.591266602277754 6.6216008961200705 13.037057101726534 7.8912344872951499 196.65412330627441 79.271971374750137 9.1933784484863263 118.76467904448509 14.668074548244475 4.6221419870853415 62.214823633432388 88.311868011951447 9.529309540987013 11.171919614076616 9.0381392836570722 482.24183651804924 9.4088482558727282 7.2680103182792655 49.045712620019913 31.947239547967911 109.92639207839966 12.701126009225847 18.965878069400787 696.71493309736252
leaf_count=791 321 69 1210 148 2200 59 388 191 163 242 214 130 77 290 55 73 1625 253 172 93 723 260 1488 146 30 101 149 874 108 123 147 551 278 54 172 22 32 13 53 38 149 34 2337 1017 128 483 85 21 411 395 111 58 115 6129 131 47 271 163 1162 166 134 8519
internal_value=-2.17751 -2.35482 -2.00451 -2.38769 -1.96549 -2.39612 -2.10102 -2.41121 -2.32464 -2.22217 -2.2701 -2.17567 -2.3189 -2.34648 -2.34659 -2.41355 -2.14704 -2.22172 -2.13126 -2.4174 -2.33286 -2.36704 -1.92222 -2.2202 -2.42486 -2.15629 -2.17079 -2.00217 -2.39038 -2.2375 -2.26201 -2.15604 -2.12783 -2.20663 -2.32688 -2.3831 -2.18927 -2.37498 -2.21223 -2.39425 -2.42713 -2.24275 -2.40329 -2.43726 -2.28293 -2.04854 -2.24528 -2.37079 -2.03938 -2.08661 -2.20663 -2.35932 -2.2327 -2.43005 -2.17294 -2.34812 -2.10417 -2.15239 -2.41332 -2.42393 -2.28259 -2.4303
internal_weight=4793.92 2367.49 2426.42 1897.33 1727.93 1842.55 698.491 1521.47 321.079 470.162 243.269 82.8906 160.379 284.213 145.507 1511.01 372.158 116.879 73.5536 1477.22 119.78 104.537 792.684 52.3335 1357.44 36.866 226.893 935.248 113.826 26.7112 47.1599 214.635 175.605 76.0883 32.7675 24.9249 31.6809 231.88 24.5565 207.323 1346.75 20.9283 203.276 87.1146 39.03 326.333 33.7869 19.1188 370.1 167.204 20.4139 39.1598 20.2101 1325.82 78.8917 16.6769 54.78 77.7193 843.577 733.65 31.667 701.983
internal_count=36192 25560 10632 21626 6337 21286 4295 17997 3289 3934 2249 623 1626 3025 1549 17938 2602 977 493 17641 1245 1152 2279 436 16396 264 1685 4058 1303 231 429 1536 1166 615 337 282 246 2589 201 2388 16323 183 2375 1072 370 1693 297 212 1858 984 165 426 173 16140 589 178 340 551 10011 8849 300 8549
is_linear=0
shrinkage=1


Tree=1
num_leaves=63
num_cat=0
split_feature=532 253 532 469 10 289 38 460 433 505 486 406 537 343 502 262 36 243 246 477 525 136 316 533 18 214 389 8 36 312 489 75 516 276 97 300 459 516 426 149 273 267 50 127 135 345 327 363 390 486 531 436 501 420 510 34 426 333 539 107 237 228
split_gain=24477.6 2312.67 1273.12 1216 627.34 404.484 416.493 379.717 346.969 346.298 367.641 309.703 302.919 302.879 296.754 303.004 313.355 505.874 289.69 289.027 310.854 369.116 282.284 302.911 272.065 271.719 261.572 256.684 249.618 247.822 246.775 244.139 242.807 240.11 236.979 236.602 294.75 331.796 236.156 226.241 222.153 217.67 218.454 214.604 213.646 264.713 212.381 214.939 209.905 220.318 209.797 209.032 208.12 207.301 218.969 203.304 202.325 198.229 197.089 196.411 199.427 193.662
threshold=-0.61506476998329151 -0.5539225935935973 -0.72659212350845326 -0.75352859497070301 -0.82875043153762806 -0.81054300069808949 -0.43735021352767939 -0.8278311789035796 -0.81627416610717762 -0.51399394869804371 1.1658588051795962 -0.85442635416984547 1.0968533754348757 0.63995125889778148 3.7600266933441167 -0.73393324017524708 -0.35448615252971644 -1.1358054280281065 0.60713759064674389 -0.32109640538692469 0.30440416932106024 -0.81965085864067067 -0.55025205016136158 0.92178916931152355 2.0517991781234746 -0.82450187206268299 0.29596418142318731 -2.5745702981948848 0.778538078069687 -0.79523035883903492 1.0990793108940127 -0.13188808411359784 0.40902528166770941 0.10406592860817911 -0.048947149887681 -0.69506120681762684 1.6021510362625124 0.905419021844864 1.3172254562377932 -0.45921681821346277 0.14302057772874835 -0.060656661167740815 -2.8752129077911373 -0.85818183422088612 -0.60490897297859181 -0.7518237531185149 1.1680847406387331 -1.1346923708915708 2.4569275379180913 0.35671475529670721 -0.81971615552902211 -0.8394469916820525 0.27101449668407446 -0.74180677533149708 0.27991840243339544 -0.77537721395492543 -0.70619115233421315 0.68282094597816478 0.4849697500467301 0.38330239057540899 1.4107166528701784 1.063463628292084
decision_type=2 2 2 2 2 2 2 2 2 2 2 2 2 2 2 2 2 2 2 2 2 2 2 2 2 2 2 2 2 2 2 2 2 2 2 2 2 2 2 2 2 2 2 2 2 2 2 2 2 2 2 2 2 2 2 2 2 2 2 2 2 2
left_child=2 14 7 -3 26 -6 12 50 -4 28 11 -11 30 24 15 46 17 -17 -19 20 21 -10 -22 -24 25 -12 55 -27 31 -18 41 -8 -15 -30 53 36 37 -29 40 -14 -23 42 -7 -13 45 -31 47 -2 -45 -50 -1 -44 -32 -33 -55 -5 -57 -34 -46 60 -53 -21
right_child=1 3 8 4 5 6 9 -9 19 10 13 43 39 32 -16 16 29 18 -20 61 22 38 23 -25 -26 27 -28 35 33 44 52 34 57 -35 -36 -37 -38 -39 -40 -41 -42 -43 51 48 58 -47 -48 -49 49 -51 -52 59 -54 54 -56 56 -58 -59 -60 -61 -62 -63
leaf_value=0.358150221732767 0.29229696354718604 0.29049251311741958 0.32753759204363475 0.33004501786216217 0.30705504829391966 0.31155488306529877 -0.03390159153144584 0.30003376651398217 0.31962034122817695 0.42604649452989662 0.29127027190610733 0.31967606748689642 0.064427123038421297 0.10157001047934976 -0.054980501841402012 0.35112420463648752 0.054002819739672837 -0.033673330928361347 0.16656848460553306 0.26688146774531613 0.29307279322894003 0.1140424318369152 0.024209963203819861 0.41854471080715056 0.34096766705282572 0.38779256701711379 0.35154137996008733 -0.034121733562832872 0.015957324162746308 0.27930023019352401 0.268527010449856 0.40629427189300477 0.15195352543179655 0.32540856360702358 0.024802187323524238 0.0012553158767533658 0.37402966042082009 0.23845212340252453 0.25578465877070106 0.29679096000995381 -0.055613776136988681 -0.021094026343085121 0.28835882471145385 0.02475295217459526 0.2753847857120596 -0.021943786661191317 0.30615027565634872 0.17848520363873233 0.02078747736520677 0.39501885736177461 0.31416619389758033 -0.013693589755251305 0.0043553133737187629 -0.054648862481921148 0.29089692305260406 0.23751698742652444 -0.023789678475414522 0.46346920943089898 0.052083531310318038 0.26353331837212313 0.26000121972933971 0.16497042052873009
leaf_weight=582.7234328687191 52.720224358141422 61.482602030038834 101.78062243014574 10.743992552161215 16.331542022526264 11.311274044215677 28.254455722868443 1736.7268598675728 22.059612080454826 4.9213198497891417 11.968868575990198 6.3003682047128668 14.890387289226053 22.728802062571049 12.633992493152617 14.532670974731444 27.039067856967449 55.759348966181278 26.715969279408455 360.95239114016294 83.018265694379807 62.709057331085205 22.227549098432068 6.2362920865416518 8.9714287444949132 5.3466702327132216 23.267558433115482 28.967785611748695 8.3821037858724576 12.382015749812128 29.263551652431488 11.545863494277002 8.6016794294118899 24.860073037445545 22.265122875571251 137.90613505244255 9.6658738479018194 18.165992856025696 18.985565446317196 35.331469789147377 27.871195040643215 52.933941178023815 10.337229356169699 1209.5200612768531 96.555023074150085 17.741701535880566 62.121973790228367 194.6451199054718 7.8375532552599889 7.8941351845860481 506.98909809440374 57.773833774030209 10.004414245486258 8.2911458089947718 10.255791045725344 12.121883906424047 19.048493944108486 12.568862065672873 11.007975861430166 9.2915234938263875 7.5222360268235198 53.530272752046585
leaf_count=812 244 251 313 46 82 69 347 5175 80 17 74 23 156 228 157 42 259 680 223 1567 310 482 216 12 47 22 94 371 98 70 182 43 82 111 246 1681 50 133 93 207 313 656 58 14260 493 199 255 1341 90 34 1212 705 116 108 55 74 229 46 106 61 53 333
internal_value=0.214597 0.0971737 0.299108 0.0715801 0.0646258 0.0593114 0.0571289 0.314551 0.24163 0.0480191 0.0416437 0.0301917 0.118783 0.0950997 0.184708 0.190009 0.15041 0.0791193 0.0311904 0.228333 0.18505 0.133017 0.246485 0.110607 0.0712705 0.0598586 0.217108 0.0460136 0.13209 0.192394 0.0897018 0.0845484 0.215058 0.24738 0.148469 0.0366282 0.122512 0.0709319 0.0954466 0.227897 0.0618399 0.0603446 0.105139 0.0286099 0.219572 0.101879 0.223498 0.202742 0.0271132 0.208576 0.337687 0.0776465 0.201223 0.239968 0.136426 0.142481 0.0778302 0.336899 0.252532 0.0484435 0.0178366 0.25372
internal_weight=6166.54 2580.73 3585.81 1996.88 1935.39 1870.21 1853.88 2826.44 759.371 1615.22 1501.37 1236.47 238.66 264.892 583.855 571.221 261.734 97.008 82.4753 657.59 243.108 131.625 111.482 28.4638 220.993 212.021 65.1819 200.052 113.855 164.726 188.438 80.6124 43.8993 33.2422 52.3579 194.706 56.7997 47.1338 109.566 50.2219 90.5803 149.17 96.2361 1231.55 137.687 30.1237 309.487 247.365 1225.25 15.7317 1089.71 84.9248 39.268 30.0928 18.5469 41.9144 31.1704 21.1705 107.563 74.5876 65.2961 414.483
internal_count=36192 25274 10918 21205 20954 20511 20429 7199 3719 18166 17158 14424 2263 2734 4069 3912 2072 945 903 3406 1506 968 538 228 2378 2331 443 2257 1008 1127 1900 799 356 209 452 2235 554 504 888 363 795 1602 946 14407 868 269 1840 1585 14384 124 2024 877 298 206 163 349 303 128 599 819 758 1900
is_linear=0
shrinkage=0.05


Tree=2
num_leaves=63
num_cat=0
split_feature=532 19 469 532 244 496 406 532 10 468 298 267 171 160 56 77 291 224 450 75 399 534 93 15 297 132 261 99 488 438 195 356 483 396 201 337 423 195 414 144 234 0 352 469 192 57 54 156 342 120 129 97 377 450 216 501 9 486 387 510 94 516
split_gain=14005 1550.23 776.29 747.741 491.139 295.849 286.38 264.376 259.983 297.087 247.129 230.098 298.413 242.437 255.74 226.814 224.049 299.321 256.019 230.06 215.326 240.911 274.409 234.586 231.058 212.501 212.024 314.794 242.839 285.55 282.738 337.19 277.212 241.676 232.788 228.348 232.598 224.242 211.361 236.658 210.24 227.611 214.794 207.639 216.56 294.098 206.37 205.976 241.195 205.215 204.766 204.405 197.327 194.544 190.296 227.599 277.506 189.691 189.551 189.076 188.184 188.049
threshold=-0.60075321793556202 -0.46559418737888331 -0.64504641294479359 -0.70694455504417408 -0.82455414533615101 -0.83996129035949696 -0.84270444512367237 -0.82667675614356984 -0.79841288924217213 1.6132808923721316 -0.8506006896495818 -0.17863363772630689 1.6956421732902529 0.14700788259506228 1.0657339096069338 0.55592104792594921 -0.78298744559288014 0.6220911741256715 1.0879495143890383 0.20646105706691745 0.76963415741920482 0.066224236041307463 0.12632571160793307 -0.79523035883903492 1.9983755946159365 0.46801379323005682 -0.94993597269058216 1.4864000678062441 -0.79331201314926136 0.53256723284721386 -0.39455381035804743 0.13290882110595706 -0.82528111338615406 -0.091820415109395967 0.78744208812713634 -0.83379423618316639 1.1324690580368044 -0.91988530755043019 1.7690996527671816 -1.1346923708915708 2.3166908025741582 -0.57040628790855397 -0.83748432993888844 -0.77919146418571461 -0.28214175999164576 -0.66834944486618031 1.1714237928390505 1.8180711269378664 0.50919440388679515 -0.56706729531288136 -0.76629260182380665 3.829287171363831 -0.009705970995128153 -0.26878589391708368 0.26433655619621282 -0.67168840765953053 -0.92433723807334889 -1.1346923708915708 0.048416404053568847 -0.051752744242548936 -0.52512478828430165 -0.28548075258731836
decision_type=2 2 2 2 2 2 2 2 2 2 2 2 2 2 2 2 2 2 2 2 2 2 2 2 2 2 2 2 2 2 2 2 2 2 2 2 2 2 2 2 2 2 2 2 2 2 2 2 2 2 2 2 2 2 2 2 2 2 2 2 2 2
left_child=3 5 58 7 -4 -2 -6 -1 15 20 -8 12 26 16 -15 -7 17 18 -13 -20 21 24 -23 -24 57 40 27 38 59 35 31 -31 33 -32 -29 36 -30 46 39 60 41 54 -43 -5 45 -45 -33 -37 -49 -22 -14 -44 -25 -39 55 56 -18 -10 -3 -28 -12 -47
right_child=1 2 4 43 6 8 10 -9 9 -11 11 13 50 14 -16 -17 25 -19 19 -21 49 22 23 52 -26 -27 28 34 29 30 32 37 -34 -35 -36 47 -38 53 -40 -41 -42 42 51 44 -46 61 -48 48 -50 -51 -52 -53 -54 -55 -56 -57 -58 -59 -60 -61 -62 -63
leaf_value=0.24937047443820051 0.25362062224244103 0.11497477523418974 0.24554973959407989 0.23843972424577786 0.24696190714933641 0.18713951035335732 0.28793968676655401 0.22276951663256686 0.13911435902571506 0.20577000704299434 0.31090781027200903 0.041343066218241797 -0.054747209278286108 -0.013860840022281468 0.20826227481502968 -0.016059459764532921 0.025582409300580596 0.3703770695950544 0.28706062568129609 -0.054955440390482238 0.049970668326853658 0.055379707972851036 -0.014212403309800031 0.28692775663855791 0.25051112037723161 -0.036460658550083458 0.20305290108903576 0.11575922527108673 0.046360212368530766 0.028366532477778306 0.28109484611849311 -0.054695615073362992 -0.029482033932412579 -0.054592494260343363 0.44939395964073975 -0.01468556298597757 0.42609826567807191 0.046183182503679102 0.27088533492444439 0.021759137316799078 0.29568867393085319 0.36169036194071252 -0.0069204927051316357 0.19728313800405051 0.19190746949142334 -0.010247960471458293 0.30176404647739363 -0.054589313608340809 0.34036246614996973 0.18282476625388913 0.20054182306927198 0.33099584209609767 0.13491630552793846 0.36388326263890258 -0.007566430785281123 0.082012574279448247 0.39948478724130987 -0.006104782288227458 0.26229293603013543 -0.012762455834424478 0.043360583105081056 0.12060635020069253
leaf_weight=1778.1916132569313 51.428375795483589 37.748940795660019 31.298942893743515 133.67423901706934 17.494605489075184 220.6803917363286 10.288605563342569 1967.5569278374314 27.142477318644524 74.459245733916759 14.504347629845144 92.120347984135151 9.150390185415743 362.98662569373846 13.438142195343969 14.644373640418051 7.2707026004791286 9.7221084088087064 22.470133610069755 6.2941262349486342 39.059682376682758 95.69971177726984 14.236790239810942 39.572165012359619 11.543720215559004 96.610820211470127 36.605778850615025 10.35236030817032 11.693329483270647 35.481468208134174 15.840674966573717 10.480758741497995 70.362995438277721 8.105119973421095 10.562818214297293 325.6708177998662 6.1551920771598807 5.8738039582967749 12.683328084647654 100.48139822483063 8.4187539219856244 4.2449795976281157 173.30369111895561 99.83778864890337 412.5304471552372 37.902619741857052 6.62821390479803 6.7872446626424781 8.9803214743733388 113.61712224036455 55.474214166402817 4.5938299074769011 46.35937611758709 26.823532178997993 25.073664404451847 38.8037179261446 15.631033673882483 131.11896275728941 51.794496662914753 14.041668921709059 12.018145091831682 99.614319063723087
leaf_count=2881 190 227 126 383 62 1163 31 5034 165 397 56 974 117 4478 82 140 73 32 121 78 347 858 148 128 45 1189 240 85 125 388 95 135 872 106 34 3974 24 66 66 1134 41 9 2067 418 1738 331 36 89 44 628 382 20 308 112 297 372 63 1359 158 165 124 562
internal_value=0.172226 0.082635 0.0565866 0.226106 0.0492591 0.137256 0.0456945 0.235398 0.13003 0.112379 0.0436306 0.0421483 0.0613004 0.0244359 -0.00593118 0.174494 0.0470911 0.103469 0.0820033 0.212221 0.0989633 0.0781401 0.115927 0.173774 0.034553 0.0274005 0.0524187 0.103348 0.0385442 0.0287062 0.0801859 0.146156 0.0205263 0.167472 0.284255 0.00297316 0.177316 0.230067 0.0762614 0.0568252 0.0496463 0.0419438 0.0101929 0.181687 0.170014 0.131963 0.083401 -0.00614051 0.170353 0.148836 0.164395 0.00180549 0.204919 0.306811 0.108586 0.155785 0.280781 0.0188009 0.200188 0.14322 0.189674 0.0845401
internal_weight=7253.24 2723.93 1844.37 4529.31 1754.82 879.562 1723.52 3745.75 828.134 592.809 1706.03 1695.74 814.758 880.983 376.425 235.325 504.558 130.607 120.885 28.7643 518.35 365.673 195.868 100.168 169.805 373.951 750.133 160.602 589.531 538.883 179.597 85.2878 94.3088 23.9458 20.9152 359.287 17.8485 49.8063 139.687 127.004 277.34 268.922 182.143 783.559 649.885 237.355 17.109 341.438 15.7676 152.677 64.6246 177.898 85.9315 32.6973 86.7791 61.7055 22.9017 158.261 89.5434 50.6474 26.5225 137.517
internal_count=36192 24845 18969 11347 18584 5876 18458 7915 5686 4383 18396 18365 8469 9896 4560 1303 5336 1205 1173 199 3986 3011 1442 584 1569 4131 7970 1499 6471 6066 1810 737 1073 201 119 4256 149 349 1380 1314 2942 2901 2096 3432 3049 1311 171 4107 133 975 499 2087 436 178 805 508 136 1524 385 405 180 893
is_linear=0
shrinkage=0.05


Tree=3
num_leaves=63
num_cat=0
split_feature=532 19 469 487 262 307 183 271 444 503 9 81 162 171 7 309 74 225 3 234 75 508 205 513 213 303 324 297 411 150 450 54 159 96 525 532 135 315 264 114 240 210 513 252 495 51 228 423 22 129 402 174 428 214 129 34 295 483 111 174 25 249
split_gain=9279.26 1100.48 527.807 521.057 350.009 246.44 229.013 196.593 250.205 207.514 239.559 196.003 239.511 258.073 206.262 287.413 242.982 210.176 232.373 205.171 204.207 214.606 199.558 196.824 280.651 275.963 241.145 194.556 191.313 215.498 188.228 186.352 194.579 180.187 175.711 223.088 179.733 204.773 173.654 254.092 221.844 224.676 234.703 171.67 174.5 170.888 167.956 165.586 164.399 186.182 162.868 162.609 162.059 160.902 156.587 156.021 155.982 164.939 155.793 153.295 151.271 150.838
threshold=-0.5964817702770232 -0.46559418737888331 -0.64504641294479359 -0.76279315352439869 -0.75209662318229664 -0.5149327516555785 -1.1335794329643247 -0.72725018858909596 0.057320319116115577 -0.48448342084884638 1.4663661718368532 -1.1346923708915708 0.09070999920368196 1.7891333699226382 -0.035469900816678994 -1.1335794329643247 0.91497752070426952 -0.87202671170234669 1.0545597672462466 2.0473471879959111 0.8497695028781892 -0.24510950595140454 0.31503698229789739 0.39566941559314733 -0.52811267971992482 -0.43684744834899897 0.273240476846695 0.31442110240459448 0.23317279666662219 0.42905908823013311 -0.3322263360023498 -1.1346923708915708 -0.67168840765953053 0.21981692314147952 -0.29215869307518 -0.74941882491111744 -1.2237316966056822 -0.64163771271705616 -0.87647864222526539 0.27101449668407446 0.82973563671112072 -0.18308565020561215 -0.987777680158615 0.59600767493247997 0.68838590383529674 -0.72399896383285511 1.0144920349121096 0.89206317067146312 -0.81870540976524342 -1.6822836995124815 0.68059501051902782 -0.65610656142234791 0.23793441802263263 -0.173448771238327 -0.96217897534370411 -0.84020787477493275 -0.82506191730499256 1.5320326089859011 -0.41347461938858027 -0.41458763182163233 -0.4498163610696792 0.012800691183656456
decision_type=2 2 2 2 2 2 2 2 2 2 2 2 2 2 2 2 2 2 2 2 2 2 2 2 2 2 2 2 2 2 2 2 2 2 2 2 2 2 2 2 2 2 2 2 2 2 2 2 2 2 2 2 2 2 2 2 2 2 2 2 2 2
left_child=3 6 -3 -1 -4 34 31 -8 9 60 48 12 28 -14 17 19 -17 -13 20 38 21 23 -18 26 25 -25 56 33 -6 54 -28 32 -2 51 35 -5 -37 53 -16 40 41 58 -43 44 55 -26 61 52 -11 -50 -12 -23 -32 -38 -30 -10 -19 -58 -40 -46 -9 -39
right_child=1 2 4 5 11 -7 7 8 43 10 50 14 13 -15 15 16 22 18 -20 -21 -22 27 -24 24 45 -27 30 -29 29 -31 47 -33 -34 -35 -36 36 37 46 39 -41 -42 42 -44 -45 59 -47 -48 -49 49 -51 -52 -53 -54 -55 -56 -57 57 -59 -60 -61 -62 -63
leaf_value=0.19680499812597319 0.24335660632112655 0.16375497536740599 0.16182390921161838 0.18505839181813735 0.074144768512271156 0.12955323592056453 0.15885425953028975 0.22003393415761036 0.26698377784851973 0.20406430374094253 0.042569490498098668 -0.0062581523503216583 -0.024949184060506814 0.22318702276972358 -0.037418735892750847 0.0011637049989604122 -0.054942398750566571 0.2381387751391941 -0.018649419126167518 0.27309543731227892 0.0037854095476461307 0.146420914044706 0.21631197850786399 0.013036495750466993 0.21430751053511812 0.32582419376937732 0.015700712673701947 -0.030904741365675472 0.41521820334417808 0.001727286699964354 0.042814423409094339 0.029507159611415246 -0.006461701702446504 0.15977644428258017 0.18381581728543731 0.26211911361229379 0.092198030806305162 0.098730714381538673 0.094298849604238857 -0.022031358251335398 -0.05487257364928784 0.27012039419428019 -0.008078915331308301 0.19060832716951998 -0.00018367685233232364 0.012424345565321904 -0.020688771413686177 0.32819661598039573 0.31217227410610937 -0.0048509620374240876 0.28869808055331081 -0.026141210834754153 0.27771778881990322 -0.0584316702789653 0.19720692061692835 0.049739253926744997 -0.02521710770095938 0.20319429828948246 0.30975189887824484 0.20842164941133429 0.041312445657889087 0.19460005601451169
leaf_weight=3201.1386406421661 23.576459549367428 98.157770827412605 61.670856267213821 230.28650312870741 59.09406029433012 403.11772786080837 302.23256323486567 33.983581699430943 9.0597635358571988 11.284202359616755 11.947002641856672 108.94922888278961 59.53221633285284 12.716957181692122 33.782213725149632 738.98677624762058 9.4739844724535924 8.0404589027166349 64.811415202915668 12.563444584608076 70.03867656737566 20.489118963479996 23.84850998967886 8.6227488219737989 17.458107613027096 38.702324897050858 16.71065478771925 49.174015387892723 11.313169255852698 10.36908236145973 18.044690243899826 116.43353265523911 11.644035644829271 49.323712758719921 1164.6291944384575 20.234517328441143 50.878700703382492 74.819021321833134 11.783271990716456 35.984978511929512 13.114234380424021 10.88210698217153 24.994656845927242 104.86517145484686 10.549607448279856 26.232746854424477 15.52464287728071 18.465906918048859 4.7923411503434172 137.747089587152 15.366081103682516 40.910747848451138 12.37956081330776 27.210438966751099 30.284852921962738 94.172822341322899 59.145307287573814 9.1227501928806287 29.13972170650959 53.308579675853252 18.170179113745689 90.847836747765541
leaf_count=5178 80 366 257 465 520 1641 1312 115 14 44 101 1232 728 72 413 8607 118 40 747 52 765 154 123 90 92 132 182 590 32 114 180 977 102 343 2944 32 263 355 97 432 166 52 284 478 101 283 116 63 7 1315 35 484 50 229 170 744 691 56 134 210 156 267
internal_value=0.144748 0.0726151 0.0508076 0.18415 0.0447366 0.16465 0.116368 0.126956 0.107875 0.0698848 0.0445811 0.0406442 0.089587 0.0187266 0.0349702 0.0201444 0.00711911 0.0569671 0.0700213 0.078547 0.0824372 0.0964605 0.139191 0.127081 0.184472 0.268833 0.0902716 0.0518559 0.135684 0.205663 0.160568 0.059991 0.160766 0.0886112 0.1731 0.148619 0.118597 0.107396 0.0632403 0.0902499 0.135187 0.167641 0.0763042 0.140463 0.108992 0.0930934 0.136567 0.210084 0.0203514 0.00580773 0.181039 0.0314427 0.138396 0.0397106 0.256498 0.0688048 0.0298389 0.00530581 0.247715 0.173959 0.157768 0.151303
internal_weight=8162.14 2883.45 1924.32 5278.69 1826.16 2077.55 959.133 807.479 505.246 233.29 181.137 1764.49 183.31 72.2492 1581.18 944.554 772.309 636.622 527.673 172.245 462.862 392.823 33.3225 232.925 91.0159 47.3251 141.909 159.898 111.061 51.9671 65.6008 151.654 35.2205 110.724 1674.43 509.802 279.515 259.281 159.681 125.899 89.914 76.7998 35.8768 271.956 167.091 43.6909 181.192 48.8902 153.824 142.539 27.3131 61.3999 30.4243 78.0891 41.598 103.233 76.3085 68.2681 40.923 63.8582 52.1538 165.667
internal_count=36192 24702 18911 11490 18545 6312 5791 4632 3320 1773 1502 18288 1636 800 16652 10478 8848 6174 4942 1630 4195 3430 241 1859 597 222 1262 1571 836 316 475 1159 182 981 4671 1727 1262 1230 1578 1165 733 567 336 1547 1069 375 738 293 1366 1322 136 638 230 492 202 758 787 747 231 311 271 622
is_linear=0
shrinkage=0.05


end of trees

feature_importances:
Column_532=9
Column_486=6
Column_450=5
Column_19=4
Column_469=4
Column_516=4
Column_10=3
Column_75=3
Column_129=3
Column_171=3
Column_174=3
Column_297=3
Column_426=3
Column_483=3
Column_9=2
Column_15=2
Column_34=2
Column_36=2
Column_51=2
Column_54=2
Column_97=2
Column_120=2
Column_135=2
Column_187=2
Column_195=2
Column_214=2
Column_228=2
Column_234=2
Column_246=2
Column_262=2
Column_267=2
Column_342=2
Column_343=2
Column_352=2
Column_402=2
Column_406=2
Column_423=2
Column_438=2
Column_460=2
Column_468=2
Column_501=2
Column_505=2
Column_510=2
Column_513=2
Column_525=2
Column_534=2
Column_0=1
Column_3=1
Column_7=1
Column_8=1
Column_12=1
Column_18=1
Column_22=1
Column_25=1
Column_27=1
Column_38=1
Column_50=1
Column_56=1
Column_57=1
Column_67=1
Column_74=1
Column_77=1
Column_81=1
Column_93=1
Column_94=1
Column_96=1
Column_99=1
Column_102=1
Column_107=1
Column_111=1
Column_114=1
Column_119=1
Column_126=1
Column_127=1
Column_132=1
Column_136=1
Column_141=1
Column_144=1
Column_146=1
Column_149=1
Column_150=1
Column_156=1
Column_159=1
Column_160=1
Column_162=1
Column_183=1
Column_189=1
Column_192=1
Column_201=1
Column_205=1
Column_208=1
Column_210=1
Column_211=1
Column_213=1
Column_216=1
Column_217=1
Column_219=1
Column_221=1
Column_224=1
Column_225=1
Column_232=1
Column_237=1
Column_240=1
Column_243=1
Column_244=1
Column_249=1
Column_252=1
Column_253=1
Column_258=1
Column_261=1
Column_264=1
Column_271=1
Column_273=1
Column_276=1
Column_280=1
Column_289=1
Column_291=1
Column_295=1
Column_298=1
Column_300=1
Column_303=1
Column_307=1
Column_309=1
Column_312=1
Column_315=1
Column_316=1
Column_321=1
Column_324=1
Column_327=1
Column_333=1
Column_337=1
Column_339=1
Column_345=1
Column_351=1
Column_356=1
Column_358=1
Column_363=1
Column_366=1
Column_377=1
Column_387=1
Column_389=1
Column_390=1
Column_396=1
Column_399=1
Column_411=1
Column_414=1
Column_415=1
Column_420=1
Column_428=1
Column_432=1
Column_433=1
Column_436=1
Column_444=1
Column_454=1
Column_459=1
Column_465=1
Column_474=1
Column_477=1
Column_480=1
Column_487=1
Column_488=1
Column_489=1
Column_495=1
Column_496=1
Column_502=1
Column_503=1
Column_508=1
Column_522=1
Column_523=1
Column_526=1
Column_531=1
Column_533=1
Column_537=1
Column_539=1

parameters:
[boosting: gbdt]
[objective: binary]
[metric: binary_logloss]
[tree_learner: serial]
[device_type: cpu]
[data_sample_strategy: bagging]
[data: ]
[valid: ]
[num_iterations: 300]
[learning_rate: 0.05]
[num_leaves: 63]
[num_threads: 32]
[seed: 2021]
[deterministic: 0]
[force_col_wise: 0]
[force_row_wise: 0]
[histogram_pool_size: -1]
[max_depth: -1]
[min_data_in_leaf: 50]
[min_sum_hessian_in_leaf: 0.001]
[bagging_fraction: 1]
[pos_bagging_fraction: 1]
[neg_bagging_fraction: 1]
[bagging_freq: 0]
[bagging_seed: 5064]
[bagging_by_query: 0]
[feature_fraction: 1]
[feature_fraction_bynode: 1]
[feature_fraction_seed: 6682]
[extra_trees: 0]
[extra_seed: 17862]
[early_stopping_round: 0]
[early_stopping_min_delta: 0]
[first_metric_only: 0]
[max_delta_step: 0]
[lambda_l1: 0]
[lambda_l2: 0]
[linear_lambda: 0]
[min_gain_to_split: 0]
[drop_rate: 0.1]
[max_drop: 50]
[skip_drop: 0.5]
[xgboost_dart_mode: 0]
[uniform_drop: 0]
[drop_seed: 14392]
[top_rate: 0.2]
[other_rate: 0.1]
[min_data_per_group: 100]
[max_cat_threshold: 32]
[cat_l2: 10]
[cat_smooth: 10]
[max_cat_to_onehot: 4]
[top_k: 20]
[monotone_constraints: ]
[monotone_constraints_method: basic]
[monotone_penalty: 0]
[feature_contri: ]
[forcedsplits_filename: ]
[refit_decay_rate: 0.9]
[cegb_tradeoff: 1]
[cegb_penalty_split: 0]
[cegb_penalty_feature_lazy: ]
[cegb_penalty_feature_coupled: ]
[path_smooth: 0]
[interaction_constraints: ]
[verbosity: -1]
[saved_feature_importance_type: 0]
[use_quantized_grad: 0]
[num_grad_quant_bins: 4]
[quant_train_renew_leaf: 0]
[stochastic_rounding: 1]
[linear_tree: 0]
[max_bin: 255]
[max_bin_by_feature: ]
[min_data_in_bin: 3]
[bin_construct_sample_cnt: 200000]
[data_random_seed: 6638]
[is_enable_sparse: 1]
[enable_bundle: 1]
[use_missing: 1]
[zero_as_missing: 0]
[feature_pre_filter: 1]
[pre_partition: 0]
[two_round: 0]
[header: 0]
[label_column: ]
[weight_column: ]
[group_column: ]
[ignore_column: ]
[categorical_feature: ]
[forcedbins_filename: ]
[precise_float_parser: 0]
[parser_config_file: ]
[objective_seed: 14162]
[num_class: 1]
[is_unbalance: 0]
[scale_pos_weight: 11.8386]
[sigmoid: 1]
[boost_from_average: 1]
[reg_sqrt: 0]
[alpha: 0.9]
[fair_c: 1]
[poisson_max_delta_step: 0.7]
[tweedie_variance_power: 1.5]
[lambdarank_truncation_level: 30]
[lambdarank_norm: 1]
[label_gain: ]
[lambdarank_position_bias_regularization: 0]
[eval_at: ]
[multi_error_top_k: 1]
[auc_mu_weights: ]
[num_machines: 1]
[local_listen_port: 12400]
[time_out: 120]
[machine_list_filename: ]
[machines: ]
[gpu_platform_id: -1]
[gpu_device_id: -1]
[gpu_use_dp: 0]
[num_gpu: 1]

end of parameters

pandas_categorical:null
