tree
version=v4
num_class=1
num_tree_per_iteration=1
label_index=0
max_feature_idx=539
objective=binary sigmoid:1
feature_names=Column_0 Column_1 Column_2 Column_3 Column_4 Column_5 Column_6 Column_7 Column_8 Column_9 Column_10 Column_11 Column_12 Column_13 Column_14 Column_15 Column_16 Column_17 Column_18 Column_19 Column_20 Column_21 Column_22 Column_23 Column_24 Column_25 Column_26 Column_27 Column_28 Column_29 Column_30 Column_31 Column_32 Column_33 Column_34 Column_35 Column_36 Column_37 Column_38 Column_39 Column_40 Column_41 Column_42 Column_43 Column_44 Column_45 Column_46 Column_47 Column_48 Column_49 Column_50 Column_51 Column_52 Column_53 Column_54 Column_55 Column_56 Column_57 Column_58 Column_59 Column_60 Column_61 Column_62 Column_63 Column_64 Column_65 Column_66 Column_67 Column_68 Column_69 Column_70 Column_71 Column_72 Column_73 Column_74 Column_75 Column_76 Column_77 Column_78 Column_79 Column_80 Column_81 Column_82 Column_83 Column_84 Column_85 Column_86 Column_87 Column_88 Column_89 Column_90 Column_91 Column_92 Column_93 Column_94 Column_95 Column_96 Column_97 Column_98 Column_99 Column_100 Column_101 Column_102 Column_103 Column_104 Column_105 Column_106 Column_107 Column_108 Column_109 Column_110 Column_111 Column_112 Column_113 Column_114 Column_115 Column_116 Column_117 Column_118 Column_119 Column_120 Column_121 Column_122 Column_123 Column_124 Column_125 Column_126 Column_127 Column_128 Column_129 Column_130 Column_131 Column_132 Column_133 Column_134 Column_135 Column_136 Column_137 Column_138 Column_139 Column_140 Column_141 Column_142 Column_143 Column_144 Column_145 Column_146 Column_147 Column_148 Column_149 Column_150 Column_151 Column_152 Column_153 Column_154 Column_155 Column_156 Column_157 Column_158 Column_159 Column_160 Column_161 Column_162 Column_163 Column_164 Column_165 Column_166 Column_167 Column_168 Column_169 Column_170 Column_171 Column_172 Column_173 Column_174 Column_175 Column_176 Column_177 Column_178 Column_179 Column_180 Column_181 Column_182 Column_183 Column_184 Column_185 Column_186 Column_187 Column_188 Column_189 Column_190 Column_191 Column_192 Column_193 Column_194 Column_195 Column_196 Column_197 Column_198 Column_199 Column_200 Column_201 Column_202 Column_203 Column_204 Column_205 Column_206 Column_207 Column_208 Column_209 Column_210 Column_211 Column_212 Column_213 Column_214 Column_215 Column_216 Column_217 Column_218 Column_219 Column_220 Column_221 Column_222 Column_223 Column_224 Column_225 Column_226 Column_227 Column_228 Column_229 Column_230 Column_231 Column_232 Column_233 Column_234 Column_235 Column_236 Column_237 Column_238 Column_239 Column_240 Column_241 Column_242 Column_243 Column_244 Column_245 Column_246 Column_247 Column_248 Column_249 Column_250 Column_251 Column_252 Column_253 Column_254 Column_255 Column_256 Column_257 Column_258 Column_259 Column_260 Column_261 Column_262 Column_263 Column_264 Column_265 Column_266 Column_267 Column_268 Column_269 Column_270 Column_271 Column_272 Column_273 Column_274 Column_275 Column_276 Column_277 Column_278 Column_279 Column_280 Column_281 Column_282 Column_283 Column_284 Column_285 Column_286 Column_287 Column_288 Column_289 Column_290 Column_291 Column_292 Column_293 Column_294 Column_295 Column_296 Column_297 Column_298 Column_299 Column_300 Column_301 Column_302 Column_303 Column_304 Column_305 Column_306 Column_307 Column_308 Column_309 Column_310 Column_311 Column_312 Column_313 Column_314 Column_315 Column_316 Column_317 Column_318 Column_319 Column_320 Column_321 Column_322 Column_323 Column_324 Column_325 Column_326 Column_327 Column_328 Column_329 Column_330 Column_331 Column_332 Column_333 Column_334 Column_335 Column_336 Column_337 Column_338 Column_339 Column_340 Column_341 Column_342 Column_343 Column_344 Column_345 Column_346 Column_347 Column_348 Column_349 Column_350 Column_351 Column_352 Column_353 Column_354 Column_355 Column_356 Column_357 Column_358 Column_359 Column_360 Column_361 Column_362 Column_363 Column_364 Column_365 Column_366 Column_367 Column_368 Column_369 Column_370 Column_371 Column_372 Column_373 Column_374 Column_375 Column_376 Column_377 Column_378 Column_379 Column_380 Column_381 Column_382 Column_383 Column_384 Column_385 Column_386 Column_387 Column_388 Column_389 Column_390 Column_391 Column_392 Column_393 Column_394 Column_395 Column_396 Column_397 Column_398 Column_399 Column_400 Column_401 Column_402 Column_403 Column_404 Column_405 Column_406 Column_407 Column_408 Column_409 Column_410 Column_411 Column_412 Column_413 Column_414 Column_415 Column_416 Column_417 Column_418 Column_419 Column_420 Column_421 Column_422 Column_423 Column_424 Column_425 Column_426 Column_427 Column_428 Column_429 Column_430 Column_431 Column_432 Column_433 Column_434 Column_435 Column_436 Column_437 Column_438 Column_439 Column_440 Column_441 Column_442 Column_443 Column_444 Column_445 Column_446 Column_447 Column_448 Column_449 Column_450 Column_451 Column_452 Column_453 Column_454 Column_455 Column_456 Column_457 Column_458 Column_459 Column_460 Column_461 Column_462 Column_463 Column_464 Column_465 Column_466 Column_467 Column_468 Column_469 Column_470 Column_471 Column_472 Column_473 Column_474 Column_475 Column_476 Column_477 Column_478 Column_479 Column_480 Column_481 Column_482 Column_483 Column_484 Column_485 Column_486 Column_487 Column_488 Column_489 Column_490 Column_491 Column_492 Column_493 Column_494 Column_495 Column_496 Column_497 Column_498 Column_499 Column_500 Column_501 Column_502 Column_503 Column_504 Column_505 Column_506 Column_507 Column_508 Column_509 Column_510 Column_511 Column_512 Column_513 Column_514 Column_515 Column_516 Column_517 Column_518 Column_519 Column_520 Column_521 Column_522 Column_523 Column_524 Column_525 Column_526 Column_527 Column_528 Column_529 Column_530 Column_531 Column_532 Column_533 Column_534 Column_535 Column_536 Column_537 Column_538 Column_539
feature_infos=[-5.221592903137207:4.7174110412597656] [-0.86116659641265869:3.1393942832946777] [-18.460952758789062:7.3048324584960938] [-4.8164644241333008:4.0407133102416992] [-0.86116659641265869:2.9592044353485107] [-34.152454376220703:5.741854190826416] [-4.7341036796569824:4.4124517440795898] [-0.86116659641265869:3.8682053089141846] [-35.583099365234375:5.741854190826416] [-5.3507003784179688:4.7174110412597656] [-0.86116659641265869:3.1384341716766357] [-18.460952758789062:7.3048324584960938] [-4.7919788360595703:4.1119441986083984] [-0.86116659641265869:2.9501354694366455] [-34.152454376220703:5.741854190826416] [-5.036837100982666:4.1475601196289062] [-0.86116659641265869:3.8682053089141846] [-35.583099365234375:5.741854190826416] [-5.3507003784179688:4.7174110412597656] [-0.86116659641265869:3.1384341716766357] [-18.460952758789062:7.3048324584960938] [-5.0590968132019043:4.1119441986083984] [-0.86116659641265869:2.9410669803619385] [-34.152454376220703:5.741854190826416] [-5.036837100982666:4.6728916168212891] [-0.86116659641265869:3.8682053089141846] [-35.583099365234375:5.741854190826416] [-5.3507003784179688:4.3523502349853516] [-0.86116659641265869:3.137092113494873] [-18.460952758789062:7.3048324584960938] [-5.0590968132019043:6.838770866394043] [-0.86116659641265869:2.974003791809082] [-18.809013366699219:5.741854190826416] [-5.036837100982666:4.6728916168212891] [-0.86116659641265869:3.8682053089141846] [-35.583099365234375:5.741854190826416] [-6.0808219909667969:4.3011527061462402] [-0.86116659641265869:3.132115364074707] [-18.460952758789062:7.3048324584960938] [-5.0590968132019043:4.2276954650878906] [-0.86116659641265869:2.9862205982208252] [-18.809013366699219:5.741854190826416] [-4.8164644241333008:6.4113831520080566] [-0.86116659641265869:3.8682053089141846] [-35.583099365234375:5.741854190826416] [-6.0808219909667969:4.3011527061462402] [-0.86116659641265869:3.1265866756439209] [-22.298454284667969:7.3048324584960938] [-4.7830748558044434:4.2276954650878906] [-0.86116659641265869:2.9984374046325684] [-19.925205230712891:5.741854190826416] [-4.8164644241333008:6.838770866394043] [-0.86116659641265869:3.8682053089141846] [-35.583099365234375:5.741854190826416] [-5.1792998313903809:5.0357265472412109] [-0.86116659641265869:3.1210577487945557] [-22.298454284667969:7.3048324584960938] [-4.8209166526794434:4.7174110412597656] [-0.86116659641265869:3.0205032825469971] [-20.016422271728516:5.741854190826416] [-4.8164644241333008:6.4113831520080566] [-0.86116659641265869:3.8682053089141846] [-35.583099365234375:5.741854190826416] [-5.0234813690185547:6.0908412933349609] [-0.86116659641265869:3.0205976963043213] [-22.298454284667969:7.3048324584960938] [-5.0991640090942383:4.7174110412597656] [-0.86116659641265869:3.0573489665985107] [-20.016422271728516:7.3048324584960938] [-4.7341036796569824:4.490361213684082] [-0.86116659641265869:3.8682053089141846] [-35.583099365234375:5.741854190826416] [-5.5109705924987793:6.0908412933349609] [-0.86116659641265869:3.0146675109863281] [-18.460952758789062:7.3048324584960938] [-4.8209166526794434:5.7369108200073242] [-0.86116659641265869:3.0941884517669678] [-20.016422271728516:7.3048324584960938] [-4.9210858345031738:5.9528307914733887] [-0.86116659641265869:3.8682053089141846] [-35.583099365234375:5.741854190826416] [-5.5109705924987793:6.0908412933349609] [-0.86116659641265869:3.0054748058319092] [-18.460952758789062:7.3048324584960938] [-4.7118434906005859:5.7369108200073242] [-0.86116659641265869:3.121025562286377] [-20.099235534667969:7.3048324584960938] [-4.9210858345031738:5.9528307914733887] [-0.86116659641265869:3.8682053089141846] [-35.583099365234375:5.741854190826416] [-5.4619989395141602:6.0908412933349609] [-0.86116659641265869:2.9832098484039307] [-18.460952758789062:7.3048324584960938] [-7.3874721527099609:4.1809496879577637] [-0.86116659641265869:3.1245131492614746] [-20.099235534667969:7.3048324584960938] [-5.0947127342224121:4.4770054817199707] [-0.86116659641265869:3.8682053089141846] [-35.583099365234375:5.741854190826416] [-5.4619989395141602:5.7369108200073242] [-0.86116659641265869:2.9609482288360596] [-18.460952758789062:7.3048324584960938] [-7.3874721527099609:4.728541374206543] [-0.86116659641265869:3.1279976367950439] [-20.099235534667969:7.3048324584960938] [-5.0590968132019043:4.0251312255859375] [-0.86116659641265869:3.8682053089141846] [-35.583099365234375:5.741854190826416] [-5.4486432075500488:5.3518157005310059] [-0.86116659641265869:2.9386796951293945] [-18.460952758789062:7.3048324584960938] [-7.3874721527099609:4.728541374206543] [-0.86116659641265869:3.1333005428314209] [-20.204853057861328:7.3048324584960938] [-5.0590968132019043:4.7908682823181152] [-0.86116659641265869:3.8682053089141846] [-35.583099365234375:5.741854190826416] [-5.1592659950256348:4.5994343757629395] [-0.86116659641265869:2.9164180755615234] [-18.460952758789062:7.3048324584960938] [-4.7452335357666016:4.728541374206543] [-0.86116659641265869:3.1416802406311035] [-22.298454284667969:7.3048324584960938] [-4.892148494720459:4.7908682823181152] [-0.86116659641265869:3.8682053089141846] [-35.583099365234375:5.741854190826416] [-5.2304973602294922:4.1119441986083984] [-0.86116659641265869:2.8941531181335449] [-18.460952758789062:7.3048324584960938] [-4.9077296257019043:4.1876277923583984] [-0.86116659641265869:3.1500599384307861] [-22.298454284667969:5.8144493103027344] [-4.892148494720459:4.7908682823181152] [-0.86116659641265869:3.8682053089141846] [-35.583099365234375:5.741854190826416] [-5.2304973602294922:4.1119441986083984] [-0.86116659641265869:2.8706502914428711] [-18.460952758789062:7.3048324584960938] [-4.9077296257019043:5.017918586730957] [-0.86116659641265869:3.1573452949523926] [-22.298454284667969:5.8144493103027344] [-4.7318778038024902:4.6484060287475586] [-0.86116659641265869:3.8682053089141846] [-35.583099365234375:5.741854190826416] [-5.2861471176147461:4.1119441986083984] [-0.86116659641265869:2.8595669269561768] [-18.460952758789062:7.3048324584960938] [-4.778623104095459:5.017918586730957] [-0.86116659641265869:3.1644546985626221] [-20.323673248291016:5.8144493103027344] [-4.8743400573730469:4.6484060287475586] [-0.86116659641265869:3.8682053089141846] [-35.583099365234375:5.741854190826416] [-5.413027286529541:4.7908687591552734] [-0.86116659641265869:2.8595669269561768] [-18.460952758789062:7.3048324584960938] [-4.5627026557922363:4.8954892158508301] [-0.86116659641265869:3.1715610027313232] [-20.323673248291016:5.8144493103027344] [-4.8743400573730469:4.8954892158508301] [-0.86116659641265869:3.8682053089141846] [-35.583099365234375:5.741854190826416] [-5.413027286529541:4.7908687591552734] [-0.86116659641265869:2.8595669269561768] [-18.460952758789062:7.3048324584960938] [-4.6762275695800781:4.8954892158508301] [-0.86116659641265869:3.1782879829406738] [-20.434093475341797:7.3048324584960938] [-4.8743400573730469:4.8954892158508301] [-0.86116659641265869:3.8682053089141846] [-35.583099365234375:5.741854190826416] [-5.413027286529541:6.6562404632568359] [-0.86116659641265869:2.8595669269561768] [-18.460952758789062:7.3048324584960938] [-5.0947127342224121:4.8954892158508301] [-0.86116659641265869:3.1728832721710205] [-20.434093475341797:7.3048324584960938] [-4.9121818542480469:4.8954892158508301] [-0.86116659641265869:3.8682053089141846] [-35.583099365234375:5.741854190826416] [-5.3840899467468262:6.6562404632568359] [-0.86116659641265869:2.8595669269561768] [-18.514963150024414:7.3048324584960938] [-5.2304973602294922:4.5549149513244629] [-0.86116659641265869:3.1472647190093994] [-20.508506774902344:7.3048324584960938] [-4.9121818542480469:4.5571403503417969] [-0.86116659641265869:3.8682053089141846] [-35.583099365234375:5.741854190826416] [-5.3840899467468262:6.6562404632568359] [-0.86116659641265869:2.8595669269561768] [-18.514963150024414:7.3048324584960938] [-10.241179466247559:3.9182839393615723] [-0.86116659641265869:3.1208128929138184] [-20.508506774902344:7.3048324584960938] [-4.9121818542480469:4.5571403503417969] [-0.86116659641265869:3.8682053089141846] [-35.583099365234375:5.741854190826416] [-5.3840899467468262:4.0251312255859375] [-0.86116659641265869:2.8595669269561768] [-18.460952758789062:7.3048324584960938] [-10.241179466247559:4.5682706832885742] [-0.86116659641265869:3.0910208225250244] [-20.508506774902344:7.3048324584960938] [-5.2616605758666992:4.0407133102416992] [-0.86116659641265869:3.8682053089141846] [-35.583099365234375:5.741854190826416] [-5.4441909790039062:3.6667482852935791] [-0.86116659641265869:2.8732104301452637] [-26.082265853881836:7.3048324584960938] [-5.0702266693115234:4.5682706832885742] [-0.86116659641265869:3.0612318515777588] [-20.616523742675781:7.3048324584960938] [-5.2616605758666992:5.017918586730957] [-0.86116659641265869:3.8682053089141846] [-35.583099365234375:5.741854190826416] [-5.8092522621154785:3.9383177757263184] [-0.86116659641265869:3.0773282051086426] [-18.809013366699219:7.3048324584960938] [-4.9210858345031738:4.5682706832885742] [-0.86116659641265869:3.103809118270874] [-20.616523742675781:7.3048324584960938] [-6.025172233581543:5.0357265472412109] [-0.86116659641265869:3.8682053089141846] [-35.583099365234375:5.741854190826416] [-6.3345832824707031:4.5549149513244629] [-0.86116659641265869:3.0647847652435303] [-18.809013366699219:7.3048324584960938] [-4.9900913238525391:6.5271334648132324] [-0.86116659641265869:3.1059966087341309] [-17.893255233764648:7.3048324584960938] [-6.025172233581543:5.0357265472412109] [-0.86116659641265869:3.8682053089141846] [-35.583099365234375:5.741854190826416] [-6.3345832824707031:4.5549149513244629] [-0.86116659641265869:3.0522446632385254] [-18.809013366699219:7.3048324584960938] [-5.0034470558166504:6.5271334648132324] [-0.86116659641265869:3.1081850528717041] [-17.893255233764648:7.3048324584960938] [-6.025172233581543:5.0357265472412109] [-0.86116659641265869:3.8682053089141846] [-35.583099365234375:5.741854190826416] [-6.3345832824707031:5.0980539321899414] [-0.86116659641265869:3.0406453609466553] [-18.809013366699219:7.3048324584960938] [-5.1013903617858887:6.5271334648132324] [-0.86116659641265869:3.1071071624755859] [-17.893255233764648:7.3048324584960938] [-4.9077301025390625:4.5059432983398438] [-0.86116659641265869:3.8682053089141846] [-35.583099365234375:5.741854190826416] [-5.7580547332763672:5.0980539321899414] [-0.86116659641265869:3.0374646186828613] [-18.809013366699219:7.3048324584960938] [-5.1013903617858887:4.5571403503417969] [-0.86116659641265869:3.0984206199645996] [-17.893255233764648:7.3048324584960938] [-4.8120131492614746:4.5059432983398438] [-0.86116659641265869:3.8682053089141846] [-35.583099365234375:5.741854190826416] [-5.7580547332763672:5.0980539321899414] [-0.86116659641265869:3.0342874526977539] [-18.809013366699219:7.3048324584960938] [-5.1013903617858887:12.236774444580078] [-0.86116659641265869:3.0897307395935059] [-18.809013366699219:7.3048324584960938] [-4.8609843254089355:4.1030402183532715] [-0.86116659641265869:3.8682053089141846] [-35.583099365234375:5.741854190826416] [-5.7580547332763672:4.2121138572692871] [-0.86116659641265869:3.0340163707733154] [-18.809013366699219:7.3048324584960938] [-5.1013903617858887:12.236774444580078] [-0.86116659641265869:3.0810444355010986] [-18.809013366699219:7.3048324584960938] [-4.8609843254089355:3.8426008224487305] [-0.86116659641265869:3.8682053089141846] [-35.583099365234375:6.8505892753601074] [-5.0791306495666504:4.2855710983276367] [-0.86116659641265869:3.0354628562927246] [-18.809013366699219:7.3048324584960938] [-21.190780639648438:4.574948787689209] [-0.86116659641265869:3.072354793548584] [-20.812158584594727:7.3048324584960938] [-4.8609843254089355:3.8693125247955322] [-0.86116659641265869:3.8682053089141846] [-35.583099365234375:6.8505892753601074] [-5.0947127342224121:4.2855710983276367] [-0.86116659641265869:3.036909818649292] [-18.809013366699219:7.3048324584960938] [-21.190780639648438:4.574948787689209] [-0.86116659641265869:3.0636680126190186] [-20.951381683349609:7.3048324584960938] [-4.8721146583557129:4.385739803314209] [-0.86116659641265869:3.8682053089141846] [-35.583099365234375:6.8505892753601074] [-5.1459102630615234:4.2855710983276367] [-0.86116659641265869:3.0383560657501221] [-18.809013366699219:7.3048324584960938] [-5.3751864433288574:4.2811188697814941] [-0.86116659641265869:3.0631976127624512] [-20.951381683349609:7.3048324584960938] [-4.8854703903198242:4.385739803314209] [-0.86116659641265869:3.8682053089141846] [-35.583099365234375:6.8505892753601074] [-5.1459102630615234:4.2855710983276367] [-0.86116659641265869:3.0398027896881104] [-18.809013366699219:7.3048324584960938] [-4.7096176147460938:4.0941367149353027] [-0.86116659641265869:3.0767924785614014] [-20.951381683349609:7.3048324584960938] [-5.0947127342224121:4.385739803314209] [-0.86116659641265869:3.8682053089141846] [-35.583099365234375:6.8505892753601074] [-5.1459102630615234:4.2811188697814941] [-0.86116659641265869:3.0410864353179932] [-18.809013366699219:7.3048324584960938] [-4.769719123840332:4.3523502349853516] [-0.86116659641265869:3.0903871059417725] [-21.112209320068359:7.3048324584960938] [-5.0947127342224121:5.0134663581848145] [-0.86116659641265869:3.8682053089141846] [-35.583099365234375:6.8505892753601074] [-5.1459102630615234:5.5009565353393555] [-0.86116659641265869:3.0421280860900879] [-18.809013366699219:7.3048324584960938] [-5.7580547332763672:5.1759629249572754] [-0.86116659641265869:2.9379351139068604] [-21.112209320068359:7.3048324584960938] [-5.1214241981506348:5.8482098579406738] [-0.86116659641265869:3.8682053089141846] [-35.583099365234375:6.8505892753601074] [-5.1013903617858887:5.5009565353393555] [-0.86116659641265869:3.0431699752807617] [-18.809013366699219:7.3048324584960938] [-5.7580547332763672:5.1759629249572754] [-0.86116659641265869:2.9379088878631592] [-21.112209320068359:7.3048324584960938] [-4.6762275695800781:5.8482098579406738] [-0.86116659641265869:3.8682053089141846] [-35.583099365234375:6.8505892753601074] [-5.1013903617858887:4.728541374206543] [-0.86116659641265869:3.0432674884796143] [-18.809013366699219:7.3048324584960938] [-5.413027286529541:5.6011257171630859] [-0.86116659641265869:2.9378764629364014] [-21.112209320068359:7.3048324584960938] [-4.6762275695800781:5.8482098579406738] [-0.86116659641265869:3.8682053089141846] [-35.619106292724609:6.8505892753601074] [-5.1013903617858887:4.728541374206543] [-0.86116659641265869:3.0419549942016602] [-18.809013366699219:7.3048324584960938] [-5.3017282485961914:7.4687232971191406] [-0.86116659641265869:2.938784122467041] [-21.250232696533203:7.3048324584960938] [-4.7674932479858398:4.5549149513244629] [-0.86116659641265869:3.8682053089141846] [-35.619106292724609:6.8505892753601074] [-5.1013903617858887:4.728541374206543] [-0.86116659641265869:3.040642261505127] [-18.809013366699219:7.3048324584960938] [-5.0301589965820312:5.6011257171630859] [-0.86116659641265869:2.9388952255249023] [-21.286239624023438:7.3048324584960938] [-4.7341032028198242:4.5549149513244629] [-0.86116659641265869:3.8682053089141846] [-35.65631103515625:6.8505892753601074] [-4.9077296257019043:4.3145089149475098] [-0.86116659641265869:3.3209888935089111] [-18.809013366699219:7.3048324584960938] [-4.8876962661743164:4.5326547622680664] [-0.86116659641265869:2.9390032291412354] [-21.286239624023438:7.3048324584960938] [-4.9900913238525391:4.0295834541320801] [-0.86116659641265869:3.8682053089141846] [-35.65631103515625:6.8505892753601074] [-4.9077296257019043:4.3145089149475098] [-0.86116659641265869:3.3336007595062256] [-18.809013366699219:7.3048324584960938] [-4.8031091690063477:67.559074401855469] [-0.86116659641265869:2.944678783416748] [-21.286239624023438:5.8144493103027344] [-5.0501928329467773:4.7908687591552734] [-0.86116659641265869:3.8682053089141846] [-35.65631103515625:7.3048324584960938] [-4.9077296257019043:4.385739803314209] [-0.86116659641265869:3.34621262550354] [-18.809013366699219:7.3048324584960938] [-22.041105270385742:4.1186223030090332] [-0.86116659641265869:2.9543123245239258] [-21.286239624023438:5.8144493103027344] [-5.0501928329467773:4.7908687591552734] [-0.86116659641265869:3.8682053089141846] [-35.65631103515625:7.3048324584960938] [-5.1481356620788574:4.385739803314209] [-0.86116659641265869:3.0747711658477783] [-18.809013366699219:7.3048324584960938] [-22.041105270385742:4.3011527061462402] [-0.86116659641265869:2.9639458656311035] [-21.286239624023438:7.3048324584960938] [-5.535456657409668:4.7908687591552734] [-0.86116659641265869:3.8682053089141846] [-35.65631103515625:7.3048324584960938] [-5.1481356620788574:7.4687232971191406] [-0.86116659641265869:3.066401481628418] [-18.809013366699219:7.3048324584960938] [-5.7335686683654785:4.8999414443969727] [-0.86116659641265869:2.9538977146148682] [-21.336648941040039:7.3048324584960938] [-5.0501928329467773:4.316734790802002] [-0.86116659641265869:3.8682053089141846] [-18.728599548339844:6.8505892753601074] [-5.535456657409668:4.2811188697814941] [-0.86116659641265869:3.0580317974090576] [-18.809013366699219:7.3048324584960938] [-5.7335686683654785:4.7619309425354004] [-0.86116659641265869:2.9203042984008789] [-21.371454238891602:7.3048324584960938] [-5.0501928329467773:3.9561254978179932] [-0.86116659641265869:3.8682053089141846] [-18.667388916015625:6.8505892753601074] [-5.036837100982666:4.9578170776367188] [-0.86116659641265869:3.0425913333892822] [-18.809013366699219:7.3048324584960938] [-5.7335686683654785:4.7619309425354004] [-0.86116659641265869:2.8867108821868896] [-21.371454238891602:7.3048324584960938] [-5.4486432075500488:3.9605777263641357] [-0.86116659641265869:3.8682053089141846] [-18.675790786743164:6.8505892753601074] [-5.036837100982666:4.9578170776367188] [-0.86116659641265869:3.0165584087371826] [-18.781408309936523:7.3048324584960938] [-5.2727909088134766:37.129920959472656] [-0.86116659641265869:2.6521937847137451] [-21.371454238891602:7.3048324584960938] [-5.4486432075500488:4.5326547622680664] [-0.86116659641265869:3.8682053089141846] [-18.628982543945312:6.8505892753601074] [-5.0902605056762695:4.3723845481872559] [-0.86116659641265869:2.9905250072479248] [-18.809013366699219:7.3048324584960938] [-5.2727909088134766:3.8715384006500244] [-0.86116659641265869:2.879366397857666] [-21.371454238891602:7.3048324584960938] [-5.4486432075500488:4.5326547622680664] [-0.86116659641265869:3.8682053089141846] [-18.628982543945312:6.8505892753601074] [-5.0902605056762695:4.2544069290161133] [-0.86116659641265869:2.9710385799407959] [-18.809013366699219:7.3048324584960938] [-5.2304973602294922:5.0980539321899414] [-0.86116659641265869:2.8730342388153076] [-21.371454238891602:7.3048324584960938] [-5.1971073150634766:4.5326547622680664] [-0.86116659641265869:3.8682053089141846] [-18.628982543945312:6.8505892753601074] [-5.0902605056762695:4.2544069290161133] [-0.86116659641265869:2.9668424129486084] [-18.770606994628906:7.3048324584960938] [-5.4486432075500488:5.0980539321899414] [-0.86116659641265869:2.8667056560516357] [-21.370254516601562:7.3048324584960938] [-5.2349491119384766:4.5126214027404785] [-0.86116659641265869:3.8682053089141846] [-18.667388916015625:6.8505892753601074] [-5.123650074005127:5.1759634017944336] [-0.86116659641265869:2.9673910140991211] [-18.781408309936523:7.3048324584960938] [-5.4486432075500488:5.0980539321899414] [-0.86116659641265869:2.8702816963195801] [-21.370254516601562:7.3048324584960938] [-5.2349491119384766:4.7841906547546387] [-0.86116659641265869:3.8682053089141846] [-18.667388916015625:7.3048324584960938] [-5.123650074005127:5.1759634017944336] [-0.86116659641265869:2.9727141857147217] [-18.781408309936523:7.3048324584960938] [-5.5109705924987793:4.6484060287475586] [-0.86116659641265869:2.8801565170288086] [-21.370254516601562:7.3048324584960938] [-5.2349491119384766:4.7841906547546387] [-0.86116659641265869:3.8682053089141846] [-18.667388916015625:7.3048324584960938] [-5.123650074005127:5.1759634017944336] [-0.86116659641265869:2.9780368804931641] [-18.628982543945312:7.3048324584960938] [-5.5109705924987793:4.6484060287475586] [-0.86116659641265869:2.8900284767150879] [-21.396657943725586:7.3048324584960938] [-5.7335686683654785:4.7841906547546387] [-0.86116659641265869:3.8682053089141846] [-18.634983062744141:7.3048324584960938] [-5.8137040138244629:5.017918586730957] [-0.86116659641265869:2.9808814525604248] [-18.628982543945312:7.3048324584960938] [-4.9077301025390625:4.241051197052002] [-0.86116659641265869:2.8974514007568359] [-21.396657943725586:7.3048324584960938] [-4.9077301025390625:4.5393328666687012] [-0.86116659641265869:3.8682053089141846] [-18.634983062744141:7.3048324584960938] [-5.8137040138244629:5.017918586730957] [-0.86116659641265869:2.9550895690917969] [-18.628982543945312:7.3048324584960938] [-4.9077301025390625:4.5549149513244629] [-0.86116659641265869:2.8972551822662354] [-21.396657943725586:7.3048324584960938] [-5.0657744407653809:4.7619309425354004] [-0.86116659641265869:3.8682053089141846] [-18.634983062744141:7.3048324584960938] [-5.8137040138244629:5.2360649108886719] [-0.86116659641265869:2.9443359375] [-18.667388916015625:7.3048324584960938] [-6.025172233581543:4.5549149513244629] [-0.86116659641265869:2.9019415378570557] [-21.480672836303711:7.3048324584960938] [-5.0657744407653809:4.7619309425354004] [-0.86116659641265869:3.8682053089141846] [-18.628982543945312:7.3048324584960938] [-5.161491870880127:5.2360649108886719] [-0.86116659641265869:2.933582067489624] [-18.667388916015625:7.3048324584960938] [-6.025172233581543:4.6127901077270508] [-0.86116659641265869:2.9306690692901611] [-21.480672836303711:7.3048324584960938] [-5.0657744407653809:4.7619309425354004] [-0.86116659641265869:3.8682053089141846] [-18.628982543945312:7.3048324584960938] [-4.9656052589416504:5.2360649108886719] [-0.86116659641265869:2.9230015277862549] [-18.667388916015625:7.3048324584960938] [-6.025172233581543:4.6127901077270508] [-0.86116659641265869:2.9594001770019531] [-21.480672836303711:7.3048324584960938] [-4.9923171997070312:4.2811188697814941] [-0.86116659641265869:3.8682053089141846] [-18.628982543945312:7.3048324584960938]
tree_sizes=6749 6829 6840

Tree=0
num_leaves=63
num_cat=0
split_feature=532 388 532 19 424 10 235 496 534 334 244 278 514 178 504 426 282 444 408 511 210 210 12 146 75 507 261 107 519 135 92 111 123 516 486 369 171 99 55 408 215 343 267 168 192 189 537 132 402 519 453 481 42 207 180 482 145 10 471 447 510 461
split_gain=60921.8 5370.75 3355.73 1842.21 1267.69 806.612 747.129 710.059 629.235 600.098 596.163 488.998 484.354 449.167 433.522 433.396 428.094 442.13 402.114 389.005 388.886 410.423 448.874 380.152 367.218 359.691 364.533 424.09 353.155 346.533 341.658 338.757 361.773 329.854 354.719 394.463 339.538 357.7 329.507 329.12 328.284 327.63 320.422 319.237 310.757 308.017 305.368 304.107 300.685 334.354 291.864 286.292 284.606 291.977 309.435 329.976 286.895 281.138 316.085 275.041 317.442 273.127
threshold=-0.6488116681575774 -0.5791952610015868 -0.74941882491111744 -0.33208432793617243 -0.82406595349311818 -0.80200344324111927 -0.78651461005210865 -0.83449634909629811 -0.30328857898712153 -0.58583751320838917 -0.75873565673828114 -0.83706757426261891 -0.52022144198417652 1.0837258696556094 -0.64163771271705616 -0.97219577431678761 0.91988790035247814 0.93213075399398815 1.0122660994529726 0.1970208138227463 1.2504460811614992 -0.11630618199706076 -0.67168840765953053 1.2200258374214175 -0.87647864222526539 0.52255031466484081 -0.59934404492378224 -0.067695189267396913 -1.0156024694442747 2.1619852781295781 -0.45174407958984369 0.7829900085926057 0.58487775921821605 0.7228885591030122 0.22426888346672061 0.71843659877777111 1.308321535587311 0.3889914751052857 0.098993491381406798 0.12409973517060281 -0.53664851188659657 -0.59941756725311268 0.72511455416679393 0.02615656424313784 0.1730713173747063 -0.10295030847191809 0.28437036275863653 0.72956654429435741 1.5309196114540102 -0.94659706950187672 -0.33779127895832056 -0.72772696614265431 1.5220156908035281 0.7496003806591035 -0.41013567149639124 0.18671421706676486 -0.74880647659301747 -0.85597586631774891 0.78521606326103222 0.76740822196006786 0.34447184205055242 -0.50276300311088551
decision_type=2 2 2 2 2 2 2 2 2 2 2 2 2 2 2 2 2 2 2 2 2 2 2 2 2 2 2 2 2 2 2 2 2 2 2 2 2 2 2 2 2 2 2 2 2 2 2 2 2 2 2 2 2 2 2 2 2 2 2 2 2 2
left_child=2 8 4 5 14 57 -5 -7 10 -4 19 -10 38 15 -1 -9 17 -12 52 39 21 31 -23 30 40 26 27 -26 -27 -15 45 32 -13 34 35 -30 37 -35 44 48 43 -32 -25 -17 -8 -14 -39 -18 49 -2 -29 -6 53 54 56 -56 -11 -3 -59 -28 -61 -47
right_child=1 3 9 6 51 7 12 13 11 18 16 20 23 29 -16 24 47 -19 -20 -21 -22 22 -24 42 25 28 59 50 33 -31 41 -33 -34 36 -36 -37 -38 46 -40 -41 -42 -43 -44 -45 -46 61 -48 -49 -50 -51 -52 -53 -54 -55 55 -57 -58 58 -60 60 -62 -63
leaf_value=-1.8966592897668377 -2.1503975055620179 -2.0331100620754095 -2.0916247347820005 -2.129450294744812 -1.9674034751162885 -1.9508141634809562 -2.5562490726481828 -2.4796748760963552 -2.0205904711356997 -2.1021038738937894 -2.4943251027700213 -2.0912522166846972 -2.4721909703939051 -2.4879650969232041 -1.9788644117235954 -2.4708986026455149 -2.1491951176089241 -2.1678230841905117 -2.1001250717388258 -2.4860159772769341 -2.0797795491157611 -2.1654060426018593 -2.416833511259131 -2.4425258715824674 -2.5075708402768164 -2.5004035127032891 -2.454054843619887 -2.398238536134508 -2.5562490726481828 -2.0565820756611992 -2.1776564719221798 -2.3767841817005553 -2.373398673342304 -2.5231059293712677 -2.0015716544772455 -2.0616410187124505 -2.0664021563532744 -2.0823678253128763 -2.1021038738937889 -2.010275153930658 -2.4961730436582164 -2.4699021608869485 -2.0589557330321293 -2.0083911821287237 -2.2714019086069643 -2.3679724073695283 -2.5562490726481828 -2.5562490726481828 -1.9422921677809311 -2.5562490726481828 -2.1092638325919029 -2.0293982231184988 -2.0426914359833956 -2.5562490726481828 -2.4319972592124239 -2.0924457097938634 -2.5206729959728884 -2.2123663356899472 -2.4696273556709292 -2.1959015777628705 -2.5562490726481828 -2.1400237766637473
leaf_weight=435.90166341513395 10.528641827404501 17.503128908574581 442.76112738996744 18.593524657189846 244.65388100594282 10.082635805010794 15.25471158325672 55.802946388721466 44.444503895938396 5.376588553190234 59.147173911333084 76.141164749860764 50.834668762981892 98.336653523147106 253.73918384313583 7.1521336585283262 26.993678137660027 12.572546377778052 48.179369755089283 8.6915999650955182 51.246758848428726 28.113289996981621 48.164047077298164 10.735504515469076 12.540265731513498 10.930823683738707 77.653050236403942 11.589821465313433 7.5573800504207638 4.886758364737033 9.6743248775601369 17.007169649004936 13.353823050856588 18.41822799295187 29.714253060519695 8.639296814799307 12.461811006069182 12.881665453314783 14.785618521273134 29.069863334298134 50.805452652275562 1102.8573143482208 11.047688126564024 7.7995879203081131 25.716442205011845 51.875825896859169 4.6183989197015753 5.5280835554003707 5.9656105935573569 9.7966037690639514 35.507631525397301 779.77430175989866 10.697809420526026 10.986191369593142 9.8258198797702772 26.323136836290359 17.158664651215076 78.105899952352047 14.094340093433855 25.41038766503334 8.0472102388739568 17.599256224930286
leaf_count=950 72 82 2550 120 851 32 218 719 198 32 778 438 648 1282 936 91 184 90 285 113 284 200 565 131 168 145 964 132 108 25 71 187 146 252 122 45 66 72 88 124 670 14012 57 33 233 562 66 79 18 140 216 3600 52 157 118 152 234 623 179 195 115 117
internal_value=-2.19898 -2.37513 -2.01429 -2.41096 -1.97931 -2.33983 -2.44417 -2.36625 -2.21876 -2.11924 -2.29509 -2.17263 -2.44864 -2.37461 -1.9269 -2.35048 -2.36886 -2.43709 -2.21434 -2.17504 -2.2015 -2.23563 -2.32417 -2.45505 -2.32939 -2.30408 -2.34889 -2.24918 -2.23137 -2.46754 -2.45871 -2.17223 -2.13335 -2.20018 -2.10418 -2.29243 -2.29128 -2.3693 -2.30444 -2.12621 -2.43557 -2.46736 -2.24799 -2.22963 -2.37746 -2.37866 -2.20743 -2.21839 -2.25441 -2.34601 -2.18038 -2.01459 -2.28281 -2.31968 -2.27539 -2.18474 -2.42081 -2.21682 -2.25169 -2.40242 -2.28257 -2.31023
internal_weight=4681.66 2396.28 2285.38 1949.51 1714.07 620.54 1328.97 510.836 446.765 571.309 168.294 278.471 1310.38 500.754 689.641 397.53 104.241 71.7197 128.548 64.0523 234.026 182.779 76.2773 1254.62 341.727 275.97 170.748 59.6377 105.222 103.223 1232.84 106.502 89.495 94.291 45.9109 16.1967 48.3801 35.9183 55.7568 55.3607 65.7572 1112.53 21.7832 14.9517 40.9712 120.31 17.5001 32.5218 26.2909 20.3252 47.0975 1024.43 80.3682 69.6704 58.6842 36.149 22.5353 109.703 92.2002 111.111 33.4576 69.4751
internal_count=36192 26275 9917 22659 6337 6402 16257 5518 3616 3580 1598 2018 16137 5486 1886 4179 1131 868 1030 467 1820 1536 765 15598 3460 2666 1790 516 876 1307 15410 771 584 731 275 153 456 390 539 354 794 14083 188 124 451 1327 138 263 230 212 348 4451 745 693 536 270 266 884 802 1274 310 679
is_linear=0
shrinkage=1


Tree=1
num_leaves=63
num_cat=0
split_feature=532 46 532 478 469 235 460 262 1 55 468 273 486 467 406 451 287 378 375 402 38 143 432 417 5 426 246 224 375 87 327 111 501 27 520 432 27 533 405 213 282 399 486 35 247 224 69 348 198 147 365 140 469 519 154 219 534 507 140 147 343 135
split_gain=24827.9 2460.13 1407.68 713.82 626.482 506.081 468.979 421.896 359.955 358.908 389.874 333.942 322.578 313.574 307.709 302.973 330.43 301.953 371.338 292.952 260.539 300.168 263.589 418.345 339.755 274.08 259.246 258.864 257.482 256.401 378.167 308.477 254.664 249.597 238.825 238.806 235.822 234.783 302.479 219.463 219.264 218.36 251.763 407.479 244.355 217.505 274.526 251.496 346.273 265.109 272.717 232.204 212.278 256.625 235.69 248.643 250.044 226.235 211.45 217.823 211.036 229.84
threshold=-0.60528913140296925 -0.36795222759246821 -0.72659212350845326 -0.79793769121170033 -0.70107626914978016 -0.78651461005210865 -0.82533136010169972 -0.73393324017524708 -0.7813189923763274 -0.82645797729492176 1.5398235321044924 -1.0156024694442747 -0.11853216215968131 1.0158196091651919 -0.84270444512367237 -0.79949539899826039 0.58542254567146312 0.31330808997154241 1.5754392743110659 0.78521606326103222 -0.43735021352767939 0.15263728052377704 1.3595190644264223 1.8247491717338564 0.24656932801008227 0.15303751081228259 2.0317653417587285 0.32239474356174475 0.59600767493247997 0.18865317106246951 -0.28214175999164576 -0.43796043097972864 -0.01836301106959581 0.3010652363300324 3.3951641321182255 0.02393058501183987 2.1486295461654668 0.78961011767387401 0.71175870299339306 -0.79523035883903492 -1.1335794329643247 -0.29661063849925989 1.1925705075263979 0.093221187591552748 -0.85281971096992482 0.40312938392162329 1.5798912644386294 0.65833511948585521 -0.57931023836135853 -0.30996651947498316 0.78931212425231945 0.23149336874485019 -0.6311446726322173 1.7112240791320803 -0.68396604061126698 -0.011685074772685764 -0.2298312038183212 1.564309358596802 0.21454894542694095 -0.56261536478996266 -0.82707032561302174 2.1619852781295781
decision_type=2 2 2 2 2 2 2 2 2 2 2 2 2 2 2 2 2 2 2 2 2 2 2 2 2 2 2 2 2 2 2 2 2 2 2 2 2 2 2 2 2 2 2 2 2 2 2 2 2 2 2 2 2 2 2 2 2 2 2 2 2 2
left_child=2 3 6 -2 -3 -6 -1 34 11 28 17 -7 15 14 -10 -4 19 18 26 29 21 32 24 37 41 45 60 -12 39 30 33 -31 -16 40 -5 -23 58 -24 -39 -9 -17 42 44 -44 -22 46 47 49 -49 50 51 -26 -19 54 -54 56 57 -56 59 -27 -11 -62
right_child=1 4 12 7 5 8 -8 9 13 10 27 -13 -14 -15 20 16 -18 52 -20 -21 22 35 23 -25 25 36 -28 -29 -30 31 -32 -33 -34 -35 -36 -37 -38 38 -40 -41 -42 -43 43 -45 -46 -47 -48 48 -50 -51 -52 -53 53 -55 55 -57 -58 -59 -60 -61 61 -63
leaf_value=0.3433822593231603 0.28916893010192063 0.25549057941220349 0.33276916688180175 0.2199352819875097 0.25009585294442083 0.41166063797823338 0.30208125672852759 0.079330610981606944 0.32451163815753215 0.2561654789274182 0.2471345601155609 0.046560234410064322 0.2707721088288792 0.25441853831015643 0.12146251774969566 0.24473584652403005 -0.055616033225314526 0.32534142034846975 0.23437940446383712 0.27638869100136482 0.32070490301168475 0.050223732930361267 0.038292396593150285 0.3394831509568596 0.39135065047960554 0.38024238500213203 0.2772320688157035 -0.054718925698063504 -7.0401167679160484e-06 0.045098650844089733 -0.0095881295862207117 0.27702603094250833 -0.027853058927565927 0.30984852344472835 -0.0059001700975272854 0.33002876600693121 0.30169051765441751 0.037089274216104973 0.37785021644502759 0.3031831704969053 0.0012235101938462797 -0.01604128747872937 0.25027850372802102 -0.027184565790671241 0.010556956374127466 0.013537161743295304 0.35536836298711449 0.39776588693631881 0.098452434734427233 -0.024233539186791851 0.42645422569135927 0.034780763666730927 -0.05487178114121552 0.30155561319724733 -0.025555704682668781 0.048414942718665269 0.23529670688347518 0.30771526918351505 -0.019037881329233855 -0.054340921600023323 0.0081667497965616596 0.25584619341868159
leaf_weight=1173.5786193311214 97.285714767873287 39.259960614144802 40.805799767374992 201.61497336626053 31.92565493285656 13.06252281367779 1658.9616698622704 13.600800216197966 9.6407232955098134 9.7939319983124715 68.607689931988716 12.032031193375586 442.75586178898811 17.75602225959301 76.216968595981598 16.245564542710781 13.36324382573366 14.415391735732554 27.382091745734215 84.499725744128227 6.5076113715767852 11.616769269108771 125.19473504275084 15.497107602655886 5.4794959872961035 7.0195992514491081 11.014811888337134 7.9228622466325751 11.072236359119414 18.178786434233189 39.806876689195633 67.840602457523346 45.665398001670837 25.029408656060696 12.428384222090243 22.195133350789547 6.8442504629492751 13.356353119015695 12.708991162478922 56.158488467335701 21.449159234762192 447.09590692073107 32.061806790530682 22.531134322285652 263.42320162802935 44.886914491653442 13.402355663478373 16.197886370122433 23.950599543750286 40.524874716997147 7.6074063926935187 27.382750116288662 19.888525128364563 18.797959983348846 21.023593164980415 59.005164988338947 63.047292806208134 6.7198060378432265 121.07256505638361 4.8933329582214338 213.49970545619726 9.7964944541454297
leaf_count=2137 431 229 128 1269 166 34 5062 126 45 57 427 128 2035 120 731 86 151 58 174 389 42 124 1499 98 31 37 65 103 122 171 418 313 577 97 143 116 40 161 71 268 217 5868 259 300 3299 549 77 83 255 531 27 328 252 89 267 622 432 32 1582 67 2524 53
internal_value=0.219082 0.0973329 0.302898 0.160907 0.0583252 0.053157 0.319193 0.146154 0.0488676 0.125599 0.111163 0.236607 0.24295 0.0455976 0.0429919 0.205305 0.187145 0.0942687 0.059783 0.199026 0.0410716 0.102085 0.0335182 0.0920649 0.0245685 0.0679487 0.040198 0.215885 0.223987 0.164355 0.11095 0.228012 0.0655188 0.187447 0.206822 0.233896 0.0154697 0.0667161 0.203238 0.259539 0.106172 0.00661966 0.0378396 0.135766 0.0180341 0.108845 0.140642 0.116886 0.21921 0.0661643 0.156686 0.0942357 0.140412 0.126268 0.10685 0.128322 0.180253 0.0551668 0.000738996 0.201734 0.0289968 0.019033
internal_weight=6082.6 2480.09 3602.52 943.076 1537.01 1497.75 2832.54 845.79 1465.82 631.747 550.915 25.0946 769.975 1440.73 1422.97 327.219 286.413 474.385 271.487 273.05 1413.33 155.694 1257.64 166.757 1090.88 319.262 244.105 76.5306 80.8315 188.55 102.531 86.0194 121.882 62.7241 214.043 33.8119 139.83 151.26 26.0653 69.7593 37.6947 771.62 324.524 54.5929 269.931 179.432 134.545 121.143 40.1485 80.9945 40.4697 32.8622 202.898 188.482 169.684 149.796 90.7907 27.7434 132.985 11.9129 233.09 223.296
internal_count=36192 24988 11204 7514 17474 17245 7199 7083 17079 5671 5155 162 4005 16917 16797 1970 1842 4625 2873 1691 16752 1548 15204 1829 13375 3607 2699 530 516 1302 818 484 1308 400 1412 240 1726 1731 232 394 303 9768 3900 559 3341 1881 1332 1255 338 917 386 359 1752 1694 1605 1353 731 299 1686 104 2634 2577
is_linear=0
shrinkage=0.05


Tree=2
num_leaves=63
num_cat=0
split_feature=532 46 523 397 451 1 235 486 133 17 399 36 459 528 345 195 1 534 388 444 414 38 173 352 146 112 267 198 489 489 372 372 18 2 294 267 207 537 44 36 24 135 1 521 446 532 198 390 132 21 220 143 46 150 141 171 219 435 48 417 66 325
split_gain=14050.5 1705.88 729.277 452.138 432.544 360.121 333.843 322.116 320.645 258.459 256.919 275.846 298.969 325.696 269.168 271.414 245.791 230.647 230.967 251.046 228.523 223.02 289.478 248.583 269.014 268.465 279.648 227.781 221.33 259.758 234.891 356.32 246.371 223.41 213.893 246.36 217.362 287.063 226.721 243.925 260.271 210.456 209.944 207.176 202.003 197.685 195.762 195.66 192.369 189.604 190.424 200.191 188.856 186.472 270.48 184.482 231.636 177.702 176.653 172.704 172.552 171.705
threshold=-0.60528913140296925 -0.36795222759246821 -0.81124022603034962 -0.83149027824401844 -0.73117545247077931 -0.6043584644794463 -0.79657432436943043 -0.36116407811641688 3.2639107704162602 0.51444977521896373 0.42015516757965093 -0.71398207545280445 -0.17195570468902585 -0.33779127895832056 0.57374784350395214 -0.41013567149639124 -0.7813189923763274 -0.04507480934262275 -0.80585032701492298 0.81192779541015636 1.2827228307724001 -0.43735021352767939 -1.0000000180025095e-35 -0.37783399224281305 1.2200258374214175 -0.85542726516723622 0.72511455416679393 1.5042079091072085 1.0144920349121096 0.97887638211250316 1.1124352216720583 1.1803276538848879 -0.87647864222526539 0.36047820746898657 -0.69728723168373097 0.65610918402671825 -0.047300787642598145 1.7290319800376894 -0.17290281504392621 0.56039199233055126 -0.41013567149639124 1.0723676085472109 -0.46745233237743372 -2.5595672130584712 0.35432155430316931 -0.55508843064308155 1.0478817820549013 0.50251647830009472 -0.55816337466239918 0.13522962480783465 -0.8488030433654784 0.2534781694412232 -0.85381409525871266 -0.65610656142234791 -0.21424935013055799 0.88761118054389965 -0.4079096913337707 0.23094681650400165 -1.1335794329643247 1.9916977286338808 0.52811527252197277 -0.59067878127098072
decision_type=2 2 2 2 2 2 2 2 2 2 2 2 2 2 2 2 2 2 2 2 2 2 2 2 2 2 2 2 2 2 2 2 2 2 2 2 2 2 2 2 2 2 2 2 2 2 2 2 2 2 2 2 2 2 2 2 2 2 2 2 2 2
left_child=2 3 61 44 -3 -4 -6 17 10 41 11 12 13 -5 -13 20 -8 18 -7 42 45 27 43 53 25 -25 28 49 29 30 34 -32 33 -33 36 -36 37 -27 60 58 48 52 47 -23 -2 -16 -46 -20 -41 50 -18 55 -10 -24 -55 -52 -57 -43 -40 -45 -38 -1
right_child=1 4 5 8 6 7 16 -9 9 -11 -12 14 -14 -15 15 -17 21 -19 19 -21 -22 22 23 24 -26 26 -28 -29 -30 -31 31 32 -34 -35 35 -37 38 -39 39 40 -42 57 -44 59 46 -47 -48 -49 -50 -51 51 -53 -54 54 -56 56 -58 -59 -60 -61 -62 -63
leaf_value=0.25552682049202241 0.24731368022809735 0.20132154254195092 0.22552142041907577 0.18638736424255109 0.1989110724315627 0.22848660683627742 0.18553968916408689 0.21101620367608082 0.23131265889681282 0.24972058956616353 0.1712922895979582 0.15935373745488809 -0.043790695456416062 -0.032076306387672955 0.27842285194162336 -0.040043349263318269 0.35135793545892335 0.19072595989604738 0.04720020957135887 0.18612812308704277 0.29506312906180743 0.29543203670633361 -0.0030729479405168041 0.27901540897953586 0.18399440372896253 -0.021192618180609725 -0.017550457216917417 0.24318265774990555 -0.015131323790392235 0.28226452127836688 0.32518236685782076 0.31883343332773229 0.033729169020252643 -0.054422211924189792 0.0064444201662057334 0.22956208836197767 0.10351913924699095 0.33694109483061285 0.19081906655332892 0.054092755028642872 0.001304401840958929 -0.0082096574543829206 -0.005451794300075738 -0.032270023265197588 -0.056445467021291475 -0.025274430048533789 0.27230651836646741 0.25135990160123572 0.39775826228061428 -0.014098823116463537 0.013962495894299411 0.23817472863669656 -0.014277949991443701 0.27725606339416076 0.084467613468250768 0.30761090410814967 -0.054974316018454684 0.22170368093183282 -0.054361085783535296 0.17375419680378534 0.40723160101661371 0.21326440986159942
leaf_weight=1881.6255603805184 110.13352213799953 47.253390461206436 1424.2947660312057 50.271424025297165 35.712856933474541 36.108929850161076 30.184353210031986 521.28623612970114 8.4625247642397863 15.960368931293486 299.98996359109879 268.72743839770555 51.454678192734718 25.824713975191116 7.2976759746670714 38.831932723522186 7.5060724541544905 188.77587634325027 29.024162322282791 47.476738475263119 15.601375274360178 5.2312643826007834 23.544529102742672 10.968769572675226 30.459331452846527 55.173304937779903 231.63211546093225 22.450874291360378 124.06598404049873 12.668939933180807 17.67532604187727 16.310656681656841 69.139189332723618 5.3153931573033324 310.73602800816298 12.885084159672259 7.7145196273922947 6.2268207967281333 9.9526828452944738 5.6117008700966862 10.93854298442602 12.903330922126768 69.910059183835983 220.47861955314875 11.67498914152384 20.163498386740688 7.3974563404917708 19.701642021536827 14.84045732021332 44.617390036582947 61.885998494923115 18.638894364237785 104.38975036889315 29.327339254319668 47.92207258194685 13.430223248898985 6.5545067861676207 24.104190677404404 28.057755447924137 10.664008893072603 11.876130200922487 275.52625632286072
leaf_count=2875 377 226 4040 299 151 94 160 1749 35 80 1805 1736 580 283 33 428 32 730 198 193 47 35 274 71 184 718 2975 122 1577 79 105 82 805 72 3851 100 77 30 88 62 135 140 557 2897 120 223 21 50 69 509 677 86 1191 146 436 56 81 116 383 83 40 718
internal_value=0.175058 0.0846981 0.229165 0.133575 0.0522719 0.209812 0.0477869 0.185285 0.121568 0.0584411 0.13502 0.112264 0.0493008 0.112247 0.135169 0.0558114 0.0442702 0.15098 0.113876 0.0889624 0.142249 0.041436 0.0344498 0.0452998 0.0377001 0.0330671 0.0302298 0.094482 0.0456186 0.0582832 0.0534114 0.119797 0.0798005 0.227092 0.0382243 0.0153279 0.087494 0.0151271 0.137424 0.0950222 0.198171 0.0380694 0.0500777 -0.0157228 0.221297 0.0554317 0.0710646 0.12975 0.303463 0.0726095 0.108426 0.0902834 0.00413831 0.120113 0.157659 0.0566141 0.188692 0.14154 0.00983708 -0.0227649 0.287634 0.250129
internal_weight=7184.57 2690.84 4493.73 1073.19 1617.65 2336.58 1570.4 912.284 943.983 165.82 778.163 478.173 127.551 76.0961 350.622 81.8945 1534.68 390.997 202.222 166.113 43.0625 1504.5 1329.42 1093.04 992.249 961.789 950.821 175.084 719.189 595.123 582.454 108.441 90.7652 21.626 474.013 323.621 150.392 61.4001 88.9918 69.4011 31.3907 149.86 118.636 236.374 129.206 27.4612 19.0724 48.7258 20.4522 152.633 108.016 100.51 112.852 100.794 77.2494 81.8707 19.9847 37.0075 38.0104 231.143 19.5906 2157.15
internal_count=36192 24988 11204 7514 17474 7611 17248 3571 6996 1562 5434 3629 1162 582 2467 731 17097 1822 1092 998 303 16937 15374 12359 11503 11319 11248 1563 8273 6696 6617 1064 959 154 5553 3951 1602 748 854 737 266 1482 805 3015 518 256 141 248 131 1441 932 900 1226 856 582 814 137 256 471 2980 117 3593
is_linear=0
shrinkage=0.05


end of trees

feature_importances:
Column_532=6
Column_1=4
Column_486=4
Column_46=3
Column_135=3
Column_198=3
Column_235=3
Column_267=3
Column_519=3
Column_534=3
Column_10=2
Column_27=2
Column_36=2
Column_38=2
Column_55=2
Column_111=2
Column_132=2
Column_140=2
Column_143=2
Column_146=2
Column_147=2
Column_171=2
Column_207=2
Column_210=2
Column_219=2
Column_224=2
Column_282=2
Column_343=2
Column_372=2
Column_375=2
Column_388=2
Column_399=2
Column_402=2
Column_408=2
Column_417=2
Column_426=2
Column_432=2
Column_444=2
Column_451=2
Column_469=2
Column_489=2
Column_507=2
Column_537=2
Column_2=1
Column_5=1
Column_12=1
Column_17=1
Column_18=1
Column_19=1
Column_21=1
Column_24=1
Column_35=1
Column_42=1
Column_44=1
Column_48=1
Column_66=1
Column_69=1
Column_75=1
Column_87=1
Column_92=1
Column_99=1
Column_107=1
Column_112=1
Column_123=1
Column_133=1
Column_141=1
Column_145=1
Column_150=1
Column_154=1
Column_168=1
Column_173=1
Column_178=1
Column_180=1
Column_189=1
Column_192=1
Column_195=1
Column_213=1
Column_215=1
Column_220=1
Column_244=1
Column_246=1
Column_247=1
Column_261=1
Column_262=1
Column_273=1
Column_278=1
Column_287=1
Column_294=1
Column_325=1
Column_327=1
Column_334=1
Column_345=1
Column_348=1
Column_352=1
Column_365=1
Column_369=1
Column_378=1
Column_390=1
Column_397=1
Column_405=1
Column_406=1
Column_414=1
Column_424=1
Column_435=1
Column_446=1
Column_447=1
Column_453=1
Column_459=1
Column_460=1
Column_461=1
Column_467=1
Column_468=1
Column_471=1
Column_478=1
Column_481=1
Column_482=1
Column_496=1
Column_501=1
Column_504=1
Column_510=1
Column_511=1
Column_514=1
Column_516=1
Column_520=1
Column_521=1
Column_523=1
Column_528=1
Column_533=1

parameters:
[boosting: gbdt]
[objective: binary]
[metric: binary_logloss]
[tree_learner: serial]
[device_type: cpu]
[data_sample_strategy: bagging]
[data: ]
[valid: ]
[num_iterations: 300]
[learning_rate: 0.05]
[num_leaves: 63]
[num_threads: 32]
[seed: 2021]
[deterministic: 0]
[force_col_wise: 0]
[force_row_wise: 0]
[histogram_pool_size: -1]
[max_depth: -1]
[min_data_in_leaf: 50]
[min_sum_hessian_in_leaf: 0.001]
[bagging_fraction: 1]
[pos_bagging_fraction: 1]
[neg_bagging_fraction: 1]
[bagging_freq: 0]
[bagging_seed: 5064]
[bagging_by_query: 0]
[feature_fraction: 1]
[feature_fraction_bynode: 1]
[feature_fraction_seed: 6682]
[extra_trees: 0]
[extra_seed: 17862]
[early_stopping_round: 0]
[early_stopping_min_delta: 0]
[first_metric_only: 0]
[max_delta_step: 0]
[lambda_l1: 0]
[lambda_l2: 0]
[linear_lambda: 0]
[min_gain_to_split: 0]
[drop_rate: 0.1]
[max_drop: 50]
[skip_drop: 0.5]
[xgboost_dart_mode: 0]
[uniform_drop: 0]
[drop_seed: 14392]
[top_rate: 0.2]
[other_rate: 0.1]
[min_data_per_group: 100]
[max_cat_threshold: 32]
[cat_l2: 10]
[cat_smooth: 10]
[max_cat_to_onehot: 4]
[top_k: 20]
[monotone_constraints: ]
[monotone_constraints_method: basic]
[monotone_penalty: 0]
[feature_contri: ]
[forcedsplits_filename: ]
[refit_decay_rate: 0.9]
[cegb_tradeoff: 1]
[cegb_penalty_split: 0]
[cegb_penalty_feature_lazy: ]
[cegb_penalty_feature_coupled: ]
[path_smooth: 0]
[interaction_constraints: ]
[verbosity: -1]
[saved_feature_importance_type: 0]
[use_quantized_grad: 0]
[num_grad_quant_bins: 4]
[quant_train_renew_leaf: 0]
[stochastic_rounding: 1]
[linear_tree: 0]
[max_bin: 255]
[max_bin_by_feature: ]
[min_data_in_bin: 3]
[bin_construct_sample_cnt: 200000]
[data_random_seed: 6638]
[is_enable_sparse: 1]
[enable_bundle: 1]
[use_missing: 1]
[zero_as_missing: 0]
[feature_pre_filter: 1]
[pre_partition: 0]
[two_round: 0]
[header: 0]
[label_column: ]
[weight_column: ]
[group_column: ]
[ignore_column: ]
[categorical_feature: ]
[forcedbins_filename: ]
[precise_float_parser: 0]
[parser_config_file: ]
[objective_seed: 14162]
[num_class: 1]
[is_unbalance: 0]
[scale_pos_weight: 12.2088]
[sigmoid: 1]
[boost_from_average: 1]
[reg_sqrt: 0]
[alpha: 0.9]
[fair_c: 1]
[poisson_max_delta_step: 0.7]
[tweedie_variance_power: 1.5]
[lambdarank_truncation_level: 30]
[lambdarank_norm: 1]
[label_gain: ]
[lambdarank_position_bias_regularization: 0]
[eval_at: ]
[multi_error_top_k: 1]
[auc_mu_weights: ]
[num_machines: 1]
[local_listen_port: 12400]
[time_out: 120]
[machine_list_filename: ]
[machines: ]
[gpu_platform_id: -1]
[gpu_device_id: -1]
[gpu_use_dp: 0]
[num_gpu: 1]

end of parameters

pandas_categorical:null
