tree
version=v4
num_class=1
num_tree_per_iteration=1
label_index=0
max_feature_idx=539
objective=binary sigmoid:1
feature_names=Column_0 Column_1 Column_2 Column_3 Column_4 Column_5 Column_6 Column_7 Column_8 Column_9 Column_10 Column_11 Column_12 Column_13 Column_14 Column_15 Column_16 Column_17 Column_18 Column_19 Column_20 Column_21 Column_22 Column_23 Column_24 Column_25 Column_26 Column_27 Column_28 Column_29 Column_30 Column_31 Column_32 Column_33 Column_34 Column_35 Column_36 Column_37 Column_38 Column_39 Column_40 Column_41 Column_42 Column_43 Column_44 Column_45 Column_46 Column_47 Column_48 Column_49 Column_50 Column_51 Column_52 Column_53 Column_54 Column_55 Column_56 Column_57 Column_58 Column_59 Column_60 Column_61 Column_62 Column_63 Column_64 Column_65 Column_66 Column_67 Column_68 Column_69 Column_70 Column_71 Column_72 Column_73 Column_74 Column_75 Column_76 Column_77 Column_78 Column_79 Column_80 Column_81 Column_82 Column_83 Column_84 Column_85 Column_86 Column_87 Column_88 Column_89 Column_90 Column_91 Column_92 Column_93 Column_94 Column_95 Column_96 Column_97 Column_98 Column_99 Column_100 Column_101 Column_102 Column_103 Column_104 Column_105 Column_106 Column_107 Column_108 Column_109 Column_110 Column_111 Column_112 Column_113 Column_114 Column_115 Column_116 Column_117 Column_118 Column_119 Column_120 Column_121 Column_122 Column_123 Column_124 Column_125 Column_126 Column_127 Column_128 Column_129 Column_130 Column_131 Column_132 Column_133 Column_134 Column_135 Column_136 Column_137 Column_138 Column_139 Column_140 Column_141 Column_142 Column_143 Column_144 Column_145 Column_146 Column_147 Column_148 Column_149 Column_150 Column_151 Column_152 Column_153 Column_154 Column_155 Column_156 Column_157 Column_158 Column_159 Column_160 Column_161 Column_162 Column_163 Column_164 Column_165 Column_166 Column_167 Column_168 Column_169 Column_170 Column_171 Column_172 Column_173 Column_174 Column_175 Column_176 Column_177 Column_178 Column_179 Column_180 Column_181 Column_182 Column_183 Column_184 Column_185 Column_186 Column_187 Column_188 Column_189 Column_190 Column_191 Column_192 Column_193 Column_194 Column_195 Column_196 Column_197 Column_198 Column_199 Column_200 Column_201 Column_202 Column_203 Column_204 Column_205 Column_206 Column_207 Column_208 Column_209 Column_210 Column_211 Column_212 Column_213 Column_214 Column_215 Column_216 Column_217 Column_218 Column_219 Column_220 Column_221 Column_222 Column_223 Column_224 Column_225 Column_226 Column_227 Column_228 Column_229 Column_230 Column_231 Column_232 Column_233 Column_234 Column_235 Column_236 Column_237 Column_238 Column_239 Column_240 Column_241 Column_242 Column_243 Column_244 Column_245 Column_246 Column_247 Column_248 Column_249 Column_250 Column_251 Column_252 Column_253 Column_254 Column_255 Column_256 Column_257 Column_258 Column_259 Column_260 Column_261 Column_262 Column_263 Column_264 Column_265 Column_266 Column_267 Column_268 Column_269 Column_270 Column_271 Column_272 Column_273 Column_274 Column_275 Column_276 Column_277 Column_278 Column_279 Column_280 Column_281 Column_282 Column_283 Column_284 Column_285 Column_286 Column_287 Column_288 Column_289 Column_290 Column_291 Column_292 Column_293 Column_294 Column_295 Column_296 Column_297 Column_298 Column_299 Column_300 Column_301 Column_302 Column_303 Column_304 Column_305 Column_306 Column_307 Column_308 Column_309 Column_310 Column_311 Column_312 Column_313 Column_314 Column_315 Column_316 Column_317 Column_318 Column_319 Column_320 Column_321 Column_322 Column_323 Column_324 Column_325 Column_326 Column_327 Column_328 Column_329 Column_330 Column_331 Column_332 Column_333 Column_334 Column_335 Column_336 Column_337 Column_338 Column_339 Column_340 Column_341 Column_342 Column_343 Column_344 Column_345 Column_346 Column_347 Column_348 Column_349 Column_350 Column_351 Column_352 Column_353 Column_354 Column_355 Column_356 Column_357 Column_358 Column_359 Column_360 Column_361 Column_362 Column_363 Column_364 Column_365 Column_366 Column_367 Column_368 Column_369 Column_370 Column_371 Column_372 Column_373 Column_374 Column_375 Column_376 Column_377 Column_378 Column_379 Column_380 Column_381 Column_382 Column_383 Column_384 Column_385 Column_386 Column_387 Column_388 Column_389 Column_390 Column_391 Column_392 Column_393 Column_394 Column_395 Column_396 Column_397 Column_398 Column_399 Column_400 Column_401 Column_402 Column_403 Column_404 Column_405 Column_406 Column_407 Column_408 Column_409 Column_410 Column_411 Column_412 Column_413 Column_414 Column_415 Column_416 Column_417 Column_418 Column_419 Column_420 Column_421 Column_422 Column_423 Column_424 Column_425 Column_426 Column_427 Column_428 Column_429 Column_430 Column_431 Column_432 Column_433 Column_434 Column_435 Column_436 Column_437 Column_438 Column_439 Column_440 Column_441 Column_442 Column_443 Column_444 Column_445 Column_446 Column_447 Column_448 Column_449 Column_450 Column_451 Column_452 Column_453 Column_454 Column_455 Column_456 Column_457 Column_458 Column_459 Column_460 Column_461 Column_462 Column_463 Column_464 Column_465 Column_466 Column_467 Column_468 Column_469 Column_470 Column_471 Column_472 Column_473 Column_474 Column_475 Column_476 Column_477 Column_478 Column_479 Column_480 Column_481 Column_482 Column_483 Column_484 Column_485 Column_486 Column_487 Column_488 Column_489 Column_490 Column_491 Column_492 Column_493 Column_494 Column_495 Column_496 Column_497 Column_498 Column_499 Column_500 Column_501 Column_502 Column_503 Column_504 Column_505 Column_506 Column_507 Column_508 Column_509 Column_510 Column_511 Column_512 Column_513 Column_514 Column_515 Column_516 Column_517 Column_518 Column_519 Column_520 Column_521 Column_522 Column_523 Column_524 Column_525 Column_526 Column_527 Column_528 Column_529 Column_530 Column_531 Column_532 Column_533 Column_534 Column_535 Column_536 Column_537 Column_538 Column_539
feature_infos=[-5.221592903137207:4.7174110412597656] [-0.86116659641265869:3.1393942832946777] [-18.460952758789062:7.3048324584960938] [-4.8164644241333008:4.0407133102416992] [-0.86116659641265869:2.9592044353485107] [-34.152454376220703:5.741854190826416] [-4.7341036796569824:4.4124517440795898] [-0.86116659641265869:3.8682053089141846] [-35.583099365234375:5.741854190826416] [-5.3507003784179688:4.7174110412597656] [-0.86116659641265869:3.1384341716766357] [-18.460952758789062:7.3048324584960938] [-4.7919788360595703:4.1119441986083984] [-0.86116659641265869:2.9501354694366455] [-34.152454376220703:5.741854190826416] [-5.036837100982666:4.1475601196289062] [-0.86116659641265869:3.8682053089141846] [-35.583099365234375:5.741854190826416] [-5.3507003784179688:4.7174110412597656] [-0.86116659641265869:3.1384341716766357] [-18.460952758789062:7.3048324584960938] [-5.0590968132019043:4.1119441986083984] [-0.86116659641265869:2.9410669803619385] [-34.152454376220703:5.741854190826416] [-5.036837100982666:4.6728916168212891] [-0.86116659641265869:3.8682053089141846] [-35.583099365234375:5.741854190826416] [-5.3507003784179688:4.3523502349853516] [-0.86116659641265869:3.137092113494873] [-18.460952758789062:7.3048324584960938] [-5.0590968132019043:6.838770866394043] [-0.86116659641265869:2.974003791809082] [-18.809013366699219:5.741854190826416] [-5.036837100982666:4.6728916168212891] [-0.86116659641265869:3.8682053089141846] [-35.583099365234375:5.741854190826416] [-6.0808219909667969:4.3011527061462402] [-0.86116659641265869:3.132115364074707] [-18.460952758789062:7.3048324584960938] [-5.0590968132019043:4.2276954650878906] [-0.86116659641265869:2.9862205982208252] [-18.809013366699219:5.741854190826416] [-4.8164644241333008:6.4113831520080566] [-0.86116659641265869:3.8682053089141846] [-35.583099365234375:5.741854190826416] [-6.0808219909667969:4.3011527061462402] [-0.86116659641265869:3.1265866756439209] [-22.298454284667969:7.3048324584960938] [-4.7830748558044434:4.2276954650878906] [-0.86116659641265869:2.9984374046325684] [-19.925205230712891:5.741854190826416] [-4.8164644241333008:6.838770866394043] [-0.86116659641265869:3.8682053089141846] [-35.583099365234375:5.741854190826416] [-5.1792998313903809:5.0357265472412109] [-0.86116659641265869:3.1210577487945557] [-22.298454284667969:7.3048324584960938] [-4.8209166526794434:4.7174110412597656] [-0.86116659641265869:3.0205032825469971] [-20.016422271728516:5.741854190826416] [-4.8164644241333008:6.4113831520080566] [-0.86116659641265869:3.8682053089141846] [-35.583099365234375:5.741854190826416] [-5.0234813690185547:6.0908412933349609] [-0.86116659641265869:3.0205976963043213] [-22.298454284667969:7.3048324584960938] [-5.0991640090942383:4.7174110412597656] [-0.86116659641265869:3.0573489665985107] [-20.016422271728516:7.3048324584960938] [-4.7341036796569824:4.490361213684082] [-0.86116659641265869:3.8682053089141846] [-35.583099365234375:5.741854190826416] [-5.5109705924987793:6.0908412933349609] [-0.86116659641265869:3.0146675109863281] [-18.460952758789062:7.3048324584960938] [-4.8209166526794434:5.7369108200073242] [-0.86116659641265869:3.0941884517669678] [-20.016422271728516:7.3048324584960938] [-4.9210858345031738:5.9528307914733887] [-0.86116659641265869:3.8682053089141846] [-35.583099365234375:5.741854190826416] [-5.5109705924987793:6.0908412933349609] [-0.86116659641265869:3.0054748058319092] [-18.460952758789062:7.3048324584960938] [-4.7118434906005859:5.7369108200073242] [-0.86116659641265869:3.121025562286377] [-20.099235534667969:7.3048324584960938] [-4.9210858345031738:5.9528307914733887] [-0.86116659641265869:3.8682053089141846] [-35.583099365234375:5.741854190826416] [-5.4619989395141602:6.0908412933349609] [-0.86116659641265869:2.9832098484039307] [-18.460952758789062:7.3048324584960938] [-7.3874721527099609:4.1809496879577637] [-0.86116659641265869:3.1245131492614746] [-20.099235534667969:7.3048324584960938] [-5.0947127342224121:4.4770054817199707] [-0.86116659641265869:3.8682053089141846] [-35.583099365234375:5.741854190826416] [-5.4619989395141602:5.7369108200073242] [-0.86116659641265869:2.9609482288360596] [-18.460952758789062:7.3048324584960938] [-7.3874721527099609:4.728541374206543] [-0.86116659641265869:3.1279976367950439] [-20.099235534667969:7.3048324584960938] [-5.0590968132019043:4.0251312255859375] [-0.86116659641265869:3.8682053089141846] [-35.583099365234375:5.741854190826416] [-5.4486432075500488:5.3518157005310059] [-0.86116659641265869:2.9386796951293945] [-18.460952758789062:7.3048324584960938] [-7.3874721527099609:4.728541374206543] [-0.86116659641265869:3.1333005428314209] [-20.204853057861328:7.3048324584960938] [-5.0590968132019043:4.7908682823181152] [-0.86116659641265869:3.8682053089141846] [-35.583099365234375:5.741854190826416] [-5.1592659950256348:4.5994343757629395] [-0.86116659641265869:2.9164180755615234] [-18.460952758789062:7.3048324584960938] [-4.7452335357666016:4.728541374206543] [-0.86116659641265869:3.1416802406311035] [-22.298454284667969:7.3048324584960938] [-4.892148494720459:4.7908682823181152] [-0.86116659641265869:3.8682053089141846] [-35.583099365234375:5.741854190826416] [-5.2304973602294922:4.1119441986083984] [-0.86116659641265869:2.8941531181335449] [-18.460952758789062:7.3048324584960938] [-4.9077296257019043:4.1876277923583984] [-0.86116659641265869:3.1500599384307861] [-22.298454284667969:5.8144493103027344] [-4.892148494720459:4.7908682823181152] [-0.86116659641265869:3.8682053089141846] [-35.583099365234375:5.741854190826416] [-5.2304973602294922:4.1119441986083984] [-0.86116659641265869:2.8706502914428711] [-18.460952758789062:7.3048324584960938] [-4.9077296257019043:5.017918586730957] [-0.86116659641265869:3.1573452949523926] [-22.298454284667969:5.8144493103027344] [-4.7318778038024902:4.6484060287475586] [-0.86116659641265869:3.8682053089141846] [-35.583099365234375:5.741854190826416] [-5.2861471176147461:4.1119441986083984] [-0.86116659641265869:2.8595669269561768] [-18.460952758789062:7.3048324584960938] [-4.778623104095459:5.017918586730957] [-0.86116659641265869:3.1644546985626221] [-20.323673248291016:5.8144493103027344] [-4.8743400573730469:4.6484060287475586] [-0.86116659641265869:3.8682053089141846] [-35.583099365234375:5.741854190826416] [-5.413027286529541:4.7908687591552734] [-0.86116659641265869:2.8595669269561768] [-18.460952758789062:7.3048324584960938] [-4.5627026557922363:4.8954892158508301] [-0.86116659641265869:3.1715610027313232] [-20.323673248291016:5.8144493103027344] [-4.8743400573730469:4.8954892158508301] [-0.86116659641265869:3.8682053089141846] [-35.583099365234375:5.741854190826416] [-5.413027286529541:4.7908687591552734] [-0.86116659641265869:2.8595669269561768] [-18.460952758789062:7.3048324584960938] [-4.6762275695800781:4.8954892158508301] [-0.86116659641265869:3.1782879829406738] [-20.434093475341797:7.3048324584960938] [-4.8743400573730469:4.8954892158508301] [-0.86116659641265869:3.8682053089141846] [-35.583099365234375:5.741854190826416] [-5.413027286529541:6.6562404632568359] [-0.86116659641265869:2.8595669269561768] [-18.460952758789062:7.3048324584960938] [-5.0947127342224121:4.8954892158508301] [-0.86116659641265869:3.1728832721710205] [-20.434093475341797:7.3048324584960938] [-4.9121818542480469:4.8954892158508301] [-0.86116659641265869:3.8682053089141846] [-35.583099365234375:5.741854190826416] [-5.3840899467468262:6.6562404632568359] [-0.86116659641265869:2.8595669269561768] [-18.514963150024414:7.3048324584960938] [-5.2304973602294922:4.5549149513244629] [-0.86116659641265869:3.1472647190093994] [-20.508506774902344:7.3048324584960938] [-4.9121818542480469:4.5571403503417969] [-0.86116659641265869:3.8682053089141846] [-35.583099365234375:5.741854190826416] [-5.3840899467468262:6.6562404632568359] [-0.86116659641265869:2.8595669269561768] [-18.514963150024414:7.3048324584960938] [-10.241179466247559:3.9182839393615723] [-0.86116659641265869:3.1208128929138184] [-20.508506774902344:7.3048324584960938] [-4.9121818542480469:4.5571403503417969] [-0.86116659641265869:3.8682053089141846] [-35.583099365234375:5.741854190826416] [-5.3840899467468262:4.0251312255859375] [-0.86116659641265869:2.8595669269561768] [-18.460952758789062:7.3048324584960938] [-10.241179466247559:4.5682706832885742] [-0.86116659641265869:3.0910208225250244] [-20.508506774902344:7.3048324584960938] [-5.2616605758666992:4.0407133102416992] [-0.86116659641265869:3.8682053089141846] [-35.583099365234375:5.741854190826416] [-5.4441909790039062:3.6667482852935791] [-0.86116659641265869:2.8732104301452637] [-26.082265853881836:7.3048324584960938] [-5.0702266693115234:4.5682706832885742] [-0.86116659641265869:3.0612318515777588] [-20.616523742675781:7.3048324584960938] [-5.2616605758666992:5.017918586730957] [-0.86116659641265869:3.8682053089141846] [-35.583099365234375:5.741854190826416] [-5.8092522621154785:3.9383177757263184] [-0.86116659641265869:3.0773282051086426] [-18.809013366699219:7.3048324584960938] [-4.9210858345031738:4.5682706832885742] [-0.86116659641265869:3.103809118270874] [-20.616523742675781:7.3048324584960938] [-6.025172233581543:5.0357265472412109] [-0.86116659641265869:3.8682053089141846] [-35.583099365234375:5.741854190826416] [-6.3345832824707031:4.5549149513244629] [-0.86116659641265869:3.0647847652435303] [-18.809013366699219:7.3048324584960938] [-4.9900913238525391:6.5271334648132324] [-0.86116659641265869:3.1059966087341309] [-17.893255233764648:7.3048324584960938] [-6.025172233581543:5.0357265472412109] [-0.86116659641265869:3.8682053089141846] [-35.583099365234375:5.741854190826416] [-6.3345832824707031:4.5549149513244629] [-0.86116659641265869:3.0522446632385254] [-18.809013366699219:7.3048324584960938] [-5.0034470558166504:6.5271334648132324] [-0.86116659641265869:3.1081850528717041] [-17.893255233764648:7.3048324584960938] [-6.025172233581543:5.0357265472412109] [-0.86116659641265869:3.8682053089141846] [-35.583099365234375:5.741854190826416] [-6.3345832824707031:5.0980539321899414] [-0.86116659641265869:3.0406453609466553] [-18.809013366699219:7.3048324584960938] [-5.1013903617858887:6.5271334648132324] [-0.86116659641265869:3.1071071624755859] [-17.893255233764648:7.3048324584960938] [-4.9077301025390625:4.5059432983398438] [-0.86116659641265869:3.8682053089141846] [-35.583099365234375:5.741854190826416] [-5.7580547332763672:5.0980539321899414] [-0.86116659641265869:3.0374646186828613] [-18.809013366699219:7.3048324584960938] [-5.1013903617858887:4.5571403503417969] [-0.86116659641265869:3.0984206199645996] [-17.893255233764648:7.3048324584960938] [-4.8120131492614746:4.5059432983398438] [-0.86116659641265869:3.8682053089141846] [-35.583099365234375:5.741854190826416] [-5.7580547332763672:5.0980539321899414] [-0.86116659641265869:3.0342874526977539] [-18.809013366699219:7.3048324584960938] [-5.1013903617858887:12.236774444580078] [-0.86116659641265869:3.0897307395935059] [-18.809013366699219:7.3048324584960938] [-4.8609843254089355:4.1030402183532715] [-0.86116659641265869:3.8682053089141846] [-35.583099365234375:5.741854190826416] [-5.7580547332763672:4.2121138572692871] [-0.86116659641265869:3.0340163707733154] [-18.809013366699219:7.3048324584960938] [-5.1013903617858887:12.236774444580078] [-0.86116659641265869:3.0810444355010986] [-18.809013366699219:7.3048324584960938] [-4.8609843254089355:3.8426008224487305] [-0.86116659641265869:3.8682053089141846] [-35.583099365234375:6.8505892753601074] [-5.0791306495666504:4.2855710983276367] [-0.86116659641265869:3.0354628562927246] [-18.809013366699219:7.3048324584960938] [-21.190780639648438:4.574948787689209] [-0.86116659641265869:3.072354793548584] [-20.812158584594727:7.3048324584960938] [-4.8609843254089355:3.8693125247955322] [-0.86116659641265869:3.8682053089141846] [-35.583099365234375:6.8505892753601074] [-5.0947127342224121:4.2855710983276367] [-0.86116659641265869:3.036909818649292] [-18.809013366699219:7.3048324584960938] [-21.190780639648438:4.574948787689209] [-0.86116659641265869:3.0636680126190186] [-20.951381683349609:7.3048324584960938] [-4.8721146583557129:4.385739803314209] [-0.86116659641265869:3.8682053089141846] [-35.583099365234375:6.8505892753601074] [-5.1459102630615234:4.2855710983276367] [-0.86116659641265869:3.0383560657501221] [-18.809013366699219:7.3048324584960938] [-5.3751864433288574:4.2811188697814941] [-0.86116659641265869:3.0631976127624512] [-20.951381683349609:7.3048324584960938] [-4.8854703903198242:4.385739803314209] [-0.86116659641265869:3.8682053089141846] [-35.583099365234375:6.8505892753601074] [-5.1459102630615234:4.2855710983276367] [-0.86116659641265869:3.0398027896881104] [-18.809013366699219:7.3048324584960938] [-4.7096176147460938:4.0941367149353027] [-0.86116659641265869:3.0767924785614014] [-20.951381683349609:7.3048324584960938] [-5.0947127342224121:4.385739803314209] [-0.86116659641265869:3.8682053089141846] [-35.583099365234375:6.8505892753601074] [-5.1459102630615234:4.2811188697814941] [-0.86116659641265869:3.0410864353179932] [-18.809013366699219:7.3048324584960938] [-4.769719123840332:4.3523502349853516] [-0.86116659641265869:3.0903871059417725] [-21.112209320068359:7.3048324584960938] [-5.0947127342224121:5.0134663581848145] [-0.86116659641265869:3.8682053089141846] [-35.583099365234375:6.8505892753601074] [-5.1459102630615234:5.5009565353393555] [-0.86116659641265869:3.0421280860900879] [-18.809013366699219:7.3048324584960938] [-5.7580547332763672:5.1759629249572754] [-0.86116659641265869:2.9379351139068604] [-21.112209320068359:7.3048324584960938] [-5.1214241981506348:5.8482098579406738] [-0.86116659641265869:3.8682053089141846] [-35.583099365234375:6.8505892753601074] [-5.1013903617858887:5.5009565353393555] [-0.86116659641265869:3.0431699752807617] [-18.809013366699219:7.3048324584960938] [-5.7580547332763672:5.1759629249572754] [-0.86116659641265869:2.9379088878631592] [-21.112209320068359:7.3048324584960938] [-4.6762275695800781:5.8482098579406738] [-0.86116659641265869:3.8682053089141846] [-35.583099365234375:6.8505892753601074] [-5.1013903617858887:4.728541374206543] [-0.86116659641265869:3.0432674884796143] [-18.809013366699219:7.3048324584960938] [-5.413027286529541:5.6011257171630859] [-0.86116659641265869:2.9378764629364014] [-21.112209320068359:7.3048324584960938] [-4.6762275695800781:5.8482098579406738] [-0.86116659641265869:3.8682053089141846] [-35.619106292724609:6.8505892753601074] [-5.1013903617858887:4.728541374206543] [-0.86116659641265869:3.0419549942016602] [-18.809013366699219:7.3048324584960938] [-5.3017282485961914:7.4687232971191406] [-0.86116659641265869:2.938784122467041] [-21.250232696533203:7.3048324584960938] [-4.7674932479858398:4.5549149513244629] [-0.86116659641265869:3.8682053089141846] [-35.619106292724609:6.8505892753601074] [-5.1013903617858887:4.728541374206543] [-0.86116659641265869:3.040642261505127] [-18.809013366699219:7.3048324584960938] [-5.0301589965820312:5.6011257171630859] [-0.86116659641265869:2.9388952255249023] [-21.286239624023438:7.3048324584960938] [-4.7341032028198242:4.5549149513244629] [-0.86116659641265869:3.8682053089141846] [-35.65631103515625:6.8505892753601074] [-4.9077296257019043:4.3145089149475098] [-0.86116659641265869:3.3209888935089111] [-18.809013366699219:7.3048324584960938] [-4.8876962661743164:4.5326547622680664] [-0.86116659641265869:2.9390032291412354] [-21.286239624023438:7.3048324584960938] [-4.9900913238525391:4.0295834541320801] [-0.86116659641265869:3.8682053089141846] [-35.65631103515625:6.8505892753601074] [-4.9077296257019043:4.3145089149475098] [-0.86116659641265869:3.3336007595062256] [-18.809013366699219:7.3048324584960938] [-4.8031091690063477:67.559074401855469] [-0.86116659641265869:2.944678783416748] [-21.286239624023438:5.8144493103027344] [-5.0501928329467773:4.7908687591552734] [-0.86116659641265869:3.8682053089141846] [-35.65631103515625:7.3048324584960938] [-4.9077296257019043:4.385739803314209] [-0.86116659641265869:3.34621262550354] [-18.809013366699219:7.3048324584960938] [-22.041105270385742:4.1186223030090332] [-0.86116659641265869:2.9543123245239258] [-21.286239624023438:5.8144493103027344] [-5.0501928329467773:4.7908687591552734] [-0.86116659641265869:3.8682053089141846] [-35.65631103515625:7.3048324584960938] [-5.1481356620788574:4.385739803314209] [-0.86116659641265869:3.0747711658477783] [-18.809013366699219:7.3048324584960938] [-22.041105270385742:4.3011527061462402] [-0.86116659641265869:2.9639458656311035] [-21.286239624023438:7.3048324584960938] [-5.535456657409668:4.7908687591552734] [-0.86116659641265869:3.8682053089141846] [-35.65631103515625:7.3048324584960938] [-5.1481356620788574:7.4687232971191406] [-0.86116659641265869:3.066401481628418] [-18.809013366699219:7.3048324584960938] [-5.7335686683654785:4.8999414443969727] [-0.86116659641265869:2.9538977146148682] [-21.336648941040039:7.3048324584960938] [-5.0501928329467773:4.316734790802002] [-0.86116659641265869:3.8682053089141846] [-18.728599548339844:6.8505892753601074] [-5.535456657409668:4.2811188697814941] [-0.86116659641265869:3.0580317974090576] [-18.809013366699219:7.3048324584960938] [-5.7335686683654785:4.7619309425354004] [-0.86116659641265869:2.9203042984008789] [-21.371454238891602:7.3048324584960938] [-5.0501928329467773:3.9561254978179932] [-0.86116659641265869:3.8682053089141846] [-18.667388916015625:6.8505892753601074] [-5.036837100982666:4.9578170776367188] [-0.86116659641265869:3.0425913333892822] [-18.809013366699219:7.3048324584960938] [-5.7335686683654785:4.7619309425354004] [-0.86116659641265869:2.8867108821868896] [-21.371454238891602:7.3048324584960938] [-5.4486432075500488:3.9605777263641357] [-0.86116659641265869:3.8682053089141846] [-18.675790786743164:6.8505892753601074] [-5.036837100982666:4.9578170776367188] [-0.86116659641265869:3.0165584087371826] [-18.781408309936523:7.3048324584960938] [-5.2727909088134766:37.129920959472656] [-0.86116659641265869:2.6521937847137451] [-21.371454238891602:7.3048324584960938] [-5.4486432075500488:4.5326547622680664] [-0.86116659641265869:3.8682053089141846] [-18.628982543945312:6.8505892753601074] [-5.0902605056762695:4.3723845481872559] [-0.86116659641265869:2.9905250072479248] [-18.809013366699219:7.3048324584960938] [-5.2727909088134766:3.8715384006500244] [-0.86116659641265869:2.879366397857666] [-21.371454238891602:7.3048324584960938] [-5.4486432075500488:4.5326547622680664] [-0.86116659641265869:3.8682053089141846] [-18.628982543945312:6.8505892753601074] [-5.0902605056762695:4.2544069290161133] [-0.86116659641265869:2.9710385799407959] [-18.809013366699219:7.3048324584960938] [-5.2304973602294922:5.0980539321899414] [-0.86116659641265869:2.8730342388153076] [-21.371454238891602:7.3048324584960938] [-5.1971073150634766:4.5326547622680664] [-0.86116659641265869:3.8682053089141846] [-18.628982543945312:6.8505892753601074] [-5.0902605056762695:4.2544069290161133] [-0.86116659641265869:2.9668424129486084] [-18.770606994628906:7.3048324584960938] [-5.4486432075500488:5.0980539321899414] [-0.86116659641265869:2.8667056560516357] [-21.370254516601562:7.3048324584960938] [-5.2349491119384766:4.5126214027404785] [-0.86116659641265869:3.8682053089141846] [-18.667388916015625:6.8505892753601074] [-5.123650074005127:5.1759634017944336] [-0.86116659641265869:2.9673910140991211] [-18.781408309936523:7.3048324584960938] [-5.4486432075500488:5.0980539321899414] [-0.86116659641265869:2.8702816963195801] [-21.370254516601562:7.3048324584960938] [-5.2349491119384766:4.7841906547546387] [-0.86116659641265869:3.8682053089141846] [-18.667388916015625:7.3048324584960938] [-5.123650074005127:5.1759634017944336] [-0.86116659641265869:2.9727141857147217] [-18.781408309936523:7.3048324584960938] [-5.5109705924987793:4.6484060287475586] [-0.86116659641265869:2.8801565170288086] [-21.370254516601562:7.3048324584960938] [-5.2349491119384766:4.7841906547546387] [-0.86116659641265869:3.8682053089141846] [-18.667388916015625:7.3048324584960938] [-5.123650074005127:5.1759634017944336] [-0.86116659641265869:2.9780368804931641] [-18.628982543945312:7.3048324584960938] [-5.5109705924987793:4.6484060287475586] [-0.86116659641265869:2.8900284767150879] [-21.396657943725586:7.3048324584960938] [-5.7335686683654785:4.7841906547546387] [-0.86116659641265869:3.8682053089141846] [-18.634983062744141:7.3048324584960938] [-5.8137040138244629:5.017918586730957] [-0.86116659641265869:2.9808814525604248] [-18.628982543945312:7.3048324584960938] [-4.9077301025390625:4.241051197052002] [-0.86116659641265869:2.8974514007568359] [-21.396657943725586:7.3048324584960938] [-4.9077301025390625:4.5393328666687012] [-0.86116659641265869:3.8682053089141846] [-18.634983062744141:7.3048324584960938] [-5.8137040138244629:5.017918586730957] [-0.86116659641265869:2.9550895690917969] [-18.628982543945312:7.3048324584960938] [-4.9077301025390625:4.5549149513244629] [-0.86116659641265869:2.8972551822662354] [-21.396657943725586:7.3048324584960938] [-5.0657744407653809:4.7619309425354004] [-0.86116659641265869:3.8682053089141846] [-18.634983062744141:7.3048324584960938] [-5.8137040138244629:5.2360649108886719] [-0.86116659641265869:2.9443359375] [-18.667388916015625:7.3048324584960938] [-6.025172233581543:4.5549149513244629] [-0.86116659641265869:2.9019415378570557] [-21.480672836303711:7.3048324584960938] [-5.0657744407653809:4.7619309425354004] [-0.86116659641265869:3.8682053089141846] [-18.628982543945312:7.3048324584960938] [-5.161491870880127:5.2360649108886719] [-0.86116659641265869:2.933582067489624] [-18.667388916015625:7.3048324584960938] [-6.025172233581543:4.6127901077270508] [-0.86116659641265869:2.9306690692901611] [-21.480672836303711:7.3048324584960938] [-5.0657744407653809:4.7619309425354004] [-0.86116659641265869:3.8682053089141846] [-18.628982543945312:7.3048324584960938] [-4.9656052589416504:5.2360649108886719] [-0.86116659641265869:2.9230015277862549] [-18.667388916015625:7.3048324584960938] [-6.025172233581543:4.6127901077270508] [-0.86116659641265869:2.9594001770019531] [-21.480672836303711:7.3048324584960938] [-4.9923171997070312:4.2811188697814941] [-0.86116659641265869:3.8682053089141846] [-18.628982543945312:7.3048324584960938]
tree_sizes=6743 6842 6840 6839

Tree=0
num_leaves=63
num_cat=0
split_feature=532 451 523 19 534 496 505 532 181 478 478 442 352 289 288 387 5 370 287 495 398 276 183 516 201 387 287 381 420 59 426 514 479 408 512 22 460 8 46 525 438 189 473 132 225 93 379 1 397 379 361 516 381 108 165 413 291 69 535 205 333 217
split_gain=78242.3 6312.68 3478.83 2915.08 1012.7 966.614 920.549 777.221 603.488 565.32 528.706 506.041 473.971 473.091 455.282 450.637 448.442 424.15 422.341 419.957 424.209 386.645 382.541 369.582 346.125 425.836 339.902 473.236 334.594 333.069 323.4 338.403 348.301 337.351 315.615 309.366 327.918 309.312 370.011 295.358 295.095 284.858 401.586 280.545 340.174 298.06 280.004 261.041 256.909 296.97 269.853 253.337 281.155 246.568 242.278 240.413 371.543 236.977 236.533 444.226 339.938 233.847
threshold=-0.67428842186927784 -0.68845298886299122 -0.81124022603034962 -0.49911250174045557 -0.45799423754215235 -0.80245894193649281 -0.84334939718246449 -0.59220057725906361 -0.79127421975135792 -0.80914202332496632 -0.70152527093887318 -0.60405471920967091 -0.8272123634815215 -0.75770694017410267 0.50029049813747417 -0.76072767376899708 0.09147540852427484 -0.82244947552680958 0.31512947380542761 -0.44018641114234919 0.37873910367488867 -0.1741816848516464 0.55148807168006908 -0.16305179148912427 1.5876821279525759 -1.13357937335968 -0.20787207037210462 0.52032431960105907 0.72956654429435741 -1.3404586911201475 0.90096703171730053 -0.60509809851646412 -0.18000000715255735 -0.12743607908487317 0.36603665351867681 -0.6948062777519225 -0.84845194220542897 0.28721602261066442 -0.66575041413307179 0.72066262364387523 0.83863955736160289 1.0456558465957644 0.82882437109947216 -0.071786556392908082 1.993923604488373 1.7713255286216738 -0.80595815181732167 -0.72328898310661305 -0.60007557272911061 -0.32995188236236567 -0.44726917147636408 -0.52588665485382069 -0.26767289638519282 1.4240725636482241 1.1302430033683779 0.59976083040237438 0.15081153064966205 1.6077160239219668 -0.81265753507614125 -0.74688634276390065 0.15748947113752368 -0.8451242446899413
decision_type=2 2 2 2 2 2 2 2 2 2 2 2 2 2 2 2 2 2 2 2 2 2 2 2 2 2 2 2 2 2 2 2 2 2 2 2 2 2 2 2 2 2 2 2 2 2 2 2 2 2 2 2 2 2 2 2 2 2 2 2 2 2
left_child=2 15 17 5 16 -3 -5 11 -9 -10 -6 -8 -11 18 24 21 58 -1 29 20 46 34 26 35 25 -13 27 -15 30 -7 31 -24 33 -33 -2 -17 -37 39 -39 -38 -27 -14 43 44 45 -43 -18 -21 -12 50 -50 52 -31 57 -53 61 -57 -23 -4 60 -60 -28
right_child=1 3 4 6 10 13 7 8 9 12 48 14 41 22 -16 23 19 -19 -20 47 -22 53 28 -25 -26 40 55 -29 -30 51 -32 32 -34 -35 -36 36 37 38 -40 -41 -42 42 -44 -45 -46 -47 -48 -49 49 -51 -52 54 -54 -55 -56 56 -58 -59 59 -61 -62 -63
leaf_value=-1.887522633300178 -2.1167821813271241 -1.9384855172183015 -1.9796471903566695 -1.9403996137907542 -1.9778564675729999 -2.0697533965179451 -2.5278891602161182 -2.2030764321582503 -2.0006895711149615 -2.1557530604840576 -2.0327938984649929 -2.060890674101012 -2.4726687054501602 -2.378591568873718 -2.5278891602161182 -2.0466681148216801 -2.1181390161541622 -1.9453361756737788 -2.1001263117410556 -2.3228483915952149 -2.0624538569795949 -2.5027981472528418 -2.1030384523508161 -2.0492272222569965 -1.9470943716015285 -2.5278891602161182 -2.1690632376874692 -2.1321787249673143 -2.4466385643287927 -2.4594110692205362 -2.0880702213231257 -2.0852701507365383 -2.4671203400599104 -2.5278891602161182 -2.5278891602161182 -2.019055905777507 -2.5011786720877054 -2.0091996154020357 -2.5278891602161182 -2.0891803549553272 -2.1423175930060614 -2.4251923302238061 -2.1825383106514566 -2.4884512695245018 -2.0989249742734755 -2.1247910266337309 -2.4374000890349321 -2.0635187766384462 -2.1561708908449262 -1.9900863835884273 -2.4594110692205362 -2.5064395585159964 -2.1095087641534858 -2.0646248140213523 -2.2127792135791209 -2.5278891602161182 -2.0960473474600825 -2.0891803549553272 -2.5278891602161182 -2.0685059812941526 -2.093022076769993 -2.4411006474237666
leaf_weight=581.8413926884532 43.295224726200104 17.11235173791647 56.273594558238983 9.0889969766139966 492.94820465147495 12.950287118554114 18.064186602830887 23.745641462504864 6.7522696927189818 12.754451252520083 177.35626663267612 17.786322221159931 1181.8607207685709 55.635094150900841 10.537442184984682 25.8909672498703 8.6877182573080045 697.63575813174248 40.222450666129589 11.574263438582419 15.29662138968706 23.645875468850139 18.154345609247684 107.83604484796524 13.279882557690142 13.978239633142953 8.2672255635261518 29.986521206796169 21.906262770295143 8.6640699133276957 28.328198775649071 16.085137471556667 29.289640627801418 5.8780289739370337 5.2328794524073592 11.659988075494764 22.212209865450863 12.582263730466368 4.7310964912176123 5.4095013439655295 7.693759322166442 127.09815186262131 17.179600648581982 120.3510547876358 9.6816771924495679 8.8310848176479322 32.782907381653786 60.049160063266754 47.882954657077789 23.167002603411674 8.6640699133276922 27.660139158368111 17.017020113766193 5.1227682232856742 9.4141580462455732 7.8134775385260609 13.738803200423716 4.0571260079741469 9.9639759436249751 136.90029039978981 8.1859352961182577 177.73980299383402
leaf_count=1293 278 54 220 29 1911 72 252 190 29 91 866 96 15292 624 147 133 56 2289 246 118 83 319 112 559 44 195 61 201 273 110 167 94 376 82 73 54 299 56 66 32 53 1534 131 1592 59 58 403 327 342 95 110 375 107 28 77 109 83 24 139 758 49 2197
internal_value=-2.17913 -2.37933 -1.97496 -2.4081 -2.04061 -2.30834 -2.44216 -2.44503 -2.45315 -2.45715 -2.00817 -2.29448 -2.45924 -2.3203 -2.22784 -2.15227 -2.11223 -1.91905 -2.23106 -2.18593 -2.28751 -2.25076 -2.34537 -2.11017 -2.16789 -2.2422 -2.37611 -2.29229 -2.27002 -2.30062 -2.23044 -2.28854 -2.35425 -2.20373 -2.16111 -2.18983 -2.25533 -2.31663 -2.15094 -2.42049 -2.39101 -2.46188 -2.41683 -2.43197 -2.38528 -2.40568 -2.37052 -2.10543 -2.0663 -2.14086 -2.20263 -2.34826 -2.22756 -2.3833 -2.43187 -2.41069 -2.25261 -2.44222 -2.06745 -2.09932 -2.33176 -2.42901
internal_weight=4785.43 2416.22 2369.21 2144.55 1089.73 545.863 1598.68 1589.59 1508.25 1484.51 750.018 81.3398 1477.76 528.751 63.2756 271.676 339.714 1279.48 115.928 128.391 56.7672 81.3539 412.823 190.322 52.7382 39.4583 293.181 85.6216 119.642 75.7057 97.7354 69.4072 51.2528 21.9632 48.5281 82.486 56.5951 44.9351 17.3134 27.6217 21.672 1465 283.142 265.962 145.611 135.929 41.4706 71.6234 257.07 79.714 56.547 62.7554 25.6811 32.8258 37.0743 207.559 21.5523 27.703 211.324 155.05 18.1499 186.007
internal_count=36192 27133 9059 25212 5477 5420 19792 19763 18976 18786 3324 787 18757 5366 535 1921 2153 3582 987 987 542 722 4379 1199 388 344 3275 825 1104 741 831 664 552 176 351 640 507 453 122 331 248 18666 3374 3243 1651 1592 459 445 1413 547 452 669 217 371 452 2450 192 343 1166 946 188 2258
is_linear=0
shrinkage=1


Tree=1
num_leaves=63
num_cat=0
split_feature=532 181 469 532 1 523 424 455 303 451 153 460 534 4 121 105 129 108 352 358 395 93 327 450 514 534 97 147 496 509 343 441 177 189 225 84 315 292 282 401 478 57 216 366 360 309 453 90 411 37 186 310 183 237 498 444 226 516 109 272 114 51
split_gain=32465.6 3432.32 1331.2 1200.18 772.221 632.157 528.982 440.56 376.198 357.074 316.317 313.021 311.329 284.522 278.136 275.992 270.709 292.915 272.989 312.377 260.969 268.293 305.886 256.88 292.494 274.123 256.576 289.24 254.8 252.895 248.266 302.769 247.701 243.773 265.114 257.536 269.711 251.225 277.336 248.165 241.163 241.11 238.281 287.635 282.554 237.738 232.8 294.508 232.621 231.45 272.235 219.681 218.994 216.643 209.69 207.368 232.695 206.867 206.499 206.376 201.192 200.083
threshold=-0.65618216991424549 -0.61397898197174061 -0.62681609392166127 -0.76903048157691944 -0.77782478928565968 -0.58653306961059559 -0.69044178724288929 0.011470556259155275 -0.0072331172414124003 -0.80545195937156666 1.435202479362488 -0.82533136010169972 0.44241501390933996 -0.82664087414741505 -0.71245363354682911 -0.47691510617732996 2.5214811563491826 -0.53924256563186634 -0.73159015178680409 -0.45003516972064966 -0.12300393357872962 1.0000000180025095e-35 0.097387988120317473 0.45577089488506323 -0.75744897127151478 -0.76517960429191578 -0.84501156210899342 0.84086558222770702 -0.76786303520202626 0.046192549169063575 -0.50294145941734303 0.68838590383529674 -0.46133323013782496 1.0456558465957644 0.41792924702167517 -0.71398207545280445 -0.016137032303959128 0.5953086018562318 1.2393161654472353 0.94699370861053478 -0.55034837126731861 -0.86423578858375538 -0.0072331172414124003 0.75627827644348156 -1.13357937335968 2.6105203628540044 -0.11853216215968131 0.64943119883537304 -0.6371856927871703 -0.6096895933151244 -0.88204362988471974 -0.85980814695358265 -0.75738868117332447 1.5687613487243655 -0.8553318679332732 -0.76072767376899708 -0.83987799286842335 0.010574712418019773 -0.71227407455444325 0.49802550673484808 -0.73067694902420033 -0.16527776420116422
decision_type=2 2 2 2 2 2 2 2 2 2 2 2 2 2 2 2 2 2 2 2 2 2 2 2 2 2 2 2 2 2 2 2 2 2 2 2 2 2 2 2 2 2 2 2 2 2 2 2 2 2 2 2 2 2 2 2 2 2 2 2 2 2
left_child=3 6 8 11 20 40 46 10 30 -7 13 -1 14 -8 -5 55 18 -18 19 -11 48 -22 -23 24 52 53 27 -20 -28 57 31 -3 54 45 37 36 -36 -35 -39 -37 -6 -38 43 44 -27 49 47 -2 -4 50 -30 -51 -16 -26 -17 56 -9 -10 -56 60 -34 -57
right_child=1 2 4 12 5 9 7 15 29 16 -12 -13 -14 -15 23 32 17 -19 26 -21 21 22 -24 -25 25 42 28 -29 33 -31 -32 -33 59 34 35 39 41 38 -40 -41 -42 -43 -44 -45 -46 -47 -48 -49 -50 51 -52 -53 -54 -55 58 61 -58 -59 -60 -61 -62 -63
leaf_value=0.34587263261802181 0.12166250525227285 0.07711525450934012 0.063493675102879427 0.2956441384351674 0.066497738763436107 0.29174262328929185 0.22735653936043398 0.33531409461781081 0.040138030642265128 0.31546203221539354 0.25908153514632842 0.31148935311127501 0.29563314499779336 0.016868254518273729 0.075570056878703218 0.35142766783269064 0.40897666613690364 -0.054373837481836641 0.046417824921609653 -0.011136415308369925 -0.028064727324771339 0.31305019633352466 -0.054553460631938937 0.28164106305404291 0.021758143529633241 0.2130624580288133 0.33266506474470003 0.39063244863874691 0.2277852003368569 -0.03171681737603637 0.33290221996755237 0.33305746957955634 0.25545691139200682 -0.0047014829989674503 -0.00073809787236413205 0.028793130424948243 -0.054494569501868206 0.012146723286752644 0.42706428977261279 0.37828697268364003 0.2347241088444641 0.34894375044862092 0.25100524676389585 0.25871985294178562 -0.056176917091100946 0.24071157961207659 0.28561246178466315 0.29195056007693004 0.34199485146275033 0.34004605352935569 0.0017500599208485419 -0.0094337411389703221 0.29236225849043024 0.34198545169727923 -0.055018606659221564 0.33783292231722628 -0.05483897537551078 0.31938393721034197 0.24055021219399997 0.23790512753398219 -0.025052986128889357 0.17047702851672195
leaf_weight=1237.4475639536977 66.91233466565609 31.346245869994164 10.011179924011229 153.32155214250088 39.000997275114059 11.936633527278898 18.877057611942291 6.0655005052685764 12.433713190257551 16.002362936735157 20.72934315353632 1423.2951618507504 409.3096362054348 107.37599533051252 13.497593797743319 18.943374812602997 8.9599313214421255 5.5073791220784178 17.660453565418724 13.496009297668932 22.367487497627735 19.332122169435028 8.001127824187277 110.56622864305973 45.950139038264751 15.423992112278937 6.0891324430704108 9.3256305456161481 23.064456172287464 25.259717762470245 45.765812911093235 18.301114410161972 7.6228846013545981 178.9754004329443 11.050755001604555 71.178335569798946 4.3482683077454594 8.8645229339599627 7.3805316090583792 5.4695918112993231 46.950551934540272 24.971922852098942 79.111823908984661 24.47141245752573 26.46433562040329 10.056912735104559 130.21338183432817 40.916315861046314 29.865178294479847 4.5140684098005286 31.532283142209053 1164.7790344059467 85.051095359027386 5.9675552994012824 9.3587024584412593 55.791226513683796 10.330906145274637 14.214011944830416 16.033314548432827 14.152738057076929 39.595976017415524 26.268215857446194
leaf_count=1955 538 295 101 534 389 47 118 21 127 80 109 3662 1365 1197 106 68 43 75 208 154 284 102 106 422 448 84 13 45 158 298 163 66 40 2249 138 834 58 102 22 17 267 127 343 103 277 85 550 171 134 30 376 15188 309 23 116 224 131 47 100 85 468 197
internal_value=0.214106 0.0772682 0.0454298 0.310129 0.0336702 0.026221 0.183075 0.144068 0.189965 0.0192735 0.0780614 0.32748 0.26249 0.04834 0.238259 0.191587 0.0172699 0.23259 0.0153336 0.166038 0.176798 0.100355 0.205443 0.216614 0.19232 0.157197 0.0125186 0.165369 0.00986136 0.0816383 0.248898 0.171461 0.135483 0.0085901 0.0480573 0.107566 0.209772 0.012387 0.200654 0.053733 0.15839 0.289113 0.192397 0.122527 0.0429616 -0.00139673 0.240616 0.186279 0.272076 -0.00338618 0.0972389 -0.00808457 0.26267 0.0585659 0.225534 0.251824 0.0894898 0.189089 0.131613 0.0704288 0.0202318 0.28426
internal_weight=6177.08 2547.2 1958.01 3629.88 1810.69 1721.12 589.187 351.145 147.321 1635.16 146.982 2660.74 969.135 126.253 559.826 204.163 1623.23 14.4673 1608.76 29.4984 89.5771 49.7007 27.3332 406.504 295.938 197.389 1579.26 26.9861 1552.28 51.9074 95.4132 49.6474 105.707 1546.19 312.239 117.019 40.3709 195.22 16.2451 76.6479 85.9515 29.3202 145.472 66.3597 41.8883 1233.95 238.042 107.829 39.8764 1223.89 54.5967 1169.29 98.5487 51.9177 44.3354 98.4558 16.3964 26.6477 25.392 61.3716 47.2189 82.0594
internal_count=36192 26561 22428 9631 21432 20705 4133 2874 996 20049 1424 5617 4014 1315 2649 1450 20002 118 19884 234 727 492 208 2115 1693 1278 19650 253 19397 472 524 361 877 19384 3547 1174 323 2373 124 851 656 185 807 464 361 15837 1259 709 235 15752 534 15218 415 471 284 573 152 174 216 593 508 421
is_linear=0
shrinkage=0.05


Tree=2
num_leaves=63
num_cat=0
split_feature=523 181 532 478 523 10 451 390 123 498 514 534 276 301 65 505 468 106 189 364 273 283 201 87 399 515 468 177 165 225 531 249 370 186 264 153 516 66 22 339 235 283 306 24 265 28 252 210 120 300 309 219 325 165 327 100 312 267 99 168 505 91
split_gain=18887.3 2345.81 777.275 759.045 757.337 538.048 325.036 307.668 274.285 264.619 248.102 243.095 268.943 248.582 241.436 240.611 226.689 214.267 230.325 232.569 265.585 209.206 207.244 206.423 200.553 200.48 200.039 196.485 249.934 196.381 195.369 295.371 198.684 192.441 206.256 210.16 191.854 202.043 219.785 208.49 185.655 208.568 178.054 263.543 236.168 215.262 225.403 220.454 198.303 177.369 171.895 169.914 168.663 166.496 202.692 161.189 165.597 167.191 156.011 155.914 153.99 170.335
threshold=-0.63873231410980214 -0.61397898197174061 -0.5870964229106902 -0.80914202332496632 -0.73839411139488209 -0.62271121144294728 -0.78608840703964222 -0.75738868117332447 -0.6293947398662566 0.057320319116115577 -0.83419916033744801 0.40679930150508886 0.8497695028781892 -0.79104074835777272 0.39310325682163244 -0.56556454300880421 2.0006016492843632 -0.84747388958930958 0.78076407313346874 0.68619066476821911 0.6305103898048402 0.43713673949241644 0.63496237993240368 -0.90652945637702931 -3.0356800556182857 1.26481169462204 0.96663349866867077 -0.15859983116388318 0.11074386164546014 1.8648167848587038 2.5326108932495122 1.5487274527549746 -0.80291774868965138 -0.47914108633995051 -0.4913839697837829 -0.64163771271705616 -0.50028786063194264 1.4040387868881228 -0.75280529260635365 -0.30328857898712153 -0.78651461005210865 0.26738175749778753 1.3572931885719302 -1.1346923708915708 -0.31044471263885492 0.66352084279060375 1.1769887804985049 1.7891333699226382 1.8803986907005312 1.1658588051795962 2.8153105974197392 -0.67947936058044422 -0.72828048467636097 -0.91765925288200367 -0.26322090625762934 -0.82091623544692982 1.3550671339035036 1.907110393047333 1.8536868095397951 0.95884251594543468 -0.6365770399570464 -0.67437165975570668
decision_type=2 2 2 2 2 2 2 2 2 2 2 2 2 2 2 2 2 2 2 2 2 2 2 2 2 2 2 2 2 2 2 2 2 2 2 2 2 2 2 2 2 2 2 2 2 2 2 2 2 2 2 2 2 2 2 2 2 2 2 2 2 2
left_child=4 7 15 -4 10 16 -7 8 26 21 -1 12 14 -14 -6 22 27 23 24 25 -21 40 -3 -8 -19 29 -2 28 53 36 32 -32 -26 34 -11 -36 37 38 39 -20 -9 55 50 44 -44 47 -47 48 -45 59 -34 -31 -37 54 -5 -42 57 -57 -10 -39 -13 -62
right_child=1 2 3 5 11 6 17 9 58 33 -12 60 13 -15 -16 -17 -18 18 19 20 -22 -23 -24 -25 30 -27 -28 -29 -30 51 31 -33 42 -35 35 52 -38 49 -40 -41 41 -43 43 45 -46 46 -48 -49 -50 -51 -52 -53 -54 -55 -56 56 -58 -59 -60 -61 61 -63
leaf_value=0.2571853615945478 0.1867309200903228 0.017908253690120782 0.22539890555944872 -0.055264244473503844 0.19290200022481679 0.20254401390198515 0.25441414898061077 0.19990610000401174 -0.0033828131820003611 0.0013773018760083139 0.2312648397438658 0.22939801369081905 0.23737857329672762 0.008376468606792269 0.051108669588403599 0.21083047808507704 0.27555538936239976 0.32517326805681634 0.30204142125713085 -0.054917281505561147 0.26714248186556361 -0.0082184097812946378 0.17009126894846269 -0.054759363403938971 0.17155028527793653 0.22750697085134883 -0.055852057527088265 0.014908216184065813 0.21161313820432884 0.27088724142271209 0.0055916767336027448 0.45462465840531757 -0.017213923076947062 0.23133941651543771 0.29111443762296879 0.19458354999663927 -0.011706719208948283 -0.054514939761481543 0.0037774517498110147 -0.054351853076853286 0.19142146401156498 0.24357480349179031 0.32971331151544403 -0.054244126942685267 0.0073970519190428635 0.020012239866658971 0.42131106665919965 0.23702971734725897 0.24451412222455954 0.44766827727721481 0.25917732107804936 0.027678175201524893 -0.056072589741357343 -0.055317131809162916 0.21132525000951674 -0.032532104022040299 0.18474594502712322 0.25130307858785933 0.27752383597691893 0.32684148067716084 -0.014232151568522367 0.19051381945621118
leaf_weight=1665.3292046263814 63.303139798343182 48.140426501631737 48.108371414244175 10.514721579849718 357.2426710948348 22.779537335038185 17.196927435696129 89.810258470475674 67.641448222100735 20.633618347346783 2071.510441288352 378.7853646427393 16.053758800029755 45.25919634103775 32.775743015110493 72.960279628634453 17.834808371961117 4.6726246625185004 13.267061337828638 9.0346914529800433 21.962121389806271 24.611692875623703 41.792579896748066 7.869194619357585 15.61919955909252 12.569673255085943 9.8161126375198346 58.850599318742752 48.65856909006834 14.480911590158941 9.8762512281537038 5.8206876665353766 960.46341037750244 180.91963117569685 25.531595461070538 16.465006887912754 235.49068219214678 6.3005224913358706 81.408994346857071 5.94131015241146 21.466076821088791 21.664569929242134 13.878887765109541 84.929133869707584 9.6242526695132238 7.9939026609063131 6.2232477143406868 8.1318066567182523 5.9429825618863097 5.9019983336329451 5.6585658863186827 14.24669463187456 11.32905040681362 20.858551748096943 22.149661421775818 50.915105052292347 14.693469122052191 5.7769049629569045 5.3324301764369002 4.6643423065543175 13.553752131760119 40.546601332724094
leaf_count=2150 340 465 159 126 1499 91 92 381 684 204 4612 1006 48 381 238 319 63 21 66 114 86 236 234 101 100 78 110 609 258 58 122 18 12674 756 71 72 2959 84 998 81 102 75 78 1182 123 101 21 61 43 19 32 144 123 249 123 545 70 24 24 27 106 156
internal_value=0.172079 0.0651608 0.0386804 0.0294076 0.23297 0.0241425 0.015013 0.149314 0.0857225 0.168516 0.242816 0.191358 0.165683 0.0683368 0.180986 0.143363 0.106417 0.0123249 0.0100007 0.041399 0.173271 0.129499 0.0886289 0.157353 -0.00172419 0.0310315 0.154165 0.0876844 0.129599 0.0245614 -0.00307097 0.172101 -0.00552939 0.203561 0.13561 0.187549 0.01433 0.0665193 0.0396731 0.191806 0.146088 0.10388 -0.0080373 0.0453677 0.197729 0.0137396 0.195672 -0.0123862 -0.0347055 0.226667 -0.0155951 0.150274 0.0924144 0.0550392 0.12551 0.0712859 0.0351603 -0.00360935 0.0171439 0.10771 0.218128 0.139219
internal_weight=7252.79 2631.73 2001.82 1838.92 4621.06 1790.82 1611.95 629.91 146.093 483.817 3736.84 884.217 451.331 61.313 390.018 162.893 178.867 1589.17 1564.1 425.269 30.9968 228.938 89.933 25.0661 1138.83 394.272 73.1193 161.032 102.182 381.703 1134.16 15.6969 1118.47 254.879 73.9593 53.3257 352.975 117.484 100.617 19.2084 204.326 114.516 1102.85 136.724 23.5031 113.221 14.2172 99.0039 90.8721 16.8669 966.122 28.7276 27.7941 53.5229 32.6644 92.8516 71.3855 56.692 72.9739 10.9649 432.886 54.1004
internal_count=36192 25996 22179 21161 10196 21002 19574 3817 1158 2659 6762 3434 2166 429 1737 1018 1428 19483 19290 4714 200 1433 699 193 14576 4514 450 1365 756 4436 14555 140 14415 1226 470 266 4234 1275 1145 147 1197 816 14315 1609 201 1408 122 1286 1225 130 12706 202 195 498 249 741 639 569 708 111 1268 262
is_linear=0
shrinkage=0.05


Tree=3
num_leaves=63
num_cat=0
split_feature=532 451 154 532 505 10 352 147 441 469 270 99 291 0 420 120 267 69 105 408 38 1 273 105 285 468 387 414 534 490 423 306 303 117 132 96 13 93 248 442 310 524 288 405 57 63 532 264 304 321 129 285 75 468 5 181 34 468 468 525 130 505
split_gain=12562.1 1652.69 957.106 698.13 557.645 349.324 230.827 231.966 245.543 227.992 217.011 213.852 220.31 201.176 200.872 193.174 186.054 197.352 182.985 180.909 212.293 175.633 172.208 189.553 177.601 169.354 189.682 164.773 164.652 180.442 163.013 193.005 161.219 160.576 167.535 155.614 150.536 149.175 149.066 173.564 154.28 145.104 144.92 141.764 192.817 230.124 186.153 210.222 176.396 166.686 155.271 158.288 140.224 143.242 138.03 137.599 134.091 133.81 129.805 129.288 191.563 140.012
threshold=-0.61979174613952626 -0.68845298886299122 -0.65669003129005421 -0.70694455504417408 -0.68152502179145802 -0.62271121144294728 -0.80206060409545887 0.061772275716066367 1.1881185770034792 -0.81753629446029652 0.78744208812713634 1.1680847406387331 0.037286510691046722 -0.39900577068328852 -1.1335794329643247 1.4062647223472597 0.59266871213912975 0.84531751275062572 2.1720020771026616 1.0434297919273379 0.51784440875053417 -0.85607388615608204 -0.16972972452640531 -0.67168840765953053 1.1636327505111697 1.562083423137665 -0.011685074772685764 1.6756083965301516 -0.71509504318237294 0.58255308866500866 0.92767879366874706 0.20200904458761218 -0.14524395763874051 2.4457978010177617 -0.51809570193290699 0.13300364464521411 -0.48896947503089899 0.91432294249534618 -0.045532654970884316 -0.46867531538009638 -0.8250538408756255 1.3798859119415285 -1.1346923708915708 1.2393161654472353 -0.067334596067666994 0.59823366999626171 -0.57707095146179188 1.298304617404938 -0.85695558786392201 -0.95327505469322193 2.7496440410614018 2.305560946464539 -0.90207740664482106 1.562083423137665 0.52870872616767894 -0.73052558302879322 3.5308144092559819 2.0428953170776372 1.6433316469192507 -0.48470604419708246 0.38949468731880194 -0.78891968727111805
decision_type=2 2 2 2 2 2 2 2 2 2 2 2 2 2 2 2 2 2 2 2 2 2 2 2 2 2 2 2 2 2 2 2 2 2 2 2 2 2 2 2 2 2 2 2 2 2 2 2 2 2 2 2 2 2 2 2 2 2 2 2 2 2
left_child=3 -2 22 9 -4 11 -7 33 18 -1 13 12 37 16 -15 19 17 -10 25 20 21 -5 23 38 52 43 32 42 29 36 31 -14 -27 41 -35 -25 -23 57 40 -40 -3 -8 -16 46 54 49 47 -9 -48 -46 51 -50 53 -24 -45 -37 -54 -6 -28 60 -11 -62
right_child=1 2 4 15 5 6 7 8 10 59 -12 -13 30 14 27 -17 -18 -19 -20 -21 -22 28 24 35 -26 26 58 -29 -30 -31 -32 -33 -34 34 -36 55 -38 -39 39 -41 -42 -43 -44 44 45 -47 48 -49 50 -51 -52 -53 56 -55 -56 -57 -58 -59 -60 -61 61 -63
leaf_value=0.20670813619944367 0.15749005604387514 0.19757875287649518 0.21262107025270255 0.26665524928075995 -0.021488766827693059 0.14885824180016455 -0.011470261419060698 0.006563394812752598 -0.012901380514754077 0.17558879696356941 -0.033332662258450184 -0.055561244059413144 -0.0052945326569805232 0.23291736646004801 0.18999309644163664 0.038058290018187155 0.30269383837305675 0.29104570513560163 0.19681124512621634 0.19325572123543169 -0.027957938190221965 0.096135998741376308 -0.056442612838202649 -0.055890848726464749 -0.019746333132720416 0.00037979519682286659 0.18328783381701175 0.22605035997834833 0.14642074283978923 0.2261461801229582 0.24514008028685594 0.17756911698556782 0.22956706088037451 0.30790626371881213 -0.054365342052321956 0.11745478371097706 -0.056908319577563087 0.18214293121918462 -0.0019982529482295312 0.22131646258442683 -0.056220308171107451 0.14792666340260638 -0.054368652905030138 -0.05437567347903445 0.25008399334511683 0.22529614718637525 0.26880883367834812 0.27009991265089667 -0.02410040474023065 -0.054388679446038285 0.23334981923648274 0.22869261590246559 0.1821790212908122 0.23309693165842302 0.26810011603188827 -0.055497430354905036 0.039573666656538352 0.22220919023552588 -0.054329785838804524 0.19279048123500281 0.12376096234507848 -0.059334283318739724
leaf_weight=2221.1668315678835 347.3084569349885 9.2364461198449153 39.144084580242634 25.438725695014 52.211703050881624 31.444597035646439 826.81102924793959 18.863049067556862 14.212449900805952 802.87489514797926 28.07996628433466 23.422201588749886 23.35285621881485 14.411379411816595 7.2242338359355918 42.932162329554558 23.111747108399868 8.5553481057286245 14.09291562438011 161.8912586197257 19.870309345424175 38.240826524794102 14.370061971247198 35.347419627010822 15.915633857250212 10.72727484256029 7.4403407722711554 8.3915265500545484 345.43014900386333 14.590420566499231 33.342114679515362 37.763454906642437 26.951173335313797 8.136828772723673 5.2507779672741881 47.27734062448144 27.710328966379166 14.871438652276991 10.81325691193342 44.541397541761398 17.02462113648653 14.528592042624949 37.88965518027544 34.170473106205463 5.8488365262746838 27.38899701833725 5.4670235216617575 12.636595882475374 429.98760567605495 19.421874657273293 6.1101733148097983 6.2828753888607016 162.89297238737345 6.0785176306962958 3.6752281859517089 15.196766287088392 18.340203128755093 6.313977748155593 25.260334096848965 1720.2042739763856 47.922270469367504 13.349810309708117
leaf_count=2594 1336 30 98 37 573 143 10538 181 179 1846 370 271 233 97 46 289 98 44 105 492 171 201 149 395 148 128 56 49 1350 46 129 179 154 37 72 274 274 78 98 156 182 108 520 469 49 168 22 33 5638 266 22 51 718 14 26 178 144 16 349 3220 149 106
internal_value=0.145019 0.0557972 0.0405065 0.188268 0.0258429 0.0219408 0.0146611 0.0121051 0.0315238 0.194961 0.0911537 0.0859686 0.105717 0.121872 0.067231 0.140696 0.202757 0.101311 0.0185944 0.147655 0.131991 0.139032 0.111151 0.0748892 0.141054 0.0146714 0.0878458 0.0226043 0.13141 0.067033 0.156211 0.107696 0.164316 -0.00598396 0.165819 0.0279486 0.0318322 0.0407344 0.13115 0.177693 0.033045 -0.00871773 -0.0152382 0.0056341 0.0630271 0.124896 -0.00520225 0.112285 -0.0134658 0.0160807 -0.0169542 -0.0204598 0.153744 0.0296255 -0.0230598 0.0753843 0.167748 0.00480232 -0.000264967 0.184864 0.169085 0.0838686
internal_weight=8138.76 2657.14 2309.83 5481.62 1912.79 1873.65 1682.37 1650.93 796.201 4805.52 141.876 191.278 167.856 113.796 67.9168 676.104 45.8795 22.7678 654.325 633.172 471.281 451.41 397.035 179.437 217.597 640.232 70.3791 53.5054 425.972 80.5416 94.4584 61.1163 37.6784 854.727 13.3876 97.8215 65.9512 73.3971 81.6157 55.3547 26.2611 841.34 45.1139 569.853 90.5054 52.6597 479.347 31.4996 447.848 25.2707 442.381 436.27 201.682 20.4486 37.8457 62.4741 181.233 58.5257 32.7007 2584.35 864.147 61.2721
internal_count=36192 25417 24081 10775 21595 21497 20018 19875 9120 7915 1403 1479 1208 1033 712 2860 321 223 7717 2571 2079 1908 2486 1313 1173 7612 687 615 1871 521 541 412 282 10755 109 847 475 667 466 254 212 10646 566 6925 978 483 5947 214 5733 315 5711 5689 1025 163 495 452 862 589 405 5321 2101 255
is_linear=0
shrinkage=0.05


end of trees

feature_importances:
Column_532=8
Column_468=6
Column_505=5
Column_534=5
Column_181=4
Column_451=4
Column_478=4
Column_516=4
Column_523=4
Column_1=3
Column_93=3
Column_105=3
Column_165=3
Column_189=3
Column_225=3
Column_352=3
Column_387=3
Column_514=3
Column_5=2
Column_10=2
Column_22=2
Column_57=2
Column_69=2
Column_99=2
Column_108=2
Column_120=2
Column_129=2
Column_132=2
Column_147=2
Column_153=2
Column_177=2
Column_183=2
Column_186=2
Column_201=2
Column_264=2
Column_267=2
Column_273=2
Column_276=2
Column_283=2
Column_285=2
Column_287=2
Column_288=2
Column_291=2
Column_303=2
Column_306=2
Column_309=2
Column_310=2
Column_327=2
Column_370=2
Column_379=2
Column_381=2
Column_408=2
Column_420=2
Column_441=2
Column_442=2
Column_460=2
Column_469=2
Column_496=2
Column_498=2
Column_525=2
Column_0=1
Column_4=1
Column_8=1
Column_13=1
Column_19=1
Column_24=1
Column_28=1
Column_34=1
Column_37=1
Column_38=1
Column_46=1
Column_51=1
Column_59=1
Column_63=1
Column_65=1
Column_66=1
Column_75=1
Column_84=1
Column_87=1
Column_90=1
Column_91=1
Column_96=1
Column_97=1
Column_100=1
Column_106=1
Column_109=1
Column_114=1
Column_117=1
Column_121=1
Column_123=1
Column_130=1
Column_154=1
Column_168=1
Column_205=1
Column_210=1
Column_216=1
Column_217=1
Column_219=1
Column_226=1
Column_235=1
Column_237=1
Column_248=1
Column_249=1
Column_252=1
Column_265=1
Column_270=1
Column_272=1
Column_282=1
Column_289=1
Column_292=1
Column_300=1
Column_301=1
Column_304=1
Column_312=1
Column_315=1
Column_321=1
Column_325=1
Column_333=1
Column_339=1
Column_343=1
Column_358=1
Column_360=1
Column_361=1
Column_364=1
Column_366=1
Column_390=1
Column_395=1
Column_397=1
Column_398=1
Column_399=1
Column_401=1
Column_405=1
Column_411=1
Column_413=1
Column_414=1
Column_423=1
Column_424=1
Column_426=1
Column_438=1
Column_444=1
Column_450=1
Column_453=1
Column_455=1
Column_473=1
Column_479=1
Column_490=1
Column_495=1
Column_509=1
Column_512=1
Column_515=1
Column_524=1
Column_531=1
Column_535=1

parameters:
[boosting: gbdt]
[objective: binary]
[metric: binary_logloss]
[tree_learner: serial]
[device_type: cpu]
[data_sample_strategy: bagging]
[data: ]
[valid: ]
[num_iterations: 300]
[learning_rate: 0.05]
[num_leaves: 63]
[num_threads: 32]
[seed: 2021]
[deterministic: 0]
[force_col_wise: 0]
[force_row_wise: 0]
[histogram_pool_size: -1]
[max_depth: -1]
[min_data_in_leaf: 50]
[min_sum_hessian_in_leaf: 0.001]
[bagging_fraction: 1]
[pos_bagging_fraction: 1]
[neg_bagging_fraction: 1]
[bagging_freq: 0]
[bagging_seed: 5064]
[bagging_by_query: 0]
[feature_fraction: 1]
[feature_fraction_bynode: 1]
[feature_fraction_seed: 6682]
[extra_trees: 0]
[extra_seed: 17862]
[early_stopping_round: 0]
[early_stopping_min_delta: 0]
[first_metric_only: 0]
[max_delta_step: 0]
[lambda_l1: 0]
[lambda_l2: 0]
[linear_lambda: 0]
[min_gain_to_split: 0]
[drop_rate: 0.1]
[max_drop: 50]
[skip_drop: 0.5]
[xgboost_dart_mode: 0]
[uniform_drop: 0]
[drop_seed: 14392]
[top_rate: 0.2]
[other_rate: 0.1]
[min_data_per_group: 100]
[max_cat_threshold: 32]
[cat_l2: 10]
[cat_smooth: 10]
[max_cat_to_onehot: 4]
[top_k: 20]
[monotone_constraints: ]
[monotone_constraints_method: basic]
[monotone_penalty: 0]
[feature_contri: ]
[forcedsplits_filename: ]
[refit_decay_rate: 0.9]
[cegb_tradeoff: 1]
[cegb_penalty_split: 0]
[cegb_penalty_feature_lazy: ]
[cegb_penalty_feature_coupled: ]
[path_smooth: 0]
[interaction_constraints: ]
[verbosity: -1]
[saved_feature_importance_type: 0]
[use_quantized_grad: 0]
[num_grad_quant_bins: 4]
[quant_train_renew_leaf: 0]
[stochastic_rounding: 1]
[linear_tree: 0]
[max_bin: 255]
[max_bin_by_feature: ]
[min_data_in_bin: 3]
[bin_construct_sample_cnt: 200000]
[data_random_seed: 6638]
[is_enable_sparse: 1]
[enable_bundle: 1]
[use_missing: 1]
[zero_as_missing: 0]
[feature_pre_filter: 1]
[pre_partition: 0]
[two_round: 0]
[header: 0]
[label_column: ]
[weight_column: ]
[group_column: ]
[ignore_column: ]
[categorical_feature: ]
[forcedbins_filename: ]
[precise_float_parser: 0]
[parser_config_file: ]
[objective_seed: 14162]
[num_class: 1]
[is_unbalance: 0]
[scale_pos_weight: 11.866]
[sigmoid: 1]
[boost_from_average: 1]
[reg_sqrt: 0]
[alpha: 0.9]
[fair_c: 1]
[poisson_max_delta_step: 0.7]
[tweedie_variance_power: 1.5]
[lambdarank_truncation_level: 30]
[lambdarank_norm: 1]
[label_gain: ]
[lambdarank_position_bias_regularization: 0]
[eval_at: ]
[multi_error_top_k: 1]
[auc_mu_weights: ]
[num_machines: 1]
[local_listen_port: 12400]
[time_out: 120]
[machine_list_filename: ]
[machines: ]
[gpu_platform_id: -1]
[gpu_device_id: -1]
[gpu_use_dp: 0]
[num_gpu: 1]

end of parameters

pandas_categorical:null
