tree
version=v4
num_class=1
num_tree_per_iteration=1
label_index=0
max_feature_idx=539
objective=binary sigmoid:1
feature_names=Column_0 Column_1 Column_2 Column_3 Column_4 Column_5 Column_6 Column_7 Column_8 Column_9 Column_10 Column_11 Column_12 Column_13 Column_14 Column_15 Column_16 Column_17 Column_18 Column_19 Column_20 Column_21 Column_22 Column_23 Column_24 Column_25 Column_26 Column_27 Column_28 Column_29 Column_30 Column_31 Column_32 Column_33 Column_34 Column_35 Column_36 Column_37 Column_38 Column_39 Column_40 Column_41 Column_42 Column_43 Column_44 Column_45 Column_46 Column_47 Column_48 Column_49 Column_50 Column_51 Column_52 Column_53 Column_54 Column_55 Column_56 Column_57 Column_58 Column_59 Column_60 Column_61 Column_62 Column_63 Column_64 Column_65 Column_66 Column_67 Column_68 Column_69 Column_70 Column_71 Column_72 Column_73 Column_74 Column_75 Column_76 Column_77 Column_78 Column_79 Column_80 Column_81 Column_82 Column_83 Column_84 Column_85 Column_86 Column_87 Column_88 Column_89 Column_90 Column_91 Column_92 Column_93 Column_94 Column_95 Column_96 Column_97 Column_98 Column_99 Column_100 Column_101 Column_102 Column_103 Column_104 Column_105 Column_106 Column_107 Column_108 Column_109 Column_110 Column_111 Column_112 Column_113 Column_114 Column_115 Column_116 Column_117 Column_118 Column_119 Column_120 Column_121 Column_122 Column_123 Column_124 Column_125 Column_126 Column_127 Column_128 Column_129 Column_130 Column_131 Column_132 Column_133 Column_134 Column_135 Column_136 Column_137 Column_138 Column_139 Column_140 Column_141 Column_142 Column_143 Column_144 Column_145 Column_146 Column_147 Column_148 Column_149 Column_150 Column_151 Column_152 Column_153 Column_154 Column_155 Column_156 Column_157 Column_158 Column_159 Column_160 Column_161 Column_162 Column_163 Column_164 Column_165 Column_166 Column_167 Column_168 Column_169 Column_170 Column_171 Column_172 Column_173 Column_174 Column_175 Column_176 Column_177 Column_178 Column_179 Column_180 Column_181 Column_182 Column_183 Column_184 Column_185 Column_186 Column_187 Column_188 Column_189 Column_190 Column_191 Column_192 Column_193 Column_194 Column_195 Column_196 Column_197 Column_198 Column_199 Column_200 Column_201 Column_202 Column_203 Column_204 Column_205 Column_206 Column_207 Column_208 Column_209 Column_210 Column_211 Column_212 Column_213 Column_214 Column_215 Column_216 Column_217 Column_218 Column_219 Column_220 Column_221 Column_222 Column_223 Column_224 Column_225 Column_226 Column_227 Column_228 Column_229 Column_230 Column_231 Column_232 Column_233 Column_234 Column_235 Column_236 Column_237 Column_238 Column_239 Column_240 Column_241 Column_242 Column_243 Column_244 Column_245 Column_246 Column_247 Column_248 Column_249 Column_250 Column_251 Column_252 Column_253 Column_254 Column_255 Column_256 Column_257 Column_258 Column_259 Column_260 Column_261 Column_262 Column_263 Column_264 Column_265 Column_266 Column_267 Column_268 Column_269 Column_270 Column_271 Column_272 Column_273 Column_274 Column_275 Column_276 Column_277 Column_278 Column_279 Column_280 Column_281 Column_282 Column_283 Column_284 Column_285 Column_286 Column_287 Column_288 Column_289 Column_290 Column_291 Column_292 Column_293 Column_294 Column_295 Column_296 Column_297 Column_298 Column_299 Column_300 Column_301 Column_302 Column_303 Column_304 Column_305 Column_306 Column_307 Column_308 Column_309 Column_310 Column_311 Column_312 Column_313 Column_314 Column_315 Column_316 Column_317 Column_318 Column_319 Column_320 Column_321 Column_322 Column_323 Column_324 Column_325 Column_326 Column_327 Column_328 Column_329 Column_330 Column_331 Column_332 Column_333 Column_334 Column_335 Column_336 Column_337 Column_338 Column_339 Column_340 Column_341 Column_342 Column_343 Column_344 Column_345 Column_346 Column_347 Column_348 Column_349 Column_350 Column_351 Column_352 Column_353 Column_354 Column_355 Column_356 Column_357 Column_358 Column_359 Column_360 Column_361 Column_362 Column_363 Column_364 Column_365 Column_366 Column_367 Column_368 Column_369 Column_370 Column_371 Column_372 Column_373 Column_374 Column_375 Column_376 Column_377 Column_378 Column_379 Column_380 Column_381 Column_382 Column_383 Column_384 Column_385 Column_386 Column_387 Column_388 Column_389 Column_390 Column_391 Column_392 Column_393 Column_394 Column_395 Column_396 Column_397 Column_398 Column_399 Column_400 Column_401 Column_402 Column_403 Column_404 Column_405 Column_406 Column_407 Column_408 Column_409 Column_410 Column_411 Column_412 Column_413 Column_414 Column_415 Column_416 Column_417 Column_418 Column_419 Column_420 Column_421 Column_422 Column_423 Column_424 Column_425 Column_426 Column_427 Column_428 Column_429 Column_430 Column_431 Column_432 Column_433 Column_434 Column_435 Column_436 Column_437 Column_438 Column_439 Column_440 Column_441 Column_442 Column_443 Column_444 Column_445 Column_446 Column_447 Column_448 Column_449 Column_450 Column_451 Column_452 Column_453 Column_454 Column_455 Column_456 Column_457 Column_458 Column_459 Column_460 Column_461 Column_462 Column_463 Column_464 Column_465 Column_466 Column_467 Column_468 Column_469 Column_470 Column_471 Column_472 Column_473 Column_474 Column_475 Column_476 Column_477 Column_478 Column_479 Column_480 Column_481 Column_482 Column_483 Column_484 Column_485 Column_486 Column_487 Column_488 Column_489 Column_490 Column_491 Column_492 Column_493 Column_494 Column_495 Column_496 Column_497 Column_498 Column_499 Column_500 Column_501 Column_502 Column_503 Column_504 Column_505 Column_506 Column_507 Column_508 Column_509 Column_510 Column_511 Column_512 Column_513 Column_514 Column_515 Column_516 Column_517 Column_518 Column_519 Column_520 Column_521 Column_522 Column_523 Column_524 Column_525 Column_526 Column_527 Column_528 Column_529 Column_530 Column_531 Column_532 Column_533 Column_534 Column_535 Column_536 Column_537 Column_538 Column_539
feature_infos=[-5.221592903137207:4.7174110412597656] [-0.86116659641265869:3.1393942832946777] [-18.460952758789062:7.3048324584960938] [-4.8164644241333008:4.0407133102416992] [-0.86116659641265869:2.9592044353485107] [-34.152454376220703:5.741854190826416] [-4.7341036796569824:4.4124517440795898] [-0.86116659641265869:3.8682053089141846] [-35.583099365234375:5.741854190826416] [-5.3507003784179688:4.7174110412597656] [-0.86116659641265869:3.1384341716766357] [-18.460952758789062:7.3048324584960938] [-4.7919788360595703:4.1119441986083984] [-0.86116659641265869:2.9501354694366455] [-34.152454376220703:5.741854190826416] [-5.036837100982666:4.1475601196289062] [-0.86116659641265869:3.8682053089141846] [-35.583099365234375:5.741854190826416] [-5.3507003784179688:4.7174110412597656] [-0.86116659641265869:3.1384341716766357] [-18.460952758789062:7.3048324584960938] [-5.0590968132019043:4.1119441986083984] [-0.86116659641265869:2.9410669803619385] [-34.152454376220703:5.741854190826416] [-5.036837100982666:4.6728916168212891] [-0.86116659641265869:3.8682053089141846] [-35.583099365234375:5.741854190826416] [-5.3507003784179688:4.3523502349853516] [-0.86116659641265869:3.137092113494873] [-18.460952758789062:7.3048324584960938] [-5.0590968132019043:6.838770866394043] [-0.86116659641265869:2.974003791809082] [-18.809013366699219:5.741854190826416] [-5.036837100982666:4.6728916168212891] [-0.86116659641265869:3.8682053089141846] [-35.583099365234375:5.741854190826416] [-6.0808219909667969:4.3011527061462402] [-0.86116659641265869:3.132115364074707] [-18.460952758789062:7.3048324584960938] [-5.0590968132019043:4.2276954650878906] [-0.86116659641265869:2.9862205982208252] [-18.809013366699219:5.741854190826416] [-4.8164644241333008:6.4113831520080566] [-0.86116659641265869:3.8682053089141846] [-35.583099365234375:5.741854190826416] [-6.0808219909667969:4.3011527061462402] [-0.86116659641265869:3.1265866756439209] [-22.298454284667969:7.3048324584960938] [-4.7830748558044434:4.2276954650878906] [-0.86116659641265869:2.9984374046325684] [-19.925205230712891:5.741854190826416] [-4.8164644241333008:6.838770866394043] [-0.86116659641265869:3.8682053089141846] [-35.583099365234375:5.741854190826416] [-5.1792998313903809:5.0357265472412109] [-0.86116659641265869:3.1210577487945557] [-22.298454284667969:7.3048324584960938] [-4.8209166526794434:4.7174110412597656] [-0.86116659641265869:3.0205032825469971] [-20.016422271728516:5.741854190826416] [-4.8164644241333008:6.4113831520080566] [-0.86116659641265869:3.8682053089141846] [-35.583099365234375:5.741854190826416] [-5.0234813690185547:6.0908412933349609] [-0.86116659641265869:3.0205976963043213] [-22.298454284667969:7.3048324584960938] [-5.0991640090942383:4.7174110412597656] [-0.86116659641265869:3.0573489665985107] [-20.016422271728516:7.3048324584960938] [-4.7341036796569824:4.490361213684082] [-0.86116659641265869:3.8682053089141846] [-35.583099365234375:5.741854190826416] [-5.5109705924987793:6.0908412933349609] [-0.86116659641265869:3.0146675109863281] [-18.460952758789062:7.3048324584960938] [-4.8209166526794434:5.7369108200073242] [-0.86116659641265869:3.0941884517669678] [-20.016422271728516:7.3048324584960938] [-4.9210858345031738:5.9528307914733887] [-0.86116659641265869:3.8682053089141846] [-35.583099365234375:5.741854190826416] [-5.5109705924987793:6.0908412933349609] [-0.86116659641265869:3.0054748058319092] [-18.460952758789062:7.3048324584960938] [-4.7118434906005859:5.7369108200073242] [-0.86116659641265869:3.121025562286377] [-20.099235534667969:7.3048324584960938] [-4.9210858345031738:5.9528307914733887] [-0.86116659641265869:3.8682053089141846] [-35.583099365234375:5.741854190826416] [-5.4619989395141602:6.0908412933349609] [-0.86116659641265869:2.9832098484039307] [-18.460952758789062:7.3048324584960938] [-7.3874721527099609:4.1809496879577637] [-0.86116659641265869:3.1245131492614746] [-20.099235534667969:7.3048324584960938] [-5.0947127342224121:4.4770054817199707] [-0.86116659641265869:3.8682053089141846] [-35.583099365234375:5.741854190826416] [-5.4619989395141602:5.7369108200073242] [-0.86116659641265869:2.9609482288360596] [-18.460952758789062:7.3048324584960938] [-7.3874721527099609:4.728541374206543] [-0.86116659641265869:3.1279976367950439] [-20.099235534667969:7.3048324584960938] [-5.0590968132019043:4.0251312255859375] [-0.86116659641265869:3.8682053089141846] [-35.583099365234375:5.741854190826416] [-5.4486432075500488:5.3518157005310059] [-0.86116659641265869:2.9386796951293945] [-18.460952758789062:7.3048324584960938] [-7.3874721527099609:4.728541374206543] [-0.86116659641265869:3.1333005428314209] [-20.204853057861328:7.3048324584960938] [-5.0590968132019043:4.7908682823181152] [-0.86116659641265869:3.8682053089141846] [-35.583099365234375:5.741854190826416] [-5.1592659950256348:4.5994343757629395] [-0.86116659641265869:2.9164180755615234] [-18.460952758789062:7.3048324584960938] [-4.7452335357666016:4.728541374206543] [-0.86116659641265869:3.1416802406311035] [-22.298454284667969:7.3048324584960938] [-4.892148494720459:4.7908682823181152] [-0.86116659641265869:3.8682053089141846] [-35.583099365234375:5.741854190826416] [-5.2304973602294922:4.1119441986083984] [-0.86116659641265869:2.8941531181335449] [-18.460952758789062:7.3048324584960938] [-4.9077296257019043:4.1876277923583984] [-0.86116659641265869:3.1500599384307861] [-22.298454284667969:5.8144493103027344] [-4.892148494720459:4.7908682823181152] [-0.86116659641265869:3.8682053089141846] [-35.583099365234375:5.741854190826416] [-5.2304973602294922:4.1119441986083984] [-0.86116659641265869:2.8706502914428711] [-18.460952758789062:7.3048324584960938] [-4.9077296257019043:5.017918586730957] [-0.86116659641265869:3.1573452949523926] [-22.298454284667969:5.8144493103027344] [-4.7318778038024902:4.6484060287475586] [-0.86116659641265869:3.8682053089141846] [-35.583099365234375:5.741854190826416] [-5.2861471176147461:4.1119441986083984] [-0.86116659641265869:2.8595669269561768] [-18.460952758789062:7.3048324584960938] [-4.778623104095459:5.017918586730957] [-0.86116659641265869:3.1644546985626221] [-20.323673248291016:5.8144493103027344] [-4.8743400573730469:4.6484060287475586] [-0.86116659641265869:3.8682053089141846] [-35.583099365234375:5.741854190826416] [-5.413027286529541:4.7908687591552734] [-0.86116659641265869:2.8595669269561768] [-18.460952758789062:7.3048324584960938] [-4.5627026557922363:4.8954892158508301] [-0.86116659641265869:3.1715610027313232] [-20.323673248291016:5.8144493103027344] [-4.8743400573730469:4.8954892158508301] [-0.86116659641265869:3.8682053089141846] [-35.583099365234375:5.741854190826416] [-5.413027286529541:4.7908687591552734] [-0.86116659641265869:2.8595669269561768] [-18.460952758789062:7.3048324584960938] [-4.6762275695800781:4.8954892158508301] [-0.86116659641265869:3.1782879829406738] [-20.434093475341797:7.3048324584960938] [-4.8743400573730469:4.8954892158508301] [-0.86116659641265869:3.8682053089141846] [-35.583099365234375:5.741854190826416] [-5.413027286529541:6.6562404632568359] [-0.86116659641265869:2.8595669269561768] [-18.460952758789062:7.3048324584960938] [-5.0947127342224121:4.8954892158508301] [-0.86116659641265869:3.1728832721710205] [-20.434093475341797:7.3048324584960938] [-4.9121818542480469:4.8954892158508301] [-0.86116659641265869:3.8682053089141846] [-35.583099365234375:5.741854190826416] [-5.3840899467468262:6.6562404632568359] [-0.86116659641265869:2.8595669269561768] [-18.514963150024414:7.3048324584960938] [-5.2304973602294922:4.5549149513244629] [-0.86116659641265869:3.1472647190093994] [-20.508506774902344:7.3048324584960938] [-4.9121818542480469:4.5571403503417969] [-0.86116659641265869:3.8682053089141846] [-35.583099365234375:5.741854190826416] [-5.3840899467468262:6.6562404632568359] [-0.86116659641265869:2.8595669269561768] [-18.514963150024414:7.3048324584960938] [-10.241179466247559:3.9182839393615723] [-0.86116659641265869:3.1208128929138184] [-20.508506774902344:7.3048324584960938] [-4.9121818542480469:4.5571403503417969] [-0.86116659641265869:3.8682053089141846] [-35.583099365234375:5.741854190826416] [-5.3840899467468262:4.0251312255859375] [-0.86116659641265869:2.8595669269561768] [-18.460952758789062:7.3048324584960938] [-10.241179466247559:4.5682706832885742] [-0.86116659641265869:3.0910208225250244] [-20.508506774902344:7.3048324584960938] [-5.2616605758666992:4.0407133102416992] [-0.86116659641265869:3.8682053089141846] [-35.583099365234375:5.741854190826416] [-5.4441909790039062:3.6667482852935791] [-0.86116659641265869:2.8732104301452637] [-26.082265853881836:7.3048324584960938] [-5.0702266693115234:4.5682706832885742] [-0.86116659641265869:3.0612318515777588] [-20.616523742675781:7.3048324584960938] [-5.2616605758666992:5.017918586730957] [-0.86116659641265869:3.8682053089141846] [-35.583099365234375:5.741854190826416] [-5.8092522621154785:3.9383177757263184] [-0.86116659641265869:3.0773282051086426] [-18.809013366699219:7.3048324584960938] [-4.9210858345031738:4.5682706832885742] [-0.86116659641265869:3.103809118270874] [-20.616523742675781:7.3048324584960938] [-6.025172233581543:5.0357265472412109] [-0.86116659641265869:3.8682053089141846] [-35.583099365234375:5.741854190826416] [-6.3345832824707031:4.5549149513244629] [-0.86116659641265869:3.0647847652435303] [-18.809013366699219:7.3048324584960938] [-4.9900913238525391:6.5271334648132324] [-0.86116659641265869:3.1059966087341309] [-17.893255233764648:7.3048324584960938] [-6.025172233581543:5.0357265472412109] [-0.86116659641265869:3.8682053089141846] [-35.583099365234375:5.741854190826416] [-6.3345832824707031:4.5549149513244629] [-0.86116659641265869:3.0522446632385254] [-18.809013366699219:7.3048324584960938] [-5.0034470558166504:6.5271334648132324] [-0.86116659641265869:3.1081850528717041] [-17.893255233764648:7.3048324584960938] [-6.025172233581543:5.0357265472412109] [-0.86116659641265869:3.8682053089141846] [-35.583099365234375:5.741854190826416] [-6.3345832824707031:5.0980539321899414] [-0.86116659641265869:3.0406453609466553] [-18.809013366699219:7.3048324584960938] [-5.1013903617858887:6.5271334648132324] [-0.86116659641265869:3.1071071624755859] [-17.893255233764648:7.3048324584960938] [-4.9077301025390625:4.5059432983398438] [-0.86116659641265869:3.8682053089141846] [-35.583099365234375:5.741854190826416] [-5.7580547332763672:5.0980539321899414] [-0.86116659641265869:3.0374646186828613] [-18.809013366699219:7.3048324584960938] [-5.1013903617858887:4.5571403503417969] [-0.86116659641265869:3.0984206199645996] [-17.893255233764648:7.3048324584960938] [-4.8120131492614746:4.5059432983398438] [-0.86116659641265869:3.8682053089141846] [-35.583099365234375:5.741854190826416] [-5.7580547332763672:5.0980539321899414] [-0.86116659641265869:3.0342874526977539] [-18.809013366699219:7.3048324584960938] [-5.1013903617858887:12.236774444580078] [-0.86116659641265869:3.0897307395935059] [-18.809013366699219:7.3048324584960938] [-4.8609843254089355:4.1030402183532715] [-0.86116659641265869:3.8682053089141846] [-35.583099365234375:5.741854190826416] [-5.7580547332763672:4.2121138572692871] [-0.86116659641265869:3.0340163707733154] [-18.809013366699219:7.3048324584960938] [-5.1013903617858887:12.236774444580078] [-0.86116659641265869:3.0810444355010986] [-18.809013366699219:7.3048324584960938] [-4.8609843254089355:3.8426008224487305] [-0.86116659641265869:3.8682053089141846] [-35.583099365234375:6.8505892753601074] [-5.0791306495666504:4.2855710983276367] [-0.86116659641265869:3.0354628562927246] [-18.809013366699219:7.3048324584960938] [-21.190780639648438:4.574948787689209] [-0.86116659641265869:3.072354793548584] [-20.812158584594727:7.3048324584960938] [-4.8609843254089355:3.8693125247955322] [-0.86116659641265869:3.8682053089141846] [-35.583099365234375:6.8505892753601074] [-5.0947127342224121:4.2855710983276367] [-0.86116659641265869:3.036909818649292] [-18.809013366699219:7.3048324584960938] [-21.190780639648438:4.574948787689209] [-0.86116659641265869:3.0636680126190186] [-20.951381683349609:7.3048324584960938] [-4.8721146583557129:4.385739803314209] [-0.86116659641265869:3.8682053089141846] [-35.583099365234375:6.8505892753601074] [-5.1459102630615234:4.2855710983276367] [-0.86116659641265869:3.0383560657501221] [-18.809013366699219:7.3048324584960938] [-5.3751864433288574:4.2811188697814941] [-0.86116659641265869:3.0631976127624512] [-20.951381683349609:7.3048324584960938] [-4.8854703903198242:4.385739803314209] [-0.86116659641265869:3.8682053089141846] [-35.583099365234375:6.8505892753601074] [-5.1459102630615234:4.2855710983276367] [-0.86116659641265869:3.0398027896881104] [-18.809013366699219:7.3048324584960938] [-4.7096176147460938:4.0941367149353027] [-0.86116659641265869:3.0767924785614014] [-20.951381683349609:7.3048324584960938] [-5.0947127342224121:4.385739803314209] [-0.86116659641265869:3.8682053089141846] [-35.583099365234375:6.8505892753601074] [-5.1459102630615234:4.2811188697814941] [-0.86116659641265869:3.0410864353179932] [-18.809013366699219:7.3048324584960938] [-4.769719123840332:4.3523502349853516] [-0.86116659641265869:3.0903871059417725] [-21.112209320068359:7.3048324584960938] [-5.0947127342224121:5.0134663581848145] [-0.86116659641265869:3.8682053089141846] [-35.583099365234375:6.8505892753601074] [-5.1459102630615234:5.5009565353393555] [-0.86116659641265869:3.0421280860900879] [-18.809013366699219:7.3048324584960938] [-5.7580547332763672:5.1759629249572754] [-0.86116659641265869:2.9379351139068604] [-21.112209320068359:7.3048324584960938] [-5.1214241981506348:5.8482098579406738] [-0.86116659641265869:3.8682053089141846] [-35.583099365234375:6.8505892753601074] [-5.1013903617858887:5.5009565353393555] [-0.86116659641265869:3.0431699752807617] [-18.809013366699219:7.3048324584960938] [-5.7580547332763672:5.1759629249572754] [-0.86116659641265869:2.9379088878631592] [-21.112209320068359:7.3048324584960938] [-4.6762275695800781:5.8482098579406738] [-0.86116659641265869:3.8682053089141846] [-35.583099365234375:6.8505892753601074] [-5.1013903617858887:4.728541374206543] [-0.86116659641265869:3.0432674884796143] [-18.809013366699219:7.3048324584960938] [-5.413027286529541:5.6011257171630859] [-0.86116659641265869:2.9378764629364014] [-21.112209320068359:7.3048324584960938] [-4.6762275695800781:5.8482098579406738] [-0.86116659641265869:3.8682053089141846] [-35.619106292724609:6.8505892753601074] [-5.1013903617858887:4.728541374206543] [-0.86116659641265869:3.0419549942016602] [-18.809013366699219:7.3048324584960938] [-5.3017282485961914:7.4687232971191406] [-0.86116659641265869:2.938784122467041] [-21.250232696533203:7.3048324584960938] [-4.7674932479858398:4.5549149513244629] [-0.86116659641265869:3.8682053089141846] [-35.619106292724609:6.8505892753601074] [-5.1013903617858887:4.728541374206543] [-0.86116659641265869:3.040642261505127] [-18.809013366699219:7.3048324584960938] [-5.0301589965820312:5.6011257171630859] [-0.86116659641265869:2.9388952255249023] [-21.286239624023438:7.3048324584960938] [-4.7341032028198242:4.5549149513244629] [-0.86116659641265869:3.8682053089141846] [-35.65631103515625:6.8505892753601074] [-4.9077296257019043:4.3145089149475098] [-0.86116659641265869:3.3209888935089111] [-18.809013366699219:7.3048324584960938] [-4.8876962661743164:4.5326547622680664] [-0.86116659641265869:2.9390032291412354] [-21.286239624023438:7.3048324584960938] [-4.9900913238525391:4.0295834541320801] [-0.86116659641265869:3.8682053089141846] [-35.65631103515625:6.8505892753601074] [-4.9077296257019043:4.3145089149475098] [-0.86116659641265869:3.3336007595062256] [-18.809013366699219:7.3048324584960938] [-4.8031091690063477:67.559074401855469] [-0.86116659641265869:2.944678783416748] [-21.286239624023438:5.8144493103027344] [-5.0501928329467773:4.7908687591552734] [-0.86116659641265869:3.8682053089141846] [-35.65631103515625:7.3048324584960938] [-4.9077296257019043:4.385739803314209] [-0.86116659641265869:3.34621262550354] [-18.809013366699219:7.3048324584960938] [-22.041105270385742:4.1186223030090332] [-0.86116659641265869:2.9543123245239258] [-21.286239624023438:5.8144493103027344] [-5.0501928329467773:4.7908687591552734] [-0.86116659641265869:3.8682053089141846] [-35.65631103515625:7.3048324584960938] [-5.1481356620788574:4.385739803314209] [-0.86116659641265869:3.0747711658477783] [-18.809013366699219:7.3048324584960938] [-22.041105270385742:4.3011527061462402] [-0.86116659641265869:2.9639458656311035] [-21.286239624023438:7.3048324584960938] [-5.535456657409668:4.7908687591552734] [-0.86116659641265869:3.8682053089141846] [-35.65631103515625:7.3048324584960938] [-5.1481356620788574:7.4687232971191406] [-0.86116659641265869:3.066401481628418] [-18.809013366699219:7.3048324584960938] [-5.7335686683654785:4.8999414443969727] [-0.86116659641265869:2.9538977146148682] [-21.336648941040039:7.3048324584960938] [-5.0501928329467773:4.316734790802002] [-0.86116659641265869:3.8682053089141846] [-18.728599548339844:6.8505892753601074] [-5.535456657409668:4.2811188697814941] [-0.86116659641265869:3.0580317974090576] [-18.809013366699219:7.3048324584960938] [-5.7335686683654785:4.7619309425354004] [-0.86116659641265869:2.9203042984008789] [-21.371454238891602:7.3048324584960938] [-5.0501928329467773:3.9561254978179932] [-0.86116659641265869:3.8682053089141846] [-18.667388916015625:6.8505892753601074] [-5.036837100982666:4.9578170776367188] [-0.86116659641265869:3.0425913333892822] [-18.809013366699219:7.3048324584960938] [-5.7335686683654785:4.7619309425354004] [-0.86116659641265869:2.8867108821868896] [-21.371454238891602:7.3048324584960938] [-5.4486432075500488:3.9605777263641357] [-0.86116659641265869:3.8682053089141846] [-18.675790786743164:6.8505892753601074] [-5.036837100982666:4.9578170776367188] [-0.86116659641265869:3.0165584087371826] [-18.781408309936523:7.3048324584960938] [-5.2727909088134766:37.129920959472656] [-0.86116659641265869:2.6521937847137451] [-21.371454238891602:7.3048324584960938] [-5.4486432075500488:4.5326547622680664] [-0.86116659641265869:3.8682053089141846] [-18.628982543945312:6.8505892753601074] [-5.0902605056762695:4.3723845481872559] [-0.86116659641265869:2.9905250072479248] [-18.809013366699219:7.3048324584960938] [-5.2727909088134766:3.8715384006500244] [-0.86116659641265869:2.879366397857666] [-21.371454238891602:7.3048324584960938] [-5.4486432075500488:4.5326547622680664] [-0.86116659641265869:3.8682053089141846] [-18.628982543945312:6.8505892753601074] [-5.0902605056762695:4.2544069290161133] [-0.86116659641265869:2.9710385799407959] [-18.809013366699219:7.3048324584960938] [-5.2304973602294922:5.0980539321899414] [-0.86116659641265869:2.8730342388153076] [-21.371454238891602:7.3048324584960938] [-5.1971073150634766:4.5326547622680664] [-0.86116659641265869:3.8682053089141846] [-18.628982543945312:6.8505892753601074] [-5.0902605056762695:4.2544069290161133] [-0.86116659641265869:2.9668424129486084] [-18.770606994628906:7.3048324584960938] [-5.4486432075500488:5.0980539321899414] [-0.86116659641265869:2.8667056560516357] [-21.370254516601562:7.3048324584960938] [-5.2349491119384766:4.5126214027404785] [-0.86116659641265869:3.8682053089141846] [-18.667388916015625:6.8505892753601074] [-5.123650074005127:5.1759634017944336] [-0.86116659641265869:2.9673910140991211] [-18.781408309936523:7.3048324584960938] [-5.4486432075500488:5.0980539321899414] [-0.86116659641265869:2.8702816963195801] [-21.370254516601562:7.3048324584960938] [-5.2349491119384766:4.7841906547546387] [-0.86116659641265869:3.8682053089141846] [-18.667388916015625:7.3048324584960938] [-5.123650074005127:5.1759634017944336] [-0.86116659641265869:2.9727141857147217] [-18.781408309936523:7.3048324584960938] [-5.5109705924987793:4.6484060287475586] [-0.86116659641265869:2.8801565170288086] [-21.370254516601562:7.3048324584960938] [-5.2349491119384766:4.7841906547546387] [-0.86116659641265869:3.8682053089141846] [-18.667388916015625:7.3048324584960938] [-5.123650074005127:5.1759634017944336] [-0.86116659641265869:2.9780368804931641] [-18.628982543945312:7.3048324584960938] [-5.5109705924987793:4.6484060287475586] [-0.86116659641265869:2.8900284767150879] [-21.396657943725586:7.3048324584960938] [-5.7335686683654785:4.7841906547546387] [-0.86116659641265869:3.8682053089141846] [-18.634983062744141:7.3048324584960938] [-5.8137040138244629:5.017918586730957] [-0.86116659641265869:2.9808814525604248] [-18.628982543945312:7.3048324584960938] [-4.9077301025390625:4.241051197052002] [-0.86116659641265869:2.8974514007568359] [-21.396657943725586:7.3048324584960938] [-4.9077301025390625:4.5393328666687012] [-0.86116659641265869:3.8682053089141846] [-18.634983062744141:7.3048324584960938] [-5.8137040138244629:5.017918586730957] [-0.86116659641265869:2.9550895690917969] [-18.628982543945312:7.3048324584960938] [-4.9077301025390625:4.5549149513244629] [-0.86116659641265869:2.8972551822662354] [-21.396657943725586:7.3048324584960938] [-5.0657744407653809:4.7619309425354004] [-0.86116659641265869:3.8682053089141846] [-18.634983062744141:7.3048324584960938] [-5.8137040138244629:5.2360649108886719] [-0.86116659641265869:2.9443359375] [-18.667388916015625:7.3048324584960938] [-6.025172233581543:4.5549149513244629] [-0.86116659641265869:2.9019415378570557] [-21.480672836303711:7.3048324584960938] [-5.0657744407653809:4.7619309425354004] [-0.86116659641265869:3.8682053089141846] [-18.628982543945312:7.3048324584960938] [-5.161491870880127:5.2360649108886719] [-0.86116659641265869:2.933582067489624] [-18.667388916015625:7.3048324584960938] [-6.025172233581543:4.6127901077270508] [-0.86116659641265869:2.9306690692901611] [-21.480672836303711:7.3048324584960938] [-5.0657744407653809:4.7619309425354004] [-0.86116659641265869:3.8682053089141846] [-18.628982543945312:7.3048324584960938] [-4.9656052589416504:5.2360649108886719] [-0.86116659641265869:2.9230015277862549] [-18.667388916015625:7.3048324584960938] [-6.025172233581543:4.6127901077270508] [-0.86116659641265869:2.9594001770019531] [-21.480672836303711:7.3048324584960938] [-4.9923171997070312:4.2811188697814941] [-0.86116659641265869:3.8682053089141846] [-18.628982543945312:7.3048324584960938]
tree_sizes=6759 6826 6830 6852

Tree=0
num_leaves=63
num_cat=0
split_feature=532 343 532 1 478 523 534 190 442 442 534 244 306 532 307 217 426 449 16 103 474 352 79 330 27 379 459 478 468 4 270 144 32 258 85 505 15 237 57 91 426 117 422 209 237 351 332 360 196 440 189 33 399 6 135 450 330 39 514 222 385 207
split_gain=71712.5 6138.04 3305.51 1538.81 1327.35 1170.56 923.386 768.866 727.261 686.083 678.404 566.921 548.261 480.675 461.994 449.556 437.633 506.613 401.649 385.999 542.98 379.698 374.381 369.652 349.881 349.296 403.151 347.874 346.05 339.109 450.389 338.343 443.481 337.127 331.133 344.121 338.182 331.757 325.241 433.682 323.365 444.594 321.151 319.453 490.748 316.881 315.454 315.06 311.567 306.313 457.246 306.038 302.721 297.146 293.443 290.862 385.348 296.302 330.23 289.725 353.591 312.335
threshold=-0.65618216991424549 -0.45779100060462946 -0.80584377050399769 -0.7813189923763274 -0.77285781502723683 -0.61921539902687062 -0.19532851129770276 -0.70402348041534413 -0.83092534542083729 -0.82863289117813099 0.25431962311267858 -0.85581588745117176 1.564309358596802 -0.70694455504417408 -0.7475280463695525 -0.53003135323524464 0.80302390456199657 0.082600280642509474 -0.53168866038322438 -0.39165735244750971 -0.34113027155399317 -0.84968632459640492 -0.62178379297256459 -0.43907341361045832 0.086258042603731169 0.16967454552650454 0.2487546503543854 -0.83781909942626942 1.4841740131378176 -0.46444632112979883 -0.81971615552902211 -0.11408020183444022 0.36641635000705725 -0.70953008532524098 -0.66372245550155629 -0.72246605157852162 0.94548663496971141 0.95661658048629772 -0.62716880440711964 -0.67437165975570668 1.9850196838378908 1.2504460811614992 -0.088469617068767534 -0.15392920374870298 -0.66723647713661183 -0.73846790194511402 -0.14647673070430753 1.1335821151733401 -0.20411947369575498 0.30206622183322912 0.46244882047176367 -0.11853216215968131 -0.54146853089332569 1.7512916922569277 -0.65054163336753834 -0.24096109718084333 0.52700224518775951 0.17529729753732684 -0.71819785237312306 0.67836895585060131 -0.31939251720905298 -0.060656661167740815
decision_type=2 2 2 2 2 2 2 2 2 2 2 2 2 2 2 2 2 2 2 2 2 2 2 2 2 2 2 2 2 2 2 2 2 2 2 2 2 2 2 2 2 2 2 2 2 2 2 2 2 2 2 2 2 2 2 2 2 2 2 2 2 2
left_child=2 4 8 31 55 42 7 29 52 -7 11 -6 19 -8 33 25 17 18 -16 20 -13 -9 28 47 51 26 -11 -24 48 -4 -31 46 -33 -12 -23 36 43 -37 -25 -40 -29 45 -5 44 -36 -42 -3 -22 -17 -15 -51 -18 -1 -19 -14 56 57 58 -2 -21 61 -61
right_child=1 3 6 5 10 9 13 21 -10 15 14 12 54 49 16 22 24 53 -20 59 23 34 27 38 -26 -27 -28 40 -30 30 -32 32 -34 -35 35 37 -38 -39 39 -41 41 -43 -44 -45 -46 -47 -48 -49 -50 50 -52 -53 -54 -55 -56 -57 -58 -59 -60 60 -62 -63
leaf_value=-1.8888158437547178 -2.100836590088162 -2.2003751392460771 -2.020857355495425 -2.5716870974533381 -2.0034845530909218 -2.0952839547589317 -2.0132514365735128 -1.9448922642331039 -1.9917866348373634 -2.2321454362389934 -2.3822903971363223 -2.4529737530751907 -2.5716870974533377 -2.0819129842292678 -2.5202115698623131 -2.4625177181767253 -2.5716870974533381 -2.4970210809735596 -2.2033255771537084 -2.4848130160767452 -2.5305821220439837 -2.119358110034832 -2.0837763078715792 -2.0317557644561246 -2.0757906322923008 -2.5716870974533381 -2.5063498397654196 -2.5034191578432079 -2.2595049252841264 -2.3679637003853395 -2.0909834622191803 -2.1392666128290188 -2.5716870974533381 -2.1051546753388037 -2.0721405793933183 -2.4989371537449512 -2.5033663915570346 -2.203756923003735 -2.074774005167316 -2.5157186788513903 -2.2479801273548148 -2.1062612810685324 -2.0979376949028024 -2.1246390643200312 -2.5716870974533381 -2.5716870974533381 -2.4932137930466531 -2.1228101839964011 -2.118275954904274 -2.4780754824258673 -2.074774005167316 -2.1916423048938602 -1.965386785888195 -2.1028856034432022 -2.0999684791950988 -2.0382144724189608 -2.5716870974533381 -2.0373071780201304 -2.5716870974533381 -2.1072168495879433 -2.4611284437969219 -2.5716870974533381
leaf_weight=369.51248520612717 7.9002665877342197 15.027166977524756 132.81225916743279 4.1436092555522945 10.91114594042301 11.712279573082922 459.62192358076572 12.85853476077318 697.0560152605176 45.647865884006023 13.093661874532698 47.00201839953661 3.7983084842562702 126.58367843180895 12.044055059552191 170.37032525986433 8.2872185111045855 49.819780223071575 58.907057069242001 114.18348556011915 15.082701846957209 52.083806298673153 5.0826839804649344 25.261415876448154 33.755635634064674 16.298196405172348 18.977658703923225 1162.4297405853868 27.803116299211979 18.259289726614952 74.80388018488884 51.614268936216831 6.698834963142871 67.773807384073734 8.687516503036024 25.565961576998234 9.0744684264063817 15.165287286043165 11.228858493268492 11.077212899923323 11.491394609212874 11.988520190119742 26.17308159917593 61.019975200295448 11.325865298509596 22.099249362945557 23.701337411999702 6.9058362096548072 6.8367760553956023 13.245665900409223 14.971811324357985 14.681866206228731 198.37524553388357 5.289864443242549 24.971470758318901 56.945246882736683 6.2844740375876418 23.203494966030121 7.0441357344388971 18.68717593699694 28.038243412971497 4.4889100268483153
leaf_count=711 46 115 578 60 44 67 1936 38 2661 376 144 578 55 693 163 2125 120 653 454 1471 207 321 28 115 181 236 252 15373 243 196 422 337 97 400 46 336 120 117 60 149 98 71 151 382 164 320 309 43 42 169 80 110 661 31 145 266 91 108 102 111 349 65
internal_value=-2.20968 -2.40554 -2.0118 -2.45815 -2.28006 -2.47031 -2.07802 -2.135 -1.95757 -2.47648 -2.30899 -2.35773 -2.37017 -2.03892 -2.24953 -2.47946 -2.29356 -2.34546 -2.25712 -2.39138 -2.32169 -2.20752 -2.486 -2.23298 -2.17822 -2.36483 -2.31267 -2.49656 -2.42351 -2.07214 -2.14533 -2.26503 -2.18894 -2.15003 -2.22598 -2.26843 -2.21391 -2.38903 -2.15461 -2.29375 -2.4983 -2.36766 -2.16269 -2.18149 -2.35484 -2.46095 -2.37959 -2.40252 -2.44924 -2.11512 -2.26409 -2.32876 -1.91556 -2.45919 -2.16225 -2.11303 -2.2089 -2.14914 -2.32277 -2.44049 -2.34168 -2.19718
internal_weight=4625.79 2324.76 2301.02 1638.1 686.667 1541.05 1036.08 421.657 1264.94 1510.74 585.29 321.637 310.726 614.423 263.653 1499.03 182.785 126.061 70.9511 281.956 116.558 195.781 1418.1 69.556 56.7247 80.9237 64.6255 1213.09 205.01 225.875 93.0632 97.0416 58.3131 80.8675 182.923 130.839 90.1078 40.7312 47.5675 22.3061 1208.01 45.5792 30.3167 81.0334 20.0134 33.5906 38.7285 21.9885 177.207 154.801 28.2175 22.9691 567.888 55.1096 28.7698 101.378 44.4324 38.1479 14.9444 165.398 51.2143 23.1761
internal_count=36192 26561 9631 20300 6261 19442 5598 2720 4033 19231 5648 3392 3348 2878 2256 19164 1712 1301 617 3148 1152 1524 18300 574 411 864 628 15890 2410 1196 618 858 434 544 1486 1165 712 453 324 209 15862 489 211 592 210 418 424 250 2167 942 249 230 1372 684 200 613 347 256 148 1996 525 176
is_linear=0
shrinkage=1


Tree=1
num_leaves=63
num_cat=0
split_feature=532 343 532 1 478 505 415 217 343 477 442 451 534 471 245 237 112 498 57 531 363 442 129 417 240 130 420 471 459 504 95 187 426 253 294 465 532 154 108 3 7 183 534 437 487 105 135 78 388 312 106 336 321 222 118 486 134 147 306 471 486 117
split_gain=28573.5 3199.47 1285.01 1002 650.931 546.09 451.58 407.558 372.667 313.537 343.765 291.351 289.421 273.911 270.189 283.439 269.327 347.634 269.161 282.033 268.566 301.138 262.705 256.791 252.017 287.178 257.639 247.688 257.997 288.866 250.334 246.85 332.283 323.931 243.201 243.018 242.477 250.703 246.703 251.278 246.757 254.795 245.614 237.979 235.793 232.395 265.056 320.87 259.885 229.694 338.389 253.819 230.064 282.136 222.922 218.055 223.423 217.527 206.009 205.919 215.305 205.038
threshold=-0.62474569678306568 -0.45779100060462946 -0.76903048157691944 -0.7813189923763274 -0.70999139547348011 -0.81833961606025685 -0.74597519636154164 -0.53003135323524464 -0.73698168992996205 1.422959625720978 -0.83737006783485401 -0.81940099596977223 -0.19532851129770276 0.40679930150508886 -0.67883986234664906 1.0100400447845461 -0.7021195888519286 0.86757731437683117 1.1246781349182131 -0.41347461938858027 0.45131893455982214 -0.58401364088058461 1.9738897681236269 -0.30551455914974207 -0.098498351871967302 -0.023161806166172024 2.1541943550109868 2.0584770441055302 0.2487546503543854 0.7496003806591035 -1.0580075383186338 -0.15097971260547635 1.8514608740806582 -0.75131285190582264 0.86757731437683117 1.0278480052948 -0.52051207423210133 0.16002462804317477 2.5248199701309209 2.4524759054183964 -0.5912584364414214 2.1163525581359868 2.1018837690353398 0.58066251873970043 -0.60393390059471119 -0.70396512746810902 -0.27101185917854304 -0.7807614505290984 -0.29135881364345545 0.19867009669542315 -0.7272910177707671 -0.16527776420116422 -0.26655989885330195 1.0000000180025095e-35 -0.20617843419313428 1.6711564660072329 0.48452508449554449 1.0011362433433535 0.91432294249534618 1.063463628292084 0.84309160709381115 0.56039199233055126
decision_type=2 2 2 2 2 2 2 2 2 2 2 2 2 2 2 2 2 2 2 2 2 2 2 2 2 2 2 2 2 2 2 2 2 2 2 2 2 2 2 2 2 2 2 2 2 2 2 2 2 2 2 2 2 2 2 2 2 2 2 2 2 2
left_child=2 4 11 13 -2 -5 -4 27 14 10 -9 -1 31 61 58 34 -10 18 20 -20 -18 23 24 -22 26 49 -11 28 29 30 -7 59 33 -33 -16 -36 37 42 39 40 41 45 -12 -35 -17 46 47 -38 -48 51 -51 -26 53 -53 -32 56 -47 -19 -6 60 -8 -3
right_child=1 3 6 5 8 7 12 9 16 22 36 -13 -14 -15 15 44 17 57 19 -21 21 -23 -24 -25 25 -27 -28 -29 -30 -31 54 32 -34 43 35 -37 38 -39 -40 -41 -42 -43 -44 -45 -46 55 48 -49 -50 50 -52 52 -54 -55 -56 -57 -58 -59 -60 -61 -62 -63
leaf_value=0.34707110356750759 0.26679394039619764 0.27158578245124593 0.30555095068346305 0.33014629454850519 -0.023631972868938911 0.34570542218440176 0.22053911448437891 0.31264927050853186 0.2102280015222546 -0.010919884888282333 0.043262089173496873 0.31289081699109234 0.26457644882951364 0.063907721451678029 0.28346288648860579 0.29345866476800547 0.00086606706275853978 0.12997050303910074 0.29209206464092025 0.050739667257781423 -0.054609916958967802 -0.0024542228951265673 0.39440433847758188 0.30128074071955685 0.070890867170697716 -0.0078866215594195262 0.39491841225068464 0.44053673963516504 -0.027692339851640952 0.30327852409983203 -0.032939619909806914 0.2409094572597891 0.33207899398714802 -0.039751091074335894 -0.054853698623515447 0.33053542748395104 0.0038006497580525852 0.40771850776883334 0.23138537454628524 0.26663886028437234 0.00087114334766611877 0.40078173769288139 0.39822040206374176 0.19444047007409279 -0.02094334853595689 -0.023714106913823207 0.28761623179663326 0.33749304603202812 -0.054305275684139745 0.39502939405305298 -0.054168936915526135 0.39057490768014502 0.42386223047237731 -0.054237706863111385 0.27288625471470485 0.34675878023472717 0.24743559883397601 0.30740616899954926 0.2890367463237018 0.33211144220625649 -0.055415502156920454 0.068527549726804304
leaf_weight=1237.6250499486923 155.52581384032965 72.041973501443863 435.13113439828157 16.065611824393272 19.711049735546116 7.7287157922983161 100.95884969085455 10.086326383054255 70.027405835688114 71.543154947459698 44.455999553203583 1256.3368455991149 448.25541399419308 31.213100932538509 124.33987894654274 8.8752266243100184 122.59937196224928 46.921551570296288 24.987628310918808 23.476440213620663 6.2912767529487601 23.699890293180943 6.9080230593681327 26.07992846518755 14.859583921730517 26.734620779752731 4.136743761599063 6.2575770467519751 23.419167280197144 24.203758209943771 28.13000804185867 25.047314614057541 17.574872724711895 39.927445523440838 11.250826202332975 6.4273573309183112 10.675321020185946 6.7085785493254653 13.020379371941088 9.6540978848934156 1014.3882844075561 5.445282630622386 5.4734958782792082 14.894179902970789 18.177176244556904 101.32531240582466 7.2441986575722721 22.154811650514603 23.866429425776005 5.5090599656105068 17.544426403939724 6.9676797837018913 20.735315516591076 7.2995408102869987 7.559997625648978 4.6345992833375922 8.2128984555602056 27.336370132863522 7.1897286921739569 41.546718262135983 7.6004856452345839 15.024459354579447
leaf_count=2094 719 397 1498 63 231 32 599 35 482 941 532 3523 1918 302 634 40 1460 423 138 251 83 283 38 140 172 349 20 22 322 120 337 124 62 465 143 31 136 35 112 74 13393 26 24 108 213 1337 48 146 328 20 248 39 95 102 45 27 64 132 32 152 89 144
internal_value=0.220939 0.0880535 0.309806 0.0506086 0.176172 0.0401193 0.265598 0.0371456 0.151332 0.0305841 0.0218947 0.329853 0.240612 0.190988 0.207118 0.230536 0.121898 0.101374 0.0706705 0.175179 0.0423228 0.132968 0.0919667 0.232114 0.0800506 0.132291 0.0112637 0.136249 0.115334 0.164868 0.0877107 0.197219 0.13525 0.0919382 0.258791 0.0852644 0.0195987 0.120734 0.0149059 0.0125718 0.0105243 0.0638701 0.0821742 0.0238751 0.0822042 0.0535701 0.129888 0.228987 0.0253121 0.183688 0.0531754 0.244029 0.317531 0.162995 0.0318416 0.0108293 -0.00338399 0.195289 0.0599345 0.237448 0.201219 0.236545
internal_weight=6049.04 2424.15 3624.9 1701.23 722.917 1582.95 1130.94 1566.88 567.391 1469.58 1287.35 2493.96 695.805 118.28 195.971 169.07 371.42 301.392 227.135 48.4641 178.67 56.0711 182.238 32.3712 175.33 99.6502 75.6799 97.2992 91.0416 67.6225 43.4187 247.55 97.4438 79.8689 142.018 17.6782 1277.26 56.6381 1220.62 1207.6 1197.95 183.559 49.9295 54.8216 27.0524 178.114 63.9408 32.8301 31.1106 72.9156 23.0535 49.8621 35.0025 14.2672 35.69 114.173 109.538 74.2579 26.9008 150.106 108.559 87.0664
internal_count=36192 25560 10632 20125 5435 19282 5015 19219 4716 18341 16317 5617 3517 843 1324 1061 3392 2910 2355 389 1966 506 2024 223 1986 1025 961 878 856 534 414 1599 759 697 808 174 16282 591 15691 15579 15505 2112 556 573 253 2086 658 282 376 676 268 408 236 141 382 1428 1401 555 263 840 688 541
is_linear=0
shrinkage=0.05


Tree=2
num_leaves=63
num_cat=0
split_feature=532 352 532 442 1 505 271 73 426 183 477 180 487 68 536 96 485 196 495 229 117 456 207 87 244 228 3 94 321 533 292 6 516 144 421 8 399 405 7 489 537 450 78 430 135 234 136 478 164 47 324 531 277 198 54 513 244 359 189 288 43 39
split_gain=16209.4 2067.66 904.228 863.505 585.273 343.081 292.701 263.039 267.906 297.06 288.243 264.2 240.641 252.69 258.324 231.69 218.927 216.525 233.863 215.872 213.797 213.079 219.229 217.952 209.433 211.79 236.837 206.838 205.432 205.219 203.307 199.331 195.585 207.445 229.551 192.312 197.266 180.033 178.147 213.717 225.762 260.14 212.419 232.792 227.877 325.174 199.785 188.146 187.886 178.784 227.289 178.384 238.842 176.846 176.026 173.617 170.014 167.937 167.864 164.73 163.268 162.642
threshold=-0.60075321793556202 -0.59595438838005055 -0.70694455504417408 -0.6087098717689513 -0.7813189923763274 -0.81833961606025685 -0.82003614306449879 -0.81204032897949208 1.9850196838378908 -0.13077507168054578 1.1525028944015505 1.7201279997825625 -0.82276293635368336 0.49995253980159765 0.37843181192874914 0.92322686314582836 -0.018961427733302113 -0.18544501811265943 -0.34113027155399317 -0.85258460044860829 1.6132808923721316 -0.66834944486618031 0.25098068267107015 -0.28325474262237543 -0.83364233374595631 1.7913594245910647 1.0367519259452822 0.10596235096454622 -0.85310581326484669 -1.3166994452476499 0.95092126727104198 -1.1335794329643247 2.4357808828353886 2.0451211929321294 -0.71949273347854603 -0.48116491734981531 0.34447184205055242 0.29327426850795751 -0.30070501565933222 0.48693463206291204 -0.76517960429191578 -0.57485824823379505 -0.7807614505290984 -0.69202071428298939 -0.30551455914974207 0.1686193645000458 0.10673952847719194 -0.83410769701004017 -1.1371569633483884 0.57359066605567943 0.099613968282938017 1.5064337849617007 -0.70991957187652577 0.44018903374671942 2.0039404630661015 -0.22092729061841962 -0.48416088521480555 -0.12253595888614653 1.7256929874420168 0.34892380237579351 -0.84278446435928334 -0.34558223187923426
decision_type=2 2 2 2 2 2 2 2 2 2 2 2 2 2 2 2 2 2 2 2 2 2 2 2 2 2 2 2 2 2 2 2 2 2 2 2 2 2 2 2 2 2 2 2 2 2 2 2 2 2 2 2 2 2 2 2 2 2 2 2 2 2
left_child=2 12 6 59 15 -6 -1 27 10 -10 24 19 -2 14 21 16 28 -4 30 -12 -15 35 29 57 37 38 54 -7 -5 -23 -19 -13 33 34 55 36 -14 -9 39 40 -26 60 48 56 49 -46 -47 -40 -43 50 -45 -49 -53 -11 -27 -21 -44 -24 -54 -3 -42 -36
right_child=1 3 17 4 5 7 -8 8 9 53 11 31 13 20 -16 -17 -18 18 -20 32 -22 22 23 -25 25 26 -28 -29 -30 -31 -32 -33 -34 -35 61 -37 -38 -39 47 -41 41 42 43 44 45 46 -48 51 -50 -51 -52 52 58 -55 -56 -57 -58 -59 -60 -61 -62 -63
leaf_value=0.26055249221676019 0.23333845160135841 0.23133865493337377 0.20389047657216139 -0.0079597977293294816 0.27422349683224528 0.2447227356881356 0.23145026656374076 0.008710867934168063 -0.026930584157502348 0.24062246749305258 0.3489947098831323 0.35378363821773762 0.010520662174896788 -0.020234926265129051 0.23600499256574878 0.23922281035458148 0.021597111540227025 0.06436206087853083 0.17833803890026823 0.23944982725822839 0.27441222379676949 -0.05538466404700168 0.25393871089020753 -0.056013534155330516 -0.022794129572321336 0.0081433895750695033 0.25905625607912736 -0.054455798061177979 0.22055608452536246 0.21049293578966438 0.32587607564194343 0.095324632380477947 0.31532610827481716 0.23813778201088925 0.059127331052796911 0.013792014844355736 0.30931607598198063 0.29759991352479342 0.295992661432042 -0.02000992041322483 0.23846647103539276 0.25975826721931194 0.2811717013360292 0.050830242217498739 -0.054334923827528872 0.29290259591062234 -0.054147135406053738 -0.011455361961824168 -0.054319007294424085 0.49252417958108857 0.32074757455025993 0.37084074567661096 0.015180349969137603 0.0063981715632428051 0.3273670887079147 -0.0017229235470152524 -0.027734374432208938 0.0025939095592608184 0.22168819510542295 0.078358947856442818 -0.030498297266243108 -0.031393009022223937
leaf_weight=1280.7197433561087 102.0746690556407 75.252911284565926 405.45888417959213 12.799820028245447 14.932493463158606 24.757356189191341 2655.3261464387178 9.6315101906657237 22.177875965833664 39.690211459994316 6.1282079964876166 13.628673650324346 9.3415284380316752 34.861301355063915 86.7450280636549 41.896461009979248 47.926332525908947 91.998080968856812 210.35478126257658 20.983380623161793 7.4769764915108672 7.6716323643922797 17.93364337831736 19.541956081986427 58.527437046170235 39.587560668587685 17.743314869701862 7.5354718863964072 42.460553072392941 134.48173411935568 8.0850937813520414 16.481095544993877 6.6923601254820815 12.698261730372904 92.39076341688633 53.189976155757904 13.516512542963026 12.254988968372343 5.2696808129549018 107.46610028296709 6.336398944258689 5.9116186425089863 5.5181417539715794 11.778777472674845 17.068482846021652 21.351481065154079 5.1463830322027198 796.51403682678938 24.479369424283504 7.9343802928924552 23.085166983306408 5.8200609534978858 80.249714784324169 10.111991688609121 4.8471840992569915 11.580840371549128 23.101977445185184 10.55856693536043 11.216046914458273 22.96818732470274 51.502807438373566 107.19838383793831
leaf_count=1775 308 331 1697 119 38 143 6140 101 274 213 26 57 93 371 372 184 451 700 1018 117 25 91 67 215 746 491 110 103 193 664 17 159 35 95 993 510 31 46 16 1359 44 42 27 137 236 117 73 10492 339 28 120 26 1007 120 18 130 296 103 93 180 666 1404
internal_value=0.176336 0.0736565 0.231518 0.0509951 0.0435388 0.035579 0.24092 0.0335361 0.0308696 0.125282 0.0267261 0.0721645 0.164897 0.147225 0.161069 0.140062 0.0998008 0.17983 0.148404 0.0557878 0.0318 0.136654 0.164939 0.0725904 0.0170567 0.0145331 0.10463 0.17491 0.167626 0.196144 0.0854881 0.212312 0.0486446 0.0413556 0.0305921 0.0659156 0.187206 0.17047 0.010116 0.0393584 0.0637338 0.0886545 0.124337 0.15541 0.196364 0.115865 0.225499 -0.00189259 0.00677493 0.278308 0.229556 -0.00364887 0.0602657 0.193065 0.0429661 0.153681 0.0318247 0.160796 0.0405035 0.195566 -0.00103268 0.0105093
internal_weight=7151.97 2500.03 4651.94 2002.63 1904.41 1759.33 3936.05 1744.4 1712.1 71.9801 1640.12 287.782 497.394 395.319 352.981 145.083 103.187 715.897 310.438 257.672 42.3383 266.236 190.188 48.0342 1352.34 1330.46 62.1781 32.2928 55.2604 142.153 100.083 30.1098 251.544 244.852 232.153 76.048 22.858 21.8865 1268.28 369.209 261.742 203.215 145.376 114.985 86.3647 43.5663 26.4979 899.07 30.391 42.7983 34.8639 893.8 97.2858 49.8022 44.4347 32.5642 28.6201 28.4922 91.4658 98.2211 57.8392 199.589
internal_count=36192 24845 11347 21995 21484 20537 7915 20499 20253 607 19646 3016 2850 2542 2146 947 763 3432 1735 2800 396 1774 1140 385 16630 16483 619 246 312 755 717 216 2774 2739 2644 634 124 147 15864 4230 2871 2125 1415 1034 711 426 190 11634 381 285 257 11618 1126 333 509 247 323 170 1100 511 710 2397
is_linear=0
shrinkage=0.05


Tree=3
num_leaves=63
num_cat=0
split_feature=532 352 532 1 343 415 496 127 534 217 537 444 291 411 165 525 531 526 496 181 495 192 531 246 437 390 437 528 55 195 423 478 433 136 84 477 6 258 426 168 324 462 408 297 234 18 51 4 54 18 66 426 73 42 525 98 531 8 150 468 291 21
split_gain=10685.2 1711.43 447.866 435.699 335.534 300.333 243.949 251.948 210 199.594 211.675 250.804 215.501 217.001 237.079 202.629 198.345 191.839 185.772 208.322 257.67 205.949 198.93 185.281 182.398 180.816 179.131 178.685 224.473 213.712 174.517 173.174 167.806 200.32 163.963 162.123 189.13 179.87 178.136 192.776 240.898 211.764 175.43 158.268 205.963 159.514 157.304 160.061 245.832 182.607 231.14 231.722 193.768 207.456 211.042 198.105 166.737 156.597 236.066 205.062 206.299 220.215
threshold=-0.62474569678306568 -0.37783399224281305 -0.76903048157691944 -0.78512018918991078 -0.73366221785545338 -0.78655216097831715 -0.81386414170265187 -0.81324365735054005 0.60045960545539867 -0.80902612209320057 -0.61047396063804615 0.87648123502731334 0.27101449668407446 0.58821675181388866 0.49138659238815313 -0.49249696731567377 -0.23428321629762647 0.80310145020484935 -0.66031804680824269 -0.50515881180763234 0.99445828795433056 -0.58598819375038136 -0.13634004443883893 -0.36339005827903742 -1.2787329554557798 1.6778343319892886 -2.8597106933593746 -0.19644152373075482 -0.83768194913864125 -0.10295030847191809 0.92767879366874706 -0.65997195243835438 -0.21691744774579999 0.013953578192740681 1.6433316469192507 1.3739880323410036 0.16639338433742526 0.11296984180808069 1.7223539948463442 0.68838590383529674 -0.27101185917854304 1.0233960747718813 1.0745936036109927 0.78744208812713634 -0.97553482651710499 -1.0178284049034116 -0.85978382825851429 -0.84951812028884877 0.38231353461742407 -0.47691510617732996 -0.16972972452640531 0.41570320725440985 -0.30297462642192835 0.71398463845253002 0.34001988172531133 -0.78883680701255787 -0.71398207545280445 0.383725255727768 -0.2376221567392349 -0.30996651947498316 0.28437036275863653 -0.38231089711189264
decision_type=2 2 2 2 2 2 2 2 2 2 2 2 2 2 2 2 2 2 2 2 2 2 2 2 2 2 2 2 2 2 2 2 2 2 2 2 2 2 2 2 2 2 2 2 2 2 2 2 2 2 2 2 2 2 2 2 2 2 2 2 2 2
left_child=2 4 -1 43 -2 -5 -7 32 18 -6 11 16 13 14 24 -14 -11 27 19 -4 34 31 -23 -13 -12 -25 -9 29 -29 -17 -16 -20 -8 -34 -21 38 37 42 46 41 -41 -40 -37 44 -3 -46 -28 48 -48 50 -49 52 -52 55 56 -54 -55 -51 59 60 61 -59
right_child=1 3 8 5 9 6 7 26 -10 10 12 23 15 -15 30 17 -18 -19 21 20 -22 22 -24 25 -26 -27 35 28 -30 -31 -32 -33 33 -35 -36 36 -38 -39 39 40 -42 -43 -44 -45 45 -47 47 49 -50 57 51 -53 53 54 -56 -57 -58 58 -60 -61 -62 -63
leaf_value=0.19914725327263946 0.15432832209206215 0.18579461002100503 0.17443927762420411 0.19539392100693026 0.18229538761792319 0.20640335050930966 0.26671855816802553 0.15936548073961887 0.19053624179410103 0.065544898546872704 0.19978917531140258 0.22149190331587709 0.20145477263048039 -0.027652455527420763 0.10667006186109501 -0.055637299299392366 -0.055470596579539844 0.24521994381864107 0.18081068951562235 0.030055854713603693 0.20862021931106584 0.17043756698162144 0.031566381275279588 -0.055553187756443134 0.020280644232242129 0.27369233360135742 -0.025675620200419327 0.26349305182128202 0.0057665414537277915 0.2301238221582759 0.26772860645908325 -0.058017355602508806 -0.019894203131260592 0.35285977066602309 0.2202083952680185 0.15905096362634408 -0.013901577920799851 0.016912343051425218 -0.0387758398750098 0.2853124269117131 -0.0014740856780013471 0.17803063574072653 -0.054892427162820612 0.20305298712288455 0.15511152957236674 -0.025976317847037057 -0.054318802856836837 -0.0056206664009799045 0.33811673721686697 -0.014430937852996463 0.22032285199163551 -0.013873298160840897 0.26103854512318231 -0.054215352208621614 -0.054305800747899348 -0.0083997781872440849 0.29670571937339518 0.045075894319012516 -0.026958596260531282 0.023748428377505276 -0.054199314874804033 0.39926874787275746
leaf_weight=3689.2865221649408 392.46499215811491 33.025269255042076 681.45596092939377 26.821050263941288 61.769729793071747 18.638445161283016 17.178829811513424 23.050476409494877 610.10773155093193 71.13004843890667 16.823681451380253 28.840430282056332 86.278359599411488 43.945274256169796 45.402386501431465 8.3612054660916311 64.619676820933819 20.464053712785244 10.325425855815409 76.702919349074364 41.610163532197475 102.53043956309557 34.453437261283398 16.310855671763424 89.07872612029314 5.6022864654660216 279.99663036689162 9.6039658114314062 70.23147577047348 30.084066212177277 26.716639377176762 28.652874425053596 17.283794466406111 4.5539538338780394 13.302685201168059 80.669856742024422 60.475251283496618 51.609769947826862 38.530785001814365 19.93830739706755 11.572495386004446 15.914835549890993 10.873315606266258 42.727913811802864 17.476108573377132 39.982480585575104 6.9102315008640316 126.96448062360287 9.445211321115492 465.29285940900445 33.6598458327353 45.666443035006523 7.8157253041863433 3.9722973182797459 7.5547398999333373 53.659892037510872 22.893487021327019 6.2015284150838914 45.217781513929367 23.702143233269453 5.2559732645750037 15.010074310004709
leaf_count=5617 1695 135 1974 96 248 51 54 179 1499 602 71 113 435 480 315 98 767 75 35 505 113 367 236 192 858 15 3694 18 709 105 101 253 199 19 33 579 734 574 487 83 137 115 139 163 90 366 96 1625 43 6090 212 582 42 56 105 681 133 69 603 287 74 71
internal_value=0.147863 0.068449 0.189568 0.0369558 0.117367 0.0295274 0.0266188 0.0244009 0.167467 0.0965023 0.0881369 0.0433924 0.106806 0.0718507 0.0964134 0.141287 0.00793902 0.103872 0.153236 0.163317 0.105728 0.106655 0.135509 0.138219 0.0487974 0.0286213 0.0210766 0.0794165 0.0367703 0.167976 0.166335 0.00524865 0.149807 0.0578384 0.0581601 0.0188764 0.0602367 0.0915566 0.0121126 0.0815629 0.179989 0.0245982 0.133639 0.123744 0.0862924 0.0291018 0.00696285 0.0173569 0.172311 0.0144198 0.045751 0.0829743 0.117112 0.0808841 0.179166 0.0258554 0.24482 -0.00246666 0.0558942 0.130569 0.226229 0.295715
internal_weight=8065.7 2777.27 5288.43 1689.54 1087.73 1556.33 1529.51 1510.87 1599.14 695.263 633.493 186.503 446.99 221.967 178.021 225.023 135.75 138.745 989.034 813.072 131.616 175.962 136.984 50.7536 105.902 21.9131 1471.85 118.281 79.8354 38.4453 72.119 38.9783 39.0166 21.8377 90.0056 1448.8 203.628 143.153 1245.18 85.9564 31.5108 54.4456 91.5432 133.212 90.4839 57.4586 1159.22 879.223 16.3554 862.867 302.187 175.222 129.556 95.8961 34.4205 61.4756 26.8658 560.68 95.3875 50.1697 26.4676 21.2116
internal_count=36192 25560 10632 18663 6897 17909 17813 17762 5015 5202 4954 1689 3265 1825 1345 1440 1369 1005 3516 2625 651 891 603 320 929 207 17490 930 727 203 416 288 272 218 538 17311 2026 1292 15285 822 220 602 718 754 591 456 14463 10769 139 10630 3436 1811 1229 1017 294 723 189 7194 1104 501 214 140
is_linear=0
shrinkage=0.05


end of trees

feature_importances:
Column_532=10
Column_426=6
Column_442=5
Column_478=5
Column_531=5
Column_534=5
Column_1=4
Column_343=4
Column_6=3
Column_117=3
Column_135=3
Column_217=3
Column_237=3
Column_244=3
Column_352=3
Column_437=3
Column_471=3
Column_477=3
Column_505=3
Column_3=2
Column_4=2
Column_7=2
Column_8=2
Column_18=2
Column_39=2
Column_54=2
Column_57=2
Column_73=2
Column_78=2
Column_136=2
Column_144=2
Column_183=2
Column_189=2
Column_196=2
Column_207=2
Column_222=2
Column_234=2
Column_258=2
Column_291=2
Column_306=2
Column_321=2
Column_324=2
Column_330=2
Column_399=2
Column_415=2
Column_450=2
Column_459=2
Column_468=2
Column_486=2
Column_487=2
Column_495=2
Column_496=2
Column_525=2
Column_537=2
Column_15=1
Column_16=1
Column_21=1
Column_27=1
Column_32=1
Column_33=1
Column_42=1
Column_43=1
Column_47=1
Column_51=1
Column_55=1
Column_66=1
Column_68=1
Column_79=1
Column_84=1
Column_85=1
Column_87=1
Column_91=1
Column_94=1
Column_95=1
Column_96=1
Column_98=1
Column_103=1
Column_105=1
Column_106=1
Column_108=1
Column_112=1
Column_118=1
Column_127=1
Column_129=1
Column_130=1
Column_134=1
Column_147=1
Column_150=1
Column_154=1
Column_164=1
Column_165=1
Column_168=1
Column_180=1
Column_181=1
Column_187=1
Column_190=1
Column_192=1
Column_195=1
Column_198=1
Column_209=1
Column_228=1
Column_229=1
Column_240=1
Column_245=1
Column_246=1
Column_253=1
Column_270=1
Column_271=1
Column_277=1
Column_288=1
Column_292=1
Column_294=1
Column_297=1
Column_307=1
Column_312=1
Column_332=1
Column_336=1
Column_351=1
Column_359=1
Column_360=1
Column_363=1
Column_379=1
Column_385=1
Column_388=1
Column_390=1
Column_405=1
Column_408=1
Column_411=1
Column_417=1
Column_420=1
Column_421=1
Column_422=1
Column_423=1
Column_430=1
Column_433=1
Column_440=1
Column_444=1
Column_449=1
Column_451=1
Column_456=1
Column_462=1
Column_465=1
Column_474=1
Column_485=1
Column_489=1
Column_498=1
Column_504=1
Column_513=1
Column_514=1
Column_516=1
Column_523=1
Column_526=1
Column_528=1
Column_533=1
Column_536=1

parameters:
[boosting: gbdt]
[objective: binary]
[metric: binary_logloss]
[tree_learner: serial]
[device_type: cpu]
[data_sample_strategy: bagging]
[data: ]
[valid: ]
[num_iterations: 300]
[learning_rate: 0.05]
[num_leaves: 63]
[num_threads: 32]
[seed: 2021]
[deterministic: 0]
[force_col_wise: 0]
[force_row_wise: 0]
[histogram_pool_size: -1]
[max_depth: -1]
[min_data_in_leaf: 50]
[min_sum_hessian_in_leaf: 0.001]
[bagging_fraction: 1]
[pos_bagging_fraction: 1]
[neg_bagging_fraction: 1]
[bagging_freq: 0]
[bagging_seed: 5064]
[bagging_by_query: 0]
[feature_fraction: 1]
[feature_fraction_bynode: 1]
[feature_fraction_seed: 6682]
[extra_trees: 0]
[extra_seed: 17862]
[early_stopping_round: 0]
[early_stopping_min_delta: 0]
[first_metric_only: 0]
[max_delta_step: 0]
[lambda_l1: 0]
[lambda_l2: 0]
[linear_lambda: 0]
[min_gain_to_split: 0]
[drop_rate: 0.1]
[max_drop: 50]
[skip_drop: 0.5]
[xgboost_dart_mode: 0]
[uniform_drop: 0]
[drop_seed: 14392]
[top_rate: 0.2]
[other_rate: 0.1]
[min_data_per_group: 100]
[max_cat_threshold: 32]
[cat_l2: 10]
[cat_smooth: 10]
[max_cat_to_onehot: 4]
[top_k: 20]
[monotone_constraints: ]
[monotone_constraints_method: basic]
[monotone_penalty: 0]
[feature_contri: ]
[forcedsplits_filename: ]
[refit_decay_rate: 0.9]
[cegb_tradeoff: 1]
[cegb_penalty_split: 0]
[cegb_penalty_feature_lazy: ]
[cegb_penalty_feature_coupled: ]
[path_smooth: 0]
[interaction_constraints: ]
[verbosity: -1]
[saved_feature_importance_type: 0]
[use_quantized_grad: 0]
[num_grad_quant_bins: 4]
[quant_train_renew_leaf: 0]
[stochastic_rounding: 1]
[linear_tree: 0]
[max_bin: 255]
[max_bin_by_feature: ]
[min_data_in_bin: 3]
[bin_construct_sample_cnt: 200000]
[data_random_seed: 6638]
[is_enable_sparse: 1]
[enable_bundle: 1]
[use_missing: 1]
[zero_as_missing: 0]
[feature_pre_filter: 1]
[pre_partition: 0]
[two_round: 0]
[header: 0]
[label_column: ]
[weight_column: ]
[group_column: ]
[ignore_column: ]
[categorical_feature: ]
[forcedbins_filename: ]
[precise_float_parser: 0]
[parser_config_file: ]
[objective_seed: 14162]
[num_class: 1]
[is_unbalance: 0]
[scale_pos_weight: 12.3995]
[sigmoid: 1]
[boost_from_average: 1]
[reg_sqrt: 0]
[alpha: 0.9]
[fair_c: 1]
[poisson_max_delta_step: 0.7]
[tweedie_variance_power: 1.5]
[lambdarank_truncation_level: 30]
[lambdarank_norm: 1]
[label_gain: ]
[lambdarank_position_bias_regularization: 0]
[eval_at: ]
[multi_error_top_k: 1]
[auc_mu_weights: ]
[num_machines: 1]
[local_listen_port: 12400]
[time_out: 120]
[machine_list_filename: ]
[machines: ]
[gpu_platform_id: -1]
[gpu_device_id: -1]
[gpu_use_dp: 0]
[num_gpu: 1]

end of parameters

pandas_categorical:null
