tree
version=v4
num_class=1
num_tree_per_iteration=1
label_index=0
max_feature_idx=539
objective=binary sigmoid:1
feature_names=Column_0 Column_1 Column_2 Column_3 Column_4 Column_5 Column_6 Column_7 Column_8 Column_9 Column_10 Column_11 Column_12 Column_13 Column_14 Column_15 Column_16 Column_17 Column_18 Column_19 Column_20 Column_21 Column_22 Column_23 Column_24 Column_25 Column_26 Column_27 Column_28 Column_29 Column_30 Column_31 Column_32 Column_33 Column_34 Column_35 Column_36 Column_37 Column_38 Column_39 Column_40 Column_41 Column_42 Column_43 Column_44 Column_45 Column_46 Column_47 Column_48 Column_49 Column_50 Column_51 Column_52 Column_53 Column_54 Column_55 Column_56 Column_57 Column_58 Column_59 Column_60 Column_61 Column_62 Column_63 Column_64 Column_65 Column_66 Column_67 Column_68 Column_69 Column_70 Column_71 Column_72 Column_73 Column_74 Column_75 Column_76 Column_77 Column_78 Column_79 Column_80 Column_81 Column_82 Column_83 Column_84 Column_85 Column_86 Column_87 Column_88 Column_89 Column_90 Column_91 Column_92 Column_93 Column_94 Column_95 Column_96 Column_97 Column_98 Column_99 Column_100 Column_101 Column_102 Column_103 Column_104 Column_105 Column_106 Column_107 Column_108 Column_109 Column_110 Column_111 Column_112 Column_113 Column_114 Column_115 Column_116 Column_117 Column_118 Column_119 Column_120 Column_121 Column_122 Column_123 Column_124 Column_125 Column_126 Column_127 Column_128 Column_129 Column_130 Column_131 Column_132 Column_133 Column_134 Column_135 Column_136 Column_137 Column_138 Column_139 Column_140 Column_141 Column_142 Column_143 Column_144 Column_145 Column_146 Column_147 Column_148 Column_149 Column_150 Column_151 Column_152 Column_153 Column_154 Column_155 Column_156 Column_157 Column_158 Column_159 Column_160 Column_161 Column_162 Column_163 Column_164 Column_165 Column_166 Column_167 Column_168 Column_169 Column_170 Column_171 Column_172 Column_173 Column_174 Column_175 Column_176 Column_177 Column_178 Column_179 Column_180 Column_181 Column_182 Column_183 Column_184 Column_185 Column_186 Column_187 Column_188 Column_189 Column_190 Column_191 Column_192 Column_193 Column_194 Column_195 Column_196 Column_197 Column_198 Column_199 Column_200 Column_201 Column_202 Column_203 Column_204 Column_205 Column_206 Column_207 Column_208 Column_209 Column_210 Column_211 Column_212 Column_213 Column_214 Column_215 Column_216 Column_217 Column_218 Column_219 Column_220 Column_221 Column_222 Column_223 Column_224 Column_225 Column_226 Column_227 Column_228 Column_229 Column_230 Column_231 Column_232 Column_233 Column_234 Column_235 Column_236 Column_237 Column_238 Column_239 Column_240 Column_241 Column_242 Column_243 Column_244 Column_245 Column_246 Column_247 Column_248 Column_249 Column_250 Column_251 Column_252 Column_253 Column_254 Column_255 Column_256 Column_257 Column_258 Column_259 Column_260 Column_261 Column_262 Column_263 Column_264 Column_265 Column_266 Column_267 Column_268 Column_269 Column_270 Column_271 Column_272 Column_273 Column_274 Column_275 Column_276 Column_277 Column_278 Column_279 Column_280 Column_281 Column_282 Column_283 Column_284 Column_285 Column_286 Column_287 Column_288 Column_289 Column_290 Column_291 Column_292 Column_293 Column_294 Column_295 Column_296 Column_297 Column_298 Column_299 Column_300 Column_301 Column_302 Column_303 Column_304 Column_305 Column_306 Column_307 Column_308 Column_309 Column_310 Column_311 Column_312 Column_313 Column_314 Column_315 Column_316 Column_317 Column_318 Column_319 Column_320 Column_321 Column_322 Column_323 Column_324 Column_325 Column_326 Column_327 Column_328 Column_329 Column_330 Column_331 Column_332 Column_333 Column_334 Column_335 Column_336 Column_337 Column_338 Column_339 Column_340 Column_341 Column_342 Column_343 Column_344 Column_345 Column_346 Column_347 Column_348 Column_349 Column_350 Column_351 Column_352 Column_353 Column_354 Column_355 Column_356 Column_357 Column_358 Column_359 Column_360 Column_361 Column_362 Column_363 Column_364 Column_365 Column_366 Column_367 Column_368 Column_369 Column_370 Column_371 Column_372 Column_373 Column_374 Column_375 Column_376 Column_377 Column_378 Column_379 Column_380 Column_381 Column_382 Column_383 Column_384 Column_385 Column_386 Column_387 Column_388 Column_389 Column_390 Column_391 Column_392 Column_393 Column_394 Column_395 Column_396 Column_397 Column_398 Column_399 Column_400 Column_401 Column_402 Column_403 Column_404 Column_405 Column_406 Column_407 Column_408 Column_409 Column_410 Column_411 Column_412 Column_413 Column_414 Column_415 Column_416 Column_417 Column_418 Column_419 Column_420 Column_421 Column_422 Column_423 Column_424 Column_425 Column_426 Column_427 Column_428 Column_429 Column_430 Column_431 Column_432 Column_433 Column_434 Column_435 Column_436 Column_437 Column_438 Column_439 Column_440 Column_441 Column_442 Column_443 Column_444 Column_445 Column_446 Column_447 Column_448 Column_449 Column_450 Column_451 Column_452 Column_453 Column_454 Column_455 Column_456 Column_457 Column_458 Column_459 Column_460 Column_461 Column_462 Column_463 Column_464 Column_465 Column_466 Column_467 Column_468 Column_469 Column_470 Column_471 Column_472 Column_473 Column_474 Column_475 Column_476 Column_477 Column_478 Column_479 Column_480 Column_481 Column_482 Column_483 Column_484 Column_485 Column_486 Column_487 Column_488 Column_489 Column_490 Column_491 Column_492 Column_493 Column_494 Column_495 Column_496 Column_497 Column_498 Column_499 Column_500 Column_501 Column_502 Column_503 Column_504 Column_505 Column_506 Column_507 Column_508 Column_509 Column_510 Column_511 Column_512 Column_513 Column_514 Column_515 Column_516 Column_517 Column_518 Column_519 Column_520 Column_521 Column_522 Column_523 Column_524 Column_525 Column_526 Column_527 Column_528 Column_529 Column_530 Column_531 Column_532 Column_533 Column_534 Column_535 Column_536 Column_537 Column_538 Column_539
feature_infos=[-5.221592903137207:4.7174110412597656] [-0.86116659641265869:3.1393942832946777] [-18.460952758789062:7.3048324584960938] [-4.8164644241333008:4.0407133102416992] [-0.86116659641265869:2.9592044353485107] [-34.152454376220703:5.741854190826416] [-4.7341036796569824:4.4124517440795898] [-0.86116659641265869:3.8682053089141846] [-35.583099365234375:5.741854190826416] [-5.3507003784179688:4.7174110412597656] [-0.86116659641265869:3.1384341716766357] [-18.460952758789062:7.3048324584960938] [-4.7919788360595703:4.1119441986083984] [-0.86116659641265869:2.9501354694366455] [-34.152454376220703:5.741854190826416] [-5.036837100982666:4.1475601196289062] [-0.86116659641265869:3.8682053089141846] [-35.583099365234375:5.741854190826416] [-5.3507003784179688:4.7174110412597656] [-0.86116659641265869:3.1384341716766357] [-18.460952758789062:7.3048324584960938] [-5.0590968132019043:4.1119441986083984] [-0.86116659641265869:2.9410669803619385] [-34.152454376220703:5.741854190826416] [-5.036837100982666:4.6728916168212891] [-0.86116659641265869:3.8682053089141846] [-35.583099365234375:5.741854190826416] [-5.3507003784179688:4.3523502349853516] [-0.86116659641265869:3.137092113494873] [-18.460952758789062:7.3048324584960938] [-5.0590968132019043:6.838770866394043] [-0.86116659641265869:2.974003791809082] [-18.809013366699219:5.741854190826416] [-5.036837100982666:4.6728916168212891] [-0.86116659641265869:3.8682053089141846] [-35.583099365234375:5.741854190826416] [-6.0808219909667969:4.3011527061462402] [-0.86116659641265869:3.132115364074707] [-18.460952758789062:7.3048324584960938] [-5.0590968132019043:4.2276954650878906] [-0.86116659641265869:2.9862205982208252] [-18.809013366699219:5.741854190826416] [-4.8164644241333008:6.4113831520080566] [-0.86116659641265869:3.8682053089141846] [-35.583099365234375:5.741854190826416] [-6.0808219909667969:4.3011527061462402] [-0.86116659641265869:3.1265866756439209] [-22.298454284667969:7.3048324584960938] [-4.7830748558044434:4.2276954650878906] [-0.86116659641265869:2.9984374046325684] [-19.925205230712891:5.741854190826416] [-4.8164644241333008:6.838770866394043] [-0.86116659641265869:3.8682053089141846] [-35.583099365234375:5.741854190826416] [-5.1792998313903809:5.0357265472412109] [-0.86116659641265869:3.1210577487945557] [-22.298454284667969:7.3048324584960938] [-4.8209166526794434:4.7174110412597656] [-0.86116659641265869:3.0205032825469971] [-20.016422271728516:5.741854190826416] [-4.8164644241333008:6.4113831520080566] [-0.86116659641265869:3.8682053089141846] [-35.583099365234375:5.741854190826416] [-5.0234813690185547:6.0908412933349609] [-0.86116659641265869:3.0205976963043213] [-22.298454284667969:7.3048324584960938] [-5.0991640090942383:4.7174110412597656] [-0.86116659641265869:3.0573489665985107] [-20.016422271728516:7.3048324584960938] [-4.7341036796569824:4.490361213684082] [-0.86116659641265869:3.8682053089141846] [-35.583099365234375:5.741854190826416] [-5.5109705924987793:6.0908412933349609] [-0.86116659641265869:3.0146675109863281] [-18.460952758789062:7.3048324584960938] [-4.8209166526794434:5.7369108200073242] [-0.86116659641265869:3.0941884517669678] [-20.016422271728516:7.3048324584960938] [-4.9210858345031738:5.9528307914733887] [-0.86116659641265869:3.8682053089141846] [-35.583099365234375:5.741854190826416] [-5.5109705924987793:6.0908412933349609] [-0.86116659641265869:3.0054748058319092] [-18.460952758789062:7.3048324584960938] [-4.7118434906005859:5.7369108200073242] [-0.86116659641265869:3.121025562286377] [-20.099235534667969:7.3048324584960938] [-4.9210858345031738:5.9528307914733887] [-0.86116659641265869:3.8682053089141846] [-35.583099365234375:5.741854190826416] [-5.4619989395141602:6.0908412933349609] [-0.86116659641265869:2.9832098484039307] [-18.460952758789062:7.3048324584960938] [-7.3874721527099609:4.1809496879577637] [-0.86116659641265869:3.1245131492614746] [-20.099235534667969:7.3048324584960938] [-5.0947127342224121:4.4770054817199707] [-0.86116659641265869:3.8682053089141846] [-35.583099365234375:5.741854190826416] [-5.4619989395141602:5.7369108200073242] [-0.86116659641265869:2.9609482288360596] [-18.460952758789062:7.3048324584960938] [-7.3874721527099609:4.728541374206543] [-0.86116659641265869:3.1279976367950439] [-20.099235534667969:7.3048324584960938] [-5.0590968132019043:4.0251312255859375] [-0.86116659641265869:3.8682053089141846] [-35.583099365234375:5.741854190826416] [-5.4486432075500488:5.3518157005310059] [-0.86116659641265869:2.9386796951293945] [-18.460952758789062:7.3048324584960938] [-7.3874721527099609:4.728541374206543] [-0.86116659641265869:3.1333005428314209] [-20.204853057861328:7.3048324584960938] [-5.0590968132019043:4.7908682823181152] [-0.86116659641265869:3.8682053089141846] [-35.583099365234375:5.741854190826416] [-5.1592659950256348:4.5994343757629395] [-0.86116659641265869:2.9164180755615234] [-18.460952758789062:7.3048324584960938] [-4.7452335357666016:4.728541374206543] [-0.86116659641265869:3.1416802406311035] [-22.298454284667969:7.3048324584960938] [-4.892148494720459:4.7908682823181152] [-0.86116659641265869:3.8682053089141846] [-35.583099365234375:5.741854190826416] [-5.2304973602294922:4.1119441986083984] [-0.86116659641265869:2.8941531181335449] [-18.460952758789062:7.3048324584960938] [-4.9077296257019043:4.1876277923583984] [-0.86116659641265869:3.1500599384307861] [-22.298454284667969:5.8144493103027344] [-4.892148494720459:4.7908682823181152] [-0.86116659641265869:3.8682053089141846] [-35.583099365234375:5.741854190826416] [-5.2304973602294922:4.1119441986083984] [-0.86116659641265869:2.8706502914428711] [-18.460952758789062:7.3048324584960938] [-4.9077296257019043:5.017918586730957] [-0.86116659641265869:3.1573452949523926] [-22.298454284667969:5.8144493103027344] [-4.7318778038024902:4.6484060287475586] [-0.86116659641265869:3.8682053089141846] [-35.583099365234375:5.741854190826416] [-5.2861471176147461:4.1119441986083984] [-0.86116659641265869:2.8595669269561768] [-18.460952758789062:7.3048324584960938] [-4.778623104095459:5.017918586730957] [-0.86116659641265869:3.1644546985626221] [-20.323673248291016:5.8144493103027344] [-4.8743400573730469:4.6484060287475586] [-0.86116659641265869:3.8682053089141846] [-35.583099365234375:5.741854190826416] [-5.413027286529541:4.7908687591552734] [-0.86116659641265869:2.8595669269561768] [-18.460952758789062:7.3048324584960938] [-4.5627026557922363:4.8954892158508301] [-0.86116659641265869:3.1715610027313232] [-20.323673248291016:5.8144493103027344] [-4.8743400573730469:4.8954892158508301] [-0.86116659641265869:3.8682053089141846] [-35.583099365234375:5.741854190826416] [-5.413027286529541:4.7908687591552734] [-0.86116659641265869:2.8595669269561768] [-18.460952758789062:7.3048324584960938] [-4.6762275695800781:4.8954892158508301] [-0.86116659641265869:3.1782879829406738] [-20.434093475341797:7.3048324584960938] [-4.8743400573730469:4.8954892158508301] [-0.86116659641265869:3.8682053089141846] [-35.583099365234375:5.741854190826416] [-5.413027286529541:6.6562404632568359] [-0.86116659641265869:2.8595669269561768] [-18.460952758789062:7.3048324584960938] [-5.0947127342224121:4.8954892158508301] [-0.86116659641265869:3.1728832721710205] [-20.434093475341797:7.3048324584960938] [-4.9121818542480469:4.8954892158508301] [-0.86116659641265869:3.8682053089141846] [-35.583099365234375:5.741854190826416] [-5.3840899467468262:6.6562404632568359] [-0.86116659641265869:2.8595669269561768] [-18.514963150024414:7.3048324584960938] [-5.2304973602294922:4.5549149513244629] [-0.86116659641265869:3.1472647190093994] [-20.508506774902344:7.3048324584960938] [-4.9121818542480469:4.5571403503417969] [-0.86116659641265869:3.8682053089141846] [-35.583099365234375:5.741854190826416] [-5.3840899467468262:6.6562404632568359] [-0.86116659641265869:2.8595669269561768] [-18.514963150024414:7.3048324584960938] [-10.241179466247559:3.9182839393615723] [-0.86116659641265869:3.1208128929138184] [-20.508506774902344:7.3048324584960938] [-4.9121818542480469:4.5571403503417969] [-0.86116659641265869:3.8682053089141846] [-35.583099365234375:5.741854190826416] [-5.3840899467468262:4.0251312255859375] [-0.86116659641265869:2.8595669269561768] [-18.460952758789062:7.3048324584960938] [-10.241179466247559:4.5682706832885742] [-0.86116659641265869:3.0910208225250244] [-20.508506774902344:7.3048324584960938] [-5.2616605758666992:4.0407133102416992] [-0.86116659641265869:3.8682053089141846] [-35.583099365234375:5.741854190826416] [-5.4441909790039062:3.6667482852935791] [-0.86116659641265869:2.8732104301452637] [-26.082265853881836:7.3048324584960938] [-5.0702266693115234:4.5682706832885742] [-0.86116659641265869:3.0612318515777588] [-20.616523742675781:7.3048324584960938] [-5.2616605758666992:5.017918586730957] [-0.86116659641265869:3.8682053089141846] [-35.583099365234375:5.741854190826416] [-5.8092522621154785:3.9383177757263184] [-0.86116659641265869:3.0773282051086426] [-18.809013366699219:7.3048324584960938] [-4.9210858345031738:4.5682706832885742] [-0.86116659641265869:3.103809118270874] [-20.616523742675781:7.3048324584960938] [-6.025172233581543:5.0357265472412109] [-0.86116659641265869:3.8682053089141846] [-35.583099365234375:5.741854190826416] [-6.3345832824707031:4.5549149513244629] [-0.86116659641265869:3.0647847652435303] [-18.809013366699219:7.3048324584960938] [-4.9900913238525391:6.5271334648132324] [-0.86116659641265869:3.1059966087341309] [-17.893255233764648:7.3048324584960938] [-6.025172233581543:5.0357265472412109] [-0.86116659641265869:3.8682053089141846] [-35.583099365234375:5.741854190826416] [-6.3345832824707031:4.5549149513244629] [-0.86116659641265869:3.0522446632385254] [-18.809013366699219:7.3048324584960938] [-5.0034470558166504:6.5271334648132324] [-0.86116659641265869:3.1081850528717041] [-17.893255233764648:7.3048324584960938] [-6.025172233581543:5.0357265472412109] [-0.86116659641265869:3.8682053089141846] [-35.583099365234375:5.741854190826416] [-6.3345832824707031:5.0980539321899414] [-0.86116659641265869:3.0406453609466553] [-18.809013366699219:7.3048324584960938] [-5.1013903617858887:6.5271334648132324] [-0.86116659641265869:3.1071071624755859] [-17.893255233764648:7.3048324584960938] [-4.9077301025390625:4.5059432983398438] [-0.86116659641265869:3.8682053089141846] [-35.583099365234375:5.741854190826416] [-5.7580547332763672:5.0980539321899414] [-0.86116659641265869:3.0374646186828613] [-18.809013366699219:7.3048324584960938] [-5.1013903617858887:4.5571403503417969] [-0.86116659641265869:3.0984206199645996] [-17.893255233764648:7.3048324584960938] [-4.8120131492614746:4.5059432983398438] [-0.86116659641265869:3.8682053089141846] [-35.583099365234375:5.741854190826416] [-5.7580547332763672:5.0980539321899414] [-0.86116659641265869:3.0342874526977539] [-18.809013366699219:7.3048324584960938] [-5.1013903617858887:12.236774444580078] [-0.86116659641265869:3.0897307395935059] [-18.809013366699219:7.3048324584960938] [-4.8609843254089355:4.1030402183532715] [-0.86116659641265869:3.8682053089141846] [-35.583099365234375:5.741854190826416] [-5.7580547332763672:4.2121138572692871] [-0.86116659641265869:3.0340163707733154] [-18.809013366699219:7.3048324584960938] [-5.1013903617858887:12.236774444580078] [-0.86116659641265869:3.0810444355010986] [-18.809013366699219:7.3048324584960938] [-4.8609843254089355:3.8426008224487305] [-0.86116659641265869:3.8682053089141846] [-35.583099365234375:6.8505892753601074] [-5.0791306495666504:4.2855710983276367] [-0.86116659641265869:3.0354628562927246] [-18.809013366699219:7.3048324584960938] [-21.190780639648438:4.574948787689209] [-0.86116659641265869:3.072354793548584] [-20.812158584594727:7.3048324584960938] [-4.8609843254089355:3.8693125247955322] [-0.86116659641265869:3.8682053089141846] [-35.583099365234375:6.8505892753601074] [-5.0947127342224121:4.2855710983276367] [-0.86116659641265869:3.036909818649292] [-18.809013366699219:7.3048324584960938] [-21.190780639648438:4.574948787689209] [-0.86116659641265869:3.0636680126190186] [-20.951381683349609:7.3048324584960938] [-4.8721146583557129:4.385739803314209] [-0.86116659641265869:3.8682053089141846] [-35.583099365234375:6.8505892753601074] [-5.1459102630615234:4.2855710983276367] [-0.86116659641265869:3.0383560657501221] [-18.809013366699219:7.3048324584960938] [-5.3751864433288574:4.2811188697814941] [-0.86116659641265869:3.0631976127624512] [-20.951381683349609:7.3048324584960938] [-4.8854703903198242:4.385739803314209] [-0.86116659641265869:3.8682053089141846] [-35.583099365234375:6.8505892753601074] [-5.1459102630615234:4.2855710983276367] [-0.86116659641265869:3.0398027896881104] [-18.809013366699219:7.3048324584960938] [-4.7096176147460938:4.0941367149353027] [-0.86116659641265869:3.0767924785614014] [-20.951381683349609:7.3048324584960938] [-5.0947127342224121:4.385739803314209] [-0.86116659641265869:3.8682053089141846] [-35.583099365234375:6.8505892753601074] [-5.1459102630615234:4.2811188697814941] [-0.86116659641265869:3.0410864353179932] [-18.809013366699219:7.3048324584960938] [-4.769719123840332:4.3523502349853516] [-0.86116659641265869:3.0903871059417725] [-21.112209320068359:7.3048324584960938] [-5.0947127342224121:5.0134663581848145] [-0.86116659641265869:3.8682053089141846] [-35.583099365234375:6.8505892753601074] [-5.1459102630615234:5.5009565353393555] [-0.86116659641265869:3.0421280860900879] [-18.809013366699219:7.3048324584960938] [-5.7580547332763672:5.1759629249572754] [-0.86116659641265869:2.9379351139068604] [-21.112209320068359:7.3048324584960938] [-5.1214241981506348:5.8482098579406738] [-0.86116659641265869:3.8682053089141846] [-35.583099365234375:6.8505892753601074] [-5.1013903617858887:5.5009565353393555] [-0.86116659641265869:3.0431699752807617] [-18.809013366699219:7.3048324584960938] [-5.7580547332763672:5.1759629249572754] [-0.86116659641265869:2.9379088878631592] [-21.112209320068359:7.3048324584960938] [-4.6762275695800781:5.8482098579406738] [-0.86116659641265869:3.8682053089141846] [-35.583099365234375:6.8505892753601074] [-5.1013903617858887:4.728541374206543] [-0.86116659641265869:3.0432674884796143] [-18.809013366699219:7.3048324584960938] [-5.413027286529541:5.6011257171630859] [-0.86116659641265869:2.9378764629364014] [-21.112209320068359:7.3048324584960938] [-4.6762275695800781:5.8482098579406738] [-0.86116659641265869:3.8682053089141846] [-35.619106292724609:6.8505892753601074] [-5.1013903617858887:4.728541374206543] [-0.86116659641265869:3.0419549942016602] [-18.809013366699219:7.3048324584960938] [-5.3017282485961914:7.4687232971191406] [-0.86116659641265869:2.938784122467041] [-21.250232696533203:7.3048324584960938] [-4.7674932479858398:4.5549149513244629] [-0.86116659641265869:3.8682053089141846] [-35.619106292724609:6.8505892753601074] [-5.1013903617858887:4.728541374206543] [-0.86116659641265869:3.040642261505127] [-18.809013366699219:7.3048324584960938] [-5.0301589965820312:5.6011257171630859] [-0.86116659641265869:2.9388952255249023] [-21.286239624023438:7.3048324584960938] [-4.7341032028198242:4.5549149513244629] [-0.86116659641265869:3.8682053089141846] [-35.65631103515625:6.8505892753601074] [-4.9077296257019043:4.3145089149475098] [-0.86116659641265869:3.3209888935089111] [-18.809013366699219:7.3048324584960938] [-4.8876962661743164:4.5326547622680664] [-0.86116659641265869:2.9390032291412354] [-21.286239624023438:7.3048324584960938] [-4.9900913238525391:4.0295834541320801] [-0.86116659641265869:3.8682053089141846] [-35.65631103515625:6.8505892753601074] [-4.9077296257019043:4.3145089149475098] [-0.86116659641265869:3.3336007595062256] [-18.809013366699219:7.3048324584960938] [-4.8031091690063477:67.559074401855469] [-0.86116659641265869:2.944678783416748] [-21.286239624023438:5.8144493103027344] [-5.0501928329467773:4.7908687591552734] [-0.86116659641265869:3.8682053089141846] [-35.65631103515625:7.3048324584960938] [-4.9077296257019043:4.385739803314209] [-0.86116659641265869:3.34621262550354] [-18.809013366699219:7.3048324584960938] [-22.041105270385742:4.1186223030090332] [-0.86116659641265869:2.9543123245239258] [-21.286239624023438:5.8144493103027344] [-5.0501928329467773:4.7908687591552734] [-0.86116659641265869:3.8682053089141846] [-35.65631103515625:7.3048324584960938] [-5.1481356620788574:4.385739803314209] [-0.86116659641265869:3.0747711658477783] [-18.809013366699219:7.3048324584960938] [-22.041105270385742:4.3011527061462402] [-0.86116659641265869:2.9639458656311035] [-21.286239624023438:7.3048324584960938] [-5.535456657409668:4.7908687591552734] [-0.86116659641265869:3.8682053089141846] [-35.65631103515625:7.3048324584960938] [-5.1481356620788574:7.4687232971191406] [-0.86116659641265869:3.066401481628418] [-18.809013366699219:7.3048324584960938] [-5.7335686683654785:4.8999414443969727] [-0.86116659641265869:2.9538977146148682] [-21.336648941040039:7.3048324584960938] [-5.0501928329467773:4.316734790802002] [-0.86116659641265869:3.8682053089141846] [-18.728599548339844:6.8505892753601074] [-5.535456657409668:4.2811188697814941] [-0.86116659641265869:3.0580317974090576] [-18.809013366699219:7.3048324584960938] [-5.7335686683654785:4.7619309425354004] [-0.86116659641265869:2.9203042984008789] [-21.371454238891602:7.3048324584960938] [-5.0501928329467773:3.9561254978179932] [-0.86116659641265869:3.8682053089141846] [-18.667388916015625:6.8505892753601074] [-5.036837100982666:4.9578170776367188] [-0.86116659641265869:3.0425913333892822] [-18.809013366699219:7.3048324584960938] [-5.7335686683654785:4.7619309425354004] [-0.86116659641265869:2.8867108821868896] [-21.371454238891602:7.3048324584960938] [-5.4486432075500488:3.9605777263641357] [-0.86116659641265869:3.8682053089141846] [-18.675790786743164:6.8505892753601074] [-5.036837100982666:4.9578170776367188] [-0.86116659641265869:3.0165584087371826] [-18.781408309936523:7.3048324584960938] [-5.2727909088134766:37.129920959472656] [-0.86116659641265869:2.6521937847137451] [-21.371454238891602:7.3048324584960938] [-5.4486432075500488:4.5326547622680664] [-0.86116659641265869:3.8682053089141846] [-18.628982543945312:6.8505892753601074] [-5.0902605056762695:4.3723845481872559] [-0.86116659641265869:2.9905250072479248] [-18.809013366699219:7.3048324584960938] [-5.2727909088134766:3.8715384006500244] [-0.86116659641265869:2.879366397857666] [-21.371454238891602:7.3048324584960938] [-5.4486432075500488:4.5326547622680664] [-0.86116659641265869:3.8682053089141846] [-18.628982543945312:6.8505892753601074] [-5.0902605056762695:4.2544069290161133] [-0.86116659641265869:2.9710385799407959] [-18.809013366699219:7.3048324584960938] [-5.2304973602294922:5.0980539321899414] [-0.86116659641265869:2.8730342388153076] [-21.371454238891602:7.3048324584960938] [-5.1971073150634766:4.5326547622680664] [-0.86116659641265869:3.8682053089141846] [-18.628982543945312:6.8505892753601074] [-5.0902605056762695:4.2544069290161133] [-0.86116659641265869:2.9668424129486084] [-18.770606994628906:7.3048324584960938] [-5.4486432075500488:5.0980539321899414] [-0.86116659641265869:2.8667056560516357] [-21.370254516601562:7.3048324584960938] [-5.2349491119384766:4.5126214027404785] [-0.86116659641265869:3.8682053089141846] [-18.667388916015625:6.8505892753601074] [-5.123650074005127:5.1759634017944336] [-0.86116659641265869:2.9673910140991211] [-18.781408309936523:7.3048324584960938] [-5.4486432075500488:5.0980539321899414] [-0.86116659641265869:2.8702816963195801] [-21.370254516601562:7.3048324584960938] [-5.2349491119384766:4.7841906547546387] [-0.86116659641265869:3.8682053089141846] [-18.667388916015625:7.3048324584960938] [-5.123650074005127:5.1759634017944336] [-0.86116659641265869:2.9727141857147217] [-18.781408309936523:7.3048324584960938] [-5.5109705924987793:4.6484060287475586] [-0.86116659641265869:2.8801565170288086] [-21.370254516601562:7.3048324584960938] [-5.2349491119384766:4.7841906547546387] [-0.86116659641265869:3.8682053089141846] [-18.667388916015625:7.3048324584960938] [-5.123650074005127:5.1759634017944336] [-0.86116659641265869:2.9780368804931641] [-18.628982543945312:7.3048324584960938] [-5.5109705924987793:4.6484060287475586] [-0.86116659641265869:2.8900284767150879] [-21.396657943725586:7.3048324584960938] [-5.7335686683654785:4.7841906547546387] [-0.86116659641265869:3.8682053089141846] [-18.634983062744141:7.3048324584960938] [-5.8137040138244629:5.017918586730957] [-0.86116659641265869:2.9808814525604248] [-18.628982543945312:7.3048324584960938] [-4.9077301025390625:4.241051197052002] [-0.86116659641265869:2.8974514007568359] [-21.396657943725586:7.3048324584960938] [-4.9077301025390625:4.5393328666687012] [-0.86116659641265869:3.8682053089141846] [-18.634983062744141:7.3048324584960938] [-5.8137040138244629:5.017918586730957] [-0.86116659641265869:2.9550895690917969] [-18.628982543945312:7.3048324584960938] [-4.9077301025390625:4.5549149513244629] [-0.86116659641265869:2.8972551822662354] [-21.396657943725586:7.3048324584960938] [-5.0657744407653809:4.7619309425354004] [-0.86116659641265869:3.8682053089141846] [-18.634983062744141:7.3048324584960938] [-5.8137040138244629:5.2360649108886719] [-0.86116659641265869:2.9443359375] [-18.667388916015625:7.3048324584960938] [-6.025172233581543:4.5549149513244629] [-0.86116659641265869:2.9019415378570557] [-21.480672836303711:7.3048324584960938] [-5.0657744407653809:4.7619309425354004] [-0.86116659641265869:3.8682053089141846] [-18.628982543945312:7.3048324584960938] [-5.161491870880127:5.2360649108886719] [-0.86116659641265869:2.933582067489624] [-18.667388916015625:7.3048324584960938] [-6.025172233581543:4.6127901077270508] [-0.86116659641265869:2.9306690692901611] [-21.480672836303711:7.3048324584960938] [-5.0657744407653809:4.7619309425354004] [-0.86116659641265869:3.8682053089141846] [-18.628982543945312:7.3048324584960938] [-4.9656052589416504:5.2360649108886719] [-0.86116659641265869:2.9230015277862549] [-18.667388916015625:7.3048324584960938] [-6.025172233581543:4.6127901077270508] [-0.86116659641265869:2.9594001770019531] [-21.480672836303711:7.3048324584960938] [-4.9923171997070312:4.2811188697814941] [-0.86116659641265869:3.8682053089141846] [-18.628982543945312:7.3048324584960938]
tree_sizes=6782 6824 6834

Tree=0
num_leaves=63
num_cat=0
split_feature=532 208 532 442 508 10 487 397 471 343 406 351 514 468 244 253 273 342 30 450 525 336 527 1 217 522 267 539 294 36 273 6 249 396 177 145 513 123 352 384 81 523 531 102 321 3 310 408 386 523 220 198 397 240 37 516 41 215 427 78 252 399
split_gain=55007.5 5175.53 3144.26 1397.29 1203.44 1001.27 705.658 632.403 509.953 500.977 410.399 394.845 391.385 456.432 388.702 453.659 461.637 424.659 497.353 383.261 382.968 380.317 543.593 369.259 365.553 362.775 384.203 361.696 389.628 374.517 359.133 340.426 332.206 344.592 368.222 315.17 341.068 308.731 305.992 362.706 332.638 305.894 343.26 337.686 399.804 367.577 305.269 386.788 293.537 292.982 291.898 290.294 405.113 363.99 288.311 287.515 280.418 276.638 256.571 285.398 255.068 304.572
threshold=-0.61506476998329151 -0.49515293538570399 -0.72659212350845326 -0.78507608175277699 -0.71462365984916676 -0.49123093485832209 -0.65034484863281239 -0.56467792391777027 -1.2715902328491209 -0.52123540639877308 -0.82253435254096974 -0.987777680158615 -0.81313428282737721 -0.55927637219429005 -0.34616567194461817 -0.75421109795570362 1.2504460811614992 -0.038396872580051415 -0.63941171765327443 1.8381050229072573 -0.078464489430189119 0.92767879366874706 1.1423141956329348 -0.59504166245460499 -0.82271069288253773 1.348389267921448 -0.38231089711189264 -0.10025280341506003 -0.10072432830929755 -0.43016950786113733 1.5954730510711672 1.715676009654999 -1.1335794329643247 -0.056204702705144875 -0.025040999986231324 -0.13470389693975446 -0.5971180498600005 -0.51253077387809742 -0.37783399224281305 -0.065108615905046449 0.98110240697860729 0.73762086033821117 -0.027266979217529293 -0.60045704245567311 0.82750973105430614 0.38231353461742407 0.054269244894385345 0.3889914751052857 0.73610526323318493 -0.60978922247886647 -0.5817962884902953 -0.31664445996284479 -0.82220450043678273 -0.60157003998756398 -0.84688282012939442 -0.011685074772685764 0.13261039555072787 -0.51703804731369007 0.16473529487848285 -0.82416811585426319 1.3272423744201662 -0.70396512746810902
decision_type=2 2 2 2 2 2 2 2 2 2 2 2 2 2 2 2 2 2 2 2 2 2 2 2 2 2 2 2 2 2 2 2 2 2 2 2 2 2 2 2 2 2 2 2 2 2 2 2 2 2 2 2 2 2 2 2 2 2 2 2 2 2
left_child=2 6 4 -3 10 19 -2 24 -8 20 -1 -9 -6 23 15 17 25 58 -19 35 -7 41 27 -14 -4 31 -27 28 30 -30 -23 54 -25 34 -34 38 -37 -31 39 -5 -41 49 -43 44 45 -44 47 -13 -29 -11 -18 52 -26 56 -17 -49 -54 -20 -10 -60 -53 -62
right_child=1 3 7 5 12 9 8 11 14 21 -12 46 13 -15 -16 16 50 18 57 -21 -22 22 -24 32 51 26 -28 48 29 37 -32 -33 33 -35 -36 36 -38 -39 -40 40 -42 42 43 -45 -46 -47 -48 55 -50 -51 -52 60 53 -55 -56 -57 -58 -59 59 -61 61 -63
leaf_value=-1.8819363574242436 -2.1115954729318256 -2.0758306210636568 -1.9918007236621533 -2.4168617859691848 -1.977323739645076 -2.4136534202890285 -2.0134217572335409 -2.0748865015102935 -2.1046802869227204 -2.1297195865387373 -1.9650329860060674 -2.3830016601000845 -2.036349805673304 -2.0021076814926584 -2.0944200765238117 -2.052646198046987 -1.9727250916445405 -2.1245957388126158 -2.1765377008603721 -2.0877531919945262 -2.1605336957204195 -2.4867796832740559 -1.9790618650314589 -2.0174618914332747 -1.9698612691573474 -2.4337139429602455 -2.1077916332358027 -2.4283420523119688 -2.061872751091554 -2.1739390580750748 -2.0830609616604026 -2.1232939443291103 -2.5248225516517282 -2.0953559215916577 -2.2042933555727644 -2.4311206054140841 -2.128927650752781 -2.5248225516517282 -2.4300414565782029 -2.1135654195164713 -2.5248225516517282 -2.4510653207403346 -2.4561433456909247 -2.4039374793655335 -1.983890789810969 -2.1002791503817573 -2.4266495323852624 -2.3747246028350206 -2.1709756324753373 -2.4437162206548377 -2.2495870736915911 -2.0565985863252969 -2.2308610033866878 -2.1420753597548829 -2.3979830860788711 -2.0304715662498545 -2.5248225516517282 -2.5032123702480695 -2.0877531919945262 -2.5248225516517282 -2.0141375628757539 -2.4177049056738964
leaf_weight=326.61068249493837 115.93975477665663 34.250817663967609 85.444057270884514 27.393036738038063 609.30122946202755 26.602467648684978 21.974972195923328 34.178947746753693 81.65217413008213 7.4850696697831145 272.60325584560633 20.852874271571636 130.77344046533108 411.88185519725084 32.981667809188366 6.2632810771465293 13.927197515964506 22.167729340493679 8.4912485107779485 20.299111492931843 34.096479550004005 31.095165498554707 8.670095279812811 26.813109256327152 23.447477474808693 12.983946360647677 29.784284517168999 208.43733228743076 24.274809546768665 13.485379733145239 6.6945005804300299 13.257515653967856 14.302113525569437 28.921845510601997 23.988985925912857 12.624596774578093 35.856464497745037 11.714796505868433 68.644713170826435 31.640648037195206 5.8214632943272582 64.153671368956566 17.224271476268772 39.142940178513527 14.214677184820173 12.538816481828688 24.099274873733521 7.8811822384595862 11.700886130332945 991.79127710312605 30.085674561560154 219.80205136537552 24.14498008787632 89.629734940826893 172.5374806150794 26.322274163365364 12.217885926365851 27.370184130966663 6.7663704976439467 8.3369103968143445 8.1073902696371096 11.043458595871924
leaf_count=700 736 195 355 327 2370 316 100 194 508 50 999 236 650 1789 199 33 53 146 64 120 247 411 34 124 88 159 187 2532 132 101 39 87 199 175 193 154 239 163 836 202 81 806 218 458 57 77 292 88 87 12327 267 1174 206 619 2000 128 170 370 40 116 37 132
internal_value=-2.17697 -2.34871 -2.01004 -2.39207 -1.97797 -2.39834 -2.22249 -2.11081 -2.24881 -2.41222 -1.91974 -2.21691 -2.00597 -2.03338 -2.25989 -2.27248 -2.31058 -2.20384 -2.31078 -2.29382 -2.27147 -2.41806 -2.3695 -2.09069 -2.08543 -2.33843 -2.20674 -2.38051 -2.29437 -2.20204 -2.41526 -2.36776 -2.16626 -2.22562 -2.32401 -2.31681 -2.20762 -2.33705 -2.35646 -2.27858 -2.17747 -2.43145 -2.36418 -2.29712 -2.20204 -2.30622 -2.27824 -2.21327 -2.41466 -2.44136 -2.16198 -2.10603 -2.16069 -2.19621 -2.38589 -2.10979 -2.32963 -2.42586 -2.1397 -2.32901 -2.07185 -2.24686
internal_weight=4796.74 2364.37 2432.37 1759.85 1845.2 1725.6 604.52 587.172 488.581 1523.32 599.214 113.335 1245.98 636.681 466.606 433.624 278.839 154.785 58.0292 202.28 60.6989 1462.62 316.073 224.799 473.837 234.827 42.7682 307.403 87.2647 49.475 37.7897 192.058 94.0261 67.2129 38.2911 181.981 48.4811 25.2002 133.5 64.8551 37.4621 1146.55 147.274 83.1207 43.9778 29.7631 79.1556 55.0563 220.138 999.276 44.0129 388.393 149.44 125.993 178.801 34.2035 36.3629 35.8614 96.7555 15.1033 238.953 19.1508
internal_count=36192 25274 10918 20209 7199 20014 5065 3719 4329 18055 1699 938 5500 3130 4229 4030 2786 1244 580 1959 563 17492 3499 1341 2781 2466 346 3465 846 396 450 2120 691 567 392 1839 393 264 1446 610 283 13993 1616 810 352 295 744 452 2619 12377 320 2426 1083 995 2033 216 376 434 664 156 1343 169
is_linear=0
shrinkage=1


Tree=1
num_leaves=63
num_cat=0
split_feature=523 64 532 469 235 199 532 10 352 426 336 432 462 523 343 397 177 187 28 7 447 159 171 244 396 495 240 105 270 365 309 532 531 534 495 387 408 531 9 357 57 207 279 387 506 375 486 462 210 0 406 21 246 307 490 465 495 126 252 285 55 120
split_gain=23070 2850.96 1084.44 872.962 557.39 512.235 492.952 484.848 358.88 321.152 338.844 364.525 314.002 312.127 301.23 285.236 284.345 305.24 284.267 282.616 277.492 270.77 259.353 255.226 251.892 241.996 292.107 236.862 234.52 231.281 281.54 258.545 262.558 271.98 287.601 248.667 248.452 244.79 230.045 223.827 222.626 238.243 220.024 219.736 216.468 215.991 214.006 237.667 228.982 226.32 211.974 211.409 289.016 257.844 206.331 209.944 243.536 243.517 213.746 203.907 203.03 344.353
threshold=-0.59102982282638539 -0.56635808944702137 -0.78350529074668873 -0.55533501505851735 -0.80957147479057301 -0.51051440834999073 -0.52051207423210133 -0.84462296962738026 -0.5643709897994994 1.6667044758796694 1.3851179480552676 0.8608994483947755 0.17084533721208575 -0.50823989510536183 -0.20446074008941648 -0.51307463645935047 0.25320661067962652 0.72653579711914074 -0.10407724604010581 -0.66096138954162587 -0.83529800176620472 0.19867009669542315 0.17529729753732684 -0.81410089135169972 -0.4079096913337707 0.59155568480491649 0.26878851652145391 1.0834974050521853 -0.58487519621849049 0.66398093104362499 0.6305103898048402 0.69686761498451244 1.1424859762191775 -0.87647864222526539 -0.2498650327324867 -1.162517189979553 -0.11853216215968131 -0.69951316714286793 1.382891893386841 -0.013911053538322447 -0.60936096310615528 -0.30774053931236262 0.1485855504870415 0.64497923851013195 -0.24546024948358533 0.8052499294281007 1.1413729786872866 0.1085178814828396 0.31330808997154241 0.50474247336387645 -0.47370763123035425 -0.61381289362907399 -0.31887045502662653 0.013589425478130581 -0.75602191686630238 -1.1346923708915708 0.39789538085460668 0.88983723521232616 -0.44352537393569941 -0.27323783934116358 -0.80980008840560902 1.0367519259452822
decision_type=2 2 2 2 2 2 2 2 2 2 2 2 2 2 2 2 2 2 2 2 2 2 2 2 2 2 2 2 2 2 2 2 2 2 2 2 2 2 2 2 2 2 2 2 2 2 2 2 2 2 2 2 2 2 2 2 2 2 2 2 2 2
left_child=2 8 23 12 -5 15 13 -8 -2 10 19 -12 38 21 54 -4 40 43 -13 25 -20 -6 -17 -1 44 51 28 -26 -27 31 37 32 35 34 36 -21 -34 39 -3 -31 41 -11 -28 -18 -7 -39 47 -33 -48 59 -23 52 53 -9 -10 57 -57 -56 -58 -49 -16 -62
right_child=1 3 5 4 6 24 7 9 14 16 11 18 -14 -15 60 22 17 -19 20 29 -22 50 -24 -25 27 26 42 -29 -30 30 -32 46 33 -35 -36 -37 -38 45 -40 -41 -42 -43 -44 -45 -46 -47 48 49 -50 -51 -52 -53 -54 -55 55 56 58 -59 -60 -61 61 -63
leaf_value=0.34155285516544687 0.22803970552670227 0.066143647009221443 0.28363254104783336 0.26992223620122036 0.013701978308426236 0.048005993016852072 0.29124099851971486 0.35072362418064451 0.22649132588249787 0.28692218563400068 0.056913181529751181 0.30576524844251118 0.27522114587832175 0.31732026588861251 0.25798674572757768 0.04296182908214629 0.34120265062167376 -0.0066710624723006198 0.31052881972012553 0.29855431110933406 -0.054514284754062309 0.0094834180155212913 0.27274502556201119 0.30524945228460632 0.26225921451846779 0.25912473602329456 0.085444288819421177 0.0734676572180743 -0.054545785915444955 0.071485600070805094 -0.05448581889038271 -0.026267127439915092 0.41132176987631985 0.029708417353997374 0.020746042022286432 -0.007594857487459649 0.038888357038165733 -0.027020156591953132 0.3010101905788905 0.37311697392542342 -0.022684511688307249 -0.054508208970612308 0.39359908764074436 0.068160847785980014 0.19338927331923753 0.23640449844950839 0.23413319052576972 0.022010721605466979 -0.05454291795018016 -0.054544400628741989 0.29274484637241927 -0.0081190211311886508 -0.022729178149206709 0.047103733130437336 0.014576640039115544 -0.042562158377084741 0.26072551569003327 0.37025472749889976 0.033350423709588461 0.24676153086880792 0.068523120825770292 0.28652939393742266
leaf_weight=784.65851522982121 325.15753354877234 48.684166431427002 1206.8899094089866 30.878302380442619 34.520121537148952 34.186820209026337 20.46290323138237 17.499136298894886 25.145595215260983 15.554792746901514 121.76572886109352 32.767549432814121 62.601033337414265 25.357071079313755 75.449263580143452 23.954917579889297 31.384413242340088 12.324295595288275 8.0877120867371577 6.6903517171740523 14.610824972391127 9.1426723077893239 25.195942267775536 1264.0889258831739 182.02585323154926 9.4323677495121974 8.4422346577048319 18.282498598098755 16.182268992066383 9.3543071076273936 20.793064452707767 62.412055656313896 15.236320316791536 126.48805040121078 15.7311570122838 770.13040632754564 6.3419310599565497 21.487984836101532 13.266980670392511 17.956537693738937 37.199412152171135 7.6083021089434615 18.456056036055088 9.6293908432126027 101.98251139372587 12.199189089238642 32.711304143071175 15.367759726941584 8.695488825440405 15.047101236879824 23.791540436446667 63.583212524652481 18.632902190089226 11.646450415253637 8.4870094805955905 47.423953242599964 16.837474174797535 11.114468641579149 26.768160939216614 29.395651340484619 52.519363090395927 27.649994090199471
leaf_count=1413 1898 463 4460 157 393 311 99 91 148 87 1301 175 341 104 417 220 186 150 44 38 194 99 121 3500 825 73 88 153 214 95 277 776 72 1496 189 9662 75 273 61 79 474 101 74 103 623 97 224 171 115 199 130 777 238 134 92 571 98 41 285 200 495 132
internal_value=0.21455 0.0984471 0.295096 0.0682643 0.0593341 0.264147 0.0556271 0.0493621 0.191928 0.0463457 0.0403099 0.10531 0.196245 0.167769 0.151631 0.278824 0.127414 0.211529 0.211555 0.031776 0.0755542 0.11155 0.160754 0.319153 0.209359 0.0933233 0.181805 0.245028 0.0609607 0.023272 0.1044 0.0172629 0.00717207 0.0647005 0.183332 -0.00495815 0.301862 0.158561 0.116441 0.269804 0.0530868 0.174774 0.296882 0.277097 0.156889 0.0683742 0.07527 0.0419878 0.173511 0.113211 0.21411 0.0515995 0.131072 0.229398 0.0972065 0.0678211 0.0358589 0.216254 0.121147 0.169602 0.199117 0.143712
internal_weight=6167.37 2526.1 3641.27 1909.55 1785 1592.52 1754.12 1661.31 616.553 1640.85 1527.15 177.232 124.552 92.8114 291.395 1256.04 113.701 53.3381 55.4661 1349.91 22.6985 67.4543 49.1509 2048.75 336.478 163.875 52.5129 200.308 25.6146 1186.04 81.7911 1104.25 940.618 163.797 37.3094 776.821 21.5783 60.998 61.9511 27.3108 60.3625 23.1631 26.8983 41.0138 136.169 33.6872 163.629 122.223 41.4068 59.8105 32.9342 111.362 47.7785 29.1456 135.777 110.631 91.0296 19.6015 43.6056 44.7634 155.619 80.1694
internal_count=36192 24566 11626 20389 19524 6713 19367 18641 4177 18542 17441 1714 865 726 2279 4801 1101 439 413 15727 238 622 341 4913 1912 1689 449 978 287 14038 821 13217 11532 1832 336 9700 147 544 524 174 662 188 162 289 934 370 1685 1346 339 570 229 1240 463 225 1235 1087 954 133 383 371 1044 627
is_linear=0
shrinkage=0.05


Tree=2
num_leaves=63
num_cat=0
split_feature=523 64 532 469 190 10 160 0 495 289 387 532 199 201 87 189 451 93 345 334 165 324 87 251 168 440 459 468 402 457 448 77 537 396 285 48 129 210 514 330 63 69 144 17 207 417 79 298 27 9 130 486 192 150 324 442 227 420 510 270 243 480
split_gain=13213.5 1898.6 667.611 612.465 400.229 314.675 284.064 285.543 261.948 242.487 240.835 239.269 233.111 228.973 246.175 220.705 220.261 213.131 212.581 207.364 206.119 254.207 255.709 270.101 234.14 228.263 225.406 216.499 206.53 246.982 207.332 205.958 209.928 199.116 265.989 197.224 191.726 190.377 189.906 187.808 187.514 181.898 181.209 181.679 230.969 193.076 241.862 192.759 192.276 209.7 192.109 176.258 176.18 195.64 292.957 191.528 257.632 189.269 180.223 173.298 172.668 171.714
threshold=-0.58653306961059559 -0.56635808944702137 -0.72659212350845326 -0.54257461428642262 -0.75957819819450367 -0.83924615383148182 0.10023934766650201 -0.41347461938858027 0.99445828795433056 -0.68414077162742604 0.14302057772874835 -0.57707095146179188 -0.49249961972236628 0.562617987394333 0.57374784350395214 -1.1346923708915708 -0.82912436127662648 -0.48136706650257105 1.3840049505233767 -0.5635366141796111 1.5309196114540102 0.3611667156219483 0.45354491472244268 0.32196497917175299 -0.79523035883903492 0.37716440856456762 -0.87313970923423756 0.6182675063610078 -0.87313970923423756 -0.20285077393054959 -0.67505905032157887 0.24021463096141818 -0.50362685322761525 -0.8553318679332732 -0.094046395272016511 -0.7251119315624236 1.4218466281890871 1.1547288298606875 -0.54968056082725514 -0.10072432830929755 1.422959625720978 -0.52811267971992482 2.5693397521972661 0.41945225000381475 0.20868702977895739 -0.6293947398662566 -0.11822228878736495 0.19591707736253741 0.3010652363300324 -0.022814968600869175 0.56049549579620372 -0.48470604419708246 1.1547288298606875 -0.062882637605071054 -0.087368458509445177 0.79092395305633556 0.2492802515625954 0.6305103898048402 -0.4479773342609405 1.3461632132530215 1.2181693315505984 1.8692687153816225
decision_type=2 2 2 2 2 2 2 2 2 2 2 2 2 2 2 2 2 2 2 2 2 2 2 2 2 2 2 2 2 2 2 2 2 2 2 2 2 2 2 2 2 2 2 2 2 2 2 2 2 2 2 2 2 2 2 2 2 2 2 2 2 2
left_child=2 9 16 10 -5 -6 7 20 12 40 15 -8 31 14 18 -3 -1 59 36 -20 21 22 23 33 -22 26 -23 -26 41 30 -30 -4 -33 34 -7 -36 -11 -14 -12 -25 -2 -28 43 45 47 46 48 -45 49 50 -9 -51 55 -54 -55 -13 58 -56 -57 -16 -15 -50
right_child=1 3 8 4 5 6 11 42 -10 13 38 52 37 60 17 -17 -18 -19 19 -21 24 25 -24 39 27 -27 28 -29 29 -31 -32 32 -34 -35 35 -37 -38 -39 -40 -41 -42 -43 -44 44 -46 -47 -48 -49 61 51 -52 -53 53 54 57 56 -58 -59 -60 -61 -62 -63
leaf_value=0.25272946334437979 0.19503095706204976 0.22494937454943426 0.20865227580378343 0.19719861437989275 0.21394365559651179 -0.021584495068558709 0.20265312694883852 -0.02771056602774348 0.23343470782635758 0.026729185411372303 0.061728447961466718 -0.0022154188228191061 0.14990012048044027 0.20847629379306354 -0.055731850755799645 0.040672426223076888 0.22608003775482666 0.22864649422489572 0.31629132038317342 0.041557698256046084 0.35547195796588726 -0.01690161485556279 -0.054750119828540146 0.29007722271013647 -0.054673826672171993 -0.05469411461401022 0.085022286819912529 0.28016005404872152 0.19731374206413163 0.24393508094218516 -0.03128056878905814 0.059813959105330328 0.17923065611648162 0.0053146294867645692 0.35753578664435359 0.099137358756149763 0.19821531226474484 0.0078074342812307438 0.26081837388711171 0.014347772703868637 0.018278263093586256 0.3520206530713173 0.261913572367584 0.23634501990876472 -0.023329403273856235 0.011446030292745671 -0.0381878203068656 -0.054637515426496919 -0.020997866642827198 0.058613589963619442 0.32710142124968344 0.2547407503989142 0.0035504836788652454 -0.028290217899295034 0.23436818413648275 0.0037082135049649281 -0.0071075733588683845 -0.00017031032756513337 0.25497795660858402 0.23139035210840417 -0.0016385431506142009 0.28787933147834066
leaf_weight=1206.901145555079 316.50856970995665 23.064522124826908 498.81866034865379 46.486326135694981 28.333421275019646 17.560234911739826 18.165759816765785 21.853905096650127 284.02151781320572 135.64607920497656 14.992435373365877 552.13056399673223 165.68811819702387 100.28351906687021 14.633288674056532 54.981225080788136 2168.4394524767995 55.963850177824497 15.84048752486706 12.126080542802809 15.823060825467108 15.664107866585253 44.731354996562004 22.255419217050079 10.686857625842096 13.715142913162707 8.440007805824278 8.8054078146815282 16.331343039870259 31.580224134027958 25.263535335659984 50.3089364990592 137.08659109473228 88.449916556477547 14.299052715301515 15.270773530006407 18.525014281272888 27.482860662043095 59.570227012038231 8.5476410016417486 15.751932822167872 26.122029930353165 9.2830239459872228 34.401521116495132 18.784929655492306 392.49688988178968 35.875849738717079 6.8196866065263739 35.014006890356541 15.511456474661825 4.6217928901314727 43.810224942862988 60.716238148510456 22.314273178577423 42.863282062113285 10.03416910022497 37.061604455113411 10.761444188654421 24.709420405328274 8.2003694921731931 10.834104798734186 5.1631160527467719
leaf_count=1843 1454 98 1755 217 116 202 78 269 879 1247 117 6640 925 479 164 486 5228 261 39 110 64 193 576 121 139 178 82 44 101 190 317 334 568 1028 43 130 87 237 230 98 131 109 41 201 229 4520 456 89 428 146 14 245 707 276 281 111 430 123 123 35 104 26
internal_value=0.172141 0.0849475 0.224351 0.0602298 0.0523322 0.0486204 0.0459976 0.063532 0.191688 0.155606 0.156525 0.0233199 0.178204 0.127881 0.102285 0.095131 0.235609 0.176121 0.0703413 0.197169 0.0974796 0.0858069 0.0513786 0.0799108 0.212579 0.138815 0.160323 0.0965835 0.186089 0.138512 0.0584721 0.191863 0.147172 0.0495455 0.132554 0.224091 0.0473348 0.129684 0.220787 0.213564 0.186651 0.28682 0.0426537 0.0393407 0.121984 0.0303948 0.0763468 0.188205 0.108965 0.151236 0.034228 0.203457 0.0190368 0.0704565 0.123951 0.00777476 0.084592 0.187301 0.18241 0.0473838 0.18799 0.0186956
internal_weight=7256.43 2717.68 4538.75 2013.37 1860.76 1814.27 1785.94 1007.18 1163.41 704.313 152.608 778.757 879.385 372.053 260.935 78.0457 3375.34 78.7975 182.138 27.9666 383.546 348.231 211.114 166.383 35.3153 137.116 123.401 19.4923 107.737 73.1751 41.5949 686.214 187.396 135.58 47.1301 29.5698 154.171 193.171 74.5627 30.8031 332.261 34.562 623.636 614.353 60.0061 554.347 161.85 41.2212 125.975 85.7974 26.4757 59.3217 760.591 136.655 75.939 623.936 71.8052 53.6247 34.7436 22.8337 111.118 40.1771
internal_count=36192 24423 11769 20312 19381 19164 19048 10279 4698 4111 931 8769 3819 2526 1943 584 7071 460 1483 149 3615 3368 2198 1622 247 1170 992 183 799 608 418 2657 902 1403 375 173 1334 1162 347 219 1585 191 6664 6623 519 6104 1584 290 1128 674 283 391 8691 1387 680 7304 664 404 234 199 583 454
is_linear=0
shrinkage=0.05


end of trees

feature_importances:
Column_532=7
Column_523=5
Column_495=4
Column_10=3
Column_387=3
Column_396=3
Column_397=3
Column_531=3
Column_0=2
Column_9=2
Column_64=2
Column_87=2
Column_177=2
Column_199=2
Column_207=2
Column_210=2
Column_240=2
Column_244=2
Column_252=2
Column_270=2
Column_273=2
Column_285=2
Column_324=2
Column_336=2
Column_343=2
Column_352=2
Column_406=2
Column_408=2
Column_442=2
Column_462=2
Column_468=2
Column_469=2
Column_486=2
Column_514=2
Column_1=1
Column_3=1
Column_6=1
Column_7=1
Column_17=1
Column_21=1
Column_27=1
Column_28=1
Column_30=1
Column_36=1
Column_37=1
Column_41=1
Column_48=1
Column_55=1
Column_57=1
Column_63=1
Column_69=1
Column_77=1
Column_78=1
Column_79=1
Column_81=1
Column_93=1
Column_102=1
Column_105=1
Column_120=1
Column_123=1
Column_126=1
Column_129=1
Column_130=1
Column_144=1
Column_145=1
Column_150=1
Column_159=1
Column_160=1
Column_165=1
Column_168=1
Column_171=1
Column_187=1
Column_189=1
Column_190=1
Column_192=1
Column_198=1
Column_201=1
Column_208=1
Column_215=1
Column_217=1
Column_220=1
Column_227=1
Column_235=1
Column_243=1
Column_246=1
Column_249=1
Column_251=1
Column_253=1
Column_267=1
Column_279=1
Column_289=1
Column_294=1
Column_298=1
Column_307=1
Column_309=1
Column_310=1
Column_321=1
Column_330=1
Column_334=1
Column_342=1
Column_345=1
Column_351=1
Column_357=1
Column_365=1
Column_375=1
Column_384=1
Column_386=1
Column_399=1
Column_402=1
Column_417=1
Column_420=1
Column_426=1
Column_427=1
Column_432=1
Column_440=1
Column_447=1
Column_448=1
Column_450=1
Column_451=1
Column_457=1
Column_459=1
Column_465=1
Column_471=1
Column_480=1
Column_487=1
Column_490=1
Column_506=1
Column_508=1
Column_510=1
Column_513=1
Column_516=1
Column_522=1
Column_525=1
Column_527=1
Column_534=1
Column_537=1
Column_539=1

parameters:
[boosting: gbdt]
[objective: binary]
[metric: binary_logloss]
[tree_learner: serial]
[device_type: cpu]
[data_sample_strategy: bagging]
[data: ]
[valid: ]
[num_iterations: 300]
[learning_rate: 0.05]
[num_leaves: 63]
[num_threads: 32]
[seed: 2021]
[deterministic: 0]
[force_col_wise: 0]
[force_row_wise: 0]
[histogram_pool_size: -1]
[max_depth: -1]
[min_data_in_leaf: 50]
[min_sum_hessian_in_leaf: 0.001]
[bagging_fraction: 1]
[pos_bagging_fraction: 1]
[neg_bagging_fraction: 1]
[bagging_freq: 0]
[bagging_seed: 5064]
[bagging_by_query: 0]
[feature_fraction: 1]
[feature_fraction_bynode: 1]
[feature_fraction_seed: 6682]
[extra_trees: 0]
[extra_seed: 17862]
[early_stopping_round: 0]
[early_stopping_min_delta: 0]
[first_metric_only: 0]
[max_delta_step: 0]
[lambda_l1: 0]
[lambda_l2: 0]
[linear_lambda: 0]
[min_gain_to_split: 0]
[drop_rate: 0.1]
[max_drop: 50]
[skip_drop: 0.5]
[xgboost_dart_mode: 0]
[uniform_drop: 0]
[drop_seed: 14392]
[top_rate: 0.2]
[other_rate: 0.1]
[min_data_per_group: 100]
[max_cat_threshold: 32]
[cat_l2: 10]
[cat_smooth: 10]
[max_cat_to_onehot: 4]
[top_k: 20]
[monotone_constraints: ]
[monotone_constraints_method: basic]
[monotone_penalty: 0]
[feature_contri: ]
[forcedsplits_filename: ]
[refit_decay_rate: 0.9]
[cegb_tradeoff: 1]
[cegb_penalty_split: 0]
[cegb_penalty_feature_lazy: ]
[cegb_penalty_feature_coupled: ]
[path_smooth: 0]
[interaction_constraints: ]
[verbosity: -1]
[saved_feature_importance_type: 0]
[use_quantized_grad: 0]
[num_grad_quant_bins: 4]
[quant_train_renew_leaf: 0]
[stochastic_rounding: 1]
[linear_tree: 0]
[max_bin: 255]
[max_bin_by_feature: ]
[min_data_in_bin: 3]
[bin_construct_sample_cnt: 200000]
[data_random_seed: 6638]
[is_enable_sparse: 1]
[enable_bundle: 1]
[use_missing: 1]
[zero_as_missing: 0]
[feature_pre_filter: 1]
[pre_partition: 0]
[two_round: 0]
[header: 0]
[label_column: ]
[weight_column: ]
[group_column: ]
[ignore_column: ]
[categorical_feature: ]
[forcedbins_filename: ]
[precise_float_parser: 0]
[parser_config_file: ]
[objective_seed: 14162]
[num_class: 1]
[is_unbalance: 0]
[scale_pos_weight: 11.8295]
[sigmoid: 1]
[boost_from_average: 1]
[reg_sqrt: 0]
[alpha: 0.9]
[fair_c: 1]
[poisson_max_delta_step: 0.7]
[tweedie_variance_power: 1.5]
[lambdarank_truncation_level: 30]
[lambdarank_norm: 1]
[label_gain: ]
[lambdarank_position_bias_regularization: 0]
[eval_at: ]
[multi_error_top_k: 1]
[auc_mu_weights: ]
[num_machines: 1]
[local_listen_port: 12400]
[time_out: 120]
[machine_list_filename: ]
[machines: ]
[gpu_platform_id: -1]
[gpu_device_id: -1]
[gpu_use_dp: 0]
[num_gpu: 1]

end of parameters

pandas_categorical:null
