tree
version=v4
num_class=1
num_tree_per_iteration=1
label_index=0
max_feature_idx=539
objective=binary sigmoid:1
feature_names=Column_0 Column_1 Column_2 Column_3 Column_4 Column_5 Column_6 Column_7 Column_8 Column_9 Column_10 Column_11 Column_12 Column_13 Column_14 Column_15 Column_16 Column_17 Column_18 Column_19 Column_20 Column_21 Column_22 Column_23 Column_24 Column_25 Column_26 Column_27 Column_28 Column_29 Column_30 Column_31 Column_32 Column_33 Column_34 Column_35 Column_36 Column_37 Column_38 Column_39 Column_40 Column_41 Column_42 Column_43 Column_44 Column_45 Column_46 Column_47 Column_48 Column_49 Column_50 Column_51 Column_52 Column_53 Column_54 Column_55 Column_56 Column_57 Column_58 Column_59 Column_60 Column_61 Column_62 Column_63 Column_64 Column_65 Column_66 Column_67 Column_68 Column_69 Column_70 Column_71 Column_72 Column_73 Column_74 Column_75 Column_76 Column_77 Column_78 Column_79 Column_80 Column_81 Column_82 Column_83 Column_84 Column_85 Column_86 Column_87 Column_88 Column_89 Column_90 Column_91 Column_92 Column_93 Column_94 Column_95 Column_96 Column_97 Column_98 Column_99 Column_100 Column_101 Column_102 Column_103 Column_104 Column_105 Column_106 Column_107 Column_108 Column_109 Column_110 Column_111 Column_112 Column_113 Column_114 Column_115 Column_116 Column_117 Column_118 Column_119 Column_120 Column_121 Column_122 Column_123 Column_124 Column_125 Column_126 Column_127 Column_128 Column_129 Column_130 Column_131 Column_132 Column_133 Column_134 Column_135 Column_136 Column_137 Column_138 Column_139 Column_140 Column_141 Column_142 Column_143 Column_144 Column_145 Column_146 Column_147 Column_148 Column_149 Column_150 Column_151 Column_152 Column_153 Column_154 Column_155 Column_156 Column_157 Column_158 Column_159 Column_160 Column_161 Column_162 Column_163 Column_164 Column_165 Column_166 Column_167 Column_168 Column_169 Column_170 Column_171 Column_172 Column_173 Column_174 Column_175 Column_176 Column_177 Column_178 Column_179 Column_180 Column_181 Column_182 Column_183 Column_184 Column_185 Column_186 Column_187 Column_188 Column_189 Column_190 Column_191 Column_192 Column_193 Column_194 Column_195 Column_196 Column_197 Column_198 Column_199 Column_200 Column_201 Column_202 Column_203 Column_204 Column_205 Column_206 Column_207 Column_208 Column_209 Column_210 Column_211 Column_212 Column_213 Column_214 Column_215 Column_216 Column_217 Column_218 Column_219 Column_220 Column_221 Column_222 Column_223 Column_224 Column_225 Column_226 Column_227 Column_228 Column_229 Column_230 Column_231 Column_232 Column_233 Column_234 Column_235 Column_236 Column_237 Column_238 Column_239 Column_240 Column_241 Column_242 Column_243 Column_244 Column_245 Column_246 Column_247 Column_248 Column_249 Column_250 Column_251 Column_252 Column_253 Column_254 Column_255 Column_256 Column_257 Column_258 Column_259 Column_260 Column_261 Column_262 Column_263 Column_264 Column_265 Column_266 Column_267 Column_268 Column_269 Column_270 Column_271 Column_272 Column_273 Column_274 Column_275 Column_276 Column_277 Column_278 Column_279 Column_280 Column_281 Column_282 Column_283 Column_284 Column_285 Column_286 Column_287 Column_288 Column_289 Column_290 Column_291 Column_292 Column_293 Column_294 Column_295 Column_296 Column_297 Column_298 Column_299 Column_300 Column_301 Column_302 Column_303 Column_304 Column_305 Column_306 Column_307 Column_308 Column_309 Column_310 Column_311 Column_312 Column_313 Column_314 Column_315 Column_316 Column_317 Column_318 Column_319 Column_320 Column_321 Column_322 Column_323 Column_324 Column_325 Column_326 Column_327 Column_328 Column_329 Column_330 Column_331 Column_332 Column_333 Column_334 Column_335 Column_336 Column_337 Column_338 Column_339 Column_340 Column_341 Column_342 Column_343 Column_344 Column_345 Column_346 Column_347 Column_348 Column_349 Column_350 Column_351 Column_352 Column_353 Column_354 Column_355 Column_356 Column_357 Column_358 Column_359 Column_360 Column_361 Column_362 Column_363 Column_364 Column_365 Column_366 Column_367 Column_368 Column_369 Column_370 Column_371 Column_372 Column_373 Column_374 Column_375 Column_376 Column_377 Column_378 Column_379 Column_380 Column_381 Column_382 Column_383 Column_384 Column_385 Column_386 Column_387 Column_388 Column_389 Column_390 Column_391 Column_392 Column_393 Column_394 Column_395 Column_396 Column_397 Column_398 Column_399 Column_400 Column_401 Column_402 Column_403 Column_404 Column_405 Column_406 Column_407 Column_408 Column_409 Column_410 Column_411 Column_412 Column_413 Column_414 Column_415 Column_416 Column_417 Column_418 Column_419 Column_420 Column_421 Column_422 Column_423 Column_424 Column_425 Column_426 Column_427 Column_428 Column_429 Column_430 Column_431 Column_432 Column_433 Column_434 Column_435 Column_436 Column_437 Column_438 Column_439 Column_440 Column_441 Column_442 Column_443 Column_444 Column_445 Column_446 Column_447 Column_448 Column_449 Column_450 Column_451 Column_452 Column_453 Column_454 Column_455 Column_456 Column_457 Column_458 Column_459 Column_460 Column_461 Column_462 Column_463 Column_464 Column_465 Column_466 Column_467 Column_468 Column_469 Column_470 Column_471 Column_472 Column_473 Column_474 Column_475 Column_476 Column_477 Column_478 Column_479 Column_480 Column_481 Column_482 Column_483 Column_484 Column_485 Column_486 Column_487 Column_488 Column_489 Column_490 Column_491 Column_492 Column_493 Column_494 Column_495 Column_496 Column_497 Column_498 Column_499 Column_500 Column_501 Column_502 Column_503 Column_504 Column_505 Column_506 Column_507 Column_508 Column_509 Column_510 Column_511 Column_512 Column_513 Column_514 Column_515 Column_516 Column_517 Column_518 Column_519 Column_520 Column_521 Column_522 Column_523 Column_524 Column_525 Column_526 Column_527 Column_528 Column_529 Column_530 Column_531 Column_532 Column_533 Column_534 Column_535 Column_536 Column_537 Column_538 Column_539
feature_infos=[-5.221592903137207:4.7174110412597656] [-0.86116659641265869:3.1393942832946777] [-18.460952758789062:7.3048324584960938] [-4.8164644241333008:4.0407133102416992] [-0.86116659641265869:2.9592044353485107] [-34.152454376220703:5.741854190826416] [-4.7341036796569824:4.4124517440795898] [-0.86116659641265869:3.8682053089141846] [-35.583099365234375:5.741854190826416] [-5.3507003784179688:4.7174110412597656] [-0.86116659641265869:3.1384341716766357] [-18.460952758789062:7.3048324584960938] [-4.7919788360595703:4.1119441986083984] [-0.86116659641265869:2.9501354694366455] [-34.152454376220703:5.741854190826416] [-5.036837100982666:4.1475601196289062] [-0.86116659641265869:3.8682053089141846] [-35.583099365234375:5.741854190826416] [-5.3507003784179688:4.7174110412597656] [-0.86116659641265869:3.1384341716766357] [-18.460952758789062:7.3048324584960938] [-5.0590968132019043:4.1119441986083984] [-0.86116659641265869:2.9410669803619385] [-34.152454376220703:5.741854190826416] [-5.036837100982666:4.6728916168212891] [-0.86116659641265869:3.8682053089141846] [-35.583099365234375:5.741854190826416] [-5.3507003784179688:4.3523502349853516] [-0.86116659641265869:3.137092113494873] [-18.460952758789062:7.3048324584960938] [-5.0590968132019043:6.838770866394043] [-0.86116659641265869:2.974003791809082] [-18.809013366699219:5.741854190826416] [-5.036837100982666:4.6728916168212891] [-0.86116659641265869:3.8682053089141846] [-35.583099365234375:5.741854190826416] [-6.0808219909667969:4.3011527061462402] [-0.86116659641265869:3.132115364074707] [-18.460952758789062:7.3048324584960938] [-5.0590968132019043:4.2276954650878906] [-0.86116659641265869:2.9862205982208252] [-18.809013366699219:5.741854190826416] [-4.8164644241333008:6.4113831520080566] [-0.86116659641265869:3.8682053089141846] [-35.583099365234375:5.741854190826416] [-6.0808219909667969:4.3011527061462402] [-0.86116659641265869:3.1265866756439209] [-22.298454284667969:7.3048324584960938] [-4.7830748558044434:4.2276954650878906] [-0.86116659641265869:2.9984374046325684] [-19.925205230712891:5.741854190826416] [-4.8164644241333008:6.838770866394043] [-0.86116659641265869:3.8682053089141846] [-35.583099365234375:5.741854190826416] [-5.1792998313903809:5.0357265472412109] [-0.86116659641265869:3.1210577487945557] [-22.298454284667969:7.3048324584960938] [-4.8209166526794434:4.7174110412597656] [-0.86116659641265869:3.0205032825469971] [-20.016422271728516:5.741854190826416] [-4.8164644241333008:6.4113831520080566] [-0.86116659641265869:3.8682053089141846] [-35.583099365234375:5.741854190826416] [-5.0234813690185547:6.0908412933349609] [-0.86116659641265869:3.0205976963043213] [-22.298454284667969:7.3048324584960938] [-5.0991640090942383:4.7174110412597656] [-0.86116659641265869:3.0573489665985107] [-20.016422271728516:7.3048324584960938] [-4.7341036796569824:4.490361213684082] [-0.86116659641265869:3.8682053089141846] [-35.583099365234375:5.741854190826416] [-5.5109705924987793:6.0908412933349609] [-0.86116659641265869:3.0146675109863281] [-18.460952758789062:7.3048324584960938] [-4.8209166526794434:5.7369108200073242] [-0.86116659641265869:3.0941884517669678] [-20.016422271728516:7.3048324584960938] [-4.9210858345031738:5.9528307914733887] [-0.86116659641265869:3.8682053089141846] [-35.583099365234375:5.741854190826416] [-5.5109705924987793:6.0908412933349609] [-0.86116659641265869:3.0054748058319092] [-18.460952758789062:7.3048324584960938] [-4.7118434906005859:5.7369108200073242] [-0.86116659641265869:3.121025562286377] [-20.099235534667969:7.3048324584960938] [-4.9210858345031738:5.9528307914733887] [-0.86116659641265869:3.8682053089141846] [-35.583099365234375:5.741854190826416] [-5.4619989395141602:6.0908412933349609] [-0.86116659641265869:2.9832098484039307] [-18.460952758789062:7.3048324584960938] [-7.3874721527099609:4.1809496879577637] [-0.86116659641265869:3.1245131492614746] [-20.099235534667969:7.3048324584960938] [-5.0947127342224121:4.4770054817199707] [-0.86116659641265869:3.8682053089141846] [-35.583099365234375:5.741854190826416] [-5.4619989395141602:5.7369108200073242] [-0.86116659641265869:2.9609482288360596] [-18.460952758789062:7.3048324584960938] [-7.3874721527099609:4.728541374206543] [-0.86116659641265869:3.1279976367950439] [-20.099235534667969:7.3048324584960938] [-5.0590968132019043:4.0251312255859375] [-0.86116659641265869:3.8682053089141846] [-35.583099365234375:5.741854190826416] [-5.4486432075500488:5.3518157005310059] [-0.86116659641265869:2.9386796951293945] [-18.460952758789062:7.3048324584960938] [-7.3874721527099609:4.728541374206543] [-0.86116659641265869:3.1333005428314209] [-20.204853057861328:7.3048324584960938] [-5.0590968132019043:4.7908682823181152] [-0.86116659641265869:3.8682053089141846] [-35.583099365234375:5.741854190826416] [-5.1592659950256348:4.5994343757629395] [-0.86116659641265869:2.9164180755615234] [-18.460952758789062:7.3048324584960938] [-4.7452335357666016:4.728541374206543] [-0.86116659641265869:3.1416802406311035] [-22.298454284667969:7.3048324584960938] [-4.892148494720459:4.7908682823181152] [-0.86116659641265869:3.8682053089141846] [-35.583099365234375:5.741854190826416] [-5.2304973602294922:4.1119441986083984] [-0.86116659641265869:2.8941531181335449] [-18.460952758789062:7.3048324584960938] [-4.9077296257019043:4.1876277923583984] [-0.86116659641265869:3.1500599384307861] [-22.298454284667969:5.8144493103027344] [-4.892148494720459:4.7908682823181152] [-0.86116659641265869:3.8682053089141846] [-35.583099365234375:5.741854190826416] [-5.2304973602294922:4.1119441986083984] [-0.86116659641265869:2.8706502914428711] [-18.460952758789062:7.3048324584960938] [-4.9077296257019043:5.017918586730957] [-0.86116659641265869:3.1573452949523926] [-22.298454284667969:5.8144493103027344] [-4.7318778038024902:4.6484060287475586] [-0.86116659641265869:3.8682053089141846] [-35.583099365234375:5.741854190826416] [-5.2861471176147461:4.1119441986083984] [-0.86116659641265869:2.8595669269561768] [-18.460952758789062:7.3048324584960938] [-4.778623104095459:5.017918586730957] [-0.86116659641265869:3.1644546985626221] [-20.323673248291016:5.8144493103027344] [-4.8743400573730469:4.6484060287475586] [-0.86116659641265869:3.8682053089141846] [-35.583099365234375:5.741854190826416] [-5.413027286529541:4.7908687591552734] [-0.86116659641265869:2.8595669269561768] [-18.460952758789062:7.3048324584960938] [-4.5627026557922363:4.8954892158508301] [-0.86116659641265869:3.1715610027313232] [-20.323673248291016:5.8144493103027344] [-4.8743400573730469:4.8954892158508301] [-0.86116659641265869:3.8682053089141846] [-35.583099365234375:5.741854190826416] [-5.413027286529541:4.7908687591552734] [-0.86116659641265869:2.8595669269561768] [-18.460952758789062:7.3048324584960938] [-4.6762275695800781:4.8954892158508301] [-0.86116659641265869:3.1782879829406738] [-20.434093475341797:7.3048324584960938] [-4.8743400573730469:4.8954892158508301] [-0.86116659641265869:3.8682053089141846] [-35.583099365234375:5.741854190826416] [-5.413027286529541:6.6562404632568359] [-0.86116659641265869:2.8595669269561768] [-18.460952758789062:7.3048324584960938] [-5.0947127342224121:4.8954892158508301] [-0.86116659641265869:3.1728832721710205] [-20.434093475341797:7.3048324584960938] [-4.9121818542480469:4.8954892158508301] [-0.86116659641265869:3.8682053089141846] [-35.583099365234375:5.741854190826416] [-5.3840899467468262:6.6562404632568359] [-0.86116659641265869:2.8595669269561768] [-18.514963150024414:7.3048324584960938] [-5.2304973602294922:4.5549149513244629] [-0.86116659641265869:3.1472647190093994] [-20.508506774902344:7.3048324584960938] [-4.9121818542480469:4.5571403503417969] [-0.86116659641265869:3.8682053089141846] [-35.583099365234375:5.741854190826416] [-5.3840899467468262:6.6562404632568359] [-0.86116659641265869:2.8595669269561768] [-18.514963150024414:7.3048324584960938] [-10.241179466247559:3.9182839393615723] [-0.86116659641265869:3.1208128929138184] [-20.508506774902344:7.3048324584960938] [-4.9121818542480469:4.5571403503417969] [-0.86116659641265869:3.8682053089141846] [-35.583099365234375:5.741854190826416] [-5.3840899467468262:4.0251312255859375] [-0.86116659641265869:2.8595669269561768] [-18.460952758789062:7.3048324584960938] [-10.241179466247559:4.5682706832885742] [-0.86116659641265869:3.0910208225250244] [-20.508506774902344:7.3048324584960938] [-5.2616605758666992:4.0407133102416992] [-0.86116659641265869:3.8682053089141846] [-35.583099365234375:5.741854190826416] [-5.4441909790039062:3.6667482852935791] [-0.86116659641265869:2.8732104301452637] [-26.082265853881836:7.3048324584960938] [-5.0702266693115234:4.5682706832885742] [-0.86116659641265869:3.0612318515777588] [-20.616523742675781:7.3048324584960938] [-5.2616605758666992:5.017918586730957] [-0.86116659641265869:3.8682053089141846] [-35.583099365234375:5.741854190826416] [-5.8092522621154785:3.9383177757263184] [-0.86116659641265869:3.0773282051086426] [-18.809013366699219:7.3048324584960938] [-4.9210858345031738:4.5682706832885742] [-0.86116659641265869:3.103809118270874] [-20.616523742675781:7.3048324584960938] [-6.025172233581543:5.0357265472412109] [-0.86116659641265869:3.8682053089141846] [-35.583099365234375:5.741854190826416] [-6.3345832824707031:4.5549149513244629] [-0.86116659641265869:3.0647847652435303] [-18.809013366699219:7.3048324584960938] [-4.9900913238525391:6.5271334648132324] [-0.86116659641265869:3.1059966087341309] [-17.893255233764648:7.3048324584960938] [-6.025172233581543:5.0357265472412109] [-0.86116659641265869:3.8682053089141846] [-35.583099365234375:5.741854190826416] [-6.3345832824707031:4.5549149513244629] [-0.86116659641265869:3.0522446632385254] [-18.809013366699219:7.3048324584960938] [-5.0034470558166504:6.5271334648132324] [-0.86116659641265869:3.1081850528717041] [-17.893255233764648:7.3048324584960938] [-6.025172233581543:5.0357265472412109] [-0.86116659641265869:3.8682053089141846] [-35.583099365234375:5.741854190826416] [-6.3345832824707031:5.0980539321899414] [-0.86116659641265869:3.0406453609466553] [-18.809013366699219:7.3048324584960938] [-5.1013903617858887:6.5271334648132324] [-0.86116659641265869:3.1071071624755859] [-17.893255233764648:7.3048324584960938] [-4.9077301025390625:4.5059432983398438] [-0.86116659641265869:3.8682053089141846] [-35.583099365234375:5.741854190826416] [-5.7580547332763672:5.0980539321899414] [-0.86116659641265869:3.0374646186828613] [-18.809013366699219:7.3048324584960938] [-5.1013903617858887:4.5571403503417969] [-0.86116659641265869:3.0984206199645996] [-17.893255233764648:7.3048324584960938] [-4.8120131492614746:4.5059432983398438] [-0.86116659641265869:3.8682053089141846] [-35.583099365234375:5.741854190826416] [-5.7580547332763672:5.0980539321899414] [-0.86116659641265869:3.0342874526977539] [-18.809013366699219:7.3048324584960938] [-5.1013903617858887:12.236774444580078] [-0.86116659641265869:3.0897307395935059] [-18.809013366699219:7.3048324584960938] [-4.8609843254089355:4.1030402183532715] [-0.86116659641265869:3.8682053089141846] [-35.583099365234375:5.741854190826416] [-5.7580547332763672:4.2121138572692871] [-0.86116659641265869:3.0340163707733154] [-18.809013366699219:7.3048324584960938] [-5.1013903617858887:12.236774444580078] [-0.86116659641265869:3.0810444355010986] [-18.809013366699219:7.3048324584960938] [-4.8609843254089355:3.8426008224487305] [-0.86116659641265869:3.8682053089141846] [-35.583099365234375:6.8505892753601074] [-5.0791306495666504:4.2855710983276367] [-0.86116659641265869:3.0354628562927246] [-18.809013366699219:7.3048324584960938] [-21.190780639648438:4.574948787689209] [-0.86116659641265869:3.072354793548584] [-20.812158584594727:7.3048324584960938] [-4.8609843254089355:3.8693125247955322] [-0.86116659641265869:3.8682053089141846] [-35.583099365234375:6.8505892753601074] [-5.0947127342224121:4.2855710983276367] [-0.86116659641265869:3.036909818649292] [-18.809013366699219:7.3048324584960938] [-21.190780639648438:4.574948787689209] [-0.86116659641265869:3.0636680126190186] [-20.951381683349609:7.3048324584960938] [-4.8721146583557129:4.385739803314209] [-0.86116659641265869:3.8682053089141846] [-35.583099365234375:6.8505892753601074] [-5.1459102630615234:4.2855710983276367] [-0.86116659641265869:3.0383560657501221] [-18.809013366699219:7.3048324584960938] [-5.3751864433288574:4.2811188697814941] [-0.86116659641265869:3.0631976127624512] [-20.951381683349609:7.3048324584960938] [-4.8854703903198242:4.385739803314209] [-0.86116659641265869:3.8682053089141846] [-35.583099365234375:6.8505892753601074] [-5.1459102630615234:4.2855710983276367] [-0.86116659641265869:3.0398027896881104] [-18.809013366699219:7.3048324584960938] [-4.7096176147460938:4.0941367149353027] [-0.86116659641265869:3.0767924785614014] [-20.951381683349609:7.3048324584960938] [-5.0947127342224121:4.385739803314209] [-0.86116659641265869:3.8682053089141846] [-35.583099365234375:6.8505892753601074] [-5.1459102630615234:4.2811188697814941] [-0.86116659641265869:3.0410864353179932] [-18.809013366699219:7.3048324584960938] [-4.769719123840332:4.3523502349853516] [-0.86116659641265869:3.0903871059417725] [-21.112209320068359:7.3048324584960938] [-5.0947127342224121:5.0134663581848145] [-0.86116659641265869:3.8682053089141846] [-35.583099365234375:6.8505892753601074] [-5.1459102630615234:5.5009565353393555] [-0.86116659641265869:3.0421280860900879] [-18.809013366699219:7.3048324584960938] [-5.7580547332763672:5.1759629249572754] [-0.86116659641265869:2.9379351139068604] [-21.112209320068359:7.3048324584960938] [-5.1214241981506348:5.8482098579406738] [-0.86116659641265869:3.8682053089141846] [-35.583099365234375:6.8505892753601074] [-5.1013903617858887:5.5009565353393555] [-0.86116659641265869:3.0431699752807617] [-18.809013366699219:7.3048324584960938] [-5.7580547332763672:5.1759629249572754] [-0.86116659641265869:2.9379088878631592] [-21.112209320068359:7.3048324584960938] [-4.6762275695800781:5.8482098579406738] [-0.86116659641265869:3.8682053089141846] [-35.583099365234375:6.8505892753601074] [-5.1013903617858887:4.728541374206543] [-0.86116659641265869:3.0432674884796143] [-18.809013366699219:7.3048324584960938] [-5.413027286529541:5.6011257171630859] [-0.86116659641265869:2.9378764629364014] [-21.112209320068359:7.3048324584960938] [-4.6762275695800781:5.8482098579406738] [-0.86116659641265869:3.8682053089141846] [-35.619106292724609:6.8505892753601074] [-5.1013903617858887:4.728541374206543] [-0.86116659641265869:3.0419549942016602] [-18.809013366699219:7.3048324584960938] [-5.3017282485961914:7.4687232971191406] [-0.86116659641265869:2.938784122467041] [-21.250232696533203:7.3048324584960938] [-4.7674932479858398:4.5549149513244629] [-0.86116659641265869:3.8682053089141846] [-35.619106292724609:6.8505892753601074] [-5.1013903617858887:4.728541374206543] [-0.86116659641265869:3.040642261505127] [-18.809013366699219:7.3048324584960938] [-5.0301589965820312:5.6011257171630859] [-0.86116659641265869:2.9388952255249023] [-21.286239624023438:7.3048324584960938] [-4.7341032028198242:4.5549149513244629] [-0.86116659641265869:3.8682053089141846] [-35.65631103515625:6.8505892753601074] [-4.9077296257019043:4.3145089149475098] [-0.86116659641265869:3.3209888935089111] [-18.809013366699219:7.3048324584960938] [-4.8876962661743164:4.5326547622680664] [-0.86116659641265869:2.9390032291412354] [-21.286239624023438:7.3048324584960938] [-4.9900913238525391:4.0295834541320801] [-0.86116659641265869:3.8682053089141846] [-35.65631103515625:6.8505892753601074] [-4.9077296257019043:4.3145089149475098] [-0.86116659641265869:3.3336007595062256] [-18.809013366699219:7.3048324584960938] [-4.8031091690063477:67.559074401855469] [-0.86116659641265869:2.944678783416748] [-21.286239624023438:5.8144493103027344] [-5.0501928329467773:4.7908687591552734] [-0.86116659641265869:3.8682053089141846] [-35.65631103515625:7.3048324584960938] [-4.9077296257019043:4.385739803314209] [-0.86116659641265869:3.34621262550354] [-18.809013366699219:7.3048324584960938] [-22.041105270385742:4.1186223030090332] [-0.86116659641265869:2.9543123245239258] [-21.286239624023438:5.8144493103027344] [-5.0501928329467773:4.7908687591552734] [-0.86116659641265869:3.8682053089141846] [-35.65631103515625:7.3048324584960938] [-5.1481356620788574:4.385739803314209] [-0.86116659641265869:3.0747711658477783] [-18.809013366699219:7.3048324584960938] [-22.041105270385742:4.3011527061462402] [-0.86116659641265869:2.9639458656311035] [-21.286239624023438:7.3048324584960938] [-5.535456657409668:4.7908687591552734] [-0.86116659641265869:3.8682053089141846] [-35.65631103515625:7.3048324584960938] [-5.1481356620788574:7.4687232971191406] [-0.86116659641265869:3.066401481628418] [-18.809013366699219:7.3048324584960938] [-5.7335686683654785:4.8999414443969727] [-0.86116659641265869:2.9538977146148682] [-21.336648941040039:7.3048324584960938] [-5.0501928329467773:4.316734790802002] [-0.86116659641265869:3.8682053089141846] [-18.728599548339844:6.8505892753601074] [-5.535456657409668:4.2811188697814941] [-0.86116659641265869:3.0580317974090576] [-18.809013366699219:7.3048324584960938] [-5.7335686683654785:4.7619309425354004] [-0.86116659641265869:2.9203042984008789] [-21.371454238891602:7.3048324584960938] [-5.0501928329467773:3.9561254978179932] [-0.86116659641265869:3.8682053089141846] [-18.667388916015625:6.8505892753601074] [-5.036837100982666:4.9578170776367188] [-0.86116659641265869:3.0425913333892822] [-18.809013366699219:7.3048324584960938] [-5.7335686683654785:4.7619309425354004] [-0.86116659641265869:2.8867108821868896] [-21.371454238891602:7.3048324584960938] [-5.4486432075500488:3.9605777263641357] [-0.86116659641265869:3.8682053089141846] [-18.675790786743164:6.8505892753601074] [-5.036837100982666:4.9578170776367188] [-0.86116659641265869:3.0165584087371826] [-18.781408309936523:7.3048324584960938] [-5.2727909088134766:37.129920959472656] [-0.86116659641265869:2.6521937847137451] [-21.371454238891602:7.3048324584960938] [-5.4486432075500488:4.5326547622680664] [-0.86116659641265869:3.8682053089141846] [-18.628982543945312:6.8505892753601074] [-5.0902605056762695:4.3723845481872559] [-0.86116659641265869:2.9905250072479248] [-18.809013366699219:7.3048324584960938] [-5.2727909088134766:3.8715384006500244] [-0.86116659641265869:2.879366397857666] [-21.371454238891602:7.3048324584960938] [-5.4486432075500488:4.5326547622680664] [-0.86116659641265869:3.8682053089141846] [-18.628982543945312:6.8505892753601074] [-5.0902605056762695:4.2544069290161133] [-0.86116659641265869:2.9710385799407959] [-18.809013366699219:7.3048324584960938] [-5.2304973602294922:5.0980539321899414] [-0.86116659641265869:2.8730342388153076] [-21.371454238891602:7.3048324584960938] [-5.1971073150634766:4.5326547622680664] [-0.86116659641265869:3.8682053089141846] [-18.628982543945312:6.8505892753601074] [-5.0902605056762695:4.2544069290161133] [-0.86116659641265869:2.9668424129486084] [-18.770606994628906:7.3048324584960938] [-5.4486432075500488:5.0980539321899414] [-0.86116659641265869:2.8667056560516357] [-21.370254516601562:7.3048324584960938] [-5.2349491119384766:4.5126214027404785] [-0.86116659641265869:3.8682053089141846] [-18.667388916015625:6.8505892753601074] [-5.123650074005127:5.1759634017944336] [-0.86116659641265869:2.9673910140991211] [-18.781408309936523:7.3048324584960938] [-5.4486432075500488:5.0980539321899414] [-0.86116659641265869:2.8702816963195801] [-21.370254516601562:7.3048324584960938] [-5.2349491119384766:4.7841906547546387] [-0.86116659641265869:3.8682053089141846] [-18.667388916015625:7.3048324584960938] [-5.123650074005127:5.1759634017944336] [-0.86116659641265869:2.9727141857147217] [-18.781408309936523:7.3048324584960938] [-5.5109705924987793:4.6484060287475586] [-0.86116659641265869:2.8801565170288086] [-21.370254516601562:7.3048324584960938] [-5.2349491119384766:4.7841906547546387] [-0.86116659641265869:3.8682053089141846] [-18.667388916015625:7.3048324584960938] [-5.123650074005127:5.1759634017944336] [-0.86116659641265869:2.9780368804931641] [-18.628982543945312:7.3048324584960938] [-5.5109705924987793:4.6484060287475586] [-0.86116659641265869:2.8900284767150879] [-21.396657943725586:7.3048324584960938] [-5.7335686683654785:4.7841906547546387] [-0.86116659641265869:3.8682053089141846] [-18.634983062744141:7.3048324584960938] [-5.8137040138244629:5.017918586730957] [-0.86116659641265869:2.9808814525604248] [-18.628982543945312:7.3048324584960938] [-4.9077301025390625:4.241051197052002] [-0.86116659641265869:2.8974514007568359] [-21.396657943725586:7.3048324584960938] [-4.9077301025390625:4.5393328666687012] [-0.86116659641265869:3.8682053089141846] [-18.634983062744141:7.3048324584960938] [-5.8137040138244629:5.017918586730957] [-0.86116659641265869:2.9550895690917969] [-18.628982543945312:7.3048324584960938] [-4.9077301025390625:4.5549149513244629] [-0.86116659641265869:2.8972551822662354] [-21.396657943725586:7.3048324584960938] [-5.0657744407653809:4.7619309425354004] [-0.86116659641265869:3.8682053089141846] [-18.634983062744141:7.3048324584960938] [-5.8137040138244629:5.2360649108886719] [-0.86116659641265869:2.9443359375] [-18.667388916015625:7.3048324584960938] [-6.025172233581543:4.5549149513244629] [-0.86116659641265869:2.9019415378570557] [-21.480672836303711:7.3048324584960938] [-5.0657744407653809:4.7619309425354004] [-0.86116659641265869:3.8682053089141846] [-18.628982543945312:7.3048324584960938] [-5.161491870880127:5.2360649108886719] [-0.86116659641265869:2.933582067489624] [-18.667388916015625:7.3048324584960938] [-6.025172233581543:4.6127901077270508] [-0.86116659641265869:2.9306690692901611] [-21.480672836303711:7.3048324584960938] [-5.0657744407653809:4.7619309425354004] [-0.86116659641265869:3.8682053089141846] [-18.628982543945312:7.3048324584960938] [-4.9656052589416504:5.2360649108886719] [-0.86116659641265869:2.9230015277862549] [-18.667388916015625:7.3048324584960938] [-6.025172233581543:4.6127901077270508] [-0.86116659641265869:2.9594001770019531] [-21.480672836303711:7.3048324584960938] [-4.9923171997070312:4.2811188697814941] [-0.86116659641265869:3.8682053089141846] [-18.628982543945312:7.3048324584960938]
tree_sizes=6742 6825 6829 6848 6850 6868

Tree=0
num_leaves=63
num_cat=0
split_feature=532 316 532 478 19 534 532 478 504 534 406 516 390 211 496 120 327 202 523 318 459 487 189 289 532 504 93 315 445 405 435 519 98 388 96 255 75 530 165 289 354 0 17 499 469 201 406 415 505 519 471 319 351 414 441 84 261 143 525 258 51 55
split_gain=96962.7 6625.96 4714.05 2332.03 1753.38 1323.35 913.083 759.742 664.416 657.319 624.623 613.827 610.558 590.971 584.91 536.926 520.127 501.494 444.776 439.805 435.156 424.099 421.072 401.248 387.379 383.971 375.384 392.432 362.149 352.464 343.046 341.337 432.921 487.678 336.258 333.653 330.858 356.114 320.544 316.218 315.381 311.158 301.011 291.069 320.241 369.612 280.984 277.689 285.681 277.391 369.827 310.399 276.202 274.981 328.594 317.734 298.983 386.306 343.673 335.007 274.457 326.266
threshold=-0.71435421705245961 -0.65830644965171803 -0.80310720205306996 -0.69337922334671009 -0.75705221295356739 -0.1496959179639816 -0.60997042059898365 -0.83602628111839283 0.38676549494266516 1.5264676809310915 -0.38144740462303156 -0.38231089711189264 -0.60157003998756398 0.10470668971538545 -0.83229202032089222 1.0690286159515383 0.29327426850795751 -0.68625366687774647 -0.67409077286720265 1.0612377524375918 0.075128149241209044 -0.81272929906845082 -0.37674596905708307 -0.85417169332504261 -0.74184262752532948 1.382891893386841 0.51364639401435863 1.5487274527549746 0.48142831027507788 1.2682539224624636 0.69172483682632457 1.0033621788024905 -0.10727532580494879 -0.75956511497497547 -0.66389748454093922 -0.63495972752571095 1.3684230446815493 -1.9596994519233701 -1.3917932510375974 -0.72072547674179066 -0.28770673274993891 0.19087915122509005 0.075261548161506667 -0.83265775442123402 -0.68957310914993275 1.3817788958549502 -0.84620362520217884 -0.85630246996879567 -0.85165065526962269 -1.1335794329643247 1.8803986907005312 -0.79722583293914784 -0.087368458509445177 1.3294684290885928 0.24207671731710437 1.5932470560073855 2.3556455373764043 0.19230266660451892 0.2487546503543854 -0.10517628863453864 1.4496713876724245 -0.84511449933052052
decision_type=2 2 2 2 2 2 2 2 2 2 2 2 2 2 2 2 2 2 2 2 2 2 2 2 2 2 2 2 2 2 2 2 2 2 2 2 2 2 2 2 2 2 2 2 2 2 2 2 2 2 2 2 2 2 2 2 2 2 2 2 2 2
left_child=2 7 14 11 18 8 10 -2 17 12 49 16 21 19 -1 29 -3 -4 -5 31 26 -9 -11 -8 -7 36 27 -19 38 -15 -18 32 -14 39 -13 -27 37 -20 -23 -34 -33 -36 -22 -26 -45 -46 -40 -25 -49 50 -6 -51 -39 -50 -55 56 57 -56 59 -59 61 -54
right_child=1 3 5 4 6 24 23 9 -10 22 -12 34 13 15 -16 -17 30 20 25 -21 42 28 -24 47 43 35 -28 -29 -30 -31 -32 40 33 -35 41 -37 -38 52 46 -41 -42 -43 -44 44 45 -47 -48 48 53 51 -52 -53 60 54 55 -57 -58 58 -60 -61 -62 -63
leaf_value=-1.9002118767303009 -2.0902566550508741 -2.5768788705507597 -2.1215245737211439 -2.0055106196479215 -2.3875028233191138 -2.0047456208350281 -2.1339438312171484 -2.0578568311855689 -2.0623890678892933 -2.3848956795598641 -2.1256757105386708 -2.0104543036997242 -2.1886657736341579 -2.5768788705507597 -1.9609117103168652 -2.1778194716442032 -2.1451942505584198 -2.5039347483051277 -2.0989094215765949 -2.0772112139797407 -2.4134520974675198 -2.065181738943179 -2.0625072686225345 -2.08596634181538 -1.8865748544131065 -2.5768788705507597 -2.2200398155564507 -2.0805906864760573 -2.21232590037632 -2.2180977313687746 -2.5768788705507597 -2.46135689568505 -2.4081276879855484 -2.5537238865958023 -2.1668598436315314 -2.0757894780184936 -2.1501618897181354 -2.5586210632599991 -2.2033113436133815 -2.0637333443237753 -2.0387832298923083 -2.5768788705507597 -2.0499163782362828 -2.0935438229098162 -2.4562315347431896 -2.0090896601153787 -2.5068104648988467 -2.0769410294700759 -2.5228758404973561 -2.1697537860560878 -1.9199286288084458 -2.5070955934120627 -2.2019870274248632 -2.5161316759629875 -2.5609054437046694 -2.1470706104526287 -2.0345673808899765 -2.5052036999926504 -2.5768788705507597 -2.1323923950126247 -2.0518441638342235 -2.5247742146237444
leaf_weight=844.56238590180874 55.069852955639362 19.044980444014072 58.851347267627716 10.907401219010351 16.454411335289482 287.57036730647087 7.035052776336669 8.4052306041121465 78.73611431568861 12.984767518937586 22.099642232060432 28.606759160757065 41.738857589662075 32.314587756991386 748.70641447603703 18.740496598184109 21.655193865299228 42.718608193099499 7.823273353278636 42.406757958233356 7.6268320530653027 4.8717433586716643 46.040921360254288 3.8085050135850897 10.83373576402664 3.9877576380968121 27.943769805133343 6.2787539139389983 17.095301002264023 8.6851593852043134 5.8441275730729094 5.394768193364146 14.772383011877539 26.914908550679684 21.279499940574173 19.899500086903572 13.144376091659067 34.134124964475625 8.341387175023554 12.144981175661085 24.32188406586647 5.9128820151090613 22.470425143837929 48.997362367808819 15.496760159730913 6.5856933966279021 88.943692930042744 3.7397505715489379 1350.2218334376812 7.653842754662036 5.6918856501579276 62.514976486563683 11.636689379811285 123.10973960906267 39.015690349042416 11.59985665231943 4.5967255905270568 8.6949814110994357 10.931956283748148 19.629393331706524 5.9349817037582389 23.921634815633304
leaf_count=1771 308 277 363 44 182 1156 45 42 400 143 138 118 309 470 2406 135 143 564 45 227 88 25 234 21 20 58 223 34 134 69 85 67 169 380 149 106 88 485 64 62 113 86 109 277 191 27 1179 20 18297 54 14 829 89 1653 556 77 21 115 159 125 29 325
internal_value=-2.21327 -2.43326 -1.9741 -2.47422 -2.48722 -2.09179 -2.50085 -2.26473 -2.182 -2.28793 -2.36445 -2.24196 -2.31362 -2.2645 -1.92874 -2.39953 -2.37603 -2.23877 -2.31126 -2.21639 -2.30323 -2.40113 -2.13343 -2.51071 -2.03207 -2.33894 -2.36628 -2.44969 -2.42532 -2.50088 -2.23694 -2.2635 -2.30952 -2.40322 -2.13012 -2.15944 -2.38332 -2.42005 -2.46097 -2.25274 -2.1155 -2.25602 -2.14204 -2.128 -2.16479 -2.32288 -2.48079 -2.5124 -2.51343 -2.42161 -2.26733 -2.4703 -2.45327 -2.51447 -2.46231 -2.39216 -2.42647 -2.44948 -2.33875 -2.24684 -2.3666 -2.41914
internal_weight=4607.1 2399.72 2207.38 1930.53 1828.19 614.11 1696.8 469.188 244.626 414.118 114.415 102.343 355.092 227.435 1593.27 59.7402 46.5443 165.89 131.39 167.695 107.038 127.657 59.0257 1582.38 369.484 120.482 76.9411 48.9974 119.252 40.9997 27.4993 125.288 95.5711 53.8323 55.7991 23.8873 96.5951 83.4507 102.157 26.9174 29.7167 27.1924 30.0973 81.9136 71.0798 22.0825 97.2851 1575.35 1571.54 92.3151 22.1463 70.1688 75.6274 1567.8 217.578 94.4686 82.8687 78.272 39.2563 28.3244 41.4933 35.5583
internal_count=36192 28563 7629 24433 23575 3452 22306 4130 1781 3822 1217 858 3445 2001 4177 674 505 1381 1269 1327 1018 1444 377 21089 1671 1225 821 598 1402 539 228 1100 920 611 353 164 1061 973 1268 231 180 235 197 515 495 218 1243 21044 21023 1079 196 883 928 21003 2706 1053 976 955 399 240 443 414
is_linear=0
shrinkage=1


Tree=1
num_leaves=63
num_cat=0
split_feature=532 316 451 532 19 532 534 478 478 309 181 366 82 513 156 504 486 193 267 66 117 72 532 534 150 150 513 261 370 33 130 538 426 238 120 222 451 264 114 318 225 33 66 255 69 140 261 453 477 363 408 243 81 438 180 201 357 498 90 6 159 0
split_gain=37978.9 3633.11 1500.57 1424.63 1219.78 582.237 524.8 412.902 398.35 333.112 328.338 322.952 326.508 318.403 317.277 276.363 271.422 398.279 296.908 284.311 266.332 295.489 263.788 297.306 260.186 253.944 252.236 276.516 271.927 247.353 302.61 245.632 244.706 241.403 441.403 237.688 236.828 236.484 226.731 226.594 218.394 213.448 219.621 209.922 209.188 227.228 205.035 236.629 200.854 349.769 200.583 196.385 193.205 192.083 191.405 217.974 191.143 213.871 190.942 185.866 299.796 234.809
threshold=-0.69479155540466297 -0.6538831591606139 -0.80545195937156666 -0.79361897706985463 -0.75705221295356739 -0.60997042059898365 0.44241501390933996 -0.84838828444480885 -0.85001620650291432 -0.094046395272016511 -0.77561888098716725 -0.39789275825023646 -0.85214370489120472 -0.93658012151718129 1.7512916922569277 1.5220156908035281 0.31998607516288763 -0.54254847764968861 -0.45799423754215235 0.7618432641029359 1.8136191964149477 0.96106854081153881 -0.82667675614356984 -0.44352537393569941 -0.91320732235908497 -0.36116407811641688 0.99000629782676708 2.3556455373764043 -0.85388752818107594 1.5465015172958376 0.62338963150978099 -0.2637284249067306 -0.38898885250091547 -0.2695085853338241 1.2793837785720827 0.31998607516288763 -0.59595113992691029 -0.19644152373075482 -0.49027097225189203 1.2259602546691897 2.305560946464539 -0.77074459195137013 0.69840285181999218 2.8620561361312871 -0.62605580687522877 -0.72667747735977162 1.7835685014724734 1.95942097902298 0.98332831263542186 -1.1346923708915708 -0.72733792662620533 0.78966799378395092 -1.1346923708915708 -0.73067694902420033 -0.82194212079048146 0.3177600502967835 1.8781727552413943 1.2037004828453066 -0.84642794728279103 -0.26878589391708368 -0.17195570468902585 -0.071786556392908082
decision_type=2 2 2 2 2 2 2 2 2 2 2 2 2 2 2 2 2 2 2 2 2 2 2 2 2 2 2 2 2 2 2 2 2 2 2 2 2 2 2 2 2 2 2 2 2 2 2 2 2 2 2 2 2 2 2 2 2 2 2 2 2 2
left_child=3 8 -3 22 11 13 15 -7 -2 10 38 12 -4 -6 26 16 17 -5 19 32 21 -16 -1 -24 31 -23 28 40 -9 30 -15 -12 -19 36 37 50 -11 -35 44 51 48 -39 -43 -30 45 -10 47 -26 56 -50 -20 -38 -13 -54 -52 -56 -28 -58 -40 60 -51 -62
right_child=1 2 4 6 5 7 -8 14 9 33 24 52 -14 29 20 -17 -18 18 35 -21 -22 25 23 -25 46 -27 27 -29 43 -31 -32 -33 -34 34 -36 -37 39 41 58 -41 -42 42 -44 -45 -46 -47 -48 -49 49 59 54 -53 53 -55 55 -57 57 -59 -60 -61 61 -63
leaf_value=0.3527174975750958 0.32581682635810144 0.29869525023272653 0.30135694401740681 0.25613541566389542 0.22091084968596109 0.34306482301142305 0.31373939421986002 0.40164242968766689 0.30502098737314837 0.29742398779219759 0.24818890566510046 -0.054636160355450963 0.011350844216473597 -0.014866996201605049 0.0077077309439215567 0.34638349712444672 0.28304987791227409 -0.055163835789194163 -0.055026076321608192 0.33108766633439202 0.36388414633123362 0.36345532732732971 0.27299352709457525 0.34086768500245618 -0.03553126834312547 0.017158801174325757 -0.0051999183998198027 0.26563479660762473 -0.0079686701325208335 0.28203753795343028 0.26090724836473778 -0.054817469125183774 0.20757230561396109 -0.01159915797709352 0.30669221445975492 -0.055321040601990494 -0.054900641778664189 -0.01321668759035708 0.23786559385828498 0.31035288486350365 0.26918323674299749 0.24280407357017142 -0.00030140187430857044 0.31422995518003383 0.33375518325513415 -0.054977186380813538 0.33382849853020102 0.25034046542024946 0.37558096973373079 -0.054055484455965967 0.29653929926965333 0.25059184571205906 0.069999809865323628 0.26496688656347195 -0.055437794313196634 0.21909304582326242 0.028787792153876376 0.45295974706562608 0.0040652866038571071 -0.05407421398124828 0.41804434712522798 0.039034556029334373
leaf_weight=1994.1278217881918 47.312618628144264 54.509471528232098 12.220864929258822 143.72239954024553 49.646606288850307 9.3732850402593595 372.01625123620033 4.0925554856657973 8.6404909864068049 98.815876729786396 28.752708166837692 6.1316975429654113 47.154889091849327 62.641932182013988 50.372736118733883 49.530650645494461 126.75501098483801 12.448791295289992 11.76273190975189 30.590533494949341 8.9396846964955312 13.415214397013189 247.45276901870966 463.60472293198109 64.727897807955742 8.7449308186769468 216.71167398244143 13.591370701789854 1202.8616647943854 11.08977088332176 11.825403317809103 8.7158460319042188 30.760895937681198 28.71517575532198 39.546783857047558 24.164676003158092 14.894645743072035 14.884805984795092 14.889080971479414 13.607101835310457 9.6415479481220228 50.158313810825348 11.40201064199209 5.0766818374395362 35.211551688611507 8.8964745178818685 4.7995777055621138 8.1502421274781209 10.1544998511672 12.028588779270651 19.453575506806374 8.1334789097309095 14.945466518402098 81.648164160549641 13.280713126063349 15.87110637873411 7.5211478322744352 4.9128902778029442 21.120130695402622 22.332765489816666 10.551763452589514 6.6695201098918906
leaf_count=2881 151 254 59 684 343 33 1168 15 40 449 184 82 563 780 661 138 520 152 147 108 55 75 830 898 815 114 2924 83 16308 67 74 112 190 338 168 289 189 173 102 51 83 313 133 39 143 112 19 48 67 174 88 42 151 447 156 95 97 21 243 322 52 80
internal_value=0.220649 0.0713264 0.0400136 0.325649 0.0326476 0.0205079 0.269199 0.0121736 0.187344 0.17381 0.125191 0.163869 0.0710406 0.120183 0.0102444 0.234559 0.221642 0.195873 0.141172 0.214451 0.106381 0.074644 0.343394 0.317247 0.0694858 0.226798 0.00511215 0.0450411 -0.00523602 0.0617338 0.0289259 0.177704 0.131878 0.209195 0.164291 0.0771969 0.257168 0.11074 0.197458 0.148585 0.0350646 0.156694 0.197777 -0.00661454 0.263485 0.122394 0.0172856 -0.00356114 0.0273045 0.107349 0.130242 0.0529986 0.217524 0.234801 0.175078 0.0940249 0.0057386 0.196385 0.100737 0.0545457 0.137479 0.27126
internal_weight=6055.72 2500.18 1968.81 3555.54 1914.3 1752.2 850.357 1616.99 531.375 484.062 203.904 162.101 59.3758 135.204 1607.62 478.341 428.81 302.055 158.333 73.8002 81.4726 72.5329 2705.19 711.057 115.146 22.1601 1526.15 314.116 1212.03 85.5571 74.4673 37.4686 43.2097 280.158 144.707 84.5328 135.451 105.16 88.7577 36.6352 300.524 76.4451 61.5603 1207.94 52.7485 17.537 77.6777 72.8781 290.883 61.7371 60.3681 23.0281 102.725 96.5936 48.6054 29.1518 229.146 12.434 36.0092 51.5826 29.2499 17.2213
internal_count=36192 27848 24023 8344 23769 22467 3735 21203 3825 3674 1818 1302 622 1264 21170 2567 2429 1909 1225 450 905 850 4609 1728 1178 189 20265 3903 16362 921 854 296 342 1856 1125 775 731 957 640 282 3820 619 446 16347 295 152 882 863 3737 695 486 231 680 598 339 251 3042 118 345 628 306 132
is_linear=0
shrinkage=0.05


Tree=2
num_leaves=63
num_cat=0
split_feature=532 343 478 532 19 523 460 451 534 532 471 402 63 73 306 469 327 415 190 334 235 49 51 448 129 174 57 249 483 336 241 388 90 249 417 87 0 420 2 201 237 537 426 534 168 288 384 432 245 423 181 37 0 486 181 291 431 84 108 531 348 9
split_gain=21689.7 2432.48 984.361 971.544 833.895 312.867 387.437 298.467 283.335 252.508 228.597 249.667 228.215 222.958 217.986 215.151 255.073 212.692 212.253 242.104 230.425 205.941 205.509 221.283 205.112 199.501 195.445 223.057 191.584 183.211 194.312 182.402 182.145 225.841 180.955 246.44 221.11 283.576 179.49 269.396 274.797 225.705 237.322 269.446 194.921 210.859 196.046 251.896 182.694 187.618 175.759 220.193 231.93 175.743 173.668 172.363 282.495 350.089 228.549 181.693 215.739 286.725
threshold=-0.67428842186927784 -0.71719041466712941 -0.80642017722129811 -0.77978903055191029 -0.66675296425819386 -0.59102982282638539 -0.47204215824604029 -0.81152105331420887 2.0028275251388554 -0.71813419461250294 2.401278138160706 0.18865317106246951 -0.1496959179639816 -0.80944907665252674 1.6533486247062685 -0.79990041255950917 1.447445333003998 -0.85630246996879567 -0.83435094356536854 -0.42876130342483515 -0.8474755287170409 0.68937632441520702 2.2877531051635747 -0.83535188436508168 2.7496440410614018 0.36895760893821722 1.2615759372711184 0.88983723521232616 1.2949656844139101 2.8598303794860844 0.25889936089515692 -0.82255229353904713 1.9160143136978152 0.69172483682632457 0.68282094597816478 0.42126819491386419 -1.1346923708915708 1.7134501338005068 0.59160038828849804 -0.098498351871967302 1.4663661718368532 1.8648167848587038 0.23762475699186328 0.02393058501183987 1.5375975370407107 -0.25431700050830836 -0.61603888869285572 1.1947964429855349 -0.028195297345519062 2.314464926719666 -0.77952623367309559 -0.72985118627548207 0.8542214334011079 0.34447184205055242 -0.85034760832786549 0.39566941559314733 0.21096985042095187 -0.49583593010902399 1.4908519983291628 0.38231353461742407 -0.39900577068328852 0.37340956926345831
decision_type=2 2 2 2 2 2 2 2 2 2 2 2 2 2 2 2 2 2 2 2 2 2 2 2 2 2 2 2 2 2 2 2 2 2 2 2 2 2 2 2 2 2 2 2 2 2 2 2 2 2 2 2 2 2 2 2 2 2 2 2 2 2
left_child=3 15 -3 31 12 6 14 -7 9 53 17 -12 22 -14 21 -2 26 -9 19 -19 -20 -6 23 -4 29 -13 27 50 54 30 38 -1 -32 -34 35 36 -11 -38 44 40 41 42 -40 -44 48 46 -46 -48 55 -50 -17 -52 -53 -5 -25 59 58 -58 -57 -22 61 -61
right_child=1 2 4 8 5 7 -8 10 -10 34 11 25 13 -15 -16 16 -18 18 20 -21 24 -23 -24 28 -26 -27 -28 -29 -30 -31 32 -33 33 -35 -36 -37 37 -39 39 -41 -42 -43 43 -45 45 -47 47 -49 49 -51 51 52 -54 -55 -56 56 57 -59 -60 60 -62 -63
leaf_value=0.26610279279149296 0.22332948584807069 0.21941306428571017 0.242161588724573 0.18479268794740614 -0.00190079998324151 0.23270920084087982 0.25452458831531438 0.34336685913525899 0.28299850155785061 0.19729429009547977 -0.054128676368071504 0.042670826328011668 0.22362339645091459 0.10470318890819275 0.22208755738309596 0.21107594959016943 0.2438641658741304 0.35451417246505545 0.28231630348385078 -0.054247670503527717 -0.034120229514420147 0.22680716861789019 0.33287116975278547 0.1840308807625447 0.25364593544987385 0.39269526730744508 -0.024991392996248491 0.008402869159269662 0.16106192595177291 0.22939008961630264 -0.032834908203280284 0.2434456566898216 -0.054059484195286917 0.26480382707927419 0.19918082458814704 0.18918948388549572 -0.024968182742838199 0.26838304531884161 -0.054104181186419797 -0.010131110031955366 0.35271343706930963 0.38868727895573385 0.3074287478764926 -0.054072025576066808 0.33701393968339932 0.0042346809011880203 -0.054052645277434246 0.40744033534620838 -0.024247254805626714 0.15707549191697384 -0.0271836388770689 0.18615770415518107 -0.055326341862131617 0.24023861792181617 -0.032875504560396111 0.0024644549972527661 0.39624351419154924 0.0080448175794086835 0.26014831484088258 0.024889381580457805 -0.034140757758000427 0.28953415444388558
leaf_weight=1531.2174612954259 128.55839677155018 71.92258608341217 12.508178710937498 397.77833388745785 93.775516636669636 15.060557417571543 28.023994885385036 4.6728582978248587 85.707200661301613 22.021674558520317 9.4338149502873438 6.4147652536630657 57.766618490219116 124.06043849140406 15.663625635206698 83.676110424101353 53.791166454553604 9.1073771864175779 7.3841574862599364 6.01484091579914 124.7290300950408 10.997117236256598 6.3990946486592284 10.364403560757635 8.0757030397653562 11.141236066818236 20.329614885151386 29.088464267551899 20.050591699779034 8.7293803915381414 467.87537971884012 2115.6428851261735 10.56610105186701 11.704426929354666 94.736557878553867 60.767452053725719 59.806554347276688 9.5542925521731359 24.455105759203434 56.721673369407654 12.223140791058539 5.61597866564989 13.779070585966112 8.235303081572054 12.71722733974457 32.031143434345722 10.977437533438204 4.0469318628311148 521.2180500626564 14.667727477848528 21.89593581110239 69.350675135850906 11.607210151851175 223.05580434948206 84.176220573484898 66.089415304362774 13.834735885262491 10.009914889931677 9.8929429203271848 23.590961813926697 31.21569187939167 18.077633462846279
leaf_count=1633 461 268 60 1668 1083 65 121 11 147 103 135 76 273 1024 88 399 202 36 42 85 1752 54 20 63 59 52 226 295 131 52 6518 3552 153 86 439 324 614 28 352 773 62 22 98 119 72 424 159 20 7179 121 245 414 141 551 1026 881 81 130 75 297 438 114
internal_value=0.176421 0.0592786 0.0375932 0.24121 0.0312269 0.0176602 0.087077 0.0111799 0.196271 0.187705 0.00906195 0.153324 0.106036 0.142484 0.048114 0.169496 0.14561 0.00654711 0.00552747 0.19193 0.00368325 0.0221048 0.0563939 0.042474 0.00233062 0.2648 0.12321 0.137183 0.0206772 0.000989215 -0.000336207 0.252959 -0.026185 0.113521 0.144933 0.111155 0.0592641 0.0154403 0.012157 0.0692978 0.139356 0.0892863 0.0531028 0.172196 0.00441338 0.0916312 0.192541 0.0702541 -0.00184257 -0.0192843 0.157266 0.113489 0.151535 0.204714 -0.00909625 0.0295814 0.0831334 0.233279 0.036015 0.00252891 0.0652477 0.139704
internal_weight=7144.6 2544.32 2126.02 4600.29 2054.1 1738.77 148.46 1590.31 953.428 867.721 1575.25 26.9898 315.326 181.827 120.436 418.298 289.739 1548.26 1543.59 15.1222 1528.46 104.773 133.498 127.099 1521.08 17.556 235.948 215.618 114.591 1513 1504.28 3646.86 490.146 22.2705 246.887 152.15 91.3825 69.3608 1014.13 121.03 64.3086 52.0855 46.4695 22.0144 893.099 59.7727 27.7416 15.0244 833.326 535.886 186.53 102.854 80.9579 620.834 94.5406 297.44 99.827 23.8447 75.9824 197.613 72.8843 41.6686
internal_count=36192 27133 24750 9059 24482 21885 1346 20539 3874 3727 20474 263 2597 1297 1225 2383 1922 20211 20200 121 20079 1137 1300 1280 20037 128 1720 1494 1220 19978 19926 5185 6757 239 1508 1069 745 642 13169 1426 653 591 569 217 11743 675 251 179 11068 7300 1199 800 555 2219 1089 3768 1167 211 956 2601 849 411
is_linear=0
shrinkage=0.05


Tree=3
num_leaves=63
num_cat=0
split_feature=532 307 478 532 10 532 534 366 534 12 287 255 256 60 7 292 399 261 535 335 514 163 113 481 471 504 108 24 495 174 118 179 495 7 183 80 45 207 513 375 309 528 73 432 405 471 87 505 433 216 261 433 327 484 62 41 336 9 504 93 531 289
split_gain=14415.8 1683.82 951.255 784.193 667.832 243.583 278.566 215.153 203.814 192.622 183.624 174.907 174.559 190.406 180.828 183.487 176.052 169.835 168.341 212.963 163.188 162.03 161.762 173.04 203.611 161.137 170.138 252.357 241.261 187.299 185.721 167.542 206.306 182.502 242.406 202.669 187.365 189.123 173.569 167.002 210.757 165.608 155.452 147.221 197.61 164.556 254.968 157.527 316.753 220.559 312.639 143.902 188.598 189.811 169.21 157.868 151.649 137.271 134.114 157.935 214.487 143.85
threshold=-0.65618216991424549 -0.70559421181678761 -0.80642017722129811 -0.74507060647010792 -0.61839571595191944 -0.82455736398696888 -0.49027097225189203 0.02393058501183987 1.8737206459045412 1.2103783488273623 0.25016830861568456 -0.089594434946775423 -0.041780730709433549 -0.50585284829139698 -0.22327884286642072 1.0677601099014284 -0.42683053016662592 -0.2498650327324867 -0.50682914257049549 0.19074328988790515 -0.85484927892684925 -0.82053416967391957 -1.607431888580322 -0.66841843724250782 -0.5692932903766631 -1.9015429019927976 1.5531795024871828 -1.0033596158027647 1.7067720890045168 1.4908519983291628 -0.85623881220817555 0.75786060094833385 -0.35893809795379633 -0.79198777675628651 0.097387988120317473 -0.14699092507362363 -0.56150236725807179 -0.55148544907569874 -0.67502740025520314 0.6427532732486726 -0.67836633324623097 1.842556953430176 -0.80944907665252674 0.37563559412956243 2.1664372682571416 1.7980374097824099 -1.1335794329643247 0.32019339501857763 0.22815515846014026 -0.63941171765327443 1.0412038564682009 -0.79173630475997914 1.447445333003998 -0.16653712093830106 0.40127934515476232 0.43420228362083441 0.98332831263542186 0.37340956926345831 1.3172254562377932 -0.27546381950378412 0.50919440388679515 -0.83520331978797901
decision_type=2 2 2 2 2 2 2 2 2 2 2 2 2 2 2 2 2 2 2 2 2 2 2 2 2 2 2 2 2 2 2 2 2 2 2 2 2 2 2 2 2 2 2 2 2 2 2 2 2 2 2 2 2 2 2 2 2 2 2 2 2 2
left_child=3 51 -3 5 7 -1 21 18 12 10 11 17 58 -14 15 -15 -16 -9 19 -4 -6 -7 -23 -24 57 -22 30 39 41 -30 -27 33 38 34 35 36 -32 -38 -33 40 -28 -29 -12 -35 45 47 -47 -45 -49 50 -50 55 53 56 -55 -2 -53 -25 59 60 -5 -61
right_child=1 2 4 8 20 6 -8 9 -10 -11 42 -13 13 14 16 -17 -18 -19 -20 -21 25 22 23 24 -26 26 27 28 29 -31 31 32 -34 43 -36 -37 37 -39 -40 -41 -42 -43 -44 44 -46 46 -48 48 49 -51 -52 52 -54 54 -56 -57 -58 -59 -60 61 -62 -63
leaf_value=0.20996440625866808 0.18675950540995806 0.19117417431069048 0.040950593371595616 0.1273619769195011 0.28310641941896109 0.19721574094270436 0.19930535417428757 0.17237303598611226 0.21804765566342074 -0.055787521571974634 0.16388172109616056 0.21429701593237027 0.018923413803497189 -0.034032512897761234 0.016107968178923626 0.23206867108727738 0.19345580585365024 -0.02288804158918795 0.0086852552958399647 0.21852881580943145 0.18744527146756804 -0.021177619779236202 0.18877354205349306 -0.039113800493958462 0.14359180780713715 0.30124947399821478 0.25202442391002594 -0.031770841098473571 0.019041589521801846 0.3441162260757662 0.010009651742321352 0.022508543633649136 -0.054193548012441174 -0.01664534311509849 -0.054291339377545704 0.0051653891240149965 0.39724838457351586 0.13276554224770096 0.31715029370300896 0.29306367175004361 -0.054267639046728149 0.22909768531061162 -0.055177531583519818 -0.01674397597661206 0.17688531338934321 0.26941245423133714 0.0025651456807781066 0.28372203683767511 0.0014656072194622536 -0.019582845479316116 0.29000060711665726 0.14296885745824625 0.20064164363259818 -0.0011226234973459365 0.15472880977205239 0.020788849585467211 -0.056580741089181166 0.12979492070456472 0.21013084987422875 0.25620622507141266 -0.033072287309758509 0.14795392818306158
leaf_weight=3096.0112986862659 159.43320132419467 89.402860000729561 44.921244271099567 120.67442075908184 5.5010599419474593 149.54812305420637 1173.4372936412692 27.044884279370308 84.912802763283253 13.311679217964409 14.04056444019079 80.190075267106295 56.849694356322289 26.573763430118561 16.897025372833014 8.5665278285741788 81.437194120138884 18.931519962847233 106.40791181102395 27.050505384802818 12.742270708084105 15.88993179798126 122.36342544108629 30.908020488917828 140.52220621705055 5.2336432859301558 10.146866686642172 82.713104113936424 8.4659356288611907 9.2973140105605108 9.551996596157549 7.9919907376170185 11.739437226206062 860.84118343144655 26.097397647798061 20.882085606455803 13.789349682629108 13.257491059601307 13.343618489801882 16.077088974416256 12.578538939356802 6.5668647214770308 19.13697711378336 314.78921595588326 18.670819543302059 15.240986742079256 21.692304268479347 12.825400929898022 22.217425309121609 90.241254933178425 16.258534632623196 145.86974427476525 52.732932042330503 67.514184232801199 23.470110353082418 15.742250714451073 10.18568220362067 19.692421920597553 83.017867475748062 37.514986552298069 25.179664675146341 168.6487742960453
leaf_count=3025 517 261 426 619 20 311 1938 139 160 154 68 357 445 248 137 23 282 207 1132 114 74 103 291 243 492 23 72 1122 103 15 113 90 169 11633 369 265 66 122 52 79 178 44 237 4215 118 56 266 69 282 1248 102 814 164 657 127 115 107 78 198 73 220 745
internal_value=0.148365 0.0508245 0.0315892 0.194362 0.0244903 0.201691 0.18619 0.0871436 0.145361 0.126931 0.142196 0.16972 0.135492 0.0955534 0.128192 0.0308378 0.162982 0.0919712 0.0486325 0.107693 0.0112312 0.154055 0.134458 0.142347 0.112623 0.0103266 0.00895085 0.0604983 0.0208995 0.189186 0.00392098 0.00287621 0.114153 0.000349017 0.0720827 0.129459 0.200377 0.267607 0.206782 0.169738 0.0824914 -0.012583 0.0375272 -0.00401832 0.0172145 0.0111708 0.112683 0.00295485 0.0467648 0.0231544 0.12339 0.135841 0.114802 0.0964793 0.0390805 0.171844 0.129944 0.0266212 0.152965 0.139483 0.0996652 0.167652
internal_weight=8032.78 2574.14 2099.19 5458.65 2009.79 4748.37 1652.36 351.035 710.273 172.656 159.344 126.166 625.36 190.324 133.475 35.1403 98.3342 45.9764 178.38 71.9717 1658.75 478.924 329.376 313.486 191.123 1653.25 1640.51 145.846 107.043 17.7632 1494.66 1489.43 33.075 1456.36 83.5783 57.4809 36.5988 27.0468 21.3356 38.8025 22.7254 89.28 33.1775 1372.78 511.936 493.265 36.9333 456.332 141.543 128.717 38.476 474.948 299.773 247.04 90.9843 175.175 156.055 50.6004 435.036 352.018 145.854 206.164
internal_count=36192 26561 24060 9631 23799 6481 3456 2834 3150 1162 1008 703 2990 1135 690 271 419 346 1672 540 20965 1518 1207 1104 813 20945 20871 1613 1284 118 19258 19235 311 18924 935 566 301 188 142 329 250 1166 305 17989 6356 6238 322 5916 1701 1632 384 2501 1869 1705 784 632 921 321 1855 1657 839 818
is_linear=0
shrinkage=0.05


Tree=4
num_leaves=63
num_cat=0
split_feature=532 343 478 1 523 534 280 156 414 213 17 522 523 415 66 19 282 501 534 307 399 171 448 0 232 502 360 511 534 85 420 478 444 133 532 1 73 504 235 105 514 480 78 123 352 390 294 190 14 318 480 37 523 264 168 511 180 465 223 318 432 441
split_gain=10442.2 1393.72 608.948 493.076 488.72 258.124 235.739 205.673 214.08 195.419 189.845 189.668 185.961 354.096 185.799 209.414 180.655 179.669 184.398 173.501 219.048 172.281 171.017 169.897 163.957 177.739 186.762 161.259 160.786 148.361 142.993 142.497 144.169 177.976 141.996 140.907 140.816 144.694 159.629 139.501 133.356 156.698 178.122 154.526 131.591 178.592 140.265 130.035 129.796 156.963 148.294 125.436 123.261 122.748 122.548 115.174 115.068 140.631 112.635 136.354 112.455 109.916
threshold=-0.67428842186927784 -0.71719041466712941 -0.65576907992362965 -0.71574380993843068 -0.81124022603034962 0.037286510691046722 -0.85036882758140553 1.7512916922569277 1.3506152033805849 -0.30106259882450098 -1.0215349197387693 1.7579696774482729 -0.58653306961059559 -0.46262736618518824 1.0100400447845461 -0.83964943885803212 2.089640855789185 0.32221205532550817 0.55594003200531017 -0.82975298166275013 -0.74737176299095143 0.11964777484536172 -0.24418859928846356 -0.36339005827903742 -0.82513216137886036 -0.13990599662065503 0.7829900085926057 -0.78600841760635365 -0.27657681703567499 0.12670882791280749 1.063463628292084 -0.81170886754989613 0.035060532391071327 -0.82062396407127369 -0.63438254594802845 -0.69094958901405323 -0.84621500968933094 0.14747253805398944 -0.74927511811256398 2.6416841745376591 -0.8480812907218932 0.2487546503543854 0.7829900085926057 0.88761118054389965 -0.81959041953086842 0.0217046057805419 0.087371058762073531 -0.84513735771179188 0.26088923215866094 -1.1335794329643247 -0.52588665485382069 -0.33740893006324763 -0.69008091092109669 -0.13634004443883893 -1.1335794329643247 -0.84636846184730519 -0.39455381035804743 1.0278480052948 0.27506253123283392 1.437428414821625 -0.92433723807334889 1.2793837785720827
decision_type=2 2 2 2 2 2 2 2 2 2 2 2 2 2 2 2 2 2 2 2 2 2 2 2 2 2 2 2 2 2 2 2 2 2 2 2 2 2 2 2 2 2 2 2 2 2 2 2 2 2 2 2 2 2 2 2 2 2 2 2 2 2
left_child=4 40 9 14 -1 19 -5 8 12 34 -10 16 13 -8 15 23 48 -17 -19 -6 31 -13 -9 -4 25 26 -14 -28 -11 30 58 -21 33 -33 52 -30 -22 38 54 47 -2 42 43 44 46 -46 -42 -26 55 -50 61 -43 -3 -16 -38 -12 57 60 -24 -60 -40 -51
right_child=1 2 3 6 5 -7 7 22 10 28 11 21 24 -15 53 17 -18 18 -20 20 36 -23 29 -25 39 -27 27 -29 35 -31 -32 32 -34 -35 -36 -37 37 -39 56 -41 41 51 -44 -45 45 -47 -48 -49 49 50 -52 -53 -54 -55 -56 -57 -58 -59 59 -61 -62 -63
leaf_value=0.17659374377151008 0.19986852300584312 0.20183293531761853 0.04699865899721789 0.18178647200336243 0.17102320126703563 0.16116074189631596 -0.015682237887049338 -0.030429701707234316 0.20162657478002394 -0.036443029861000918 0.22917022616851634 -0.054657279939360238 -0.017513067342668127 0.1657184118241416 0.04902519703688743 -0.018696192174061207 0.24724782415793778 0.0052818747358438743 0.17853662181911947 0.14632894886899275 0.20831078647897261 0.21073615460795891 0.23192253640564908 0.20719403617421547 0.15548918702918946 0.3910034610975866 0.27304051848957911 -0.054312207444840888 -0.05798826801485038 -0.054502332495740172 -0.054469766117893073 0.12494102050192205 0.10374392555863213 -0.048397334708223827 0.1794831878861215 0.14009147832756252 0.12640315451135284 0.15237069047496929 0.08660620862713457 0.21401970516965507 0.18525315610189919 0.15789262140960533 -0.020378245860369008 -0.010539217460103667 0.0075968286124665357 0.1460060851677677 0.047278608653451293 -0.012072909786872803 0.19365176095401293 0.016146456068189426 -0.05446066486194439 0.015404678996582608 -0.056049571172069872 0.2054852975756698 -0.041286617919184504 -0.032827264008943806 0.14302221217879937 0.16620428399067977 -0.0093200561549634728 0.24989340140864821 -0.05929655627076174 0.2771518627773904
leaf_weight=3817.7345538884401 50.018478292971849 7.1374180763959911 29.707253351807594 20.55797666311264 172.94588340073824 1291.0118832550943 62.560904461890459 25.578694429248571 19.223154868930578 30.414250504225492 4.3560424596071234 8.0396595075726491 33.583256375044584 47.197394959628582 17.421333238482475 82.901918683201075 8.2264746278524381 29.954415388405323 31.516155887395144 41.789934158325195 52.899565823376179 25.543534357100725 34.474442072212696 37.372904658317566 11.688938625156878 4.1974281072616568 13.272260565310718 5.2503717318177214 10.952685508877037 10.525844130665062 7.6676178351044646 19.995283707976341 52.915358684957027 57.088009037077427 98.675534315407276 49.804801128804684 16.498896479606628 220.6504393517971 29.714514814317226 6.958097241818904 86.234967384487391 191.28699108585715 32.975901611149311 26.12821751832962 47.861913494765759 45.426299016922712 23.423349265009165 1224.6019937247038 17.410696186125278 8.7834746725857276 27.555618543177843 16.802403673529625 13.208954736590384 44.70024312287569 32.078449621796608 113.24567892402411 139.97543708607554 24.600934982299805 13.705141957849266 8.0551835373043996 23.772349145263433 7.4592200219631186
leaf_count=3582 90 20 221 66 337 2492 715 329 104 309 21 108 434 212 127 869 49 276 132 112 76 126 167 116 73 23 75 74 102 144 105 65 222 467 325 213 51 574 146 58 246 680 280 216 404 187 153 16552 99 106 382 127 148 150 228 1503 448 62 171 19 197 27
internal_value=0.128694 0.0484797 0.0314513 0.0231149 0.165815 0.146903 0.0134578 0.0114795 0.00725737 0.112489 0.0509257 0.0377948 -0.00017433 0.0623222 0.0855856 0.0632515 0.0181503 0.0293342 0.0941101 0.126103 0.115191 0.147202 0.0811035 0.13625 -0.0054527 0.078002 0.0527879 0.18025 0.057405 0.119434 0.148084 0.0660116 0.0401925 -0.00343364 0.154684 0.104384 0.130831 0.12242 0.0976345 -0.00923213 0.122252 0.113994 0.088271 0.103911 0.118646 0.0749946 0.155781 -0.0104886 0.0076103 0.0666581 0.0161755 0.146387 0.0344145 0.161608 0.0156678 -0.0231227 0.115894 0.0672656 0.175703 0.0866349 0.0217594 0.136009
internal_weight=8767.32 2773.65 2253.49 2043.29 5993.67 2175.94 1769.72 1749.16 1649.15 210.194 239.844 220.62 1409.31 109.758 273.574 211.453 187.037 144.372 61.4706 884.925 711.979 33.5832 100.007 67.0802 1299.55 56.3033 52.1059 18.5226 91.1717 74.4282 63.9024 171.789 129.999 77.0833 119.022 60.7575 540.191 487.291 266.641 1243.25 520.159 470.14 262.051 229.075 202.947 93.2882 109.658 1236.29 178.811 61.209 43.7983 208.089 20.3464 62.1216 48.5773 117.602 218.063 78.0878 56.2348 21.7603 53.4869 16.2427
internal_count=36192 27133 24750 23633 9059 5477 21742 21676 20741 1117 2525 2421 18216 927 1891 1614 2187 1277 408 2985 2648 234 935 337 17289 606 583 149 624 606 462 866 754 532 493 315 1782 1706 1132 16683 2383 2293 1486 1206 990 591 399 16625 2138 614 515 807 168 277 279 1524 853 405 357 190 343 133
is_linear=0
shrinkage=0.05


Tree=5
num_leaves=63
num_cat=0
split_feature=532 307 451 19 532 523 534 513 316 411 516 370 507 498 153 456 132 255 156 503 90 297 250 40 444 78 509 497 516 413 357 129 252 4 10 352 534 85 474 320 23 354 221 491 309 63 403 21 111 468 333 339 357 465 124 330 186 357 57 127 198 351
split_gain=8022.26 1205.06 549.204 491.206 294.925 213.348 195.804 177.858 164.447 163.588 163.237 154.718 146.552 267.611 145.85 157.937 139.291 174.349 162.078 190.699 161.111 191.617 191.084 190.026 214.524 169.721 165.365 206.622 160.496 139.276 160.703 147.322 138.407 191.888 137.032 136.575 171.074 146.08 141.267 133.808 181.748 152.25 139.915 132.909 197.836 139.461 137.216 134.762 132.338 173.623 131.723 182.445 146.347 131.613 125.771 125.619 124.466 124.108 122.475 120.757 126.794 118.702
threshold=-0.69868907332420338 -0.64889007806777943 -0.80545195937156666 -0.76082888245582569 -0.81949898600578297 -0.59102982282638539 -0.49027097225189203 0.99000629782676708 -0.39500135183334345 -0.58376219868659962 2.5370630025863652 -0.85388752818107594 -0.72733792662620533 -0.64608964323997486 0.94326069951057445 -0.63941171765327443 -0.35671211779117579 2.8620561361312871 1.7512916922569277 0.14510574936866763 -0.12075813859701155 0.76740822196006786 -0.82565465569496144 -0.82381612062454213 0.070676188915967955 -0.029492958448827263 0.37873910367488867 -0.3980764746665954 2.3300467729568486 -0.2951070219278335 -0.51141777634620655 2.7496440410614018 1.8536868095397951 0.62097957730293285 0.1674800589680672 -0.7889294922351836 -0.7562756836414336 0.23919137567281726 -0.77074459195137013 -0.28524069488048548 1.0000000180025095e-35 -0.86423578858375538 -0.58741289377212513 0.14783882349729541 -0.094046395272016511 -0.4557682573795318 -0.84302777051925648 1.2181693315505984 0.70285478234291088 1.5854561328887942 1.3216773867607119 0.69172483682632457 -0.20979739725589749 -0.42794352769851679 -0.8430473506450652 1.6867382526397707 1.4485583305358889 0.78521606326103222 1.1102092862129214 -0.83969518542289723 1.6722694635391238 1.8692687153816225
decision_type=2 2 2 2 2 2 2 2 2 2 2 2 2 2 2 2 2 2 2 2 2 2 2 2 2 2 2 2 2 2 2 2 2 2 2 2 2 2 2 2 2 2 2 2 2 2 2 2 2 2 2 2 2 2 2 2 2 2 2 2 2 2
left_child=4 35 -3 50 -1 8 39 11 32 -10 12 -7 -9 14 15 -14 18 -18 20 -20 21 22 -13 -23 -25 56 -24 -28 -22 30 -15 48 33 -5 -27 36 55 -38 -39 41 -41 54 -43 44 46 -45 -37 -47 61 58 51 52 -4 -46 -6 -2 -26 -29 -50 -42 -61 -31
right_child=1 2 3 5 6 7 -8 10 9 -11 -12 16 13 29 -16 -17 17 -19 19 -21 28 23 26 24 25 34 27 57 -30 31 -32 -33 -34 -35 -36 43 37 38 -40 40 59 42 -44 45 53 47 -48 -49 49 -51 -52 -53 -54 -55 -56 -57 -58 -59 -60 60 -62 -63
leaf_value=0.15437302639166556 0.02243125393574609 0.14490333430928071 0.029094469914188587 -0.015477697518453445 0.10132561124454874 0.20125551563268917 0.14123751632237122 -0.035036088209709847 -0.057013481600295804 0.1501042471766261 0.23089977874268969 0.17535579749321964 0.20703549590254006 0.17585314867901511 0.29094248347335072 -0.015049239891580045 -0.019688430258059875 0.24803987165106181 -0.054566853010410546 0.18307221928506665 -0.024984482265253082 0.30253649108725333 -0.031505205534028226 -0.032003175017793165 -0.054083599281864805 0.12097015640318934 0.3460313200197993 -0.030030161578804327 0.17147788899185601 -0.043679569535372526 -0.017714810576242149 0.25374557327072128 0.16457934287734027 0.15167077885410241 0.37933287463827314 0.16444785095200487 0.14708202796211359 0.13756596691444187 -0.058164838878496307 0.15378147812521434 0.16891875973574111 0.13194056174755356 -0.007556018423646802 0.039074475089808644 0.0016898039547563104 0.14307469342847906 -0.021951026833071072 -0.015989480866807387 -0.034232395271647766 0.25352877536811985 0.16745248184664019 -0.056988691762530623 0.12971065992688599 0.11954185534084093 -0.061721192053414323 0.22583097334412222 0.27743187197094454 0.15105770630478174 0.13614362169451599 0.065793270807084372 0.1789342084002585 0.10515966027103701
leaf_weight=3995.8142183870077 60.090047650039196 95.992407780140638 57.283685702830553 107.01924065127969 18.657907888293266 9.4342589899897558 1654.7240010462701 64.187001828104258 11.166831538081167 65.183691423386335 10.767955724149941 16.186722096055746 16.48039211705327 29.407202452421188 14.352697171270846 15.567553747445343 683.28943438827991 6.1355559900403014 12.018411215394734 28.370677527040243 275.67977728322148 10.433565955609081 137.40109575912356 27.768869295716286 11.559789974242447 10.517033915966751 6.2023275271058074 25.843824371695518 10.802852660417555 116.32825235649943 16.87584425508976 5.9484204202890387 16.661246255040169 20.451805368065834 10.023626707494257 11.131966780871151 285.54788009822369 18.752469144761562 18.132207319140434 237.31829885020852 45.186947785317898 85.827418074011803 22.737364284694195 57.025785904377699 30.748748850077391 155.3432943187654 87.31665700301528 14.56402553245425 30.701908320188522 10.032725997269152 46.427828460931778 23.475062288343906 97.91193325817585 103.19503558427095 32.308432780206203 8.6885163933038694 3.7496553994715205 14.925909839570521 16.068457044661045 203.44702729582787 28.194469571113586 15.138986039906738
leaf_count=3313 376 259 475 1112 49 15 2821 877 114 268 51 123 82 185 64 194 9343 26 164 143 3807 54 1939 383 170 84 27 363 56 1622 219 14 67 70 37 43 811 64 166 477 61 212 132 408 235 548 814 117 419 48 152 237 378 405 224 17 24 107 113 869 43 102
internal_value=0.113994 0.0474515 0.0279405 0.0226138 0.146131 0.0142676 0.131986 0.00813749 0.0604823 0.119812 0.0391421 -0.000490411 0.0332608 0.0485405 0.15848 0.099156 -0.00196482 -0.0173058 0.0156191 0.112359 0.0086555 0.036021 0.010642 0.104756 0.07232 0.153127 -0.00381873 0.0771688 -0.0175762 0.0273296 0.105274 0.00875524 0.029054 0.0113401 0.247048 0.0980053 0.119716 0.134986 0.0413463 0.109262 0.121674 0.0692575 0.102725 0.0795146 0.0529364 0.106732 -0.000874185 0.12944 0.00101474 0.0647888 0.0924195 0.0729221 0.0925726 0.0924872 -0.00203254 0.0481259 0.0271126 0.0362666 0.0243021 0.0941497 0.0795643 -0.0265401
internal_weight=9378.53 3054.31 2203.77 2107.78 6324.22 1882.68 2328.4 1662.2 220.483 76.3505 361.857 1300.34 351.089 286.902 46.4006 32.0479 1290.91 689.425 601.484 40.3891 561.095 274.612 200.56 74.0525 63.619 35.8501 184.373 46.9721 286.483 240.502 46.283 194.219 144.132 127.471 20.5407 850.537 391.211 322.433 36.8847 673.678 514.147 159.531 108.565 459.326 232.392 226.933 98.4486 169.907 188.27 56.8031 225.099 178.671 155.196 133.944 50.9663 68.7786 15.3094 40.7697 46.7704 276.828 231.641 131.467
internal_count=36192 27991 23987 23728 8201 22486 4888 20855 1631 382 3990 16865 3939 3062 340 276 16850 9369 7481 307 7174 3311 2559 752 698 315 2436 497 3863 2722 404 2318 1249 1182 121 4004 1434 1041 230 2067 1450 617 344 2570 1497 1073 857 665 2304 580 1242 1090 853 640 273 393 194 470 532 973 912 1724
is_linear=0
shrinkage=0.05


end of trees

feature_importances:
Column_532=18
Column_534=13
Column_478=8
Column_504=6
Column_523=6
Column_0=5
Column_19=5
Column_261=5
Column_255=4
Column_318=4
Column_357=4
Column_451=4
Column_471=4
Column_513=4
Column_66=3
Column_73=3
Column_90=3
Column_156=3
Column_181=3
Column_201=3
Column_289=3
Column_307=3
Column_309=3
Column_316=3
Column_327=3
Column_415=3
Column_432=3
Column_516=3
Column_1=2
Column_7=2
Column_9=2
Column_10=2
Column_17=2
Column_33=2
Column_37=2
Column_51=2
Column_57=2
Column_63=2
Column_78=2
Column_84=2
Column_85=2
Column_87=2
Column_93=2
Column_108=2
Column_120=2
Column_129=2
Column_150=2
Column_168=2
Column_174=2
Column_180=2
Column_190=2
Column_235=2
Column_249=2
Column_264=2
Column_336=2
Column_343=2
Column_351=2
Column_352=2
Column_354=2
Column_366=2
Column_370=2
Column_388=2
Column_390=2
Column_399=2
Column_405=2
Column_406=2
Column_414=2
Column_420=2
Column_426=2
Column_433=2
Column_441=2
Column_444=2
Column_448=2
Column_465=2
Column_469=2
Column_480=2
Column_486=2
Column_495=2
Column_498=2
Column_505=2
Column_511=2
Column_514=2
Column_519=2
Column_531=2
Column_2=1
Column_4=1
Column_6=1
Column_12=1
Column_14=1
Column_21=1
Column_23=1
Column_24=1
Column_40=1
Column_41=1
Column_45=1
Column_49=1
Column_55=1
Column_60=1
Column_62=1
Column_69=1
Column_72=1
Column_75=1
Column_80=1
Column_81=1
Column_82=1
Column_96=1
Column_98=1
Column_105=1
Column_111=1
Column_113=1
Column_114=1
Column_117=1
Column_118=1
Column_123=1
Column_124=1
Column_127=1
Column_130=1
Column_132=1
Column_133=1
Column_140=1
Column_143=1
Column_153=1
Column_159=1
Column_163=1
Column_165=1
Column_171=1
Column_179=1
Column_183=1
Column_186=1
Column_189=1
Column_193=1
Column_198=1
Column_202=1
Column_207=1
Column_211=1
Column_213=1
Column_216=1
Column_221=1
Column_222=1
Column_223=1
Column_225=1
Column_232=1
Column_237=1
Column_238=1
Column_241=1
Column_243=1
Column_245=1
Column_250=1
Column_252=1
Column_256=1
Column_258=1
Column_267=1
Column_280=1
Column_282=1
Column_287=1
Column_288=1
Column_291=1
Column_292=1
Column_294=1
Column_297=1
Column_306=1
Column_315=1
Column_319=1
Column_320=1
Column_330=1
Column_333=1
Column_334=1
Column_335=1
Column_339=1
Column_348=1
Column_360=1
Column_363=1
Column_375=1
Column_384=1
Column_402=1
Column_403=1
Column_408=1
Column_411=1
Column_413=1
Column_417=1
Column_423=1
Column_431=1
Column_435=1
Column_438=1
Column_445=1
Column_453=1
Column_456=1
Column_459=1
Column_460=1
Column_468=1
Column_474=1
Column_477=1
Column_481=1
Column_483=1
Column_484=1
Column_487=1
Column_491=1
Column_496=1
Column_497=1
Column_499=1
Column_501=1
Column_502=1
Column_503=1
Column_507=1
Column_509=1
Column_522=1
Column_525=1
Column_528=1
Column_530=1
Column_535=1
Column_537=1
Column_538=1

parameters:
[boosting: gbdt]
[objective: binary]
[metric: binary_logloss]
[tree_learner: serial]
[device_type: cpu]
[data_sample_strategy: bagging]
[data: ]
[valid: ]
[num_iterations: 300]
[learning_rate: 0.05]
[num_leaves: 63]
[num_threads: 32]
[seed: 2021]
[deterministic: 0]
[force_col_wise: 0]
[force_row_wise: 0]
[histogram_pool_size: -1]
[max_depth: -1]
[min_data_in_leaf: 50]
[min_sum_hessian_in_leaf: 0.001]
[bagging_fraction: 1]
[pos_bagging_fraction: 1]
[neg_bagging_fraction: 1]
[bagging_freq: 0]
[bagging_seed: 5064]
[bagging_by_query: 0]
[feature_fraction: 1]
[feature_fraction_bynode: 1]
[feature_fraction_seed: 6682]
[extra_trees: 0]
[extra_seed: 17862]
[early_stopping_round: 0]
[early_stopping_min_delta: 0]
[first_metric_only: 0]
[max_delta_step: 0]
[lambda_l1: 0]
[lambda_l2: 0]
[linear_lambda: 0]
[min_gain_to_split: 0]
[drop_rate: 0.1]
[max_drop: 50]
[skip_drop: 0.5]
[xgboost_dart_mode: 0]
[uniform_drop: 0]
[drop_seed: 14392]
[top_rate: 0.2]
[other_rate: 0.1]
[min_data_per_group: 100]
[max_cat_threshold: 32]
[cat_l2: 10]
[cat_smooth: 10]
[max_cat_to_onehot: 4]
[top_k: 20]
[monotone_constraints: ]
[monotone_constraints_method: basic]
[monotone_penalty: 0]
[feature_contri: ]
[forcedsplits_filename: ]
[refit_decay_rate: 0.9]
[cegb_tradeoff: 1]
[cegb_penalty_split: 0]
[cegb_penalty_feature_lazy: ]
[cegb_penalty_feature_coupled: ]
[path_smooth: 0]
[interaction_constraints: ]
[verbosity: -1]
[saved_feature_importance_type: 0]
[use_quantized_grad: 0]
[num_grad_quant_bins: 4]
[quant_train_renew_leaf: 0]
[stochastic_rounding: 1]
[linear_tree: 0]
[max_bin: 255]
[max_bin_by_feature: ]
[min_data_in_bin: 3]
[bin_construct_sample_cnt: 200000]
[data_random_seed: 6638]
[is_enable_sparse: 1]
[enable_bundle: 1]
[use_missing: 1]
[zero_as_missing: 0]
[feature_pre_filter: 1]
[pre_partition: 0]
[two_round: 0]
[header: 0]
[label_column: ]
[weight_column: ]
[group_column: ]
[ignore_column: ]
[categorical_feature: ]
[forcedbins_filename: ]
[precise_float_parser: 0]
[parser_config_file: ]
[objective_seed: 14162]
[num_class: 1]
[is_unbalance: 0]
[scale_pos_weight: 12.4643]
[sigmoid: 1]
[boost_from_average: 1]
[reg_sqrt: 0]
[alpha: 0.9]
[fair_c: 1]
[poisson_max_delta_step: 0.7]
[tweedie_variance_power: 1.5]
[lambdarank_truncation_level: 30]
[lambdarank_norm: 1]
[label_gain: ]
[lambdarank_position_bias_regularization: 0]
[eval_at: ]
[multi_error_top_k: 1]
[auc_mu_weights: ]
[num_machines: 1]
[local_listen_port: 12400]
[time_out: 120]
[machine_list_filename: ]
[machines: ]
[gpu_platform_id: -1]
[gpu_device_id: -1]
[gpu_use_dp: 0]
[num_gpu: 1]

end of parameters

pandas_categorical:null
