tree
version=v4
num_class=1
num_tree_per_iteration=1
label_index=0
max_feature_idx=539
objective=binary sigmoid:1
feature_names=Column_0 Column_1 Column_2 Column_3 Column_4 Column_5 Column_6 Column_7 Column_8 Column_9 Column_10 Column_11 Column_12 Column_13 Column_14 Column_15 Column_16 Column_17 Column_18 Column_19 Column_20 Column_21 Column_22 Column_23 Column_24 Column_25 Column_26 Column_27 Column_28 Column_29 Column_30 Column_31 Column_32 Column_33 Column_34 Column_35 Column_36 Column_37 Column_38 Column_39 Column_40 Column_41 Column_42 Column_43 Column_44 Column_45 Column_46 Column_47 Column_48 Column_49 Column_50 Column_51 Column_52 Column_53 Column_54 Column_55 Column_56 Column_57 Column_58 Column_59 Column_60 Column_61 Column_62 Column_63 Column_64 Column_65 Column_66 Column_67 Column_68 Column_69 Column_70 Column_71 Column_72 Column_73 Column_74 Column_75 Column_76 Column_77 Column_78 Column_79 Column_80 Column_81 Column_82 Column_83 Column_84 Column_85 Column_86 Column_87 Column_88 Column_89 Column_90 Column_91 Column_92 Column_93 Column_94 Column_95 Column_96 Column_97 Column_98 Column_99 Column_100 Column_101 Column_102 Column_103 Column_104 Column_105 Column_106 Column_107 Column_108 Column_109 Column_110 Column_111 Column_112 Column_113 Column_114 Column_115 Column_116 Column_117 Column_118 Column_119 Column_120 Column_121 Column_122 Column_123 Column_124 Column_125 Column_126 Column_127 Column_128 Column_129 Column_130 Column_131 Column_132 Column_133 Column_134 Column_135 Column_136 Column_137 Column_138 Column_139 Column_140 Column_141 Column_142 Column_143 Column_144 Column_145 Column_146 Column_147 Column_148 Column_149 Column_150 Column_151 Column_152 Column_153 Column_154 Column_155 Column_156 Column_157 Column_158 Column_159 Column_160 Column_161 Column_162 Column_163 Column_164 Column_165 Column_166 Column_167 Column_168 Column_169 Column_170 Column_171 Column_172 Column_173 Column_174 Column_175 Column_176 Column_177 Column_178 Column_179 Column_180 Column_181 Column_182 Column_183 Column_184 Column_185 Column_186 Column_187 Column_188 Column_189 Column_190 Column_191 Column_192 Column_193 Column_194 Column_195 Column_196 Column_197 Column_198 Column_199 Column_200 Column_201 Column_202 Column_203 Column_204 Column_205 Column_206 Column_207 Column_208 Column_209 Column_210 Column_211 Column_212 Column_213 Column_214 Column_215 Column_216 Column_217 Column_218 Column_219 Column_220 Column_221 Column_222 Column_223 Column_224 Column_225 Column_226 Column_227 Column_228 Column_229 Column_230 Column_231 Column_232 Column_233 Column_234 Column_235 Column_236 Column_237 Column_238 Column_239 Column_240 Column_241 Column_242 Column_243 Column_244 Column_245 Column_246 Column_247 Column_248 Column_249 Column_250 Column_251 Column_252 Column_253 Column_254 Column_255 Column_256 Column_257 Column_258 Column_259 Column_260 Column_261 Column_262 Column_263 Column_264 Column_265 Column_266 Column_267 Column_268 Column_269 Column_270 Column_271 Column_272 Column_273 Column_274 Column_275 Column_276 Column_277 Column_278 Column_279 Column_280 Column_281 Column_282 Column_283 Column_284 Column_285 Column_286 Column_287 Column_288 Column_289 Column_290 Column_291 Column_292 Column_293 Column_294 Column_295 Column_296 Column_297 Column_298 Column_299 Column_300 Column_301 Column_302 Column_303 Column_304 Column_305 Column_306 Column_307 Column_308 Column_309 Column_310 Column_311 Column_312 Column_313 Column_314 Column_315 Column_316 Column_317 Column_318 Column_319 Column_320 Column_321 Column_322 Column_323 Column_324 Column_325 Column_326 Column_327 Column_328 Column_329 Column_330 Column_331 Column_332 Column_333 Column_334 Column_335 Column_336 Column_337 Column_338 Column_339 Column_340 Column_341 Column_342 Column_343 Column_344 Column_345 Column_346 Column_347 Column_348 Column_349 Column_350 Column_351 Column_352 Column_353 Column_354 Column_355 Column_356 Column_357 Column_358 Column_359 Column_360 Column_361 Column_362 Column_363 Column_364 Column_365 Column_366 Column_367 Column_368 Column_369 Column_370 Column_371 Column_372 Column_373 Column_374 Column_375 Column_376 Column_377 Column_378 Column_379 Column_380 Column_381 Column_382 Column_383 Column_384 Column_385 Column_386 Column_387 Column_388 Column_389 Column_390 Column_391 Column_392 Column_393 Column_394 Column_395 Column_396 Column_397 Column_398 Column_399 Column_400 Column_401 Column_402 Column_403 Column_404 Column_405 Column_406 Column_407 Column_408 Column_409 Column_410 Column_411 Column_412 Column_413 Column_414 Column_415 Column_416 Column_417 Column_418 Column_419 Column_420 Column_421 Column_422 Column_423 Column_424 Column_425 Column_426 Column_427 Column_428 Column_429 Column_430 Column_431 Column_432 Column_433 Column_434 Column_435 Column_436 Column_437 Column_438 Column_439 Column_440 Column_441 Column_442 Column_443 Column_444 Column_445 Column_446 Column_447 Column_448 Column_449 Column_450 Column_451 Column_452 Column_453 Column_454 Column_455 Column_456 Column_457 Column_458 Column_459 Column_460 Column_461 Column_462 Column_463 Column_464 Column_465 Column_466 Column_467 Column_468 Column_469 Column_470 Column_471 Column_472 Column_473 Column_474 Column_475 Column_476 Column_477 Column_478 Column_479 Column_480 Column_481 Column_482 Column_483 Column_484 Column_485 Column_486 Column_487 Column_488 Column_489 Column_490 Column_491 Column_492 Column_493 Column_494 Column_495 Column_496 Column_497 Column_498 Column_499 Column_500 Column_501 Column_502 Column_503 Column_504 Column_505 Column_506 Column_507 Column_508 Column_509 Column_510 Column_511 Column_512 Column_513 Column_514 Column_515 Column_516 Column_517 Column_518 Column_519 Column_520 Column_521 Column_522 Column_523 Column_524 Column_525 Column_526 Column_527 Column_528 Column_529 Column_530 Column_531 Column_532 Column_533 Column_534 Column_535 Column_536 Column_537 Column_538 Column_539
feature_infos=[-5.221592903137207:4.7174110412597656] [-0.86116659641265869:3.1393942832946777] [-18.460952758789062:7.3048324584960938] [-4.8164644241333008:4.0407133102416992] [-0.86116659641265869:2.9592044353485107] [-34.152454376220703:5.741854190826416] [-4.7341036796569824:4.4124517440795898] [-0.86116659641265869:3.8682053089141846] [-35.583099365234375:5.741854190826416] [-5.3507003784179688:4.7174110412597656] [-0.86116659641265869:3.1384341716766357] [-18.460952758789062:7.3048324584960938] [-4.7919788360595703:4.1119441986083984] [-0.86116659641265869:2.9501354694366455] [-34.152454376220703:5.741854190826416] [-5.036837100982666:4.1475601196289062] [-0.86116659641265869:3.8682053089141846] [-35.583099365234375:5.741854190826416] [-5.3507003784179688:4.7174110412597656] [-0.86116659641265869:3.1384341716766357] [-18.460952758789062:7.3048324584960938] [-5.0590968132019043:4.1119441986083984] [-0.86116659641265869:2.9410669803619385] [-34.152454376220703:5.741854190826416] [-5.036837100982666:4.6728916168212891] [-0.86116659641265869:3.8682053089141846] [-35.583099365234375:5.741854190826416] [-5.3507003784179688:4.3523502349853516] [-0.86116659641265869:3.137092113494873] [-18.460952758789062:7.3048324584960938] [-5.0590968132019043:6.838770866394043] [-0.86116659641265869:2.974003791809082] [-18.809013366699219:5.741854190826416] [-5.036837100982666:4.6728916168212891] [-0.86116659641265869:3.8682053089141846] [-35.583099365234375:5.741854190826416] [-6.0808219909667969:4.3011527061462402] [-0.86116659641265869:3.132115364074707] [-18.460952758789062:7.3048324584960938] [-5.0590968132019043:4.2276954650878906] [-0.86116659641265869:2.9862205982208252] [-18.809013366699219:5.741854190826416] [-4.8164644241333008:6.4113831520080566] [-0.86116659641265869:3.8682053089141846] [-35.583099365234375:5.741854190826416] [-6.0808219909667969:4.3011527061462402] [-0.86116659641265869:3.1265866756439209] [-22.298454284667969:7.3048324584960938] [-4.7830748558044434:4.2276954650878906] [-0.86116659641265869:2.9984374046325684] [-19.925205230712891:5.741854190826416] [-4.8164644241333008:6.838770866394043] [-0.86116659641265869:3.8682053089141846] [-35.583099365234375:5.741854190826416] [-5.1792998313903809:5.0357265472412109] [-0.86116659641265869:3.1210577487945557] [-22.298454284667969:7.3048324584960938] [-4.8209166526794434:4.7174110412597656] [-0.86116659641265869:3.0205032825469971] [-20.016422271728516:5.741854190826416] [-4.8164644241333008:6.4113831520080566] [-0.86116659641265869:3.8682053089141846] [-35.583099365234375:5.741854190826416] [-5.0234813690185547:6.0908412933349609] [-0.86116659641265869:3.0205976963043213] [-22.298454284667969:7.3048324584960938] [-5.0991640090942383:4.7174110412597656] [-0.86116659641265869:3.0573489665985107] [-20.016422271728516:7.3048324584960938] [-4.7341036796569824:4.490361213684082] [-0.86116659641265869:3.8682053089141846] [-35.583099365234375:5.741854190826416] [-5.5109705924987793:6.0908412933349609] [-0.86116659641265869:3.0146675109863281] [-18.460952758789062:7.3048324584960938] [-4.8209166526794434:5.7369108200073242] [-0.86116659641265869:3.0941884517669678] [-20.016422271728516:7.3048324584960938] [-4.9210858345031738:5.9528307914733887] [-0.86116659641265869:3.8682053089141846] [-35.583099365234375:5.741854190826416] [-5.5109705924987793:6.0908412933349609] [-0.86116659641265869:3.0054748058319092] [-18.460952758789062:7.3048324584960938] [-4.7118434906005859:5.7369108200073242] [-0.86116659641265869:3.121025562286377] [-20.099235534667969:7.3048324584960938] [-4.9210858345031738:5.9528307914733887] [-0.86116659641265869:3.8682053089141846] [-35.583099365234375:5.741854190826416] [-5.4619989395141602:6.0908412933349609] [-0.86116659641265869:2.9832098484039307] [-18.460952758789062:7.3048324584960938] [-7.3874721527099609:4.1809496879577637] [-0.86116659641265869:3.1245131492614746] [-20.099235534667969:7.3048324584960938] [-5.0947127342224121:4.4770054817199707] [-0.86116659641265869:3.8682053089141846] [-35.583099365234375:5.741854190826416] [-5.4619989395141602:5.7369108200073242] [-0.86116659641265869:2.9609482288360596] [-18.460952758789062:7.3048324584960938] [-7.3874721527099609:4.728541374206543] [-0.86116659641265869:3.1279976367950439] [-20.099235534667969:7.3048324584960938] [-5.0590968132019043:4.0251312255859375] [-0.86116659641265869:3.8682053089141846] [-35.583099365234375:5.741854190826416] [-5.4486432075500488:5.3518157005310059] [-0.86116659641265869:2.9386796951293945] [-18.460952758789062:7.3048324584960938] [-7.3874721527099609:4.728541374206543] [-0.86116659641265869:3.1333005428314209] [-20.204853057861328:7.3048324584960938] [-5.0590968132019043:4.7908682823181152] [-0.86116659641265869:3.8682053089141846] [-35.583099365234375:5.741854190826416] [-5.1592659950256348:4.5994343757629395] [-0.86116659641265869:2.9164180755615234] [-18.460952758789062:7.3048324584960938] [-4.7452335357666016:4.728541374206543] [-0.86116659641265869:3.1416802406311035] [-22.298454284667969:7.3048324584960938] [-4.892148494720459:4.7908682823181152] [-0.86116659641265869:3.8682053089141846] [-35.583099365234375:5.741854190826416] [-5.2304973602294922:4.1119441986083984] [-0.86116659641265869:2.8941531181335449] [-18.460952758789062:7.3048324584960938] [-4.9077296257019043:4.1876277923583984] [-0.86116659641265869:3.1500599384307861] [-22.298454284667969:5.8144493103027344] [-4.892148494720459:4.7908682823181152] [-0.86116659641265869:3.8682053089141846] [-35.583099365234375:5.741854190826416] [-5.2304973602294922:4.1119441986083984] [-0.86116659641265869:2.8706502914428711] [-18.460952758789062:7.3048324584960938] [-4.9077296257019043:5.017918586730957] [-0.86116659641265869:3.1573452949523926] [-22.298454284667969:5.8144493103027344] [-4.7318778038024902:4.6484060287475586] [-0.86116659641265869:3.8682053089141846] [-35.583099365234375:5.741854190826416] [-5.2861471176147461:4.1119441986083984] [-0.86116659641265869:2.8595669269561768] [-18.460952758789062:7.3048324584960938] [-4.778623104095459:5.017918586730957] [-0.86116659641265869:3.1644546985626221] [-20.323673248291016:5.8144493103027344] [-4.8743400573730469:4.6484060287475586] [-0.86116659641265869:3.8682053089141846] [-35.583099365234375:5.741854190826416] [-5.413027286529541:4.7908687591552734] [-0.86116659641265869:2.8595669269561768] [-18.460952758789062:7.3048324584960938] [-4.5627026557922363:4.8954892158508301] [-0.86116659641265869:3.1715610027313232] [-20.323673248291016:5.8144493103027344] [-4.8743400573730469:4.8954892158508301] [-0.86116659641265869:3.8682053089141846] [-35.583099365234375:5.741854190826416] [-5.413027286529541:4.7908687591552734] [-0.86116659641265869:2.8595669269561768] [-18.460952758789062:7.3048324584960938] [-4.6762275695800781:4.8954892158508301] [-0.86116659641265869:3.1782879829406738] [-20.434093475341797:7.3048324584960938] [-4.8743400573730469:4.8954892158508301] [-0.86116659641265869:3.8682053089141846] [-35.583099365234375:5.741854190826416] [-5.413027286529541:6.6562404632568359] [-0.86116659641265869:2.8595669269561768] [-18.460952758789062:7.3048324584960938] [-5.0947127342224121:4.8954892158508301] [-0.86116659641265869:3.1728832721710205] [-20.434093475341797:7.3048324584960938] [-4.9121818542480469:4.8954892158508301] [-0.86116659641265869:3.8682053089141846] [-35.583099365234375:5.741854190826416] [-5.3840899467468262:6.6562404632568359] [-0.86116659641265869:2.8595669269561768] [-18.514963150024414:7.3048324584960938] [-5.2304973602294922:4.5549149513244629] [-0.86116659641265869:3.1472647190093994] [-20.508506774902344:7.3048324584960938] [-4.9121818542480469:4.5571403503417969] [-0.86116659641265869:3.8682053089141846] [-35.583099365234375:5.741854190826416] [-5.3840899467468262:6.6562404632568359] [-0.86116659641265869:2.8595669269561768] [-18.514963150024414:7.3048324584960938] [-10.241179466247559:3.9182839393615723] [-0.86116659641265869:3.1208128929138184] [-20.508506774902344:7.3048324584960938] [-4.9121818542480469:4.5571403503417969] [-0.86116659641265869:3.8682053089141846] [-35.583099365234375:5.741854190826416] [-5.3840899467468262:4.0251312255859375] [-0.86116659641265869:2.8595669269561768] [-18.460952758789062:7.3048324584960938] [-10.241179466247559:4.5682706832885742] [-0.86116659641265869:3.0910208225250244] [-20.508506774902344:7.3048324584960938] [-5.2616605758666992:4.0407133102416992] [-0.86116659641265869:3.8682053089141846] [-35.583099365234375:5.741854190826416] [-5.4441909790039062:3.6667482852935791] [-0.86116659641265869:2.8732104301452637] [-26.082265853881836:7.3048324584960938] [-5.0702266693115234:4.5682706832885742] [-0.86116659641265869:3.0612318515777588] [-20.616523742675781:7.3048324584960938] [-5.2616605758666992:5.017918586730957] [-0.86116659641265869:3.8682053089141846] [-35.583099365234375:5.741854190826416] [-5.8092522621154785:3.9383177757263184] [-0.86116659641265869:3.0773282051086426] [-18.809013366699219:7.3048324584960938] [-4.9210858345031738:4.5682706832885742] [-0.86116659641265869:3.103809118270874] [-20.616523742675781:7.3048324584960938] [-6.025172233581543:5.0357265472412109] [-0.86116659641265869:3.8682053089141846] [-35.583099365234375:5.741854190826416] [-6.3345832824707031:4.5549149513244629] [-0.86116659641265869:3.0647847652435303] [-18.809013366699219:7.3048324584960938] [-4.9900913238525391:6.5271334648132324] [-0.86116659641265869:3.1059966087341309] [-17.893255233764648:7.3048324584960938] [-6.025172233581543:5.0357265472412109] [-0.86116659641265869:3.8682053089141846] [-35.583099365234375:5.741854190826416] [-6.3345832824707031:4.5549149513244629] [-0.86116659641265869:3.0522446632385254] [-18.809013366699219:7.3048324584960938] [-5.0034470558166504:6.5271334648132324] [-0.86116659641265869:3.1081850528717041] [-17.893255233764648:7.3048324584960938] [-6.025172233581543:5.0357265472412109] [-0.86116659641265869:3.8682053089141846] [-35.583099365234375:5.741854190826416] [-6.3345832824707031:5.0980539321899414] [-0.86116659641265869:3.0406453609466553] [-18.809013366699219:7.3048324584960938] [-5.1013903617858887:6.5271334648132324] [-0.86116659641265869:3.1071071624755859] [-17.893255233764648:7.3048324584960938] [-4.9077301025390625:4.5059432983398438] [-0.86116659641265869:3.8682053089141846] [-35.583099365234375:5.741854190826416] [-5.7580547332763672:5.0980539321899414] [-0.86116659641265869:3.0374646186828613] [-18.809013366699219:7.3048324584960938] [-5.1013903617858887:4.5571403503417969] [-0.86116659641265869:3.0984206199645996] [-17.893255233764648:7.3048324584960938] [-4.8120131492614746:4.5059432983398438] [-0.86116659641265869:3.8682053089141846] [-35.583099365234375:5.741854190826416] [-5.7580547332763672:5.0980539321899414] [-0.86116659641265869:3.0342874526977539] [-18.809013366699219:7.3048324584960938] [-5.1013903617858887:12.236774444580078] [-0.86116659641265869:3.0897307395935059] [-18.809013366699219:7.3048324584960938] [-4.8609843254089355:4.1030402183532715] [-0.86116659641265869:3.8682053089141846] [-35.583099365234375:5.741854190826416] [-5.7580547332763672:4.2121138572692871] [-0.86116659641265869:3.0340163707733154] [-18.809013366699219:7.3048324584960938] [-5.1013903617858887:12.236774444580078] [-0.86116659641265869:3.0810444355010986] [-18.809013366699219:7.3048324584960938] [-4.8609843254089355:3.8426008224487305] [-0.86116659641265869:3.8682053089141846] [-35.583099365234375:6.8505892753601074] [-5.0791306495666504:4.2855710983276367] [-0.86116659641265869:3.0354628562927246] [-18.809013366699219:7.3048324584960938] [-21.190780639648438:4.574948787689209] [-0.86116659641265869:3.072354793548584] [-20.812158584594727:7.3048324584960938] [-4.8609843254089355:3.8693125247955322] [-0.86116659641265869:3.8682053089141846] [-35.583099365234375:6.8505892753601074] [-5.0947127342224121:4.2855710983276367] [-0.86116659641265869:3.036909818649292] [-18.809013366699219:7.3048324584960938] [-21.190780639648438:4.574948787689209] [-0.86116659641265869:3.0636680126190186] [-20.951381683349609:7.3048324584960938] [-4.8721146583557129:4.385739803314209] [-0.86116659641265869:3.8682053089141846] [-35.583099365234375:6.8505892753601074] [-5.1459102630615234:4.2855710983276367] [-0.86116659641265869:3.0383560657501221] [-18.809013366699219:7.3048324584960938] [-5.3751864433288574:4.2811188697814941] [-0.86116659641265869:3.0631976127624512] [-20.951381683349609:7.3048324584960938] [-4.8854703903198242:4.385739803314209] [-0.86116659641265869:3.8682053089141846] [-35.583099365234375:6.8505892753601074] [-5.1459102630615234:4.2855710983276367] [-0.86116659641265869:3.0398027896881104] [-18.809013366699219:7.3048324584960938] [-4.7096176147460938:4.0941367149353027] [-0.86116659641265869:3.0767924785614014] [-20.951381683349609:7.3048324584960938] [-5.0947127342224121:4.385739803314209] [-0.86116659641265869:3.8682053089141846] [-35.583099365234375:6.8505892753601074] [-5.1459102630615234:4.2811188697814941] [-0.86116659641265869:3.0410864353179932] [-18.809013366699219:7.3048324584960938] [-4.769719123840332:4.3523502349853516] [-0.86116659641265869:3.0903871059417725] [-21.112209320068359:7.3048324584960938] [-5.0947127342224121:5.0134663581848145] [-0.86116659641265869:3.8682053089141846] [-35.583099365234375:6.8505892753601074] [-5.1459102630615234:5.5009565353393555] [-0.86116659641265869:3.0421280860900879] [-18.809013366699219:7.3048324584960938] [-5.7580547332763672:5.1759629249572754] [-0.86116659641265869:2.9379351139068604] [-21.112209320068359:7.3048324584960938] [-5.1214241981506348:5.8482098579406738] [-0.86116659641265869:3.8682053089141846] [-35.583099365234375:6.8505892753601074] [-5.1013903617858887:5.5009565353393555] [-0.86116659641265869:3.0431699752807617] [-18.809013366699219:7.3048324584960938] [-5.7580547332763672:5.1759629249572754] [-0.86116659641265869:2.9379088878631592] [-21.112209320068359:7.3048324584960938] [-4.6762275695800781:5.8482098579406738] [-0.86116659641265869:3.8682053089141846] [-35.583099365234375:6.8505892753601074] [-5.1013903617858887:4.728541374206543] [-0.86116659641265869:3.0432674884796143] [-18.809013366699219:7.3048324584960938] [-5.413027286529541:5.6011257171630859] [-0.86116659641265869:2.9378764629364014] [-21.112209320068359:7.3048324584960938] [-4.6762275695800781:5.8482098579406738] [-0.86116659641265869:3.8682053089141846] [-35.619106292724609:6.8505892753601074] [-5.1013903617858887:4.728541374206543] [-0.86116659641265869:3.0419549942016602] [-18.809013366699219:7.3048324584960938] [-5.3017282485961914:7.4687232971191406] [-0.86116659641265869:2.938784122467041] [-21.250232696533203:7.3048324584960938] [-4.7674932479858398:4.5549149513244629] [-0.86116659641265869:3.8682053089141846] [-35.619106292724609:6.8505892753601074] [-5.1013903617858887:4.728541374206543] [-0.86116659641265869:3.040642261505127] [-18.809013366699219:7.3048324584960938] [-5.0301589965820312:5.6011257171630859] [-0.86116659641265869:2.9388952255249023] [-21.286239624023438:7.3048324584960938] [-4.7341032028198242:4.5549149513244629] [-0.86116659641265869:3.8682053089141846] [-35.65631103515625:6.8505892753601074] [-4.9077296257019043:4.3145089149475098] [-0.86116659641265869:3.3209888935089111] [-18.809013366699219:7.3048324584960938] [-4.8876962661743164:4.5326547622680664] [-0.86116659641265869:2.9390032291412354] [-21.286239624023438:7.3048324584960938] [-4.9900913238525391:4.0295834541320801] [-0.86116659641265869:3.8682053089141846] [-35.65631103515625:6.8505892753601074] [-4.9077296257019043:4.3145089149475098] [-0.86116659641265869:3.3336007595062256] [-18.809013366699219:7.3048324584960938] [-4.8031091690063477:67.559074401855469] [-0.86116659641265869:2.944678783416748] [-21.286239624023438:5.8144493103027344] [-5.0501928329467773:4.7908687591552734] [-0.86116659641265869:3.8682053089141846] [-35.65631103515625:7.3048324584960938] [-4.9077296257019043:4.385739803314209] [-0.86116659641265869:3.34621262550354] [-18.809013366699219:7.3048324584960938] [-22.041105270385742:4.1186223030090332] [-0.86116659641265869:2.9543123245239258] [-21.286239624023438:5.8144493103027344] [-5.0501928329467773:4.7908687591552734] [-0.86116659641265869:3.8682053089141846] [-35.65631103515625:7.3048324584960938] [-5.1481356620788574:4.385739803314209] [-0.86116659641265869:3.0747711658477783] [-18.809013366699219:7.3048324584960938] [-22.041105270385742:4.3011527061462402] [-0.86116659641265869:2.9639458656311035] [-21.286239624023438:7.3048324584960938] [-5.535456657409668:4.7908687591552734] [-0.86116659641265869:3.8682053089141846] [-35.65631103515625:7.3048324584960938] [-5.1481356620788574:7.4687232971191406] [-0.86116659641265869:3.066401481628418] [-18.809013366699219:7.3048324584960938] [-5.7335686683654785:4.8999414443969727] [-0.86116659641265869:2.9538977146148682] [-21.336648941040039:7.3048324584960938] [-5.0501928329467773:4.316734790802002] [-0.86116659641265869:3.8682053089141846] [-18.728599548339844:6.8505892753601074] [-5.535456657409668:4.2811188697814941] [-0.86116659641265869:3.0580317974090576] [-18.809013366699219:7.3048324584960938] [-5.7335686683654785:4.7619309425354004] [-0.86116659641265869:2.9203042984008789] [-21.371454238891602:7.3048324584960938] [-5.0501928329467773:3.9561254978179932] [-0.86116659641265869:3.8682053089141846] [-18.667388916015625:6.8505892753601074] [-5.036837100982666:4.9578170776367188] [-0.86116659641265869:3.0425913333892822] [-18.809013366699219:7.3048324584960938] [-5.7335686683654785:4.7619309425354004] [-0.86116659641265869:2.8867108821868896] [-21.371454238891602:7.3048324584960938] [-5.4486432075500488:3.9605777263641357] [-0.86116659641265869:3.8682053089141846] [-18.675790786743164:6.8505892753601074] [-5.036837100982666:4.9578170776367188] [-0.86116659641265869:3.0165584087371826] [-18.781408309936523:7.3048324584960938] [-5.2727909088134766:37.129920959472656] [-0.86116659641265869:2.6521937847137451] [-21.371454238891602:7.3048324584960938] [-5.4486432075500488:4.5326547622680664] [-0.86116659641265869:3.8682053089141846] [-18.628982543945312:6.8505892753601074] [-5.0902605056762695:4.3723845481872559] [-0.86116659641265869:2.9905250072479248] [-18.809013366699219:7.3048324584960938] [-5.2727909088134766:3.8715384006500244] [-0.86116659641265869:2.879366397857666] [-21.371454238891602:7.3048324584960938] [-5.4486432075500488:4.5326547622680664] [-0.86116659641265869:3.8682053089141846] [-18.628982543945312:6.8505892753601074] [-5.0902605056762695:4.2544069290161133] [-0.86116659641265869:2.9710385799407959] [-18.809013366699219:7.3048324584960938] [-5.2304973602294922:5.0980539321899414] [-0.86116659641265869:2.8730342388153076] [-21.371454238891602:7.3048324584960938] [-5.1971073150634766:4.5326547622680664] [-0.86116659641265869:3.8682053089141846] [-18.628982543945312:6.8505892753601074] [-5.0902605056762695:4.2544069290161133] [-0.86116659641265869:2.9668424129486084] [-18.770606994628906:7.3048324584960938] [-5.4486432075500488:5.0980539321899414] [-0.86116659641265869:2.8667056560516357] [-21.370254516601562:7.3048324584960938] [-5.2349491119384766:4.5126214027404785] [-0.86116659641265869:3.8682053089141846] [-18.667388916015625:6.8505892753601074] [-5.123650074005127:5.1759634017944336] [-0.86116659641265869:2.9673910140991211] [-18.781408309936523:7.3048324584960938] [-5.4486432075500488:5.0980539321899414] [-0.86116659641265869:2.8702816963195801] [-21.370254516601562:7.3048324584960938] [-5.2349491119384766:4.7841906547546387] [-0.86116659641265869:3.8682053089141846] [-18.667388916015625:7.3048324584960938] [-5.123650074005127:5.1759634017944336] [-0.86116659641265869:2.9727141857147217] [-18.781408309936523:7.3048324584960938] [-5.5109705924987793:4.6484060287475586] [-0.86116659641265869:2.8801565170288086] [-21.370254516601562:7.3048324584960938] [-5.2349491119384766:4.7841906547546387] [-0.86116659641265869:3.8682053089141846] [-18.667388916015625:7.3048324584960938] [-5.123650074005127:5.1759634017944336] [-0.86116659641265869:2.9780368804931641] [-18.628982543945312:7.3048324584960938] [-5.5109705924987793:4.6484060287475586] [-0.86116659641265869:2.8900284767150879] [-21.396657943725586:7.3048324584960938] [-5.7335686683654785:4.7841906547546387] [-0.86116659641265869:3.8682053089141846] [-18.634983062744141:7.3048324584960938] [-5.8137040138244629:5.017918586730957] [-0.86116659641265869:2.9808814525604248] [-18.628982543945312:7.3048324584960938] [-4.9077301025390625:4.241051197052002] [-0.86116659641265869:2.8974514007568359] [-21.396657943725586:7.3048324584960938] [-4.9077301025390625:4.5393328666687012] [-0.86116659641265869:3.8682053089141846] [-18.634983062744141:7.3048324584960938] [-5.8137040138244629:5.017918586730957] [-0.86116659641265869:2.9550895690917969] [-18.628982543945312:7.3048324584960938] [-4.9077301025390625:4.5549149513244629] [-0.86116659641265869:2.8972551822662354] [-21.396657943725586:7.3048324584960938] [-5.0657744407653809:4.7619309425354004] [-0.86116659641265869:3.8682053089141846] [-18.634983062744141:7.3048324584960938] [-5.8137040138244629:5.2360649108886719] [-0.86116659641265869:2.9443359375] [-18.667388916015625:7.3048324584960938] [-6.025172233581543:4.5549149513244629] [-0.86116659641265869:2.9019415378570557] [-21.480672836303711:7.3048324584960938] [-5.0657744407653809:4.7619309425354004] [-0.86116659641265869:3.8682053089141846] [-18.628982543945312:7.3048324584960938] [-5.161491870880127:5.2360649108886719] [-0.86116659641265869:2.933582067489624] [-18.667388916015625:7.3048324584960938] [-6.025172233581543:4.6127901077270508] [-0.86116659641265869:2.9306690692901611] [-21.480672836303711:7.3048324584960938] [-5.0657744407653809:4.7619309425354004] [-0.86116659641265869:3.8682053089141846] [-18.628982543945312:7.3048324584960938] [-4.9656052589416504:5.2360649108886719] [-0.86116659641265869:2.9230015277862549] [-18.667388916015625:7.3048324584960938] [-6.025172233581543:4.6127901077270508] [-0.86116659641265869:2.9594001770019531] [-21.480672836303711:7.3048324584960938] [-4.9923171997070312:4.2811188697814941] [-0.86116659641265869:3.8682053089141846] [-18.628982543945312:7.3048324584960938]
tree_sizes=6749 6826 6834

Tree=0
num_leaves=63
num_cat=0
split_feature=532 352 532 208 433 388 508 37 415 469 130 440 34 534 1 10 234 148 31 405 180 534 522 159 423 497 423 240 258 399 94 117 504 291 418 451 6 291 500 388 143 152 124 108 345 273 531 66 141 72 405 377 315 378 534 396 453 183 90 291 426 384
split_gain=57407.5 5693.48 2733.69 1409.18 990.055 944.348 834.902 563.88 496.281 485.55 536.94 478.668 473.097 466.305 425.412 408.536 377.907 455.098 373.761 344.598 344.199 342.84 340.117 339.704 332.816 377.024 323.856 398.27 320.839 312.897 427.473 405.615 310.931 309.088 303.65 301.023 300.937 309.508 294.543 292.6 290.957 420.14 286.851 379.674 285.316 284.836 350.593 354.125 283.112 283.093 311.067 280.357 276.787 275.54 272.039 267.569 358.208 430.368 329.911 312.123 266.803 266.35
threshold=-0.62474569678306568 -0.52985990047454823 -0.79361897706985463 -0.72048544883728016 -0.75701954960823048 -0.55804055929183949 -0.71462365984916676 -0.80273655056953419 -0.76105093955993641 -0.43830178678035731 -0.75932669639587391 -0.12070000916719435 -0.71380069851875294 0.73513150215148937 -0.60013765096664418 -0.85597586631774891 0.58265176415443432 -0.31395035982131952 -0.090054702013730989 -0.70619115233421315 -0.66723647713661183 0.81415382027626049 -0.22315327078104016 1.0478817820549013 0.85867342352867138 -3.9377210140228267 0.56039199233055126 -0.16305179148912427 1.8648167848587038 1.1803276538848879 -0.66629904508590687 -0.051752744242548936 -0.93658012151718129 -0.51809570193290699 -0.62477672100067128 -0.48267337679862971 -0.44575135409831995 -0.49694892764091486 -0.025791306979954239 -0.84113365411758412 0.15550617128610614 0.23992964625358584 -0.20048319548368451 0.21759095042943957 -0.549259454011917 -0.56484130024909962 0.16416740417480472 -1.1335794329643247 1.3105475902557375 -0.19644152373075482 0.88538515567779552 0.69988051056861889 1.0167180895805361 0.99223223328590404 1.6466707587242129 1.3650840520858767 0.50029049813747417 1.0434297919273379 0.66278705000877391 1.4530103206634524 1.5309196114540102 1.3851179480552676
decision_type=2 2 2 2 2 2 2 2 2 2 2 2 2 2 2 2 2 2 2 2 2 2 2 2 2 2 2 2 2 2 2 2 2 2 2 2 2 2 2 2 2 2 2 2 2 2 2 2 2 2 2 2 2 2 2 2 2 2 2 2 2 2
left_child=2 7 6 23 -5 14 39 42 11 10 19 34 45 28 -4 -14 17 -16 53 -6 61 -8 52 36 25 -17 54 -28 48 30 38 -32 -22 40 -9 -27 -3 -38 -7 -1 60 -42 -2 -44 -39 46 47 -11 55 -34 -51 -43 -20 -19 -12 56 -10 59 -57 -58 -26 -15
right_child=1 3 5 4 9 29 21 8 13 12 26 -13 15 20 16 24 -18 18 22 -21 32 -23 -24 -25 33 35 27 -29 -30 -31 31 -33 49 -35 -36 -37 37 44 -40 -41 41 51 43 -45 -46 -47 -48 -49 -50 50 -52 -53 -54 -55 -56 58 57 -59 -60 -61 -62 -63
leaf_value=-1.8630603240619168 -2.046375887319364 -2.0944995591511097 -2.0233823173862397 -2.0748226138180965 -2.5305790283568874 -2.3587123167186199 -1.9773122887386274 -2.0904274409028423 -2.3937856436748439 -2.1717930811524937 -2.437809007137822 -2.0980564811199018 -2.0658353235392859 -2.4858339811759902 -2.062096030992155 -2.1160201032129078 -2.0137225731580886 -2.4682241696547895 -2.3604697142015958 -2.0603037048987449 -2.5305790283568874 -2.0715020766180245 -2.066536052600549 -2.4768790832344352 -2.4497415773369227 -2.0658353235392859 -2.4845972337171065 -2.152544672012755 -2.0540009522146452 -2.0790790643791266 -2.4228764984089515 -2.1910414189985175 -1.9998315116287373 -2.4258690203140301 -2.4614913946010377 -2.450163254859945 -2.4840831779413457 -2.0427737198094493 -1.9887811231533379 -1.9424077750929547 -2.1184652461770277 -2.4235692848305903 -2.135535823812452 -2.5305790283568874 -2.3428052259343444 -2.393453726470558 -2.1467437800345004 -2.5305790283568874 -2.5305790283568874 -2.1302976781585139 -2.5305790283568874 -2.0605834113787784 -2.0255232684711229 -2.099550663046029 -2.1886487157990095 -2.0980564811199018 -2.4429269016880855 -2.0166068377430681 -2.5305790283568874 -2.0701230836938422 -2.1287050496279605 -2.0592518338885695
leaf_weight=212.10956814885139 70.031591400504112 46.383126437664032 614.61279971897602 22.190284669399261 4.6487932652235058 6.9228507727384594 725.79830919206142 8.1095306575298327 95.676290214061737 11.606715992093088 109.01543888449669 94.904560178518295 7.6804112792015067 13.295411139726641 115.5564790815115 8.6101699322462064 100.1373398154974 19.081233158707622 24.480297341942787 24.035222798585892 4.4342335760593405 111.4447730332613 47.434056118130684 11.078294351696966 51.514818176627159 5.1202741861343375 12.937811657786368 29.899854302406311 11.234537333250044 52.704659685492516 33.141494393348694 43.802496567368507 34.747252091765404 210.21334029734135 17.221715852618217 1028.3010960221291 12.79477186501026 15.854172244668005 24.156393826007843 256.90742966532707 30.314394503831863 33.356054082512856 28.612496167421341 7.7241488099098197 15.840969055891039 91.106306433677673 34.097659423947334 16.878695547580719 15.948936894536017 25.265640214085582 6.0076712965965262 6.3288228362798682 8.2452808618545514 6.9009820073842993 12.178875163197516 24.75771135091782 20.361301705241207 16.204482138156891 5.3639922291040412 7.7519311755895606 7.4016212821006766 5.0487542897462836
leaf_count=372 358 278 2883 125 65 75 2792 48 1098 86 1339 575 42 175 624 55 452 245 266 129 62 621 260 144 644 28 170 211 59 301 398 340 148 2536 219 12863 168 80 98 824 195 401 193 108 167 1045 237 236 223 168 84 34 39 42 94 150 252 74 75 43 49 27
internal_value=-2.18103 -2.35553 -2.0088 -2.3962 -2.40669 -2.06699 -1.95993 -2.20801 -2.23484 -2.41093 -2.3361 -2.1496 -2.42028 -2.27066 -2.04777 -2.42949 -2.09434 -2.13075 -2.2055 -2.13652 -2.17551 -1.98985 -2.15208 -2.21548 -2.43151 -2.44551 -2.371 -2.25283 -2.31348 -2.17895 -2.22768 -2.2909 -2.12528 -2.38849 -2.3427 -2.44826 -2.18361 -2.27652 -2.07118 -1.90652 -2.32753 -2.25862 -2.10552 -2.21951 -2.19273 -2.33704 -2.25491 -2.38439 -2.32915 -2.09806 -2.20719 -2.36568 -2.27608 -2.3703 -2.41277 -2.31026 -2.33935 -2.22184 -2.17508 -2.34013 -2.40941 -2.36843
internal_weight=4775.53 2372.09 2403.44 1859.39 1757.44 1097.18 1306.26 512.702 406.334 1735.25 192.716 120.236 1542.53 286.098 936.448 1388.84 321.836 221.698 106.142 28.684 88.799 837.243 80.1596 101.951 1381.16 1042.03 164.032 42.8377 197.299 160.728 108.023 76.944 70.4548 339.129 25.3312 1033.42 90.873 44.4899 31.0792 469.017 128.916 69.9993 106.368 36.3366 31.6951 153.689 62.5831 28.4854 186.065 66.0206 31.2733 39.6849 32.7256 25.9822 121.194 170.116 139.994 44.3177 30.1217 28.1132 58.9164 18.3442
internal_count=36192 25560 10632 21421 20584 6023 4609 4139 3480 20459 2008 842 18451 2638 4811 16847 1928 1476 852 194 664 3413 565 837 16805 12946 1814 381 1974 1212 911 738 462 3859 267 12891 693 415 173 1196 1323 630 659 301 247 1604 559 322 1915 400 252 435 305 287 1433 1692 1467 369 225 295 693 202
is_linear=0
shrinkage=1


Tree=1
num_leaves=63
num_cat=0
split_feature=532 352 532 208 442 406 433 533 52 451 464 477 417 173 470 288 120 469 103 396 71 26 270 291 60 159 274 303 285 291 513 6 228 10 387 69 13 136 456 114 197 298 444 519 276 374 294 233 9 222 197 17 438 225 199 240 493 369 433 180 68 20
split_gain=24031.8 2855.25 1116.03 768.597 468.237 425.942 417.704 393.253 407.998 383.752 335.436 318.134 343.923 314.589 338.305 314.012 344.04 301.921 360.229 299.12 295.461 356.485 294.364 334.302 320.471 289.595 285.341 293.435 259.608 306.249 463.765 385.323 274.527 259.37 256.934 256.381 252.496 245.66 279.956 289.637 241.358 239.595 243.304 238.352 237.221 269.033 263.135 282.282 270.191 252.467 236.184 404.434 243.171 235.494 231.986 230.51 229.28 224.199 263.972 283.854 328.969 222.772
threshold=-0.60075321793556202 -0.4282714575529098 -0.72659212350845326 -0.62628054618835438 -0.83531761169433583 -0.75716647505760182 -0.67395365238189686 1.3798859119415285 0.046392576768994338 -0.82698211073875416 1.0126236081123354 0.40234734117984777 1.6711564660072329 -0.56176474690437306 -0.4737683236598968 -0.54258152842521656 0.65388315916061412 -0.60266357660293568 -0.49244086444377894 0.52255031466484081 0.29471340775489813 0.27651067078113561 0.21759095042943957 0.12632571160793307 0.88983723521232616 -0.66389748454093922 -0.28692246973514551 0.23317279666662219 -0.19198956340551374 -0.5692932903766631 0.68949893116951 -0.085142482072114931 -0.35671211779117579 -0.85597586631774891 0.87648123502731334 0.89651510119438182 -0.59031465649604786 -0.50090694427490223 -0.04507480934262275 0.40902528166770941 0.31345258653163915 -0.20622906088829038 0.17084533721208575 1.5531795024871828 1.4619142413139345 0.32503786683082586 1.179214656352997 -0.30871170759201044 -0.26322090625762934 0.76295629143714916 -0.017220536246895787 0.20767618715763095 1.5309196114540102 -0.13188808411359784 -0.8296321928501128 0.079580109566450133 -0.82974478602409352 0.21759095042943957 -0.81342983245849598 -0.51364377140998829 -0.042525675147771828 0.54547286033630382
decision_type=2 2 2 2 2 2 2 2 2 2 2 2 2 2 2 2 2 2 2 2 2 2 2 2 2 2 2 2 2 2 2 2 2 2 2 2 2 2 2 2 2 2 2 2 2 2 2 2 2 2 2 2 2 2 2 2 2 2 2 2 2 2
left_child=2 5 9 35 -5 61 54 8 11 -1 -9 15 28 14 34 16 22 -7 -19 37 21 44 23 50 -25 26 27 43 -13 32 -31 -32 -30 -15 -10 41 -29 -8 -39 -40 -21 42 -3 -17 46 -46 47 48 -20 -48 52 -52 56 -50 -4 -14 -6 58 -56 60 -60 -2
right_child=1 3 6 4 7 17 19 10 13 -11 -12 12 55 33 -16 25 -18 18 20 40 -22 -23 -24 24 -26 -27 -28 36 29 30 31 -33 -34 -35 -36 -37 -38 38 39 -41 -42 -43 -44 -45 45 -47 49 -49 53 -51 51 -53 -54 -55 57 -57 -58 -59 59 -61 -62 -63
leaf_value=0.33799192379218335 0.25229958469985492 0.19654909737706736 0.34779071244754095 0.32695706515386602 0.31785190339007902 0.22120561162618593 0.2141077268905876 0.088185200337575709 0.023535659445463861 0.29923118609928756 0.43338470264493378 0.042966281498290015 0.082510930124906928 0.34549937946416431 0.46515965586491081 0.0026573531578943923 -0.054467245884580642 0.2002722471353422 -0.054953235896044728 0.29079408500780318 -0.0080011346703699297 0.31436426885177621 -0.02888448636259074 -0.034789111225384563 0.28606532936263734 -0.015771814584053565 -0.0068424320364067343 0.093418257425796514 0.039122245287668084 -0.00721177089212392 0.34845131928681961 -0.054363363417418924 0.30615435994148887 0.013368201623674893 0.26995641709413887 -0.013938263992327379 0.3915677582600765 -0.002668183810935457 0.23991813503277495 -0.055632571658296527 0.11026736796731938 0.27837479358977929 -0.055188916966090684 0.34972426605650803 0.015284710783529096 0.35944526508451285 0.08517420832121049 0.0098641369742692876 0.021232159661986442 0.37281796351356772 0.36634389192405986 0.040442230655208841 0.44340144752524324 0.34710397989541697 0.32136517943499332 0.39904351350572131 -0.025397455860201885 0.30719824772614013 0.21458113722424163 0.24397890227558727 -0.031582508990362003 0.0059924902350798996
leaf_weight=1022.2733268588781 194.90783074498177 35.389234870672226 101.52661604434252 15.528246842324732 6.3822399824857774 133.24937425553799 162.87471684813499 16.647021137177948 38.09252056479454 1701.2761910781264 12.19092024117708 109.83839078247547 8.6848254427313822 5.9222331568598738 6.8629109859466544 31.146206542849541 28.655947059392929 137.25229071080685 9.6696209460496885 135.41851854324341 50.724893026053905 22.520554162561893 23.143656343221664 30.235897772014141 10.479772090911863 199.62776961922646 49.91052033752203 12.028662860393526 12.722428448498247 50.360223099589348 22.145014159381393 8.1113874986767751 39.533133119344711 789.68251747637987 14.64489374309778 14.443098582327364 17.334539741277695 33.727009914815426 42.236829087138176 10.313749834895132 21.447090528905392 58.750310845673084 13.170281447470186 5.8809404745697966 8.4783105701208132 17.194340601563454 16.943456292152408 100.90395403653383 7.7931606918573406 13.875596284866331 39.552271835505962 12.536915346980093 4.7762468978762618 19.210022240877151 59.832978330552578 17.030172355473042 20.465361975133419 166.86019536107779 30.735779479146004 114.86948169022799 24.304228290915489 9.6338149681687337
leaf_count=1977 968 236 245 51 35 839 882 170 449 5222 51 1259 94 16 20 373 383 947 121 524 594 108 293 393 73 2508 618 117 150 629 130 110 226 9630 94 165 86 350 230 116 158 284 159 30 96 60 158 1134 84 40 198 146 17 79 180 66 263 543 155 519 246 95
internal_value=0.215367 0.0968976 0.297801 0.0625744 0.0536815 0.179285 0.249668 0.0511013 0.0478349 0.31378 0.234114 0.074477 0.118264 0.0241406 0.134938 0.0505955 0.10407 0.155928 0.134428 0.212026 0.100621 0.12606 0.134855 0.165311 0.0477953 0.0207668 0.0834844 0.15139 0.0998417 0.146858 0.085743 0.240461 0.241141 0.0158405 0.0919654 0.183833 0.269431 0.177973 0.109757 0.181912 0.266112 0.210451 0.128273 0.0577812 0.104208 0.245787 0.0826239 0.0530416 0.171843 0.214679 0.222467 0.287905 0.11468 0.253057 0.280351 0.29214 0.0562001 0.263087 0.231049 0.199244 0.105882 0.240699
internal_weight=6151.96 2524.26 3627.7 1781.91 1660.15 742.357 904.147 1644.63 1615.79 2723.55 28.8379 760.583 268.426 855.205 59.6003 492.157 176.228 537.816 404.566 406.018 267.314 216.589 147.572 124.429 40.7157 315.929 116.301 66.3903 242.711 132.872 80.6166 30.2564 52.2556 795.605 52.7374 121.753 29.3632 249.152 86.2776 52.5506 156.866 107.31 48.5595 37.0271 194.068 25.6727 168.396 137.577 36.6728 30.8191 83.713 52.0892 31.6238 27.0032 498.129 25.715 26.8476 396.603 229.742 169.909 55.04 204.542
internal_count=36192 24845 11347 19522 18678 5323 4148 18627 18406 7199 221 8197 2664 10209 563 5533 1801 4260 3421 2260 2474 1880 1418 1125 466 3732 1224 606 2504 1245 869 240 376 9646 543 844 203 1578 696 346 682 679 395 403 1772 156 1616 1418 284 198 659 344 315 163 1888 160 298 1643 1100 920 401 1063
is_linear=0
shrinkage=0.05


Tree=2
num_leaves=63
num_cat=0
split_feature=532 352 532 208 442 79 133 505 217 432 499 226 538 532 468 435 60 297 303 291 423 420 439 354 108 6 399 228 135 369 369 0 84 92 301 459 168 189 375 433 267 498 27 509 336 70 525 298 72 240 15 516 7 255 483 387 163 522 536 147 306 270
split_gain=13715.5 1951.49 569.425 540.386 317.873 294.62 288.986 278.674 276.543 259.184 258.665 254.622 322.217 242.877 238.883 273.259 232.489 221.572 246.17 221.223 243.584 219.597 216.941 216.122 241.027 224.309 230.235 206.1 204.836 231.483 221.876 210.08 346.029 204.449 225.569 222.861 271.803 251.649 200.229 199.532 193.068 190.882 188.718 186.178 184.545 182.514 178.848 177.86 177.417 176.999 176.51 175.992 175.919 240.892 221.687 175.433 172.841 182.536 165.808 189.679 165.277 163.668
threshold=-0.60075321793556202 -0.4282714575529098 -0.70694455504417408 -0.57944998145103443 -0.78867480158805836 -0.58067131042480458 3.2639107704162602 -0.61812466382980336 -0.72919154167175282 0.17974925786256793 -0.76979628205299366 -0.82738703489303578 0.61631464958190929 -0.52051207423210133 0.15081153064966205 -0.40568371117115015 -0.97442179918289173 2.0517991781234746 -0.33333931863307947 -0.88760855793952931 1.2415421009063723 1.2359771728515627 0.020644825883209709 -0.020589043386280533 -0.10295030847191809 0.15081153064966205 -1.1346923708915708 -0.48915798962116236 -0.23650913685560224 -1.1346923708915708 0.69728982448577892 -0.95327505469322193 0.039512488991022117 1.0180560350418093 -0.19352091848850247 0.46801379323005682 -0.5737452208995818 0.26433655619621282 -0.98443874716758717 -0.4248360395431518 -0.96106594800949086 0.88538515567779552 -0.34113027155399317 -1.1313357353210447 1.0723676085472109 3.7889583110809331 -0.013911053538322447 -0.73919087648391713 1.8247491717338564 0.63384935259819042 0.26656247675418859 1.3472762107849123 0.0051445832941681155 0.26656247675418859 0.11296984180808069 -0.2298312038183212 -0.83625975251197804 1.7891333699226382 0.091352462768554701 -0.29215869307518 1.094627380371094 0.69172483682632457
decision_type=2 2 2 2 2 2 2 2 2 2 2 2 2 2 2 2 2 2 2 2 2 2 2 2 2 2 2 2 2 2 2 2 2 2 2 2 2 2 2 2 2 2 2 2 2 2 2 2 2 2 2 2 2 2 2 2 2 2 2 2 2 2
left_child=2 6 10 41 -5 33 11 -8 -4 13 -1 -2 28 22 17 16 -16 19 -19 20 60 23 -7 24 42 -25 -27 -22 29 -13 31 -30 -33 34 35 36 61 51 -32 -21 44 -3 -18 -9 -17 56 48 -15 -34 -45 -24 -37 53 54 -42 -40 -31 58 -58 -60 -11 -6
right_child=1 3 8 4 5 9 7 43 -10 14 -12 12 -14 47 15 40 21 18 -20 39 27 -23 50 25 -26 26 -28 -29 30 45 38 32 46 -35 -36 37 -38 -39 55 -41 52 -43 -44 49 -46 -47 -48 -49 -50 -51 -52 -53 -54 -55 -56 -57 57 -59 59 -61 -62 -63
leaf_value=0.25669588411529926 0.23060664854570534 0.17045788800008088 0.22559939469986856 0.22378966186310581 0.18155998943792107 -0.054672273979696463 0.23183270165021425 0.22714854906473578 0.16751712848368117 -0.036726556374382269 0.22677750322270807 0.18980819696083251 0.24246436235089994 0.30997220358640787 -0.021050362061762456 0.08700178542500818 0.33406483349584365 0.35743007768901847 -0.054606767053737452 0.18802252328006616 -0.054972138204185186 -0.054557169573326438 0.028395574690473182 0.31046099474413968 -0.05455886422726583 0.33589013849906951 -0.054473867251822239 0.26841793907305272 0.21916709939401741 0.21574772835428432 0.0022012170228766234 -0.0019633996785204488 0.019968027765679425 0.31696288535085709 0.023337900631142577 -0.00053751241215458506 0.00095391633811018738 0.25978391024374209 0.070080686991327454 -0.019921443918591852 0.25054088574629491 0.017436780466135601 0.02047234993000234 -0.027437355861944374 0.32801157578580242 0.29362608168773952 0.20804116393343716 0.0073479392737040338 0.3059433392130182 0.11264301111211122 0.32882368476673163 0.28942160027326364 -0.0041010782683572515 -0.054721075678819814 -0.0062326211343082484 0.25938692752604448 -0.045441450109398783 0.19516082793372691 0.14464610832692718 -0.019334391297379266 0.20216945267432443 -0.05499216432098978
leaf_weight=993.68928400427103 107.36265548318624 128.23401192575693 332.84017138183117 25.323428936302662 52.546107187867165 9.1528309062123316 24.685796245932579 12.576281055808066 533.28845269232988 33.16510995477438 2646.5722008496523 50.60478500276804 77.438806660473347 4.8886537551879874 17.671144284307957 29.362233377993107 12.220370829105379 10.090751171112059 5.6572345420718184 12.220304034650324 6.2117605209350613 9.4986481070518476 7.1495302990078953 45.520204611122608 14.861482925713061 6.0740332975983646 9.9890451580286008 23.81720320135355 47.383495315909386 15.262598812580107 10.189445331692694 54.826258949935436 31.301420956850052 9.5510703548789007 106.32889901101589 21.838927239179615 63.626803688704967 43.341042667627335 14.113561168313025 206.04982861876488 27.192025057971478 24.230932541191578 7.8983740434050551 62.876106053590775 10.888132140040396 8.494174011051653 60.590431541204453 710.1387290135026 6.5601358935236922 35.16087032854557 15.463801406323908 6.8822531998157492 117.61889447271824 16.858104661107063 12.167001679539679 92.107008084654808 56.443621084094048 16.522278010845184 38.414232552051544 32.60139324516058 9.261809289455412 8.4943093433976156
leaf_count=1421 399 726 954 83 337 119 94 60 2478 422 6494 254 308 27 217 296 56 45 74 89 77 125 80 229 196 23 133 112 216 69 98 527 296 31 1173 248 717 227 114 2582 160 226 89 670 69 32 285 8486 20 253 62 29 1420 217 140 347 607 85 247 342 75 105
internal_value=0.172655 0.0843706 0.226275 0.0559011 0.047944 0.0453302 0.146982 0.079935 0.189837 0.0354736 0.234944 0.159577 0.147134 0.0154271 0.0587093 0.0877077 0.146859 0.0267449 0.209412 0.0168502 0.0925516 0.174835 0.15071 0.197399 0.0981488 0.253775 0.0931369 0.201522 0.133346 0.0960779 0.15901 0.127152 0.0987075 0.0891915 0.0820132 0.113726 0.0732658 0.183722 0.213924 -0.00827927 0.0535206 0.146139 0.210952 0.0460357 0.152197 0.0678005 0.154769 0.00941699 0.0695179 0.0228023 0.233839 0.0689433 0.0306727 0.103427 0.171165 0.234234 0.0557549 0.038795 0.0185256 0.069367 0.0154245 0.148642
internal_weight=7243.39 2737 4506.39 1881.49 1729.02 1703.7 855.515 135.299 866.129 1391.09 3640.26 720.216 612.854 746.794 644.294 337.82 123.733 306.474 15.748 290.726 72.4559 106.062 31.7662 96.5635 34.9802 61.5833 16.0631 30.029 535.415 218.343 317.072 200.662 153.278 312.609 303.058 196.729 124.667 72.0622 116.41 218.27 214.086 152.465 20.1187 110.613 40.2504 167.738 98.452 715.027 37.8616 98.037 22.6133 28.7212 173.836 56.2171 39.359 106.221 159.244 143.982 127.459 71.0156 42.4269 61.0404
internal_count=36192 24845 11347 19522 18570 18487 5323 1077 3432 15620 7915 4246 3847 8774 6846 3370 1068 3476 119 3357 686 851 261 726 341 385 156 189 3539 1636 1903 1344 1128 2867 2836 1663 1159 504 559 2671 2302 952 145 983 365 1382 601 8513 316 923 142 277 1937 517 300 461 1350 1281 1196 589 497 442
is_linear=0
shrinkage=0.05


end of trees

feature_importances:
Column_532=7
Column_291=6
Column_433=4
Column_6=3
Column_208=3
Column_240=3
Column_352=3
Column_369=3
Column_423=3
Column_534=3
Column_10=2
Column_60=2
Column_72=2
Column_108=2
Column_159=2
Column_180=2
Column_197=2
Column_228=2
Column_270=2
Column_298=2
Column_303=2
Column_387=2
Column_388=2
Column_396=2
Column_399=2
Column_405=2
Column_442=2
Column_451=2
Column_469=2
Column_522=2
Column_0=1
Column_1=1
Column_7=1
Column_9=1
Column_13=1
Column_15=1
Column_17=1
Column_20=1
Column_26=1
Column_27=1
Column_31=1
Column_34=1
Column_37=1
Column_52=1
Column_66=1
Column_68=1
Column_69=1
Column_70=1
Column_71=1
Column_79=1
Column_84=1
Column_90=1
Column_92=1
Column_94=1
Column_103=1
Column_114=1
Column_117=1
Column_120=1
Column_124=1
Column_130=1
Column_133=1
Column_135=1
Column_136=1
Column_141=1
Column_143=1
Column_147=1
Column_148=1
Column_152=1
Column_163=1
Column_168=1
Column_173=1
Column_183=1
Column_189=1
Column_199=1
Column_217=1
Column_222=1
Column_225=1
Column_226=1
Column_233=1
Column_234=1
Column_255=1
Column_258=1
Column_267=1
Column_273=1
Column_274=1
Column_276=1
Column_285=1
Column_288=1
Column_294=1
Column_297=1
Column_301=1
Column_306=1
Column_315=1
Column_336=1
Column_345=1
Column_354=1
Column_374=1
Column_375=1
Column_377=1
Column_378=1
Column_384=1
Column_406=1
Column_415=1
Column_417=1
Column_418=1
Column_420=1
Column_426=1
Column_432=1
Column_435=1
Column_438=1
Column_439=1
Column_440=1
Column_444=1
Column_453=1
Column_456=1
Column_459=1
Column_464=1
Column_468=1
Column_470=1
Column_477=1
Column_483=1
Column_493=1
Column_497=1
Column_498=1
Column_499=1
Column_500=1
Column_504=1
Column_505=1
Column_508=1
Column_509=1
Column_513=1
Column_516=1
Column_519=1
Column_525=1
Column_531=1
Column_533=1
Column_536=1
Column_538=1

parameters:
[boosting: gbdt]
[objective: binary]
[metric: binary_logloss]
[tree_learner: serial]
[device_type: cpu]
[data_sample_strategy: bagging]
[data: ]
[valid: ]
[num_iterations: 300]
[learning_rate: 0.05]
[num_leaves: 63]
[num_threads: 32]
[seed: 2021]
[deterministic: 0]
[force_col_wise: 0]
[force_row_wise: 0]
[histogram_pool_size: -1]
[max_depth: -1]
[min_data_in_leaf: 50]
[min_sum_hessian_in_leaf: 0.001]
[bagging_fraction: 1]
[pos_bagging_fraction: 1]
[neg_bagging_fraction: 1]
[bagging_freq: 0]
[bagging_seed: 5064]
[bagging_by_query: 0]
[feature_fraction: 1]
[feature_fraction_bynode: 1]
[feature_fraction_seed: 6682]
[extra_trees: 0]
[extra_seed: 17862]
[early_stopping_round: 0]
[early_stopping_min_delta: 0]
[first_metric_only: 0]
[max_delta_step: 0]
[lambda_l1: 0]
[lambda_l2: 0]
[linear_lambda: 0]
[min_gain_to_split: 0]
[drop_rate: 0.1]
[max_drop: 50]
[skip_drop: 0.5]
[xgboost_dart_mode: 0]
[uniform_drop: 0]
[drop_seed: 14392]
[top_rate: 0.2]
[other_rate: 0.1]
[min_data_per_group: 100]
[max_cat_threshold: 32]
[cat_l2: 10]
[cat_smooth: 10]
[max_cat_to_onehot: 4]
[top_k: 20]
[monotone_constraints: ]
[monotone_constraints_method: basic]
[monotone_penalty: 0]
[feature_contri: ]
[forcedsplits_filename: ]
[refit_decay_rate: 0.9]
[cegb_tradeoff: 1]
[cegb_penalty_split: 0]
[cegb_penalty_feature_lazy: ]
[cegb_penalty_feature_coupled: ]
[path_smooth: 0]
[interaction_constraints: ]
[verbosity: -1]
[saved_feature_importance_type: 0]
[use_quantized_grad: 0]
[num_grad_quant_bins: 4]
[quant_train_renew_leaf: 0]
[stochastic_rounding: 1]
[linear_tree: 0]
[max_bin: 255]
[max_bin_by_feature: ]
[min_data_in_bin: 3]
[bin_construct_sample_cnt: 200000]
[data_random_seed: 6638]
[is_enable_sparse: 1]
[enable_bundle: 1]
[use_missing: 1]
[zero_as_missing: 0]
[feature_pre_filter: 1]
[pre_partition: 0]
[two_round: 0]
[header: 0]
[label_column: ]
[weight_column: ]
[group_column: ]
[ignore_column: ]
[categorical_feature: ]
[forcedbins_filename: ]
[precise_float_parser: 0]
[parser_config_file: ]
[objective_seed: 14162]
[num_class: 1]
[is_unbalance: 0]
[scale_pos_weight: 11.8981]
[sigmoid: 1]
[boost_from_average: 1]
[reg_sqrt: 0]
[alpha: 0.9]
[fair_c: 1]
[poisson_max_delta_step: 0.7]
[tweedie_variance_power: 1.5]
[lambdarank_truncation_level: 30]
[lambdarank_norm: 1]
[label_gain: ]
[lambdarank_position_bias_regularization: 0]
[eval_at: ]
[multi_error_top_k: 1]
[auc_mu_weights: ]
[num_machines: 1]
[local_listen_port: 12400]
[time_out: 120]
[machine_list_filename: ]
[machines: ]
[gpu_platform_id: -1]
[gpu_device_id: -1]
[gpu_use_dp: 0]
[num_gpu: 1]

end of parameters

pandas_categorical:null
