tree
version=v4
num_class=1
num_tree_per_iteration=1
label_index=0
max_feature_idx=539
objective=binary sigmoid:1
feature_names=Column_0 Column_1 Column_2 Column_3 Column_4 Column_5 Column_6 Column_7 Column_8 Column_9 Column_10 Column_11 Column_12 Column_13 Column_14 Column_15 Column_16 Column_17 Column_18 Column_19 Column_20 Column_21 Column_22 Column_23 Column_24 Column_25 Column_26 Column_27 Column_28 Column_29 Column_30 Column_31 Column_32 Column_33 Column_34 Column_35 Column_36 Column_37 Column_38 Column_39 Column_40 Column_41 Column_42 Column_43 Column_44 Column_45 Column_46 Column_47 Column_48 Column_49 Column_50 Column_51 Column_52 Column_53 Column_54 Column_55 Column_56 Column_57 Column_58 Column_59 Column_60 Column_61 Column_62 Column_63 Column_64 Column_65 Column_66 Column_67 Column_68 Column_69 Column_70 Column_71 Column_72 Column_73 Column_74 Column_75 Column_76 Column_77 Column_78 Column_79 Column_80 Column_81 Column_82 Column_83 Column_84 Column_85 Column_86 Column_87 Column_88 Column_89 Column_90 Column_91 Column_92 Column_93 Column_94 Column_95 Column_96 Column_97 Column_98 Column_99 Column_100 Column_101 Column_102 Column_103 Column_104 Column_105 Column_106 Column_107 Column_108 Column_109 Column_110 Column_111 Column_112 Column_113 Column_114 Column_115 Column_116 Column_117 Column_118 Column_119 Column_120 Column_121 Column_122 Column_123 Column_124 Column_125 Column_126 Column_127 Column_128 Column_129 Column_130 Column_131 Column_132 Column_133 Column_134 Column_135 Column_136 Column_137 Column_138 Column_139 Column_140 Column_141 Column_142 Column_143 Column_144 Column_145 Column_146 Column_147 Column_148 Column_149 Column_150 Column_151 Column_152 Column_153 Column_154 Column_155 Column_156 Column_157 Column_158 Column_159 Column_160 Column_161 Column_162 Column_163 Column_164 Column_165 Column_166 Column_167 Column_168 Column_169 Column_170 Column_171 Column_172 Column_173 Column_174 Column_175 Column_176 Column_177 Column_178 Column_179 Column_180 Column_181 Column_182 Column_183 Column_184 Column_185 Column_186 Column_187 Column_188 Column_189 Column_190 Column_191 Column_192 Column_193 Column_194 Column_195 Column_196 Column_197 Column_198 Column_199 Column_200 Column_201 Column_202 Column_203 Column_204 Column_205 Column_206 Column_207 Column_208 Column_209 Column_210 Column_211 Column_212 Column_213 Column_214 Column_215 Column_216 Column_217 Column_218 Column_219 Column_220 Column_221 Column_222 Column_223 Column_224 Column_225 Column_226 Column_227 Column_228 Column_229 Column_230 Column_231 Column_232 Column_233 Column_234 Column_235 Column_236 Column_237 Column_238 Column_239 Column_240 Column_241 Column_242 Column_243 Column_244 Column_245 Column_246 Column_247 Column_248 Column_249 Column_250 Column_251 Column_252 Column_253 Column_254 Column_255 Column_256 Column_257 Column_258 Column_259 Column_260 Column_261 Column_262 Column_263 Column_264 Column_265 Column_266 Column_267 Column_268 Column_269 Column_270 Column_271 Column_272 Column_273 Column_274 Column_275 Column_276 Column_277 Column_278 Column_279 Column_280 Column_281 Column_282 Column_283 Column_284 Column_285 Column_286 Column_287 Column_288 Column_289 Column_290 Column_291 Column_292 Column_293 Column_294 Column_295 Column_296 Column_297 Column_298 Column_299 Column_300 Column_301 Column_302 Column_303 Column_304 Column_305 Column_306 Column_307 Column_308 Column_309 Column_310 Column_311 Column_312 Column_313 Column_314 Column_315 Column_316 Column_317 Column_318 Column_319 Column_320 Column_321 Column_322 Column_323 Column_324 Column_325 Column_326 Column_327 Column_328 Column_329 Column_330 Column_331 Column_332 Column_333 Column_334 Column_335 Column_336 Column_337 Column_338 Column_339 Column_340 Column_341 Column_342 Column_343 Column_344 Column_345 Column_346 Column_347 Column_348 Column_349 Column_350 Column_351 Column_352 Column_353 Column_354 Column_355 Column_356 Column_357 Column_358 Column_359 Column_360 Column_361 Column_362 Column_363 Column_364 Column_365 Column_366 Column_367 Column_368 Column_369 Column_370 Column_371 Column_372 Column_373 Column_374 Column_375 Column_376 Column_377 Column_378 Column_379 Column_380 Column_381 Column_382 Column_383 Column_384 Column_385 Column_386 Column_387 Column_388 Column_389 Column_390 Column_391 Column_392 Column_393 Column_394 Column_395 Column_396 Column_397 Column_398 Column_399 Column_400 Column_401 Column_402 Column_403 Column_404 Column_405 Column_406 Column_407 Column_408 Column_409 Column_410 Column_411 Column_412 Column_413 Column_414 Column_415 Column_416 Column_417 Column_418 Column_419 Column_420 Column_421 Column_422 Column_423 Column_424 Column_425 Column_426 Column_427 Column_428 Column_429 Column_430 Column_431 Column_432 Column_433 Column_434 Column_435 Column_436 Column_437 Column_438 Column_439 Column_440 Column_441 Column_442 Column_443 Column_444 Column_445 Column_446 Column_447 Column_448 Column_449 Column_450 Column_451 Column_452 Column_453 Column_454 Column_455 Column_456 Column_457 Column_458 Column_459 Column_460 Column_461 Column_462 Column_463 Column_464 Column_465 Column_466 Column_467 Column_468 Column_469 Column_470 Column_471 Column_472 Column_473 Column_474 Column_475 Column_476 Column_477 Column_478 Column_479 Column_480 Column_481 Column_482 Column_483 Column_484 Column_485 Column_486 Column_487 Column_488 Column_489 Column_490 Column_491 Column_492 Column_493 Column_494 Column_495 Column_496 Column_497 Column_498 Column_499 Column_500 Column_501 Column_502 Column_503 Column_504 Column_505 Column_506 Column_507 Column_508 Column_509 Column_510 Column_511 Column_512 Column_513 Column_514 Column_515 Column_516 Column_517 Column_518 Column_519 Column_520 Column_521 Column_522 Column_523 Column_524 Column_525 Column_526 Column_527 Column_528 Column_529 Column_530 Column_531 Column_532 Column_533 Column_534 Column_535 Column_536 Column_537 Column_538 Column_539
feature_infos=[-5.221592903137207:4.7174110412597656] [-0.86116659641265869:3.1393942832946777] [-18.460952758789062:7.3048324584960938] [-4.8164644241333008:4.0407133102416992] [-0.86116659641265869:2.9592044353485107] [-34.152454376220703:5.741854190826416] [-4.7341036796569824:4.4124517440795898] [-0.86116659641265869:3.8682053089141846] [-35.583099365234375:5.741854190826416] [-5.3507003784179688:4.7174110412597656] [-0.86116659641265869:3.1384341716766357] [-18.460952758789062:7.3048324584960938] [-4.7919788360595703:4.1119441986083984] [-0.86116659641265869:2.9501354694366455] [-34.152454376220703:5.741854190826416] [-5.036837100982666:4.1475601196289062] [-0.86116659641265869:3.8682053089141846] [-35.583099365234375:5.741854190826416] [-5.3507003784179688:4.7174110412597656] [-0.86116659641265869:3.1384341716766357] [-18.460952758789062:7.3048324584960938] [-5.0590968132019043:4.1119441986083984] [-0.86116659641265869:2.9410669803619385] [-34.152454376220703:5.741854190826416] [-5.036837100982666:4.6728916168212891] [-0.86116659641265869:3.8682053089141846] [-35.583099365234375:5.741854190826416] [-5.3507003784179688:4.3523502349853516] [-0.86116659641265869:3.137092113494873] [-18.460952758789062:7.3048324584960938] [-5.0590968132019043:6.838770866394043] [-0.86116659641265869:2.974003791809082] [-18.809013366699219:5.741854190826416] [-5.036837100982666:4.6728916168212891] [-0.86116659641265869:3.8682053089141846] [-35.583099365234375:5.741854190826416] [-6.0808219909667969:4.3011527061462402] [-0.86116659641265869:3.132115364074707] [-18.460952758789062:7.3048324584960938] [-5.0590968132019043:4.2276954650878906] [-0.86116659641265869:2.9862205982208252] [-18.809013366699219:5.741854190826416] [-4.8164644241333008:6.4113831520080566] [-0.86116659641265869:3.8682053089141846] [-35.583099365234375:5.741854190826416] [-6.0808219909667969:4.3011527061462402] [-0.86116659641265869:3.1265866756439209] [-22.298454284667969:7.3048324584960938] [-4.7830748558044434:4.2276954650878906] [-0.86116659641265869:2.9984374046325684] [-19.925205230712891:5.741854190826416] [-4.8164644241333008:6.838770866394043] [-0.86116659641265869:3.8682053089141846] [-35.583099365234375:5.741854190826416] [-5.1792998313903809:5.0357265472412109] [-0.86116659641265869:3.1210577487945557] [-22.298454284667969:7.3048324584960938] [-4.8209166526794434:4.7174110412597656] [-0.86116659641265869:3.0205032825469971] [-20.016422271728516:5.741854190826416] [-4.8164644241333008:6.4113831520080566] [-0.86116659641265869:3.8682053089141846] [-35.583099365234375:5.741854190826416] [-5.0234813690185547:6.0908412933349609] [-0.86116659641265869:3.0205976963043213] [-22.298454284667969:7.3048324584960938] [-5.0991640090942383:4.7174110412597656] [-0.86116659641265869:3.0573489665985107] [-20.016422271728516:7.3048324584960938] [-4.7341036796569824:4.490361213684082] [-0.86116659641265869:3.8682053089141846] [-35.583099365234375:5.741854190826416] [-5.5109705924987793:6.0908412933349609] [-0.86116659641265869:3.0146675109863281] [-18.460952758789062:7.3048324584960938] [-4.8209166526794434:5.7369108200073242] [-0.86116659641265869:3.0941884517669678] [-20.016422271728516:7.3048324584960938] [-4.9210858345031738:5.9528307914733887] [-0.86116659641265869:3.8682053089141846] [-35.583099365234375:5.741854190826416] [-5.5109705924987793:6.0908412933349609] [-0.86116659641265869:3.0054748058319092] [-18.460952758789062:7.3048324584960938] [-4.7118434906005859:5.7369108200073242] [-0.86116659641265869:3.121025562286377] [-20.099235534667969:7.3048324584960938] [-4.9210858345031738:5.9528307914733887] [-0.86116659641265869:3.8682053089141846] [-35.583099365234375:5.741854190826416] [-5.4619989395141602:6.0908412933349609] [-0.86116659641265869:2.9832098484039307] [-18.460952758789062:7.3048324584960938] [-7.3874721527099609:4.1809496879577637] [-0.86116659641265869:3.1245131492614746] [-20.099235534667969:7.3048324584960938] [-5.0947127342224121:4.4770054817199707] [-0.86116659641265869:3.8682053089141846] [-35.583099365234375:5.741854190826416] [-5.4619989395141602:5.7369108200073242] [-0.86116659641265869:2.9609482288360596] [-18.460952758789062:7.3048324584960938] [-7.3874721527099609:4.728541374206543] [-0.86116659641265869:3.1279976367950439] [-20.099235534667969:7.3048324584960938] [-5.0590968132019043:4.0251312255859375] [-0.86116659641265869:3.8682053089141846] [-35.583099365234375:5.741854190826416] [-5.4486432075500488:5.3518157005310059] [-0.86116659641265869:2.9386796951293945] [-18.460952758789062:7.3048324584960938] [-7.3874721527099609:4.728541374206543] [-0.86116659641265869:3.1333005428314209] [-20.204853057861328:7.3048324584960938] [-5.0590968132019043:4.7908682823181152] [-0.86116659641265869:3.8682053089141846] [-35.583099365234375:5.741854190826416] [-5.1592659950256348:4.5994343757629395] [-0.86116659641265869:2.9164180755615234] [-18.460952758789062:7.3048324584960938] [-4.7452335357666016:4.728541374206543] [-0.86116659641265869:3.1416802406311035] [-22.298454284667969:7.3048324584960938] [-4.892148494720459:4.7908682823181152] [-0.86116659641265869:3.8682053089141846] [-35.583099365234375:5.741854190826416] [-5.2304973602294922:4.1119441986083984] [-0.86116659641265869:2.8941531181335449] [-18.460952758789062:7.3048324584960938] [-4.9077296257019043:4.1876277923583984] [-0.86116659641265869:3.1500599384307861] [-22.298454284667969:5.8144493103027344] [-4.892148494720459:4.7908682823181152] [-0.86116659641265869:3.8682053089141846] [-35.583099365234375:5.741854190826416] [-5.2304973602294922:4.1119441986083984] [-0.86116659641265869:2.8706502914428711] [-18.460952758789062:7.3048324584960938] [-4.9077296257019043:5.017918586730957] [-0.86116659641265869:3.1573452949523926] [-22.298454284667969:5.8144493103027344] [-4.7318778038024902:4.6484060287475586] [-0.86116659641265869:3.8682053089141846] [-35.583099365234375:5.741854190826416] [-5.2861471176147461:4.1119441986083984] [-0.86116659641265869:2.8595669269561768] [-18.460952758789062:7.3048324584960938] [-4.778623104095459:5.017918586730957] [-0.86116659641265869:3.1644546985626221] [-20.323673248291016:5.8144493103027344] [-4.8743400573730469:4.6484060287475586] [-0.86116659641265869:3.8682053089141846] [-35.583099365234375:5.741854190826416] [-5.413027286529541:4.7908687591552734] [-0.86116659641265869:2.8595669269561768] [-18.460952758789062:7.3048324584960938] [-4.5627026557922363:4.8954892158508301] [-0.86116659641265869:3.1715610027313232] [-20.323673248291016:5.8144493103027344] [-4.8743400573730469:4.8954892158508301] [-0.86116659641265869:3.8682053089141846] [-35.583099365234375:5.741854190826416] [-5.413027286529541:4.7908687591552734] [-0.86116659641265869:2.8595669269561768] [-18.460952758789062:7.3048324584960938] [-4.6762275695800781:4.8954892158508301] [-0.86116659641265869:3.1782879829406738] [-20.434093475341797:7.3048324584960938] [-4.8743400573730469:4.8954892158508301] [-0.86116659641265869:3.8682053089141846] [-35.583099365234375:5.741854190826416] [-5.413027286529541:6.6562404632568359] [-0.86116659641265869:2.8595669269561768] [-18.460952758789062:7.3048324584960938] [-5.0947127342224121:4.8954892158508301] [-0.86116659641265869:3.1728832721710205] [-20.434093475341797:7.3048324584960938] [-4.9121818542480469:4.8954892158508301] [-0.86116659641265869:3.8682053089141846] [-35.583099365234375:5.741854190826416] [-5.3840899467468262:6.6562404632568359] [-0.86116659641265869:2.8595669269561768] [-18.514963150024414:7.3048324584960938] [-5.2304973602294922:4.5549149513244629] [-0.86116659641265869:3.1472647190093994] [-20.508506774902344:7.3048324584960938] [-4.9121818542480469:4.5571403503417969] [-0.86116659641265869:3.8682053089141846] [-35.583099365234375:5.741854190826416] [-5.3840899467468262:6.6562404632568359] [-0.86116659641265869:2.8595669269561768] [-18.514963150024414:7.3048324584960938] [-10.241179466247559:3.9182839393615723] [-0.86116659641265869:3.1208128929138184] [-20.508506774902344:7.3048324584960938] [-4.9121818542480469:4.5571403503417969] [-0.86116659641265869:3.8682053089141846] [-35.583099365234375:5.741854190826416] [-5.3840899467468262:4.0251312255859375] [-0.86116659641265869:2.8595669269561768] [-18.460952758789062:7.3048324584960938] [-10.241179466247559:4.5682706832885742] [-0.86116659641265869:3.0910208225250244] [-20.508506774902344:7.3048324584960938] [-5.2616605758666992:4.0407133102416992] [-0.86116659641265869:3.8682053089141846] [-35.583099365234375:5.741854190826416] [-5.4441909790039062:3.6667482852935791] [-0.86116659641265869:2.8732104301452637] [-26.082265853881836:7.3048324584960938] [-5.0702266693115234:4.5682706832885742] [-0.86116659641265869:3.0612318515777588] [-20.616523742675781:7.3048324584960938] [-5.2616605758666992:5.017918586730957] [-0.86116659641265869:3.8682053089141846] [-35.583099365234375:5.741854190826416] [-5.8092522621154785:3.9383177757263184] [-0.86116659641265869:3.0773282051086426] [-18.809013366699219:7.3048324584960938] [-4.9210858345031738:4.5682706832885742] [-0.86116659641265869:3.103809118270874] [-20.616523742675781:7.3048324584960938] [-6.025172233581543:5.0357265472412109] [-0.86116659641265869:3.8682053089141846] [-35.583099365234375:5.741854190826416] [-6.3345832824707031:4.5549149513244629] [-0.86116659641265869:3.0647847652435303] [-18.809013366699219:7.3048324584960938] [-4.9900913238525391:6.5271334648132324] [-0.86116659641265869:3.1059966087341309] [-17.893255233764648:7.3048324584960938] [-6.025172233581543:5.0357265472412109] [-0.86116659641265869:3.8682053089141846] [-35.583099365234375:5.741854190826416] [-6.3345832824707031:4.5549149513244629] [-0.86116659641265869:3.0522446632385254] [-18.809013366699219:7.3048324584960938] [-5.0034470558166504:6.5271334648132324] [-0.86116659641265869:3.1081850528717041] [-17.893255233764648:7.3048324584960938] [-6.025172233581543:5.0357265472412109] [-0.86116659641265869:3.8682053089141846] [-35.583099365234375:5.741854190826416] [-6.3345832824707031:5.0980539321899414] [-0.86116659641265869:3.0406453609466553] [-18.809013366699219:7.3048324584960938] [-5.1013903617858887:6.5271334648132324] [-0.86116659641265869:3.1071071624755859] [-17.893255233764648:7.3048324584960938] [-4.9077301025390625:4.5059432983398438] [-0.86116659641265869:3.8682053089141846] [-35.583099365234375:5.741854190826416] [-5.7580547332763672:5.0980539321899414] [-0.86116659641265869:3.0374646186828613] [-18.809013366699219:7.3048324584960938] [-5.1013903617858887:4.5571403503417969] [-0.86116659641265869:3.0984206199645996] [-17.893255233764648:7.3048324584960938] [-4.8120131492614746:4.5059432983398438] [-0.86116659641265869:3.8682053089141846] [-35.583099365234375:5.741854190826416] [-5.7580547332763672:5.0980539321899414] [-0.86116659641265869:3.0342874526977539] [-18.809013366699219:7.3048324584960938] [-5.1013903617858887:12.236774444580078] [-0.86116659641265869:3.0897307395935059] [-18.809013366699219:7.3048324584960938] [-4.8609843254089355:4.1030402183532715] [-0.86116659641265869:3.8682053089141846] [-35.583099365234375:5.741854190826416] [-5.7580547332763672:4.2121138572692871] [-0.86116659641265869:3.0340163707733154] [-18.809013366699219:7.3048324584960938] [-5.1013903617858887:12.236774444580078] [-0.86116659641265869:3.0810444355010986] [-18.809013366699219:7.3048324584960938] [-4.8609843254089355:3.8426008224487305] [-0.86116659641265869:3.8682053089141846] [-35.583099365234375:6.8505892753601074] [-5.0791306495666504:4.2855710983276367] [-0.86116659641265869:3.0354628562927246] [-18.809013366699219:7.3048324584960938] [-21.190780639648438:4.574948787689209] [-0.86116659641265869:3.072354793548584] [-20.812158584594727:7.3048324584960938] [-4.8609843254089355:3.8693125247955322] [-0.86116659641265869:3.8682053089141846] [-35.583099365234375:6.8505892753601074] [-5.0947127342224121:4.2855710983276367] [-0.86116659641265869:3.036909818649292] [-18.809013366699219:7.3048324584960938] [-21.190780639648438:4.574948787689209] [-0.86116659641265869:3.0636680126190186] [-20.951381683349609:7.3048324584960938] [-4.8721146583557129:4.385739803314209] [-0.86116659641265869:3.8682053089141846] [-35.583099365234375:6.8505892753601074] [-5.1459102630615234:4.2855710983276367] [-0.86116659641265869:3.0383560657501221] [-18.809013366699219:7.3048324584960938] [-5.3751864433288574:4.2811188697814941] [-0.86116659641265869:3.0631976127624512] [-20.951381683349609:7.3048324584960938] [-4.8854703903198242:4.385739803314209] [-0.86116659641265869:3.8682053089141846] [-35.583099365234375:6.8505892753601074] [-5.1459102630615234:4.2855710983276367] [-0.86116659641265869:3.0398027896881104] [-18.809013366699219:7.3048324584960938] [-4.7096176147460938:4.0941367149353027] [-0.86116659641265869:3.0767924785614014] [-20.951381683349609:7.3048324584960938] [-5.0947127342224121:4.385739803314209] [-0.86116659641265869:3.8682053089141846] [-35.583099365234375:6.8505892753601074] [-5.1459102630615234:4.2811188697814941] [-0.86116659641265869:3.0410864353179932] [-18.809013366699219:7.3048324584960938] [-4.769719123840332:4.3523502349853516] [-0.86116659641265869:3.0903871059417725] [-21.112209320068359:7.3048324584960938] [-5.0947127342224121:5.0134663581848145] [-0.86116659641265869:3.8682053089141846] [-35.583099365234375:6.8505892753601074] [-5.1459102630615234:5.5009565353393555] [-0.86116659641265869:3.0421280860900879] [-18.809013366699219:7.3048324584960938] [-5.7580547332763672:5.1759629249572754] [-0.86116659641265869:2.9379351139068604] [-21.112209320068359:7.3048324584960938] [-5.1214241981506348:5.8482098579406738] [-0.86116659641265869:3.8682053089141846] [-35.583099365234375:6.8505892753601074] [-5.1013903617858887:5.5009565353393555] [-0.86116659641265869:3.0431699752807617] [-18.809013366699219:7.3048324584960938] [-5.7580547332763672:5.1759629249572754] [-0.86116659641265869:2.9379088878631592] [-21.112209320068359:7.3048324584960938] [-4.6762275695800781:5.8482098579406738] [-0.86116659641265869:3.8682053089141846] [-35.583099365234375:6.8505892753601074] [-5.1013903617858887:4.728541374206543] [-0.86116659641265869:3.0432674884796143] [-18.809013366699219:7.3048324584960938] [-5.413027286529541:5.6011257171630859] [-0.86116659641265869:2.9378764629364014] [-21.112209320068359:7.3048324584960938] [-4.6762275695800781:5.8482098579406738] [-0.86116659641265869:3.8682053089141846] [-35.619106292724609:6.8505892753601074] [-5.1013903617858887:4.728541374206543] [-0.86116659641265869:3.0419549942016602] [-18.809013366699219:7.3048324584960938] [-5.3017282485961914:7.4687232971191406] [-0.86116659641265869:2.938784122467041] [-21.250232696533203:7.3048324584960938] [-4.7674932479858398:4.5549149513244629] [-0.86116659641265869:3.8682053089141846] [-35.619106292724609:6.8505892753601074] [-5.1013903617858887:4.728541374206543] [-0.86116659641265869:3.040642261505127] [-18.809013366699219:7.3048324584960938] [-5.0301589965820312:5.6011257171630859] [-0.86116659641265869:2.9388952255249023] [-21.286239624023438:7.3048324584960938] [-4.7341032028198242:4.5549149513244629] [-0.86116659641265869:3.8682053089141846] [-35.65631103515625:6.8505892753601074] [-4.9077296257019043:4.3145089149475098] [-0.86116659641265869:3.3209888935089111] [-18.809013366699219:7.3048324584960938] [-4.8876962661743164:4.5326547622680664] [-0.86116659641265869:2.9390032291412354] [-21.286239624023438:7.3048324584960938] [-4.9900913238525391:4.0295834541320801] [-0.86116659641265869:3.8682053089141846] [-35.65631103515625:6.8505892753601074] [-4.9077296257019043:4.3145089149475098] [-0.86116659641265869:3.3336007595062256] [-18.809013366699219:7.3048324584960938] [-4.8031091690063477:67.559074401855469] [-0.86116659641265869:2.944678783416748] [-21.286239624023438:5.8144493103027344] [-5.0501928329467773:4.7908687591552734] [-0.86116659641265869:3.8682053089141846] [-35.65631103515625:7.3048324584960938] [-4.9077296257019043:4.385739803314209] [-0.86116659641265869:3.34621262550354] [-18.809013366699219:7.3048324584960938] [-22.041105270385742:4.1186223030090332] [-0.86116659641265869:2.9543123245239258] [-21.286239624023438:5.8144493103027344] [-5.0501928329467773:4.7908687591552734] [-0.86116659641265869:3.8682053089141846] [-35.65631103515625:7.3048324584960938] [-5.1481356620788574:4.385739803314209] [-0.86116659641265869:3.0747711658477783] [-18.809013366699219:7.3048324584960938] [-22.041105270385742:4.3011527061462402] [-0.86116659641265869:2.9639458656311035] [-21.286239624023438:7.3048324584960938] [-5.535456657409668:4.7908687591552734] [-0.86116659641265869:3.8682053089141846] [-35.65631103515625:7.3048324584960938] [-5.1481356620788574:7.4687232971191406] [-0.86116659641265869:3.066401481628418] [-18.809013366699219:7.3048324584960938] [-5.7335686683654785:4.8999414443969727] [-0.86116659641265869:2.9538977146148682] [-21.336648941040039:7.3048324584960938] [-5.0501928329467773:4.316734790802002] [-0.86116659641265869:3.8682053089141846] [-18.728599548339844:6.8505892753601074] [-5.535456657409668:4.2811188697814941] [-0.86116659641265869:3.0580317974090576] [-18.809013366699219:7.3048324584960938] [-5.7335686683654785:4.7619309425354004] [-0.86116659641265869:2.9203042984008789] [-21.371454238891602:7.3048324584960938] [-5.0501928329467773:3.9561254978179932] [-0.86116659641265869:3.8682053089141846] [-18.667388916015625:6.8505892753601074] [-5.036837100982666:4.9578170776367188] [-0.86116659641265869:3.0425913333892822] [-18.809013366699219:7.3048324584960938] [-5.7335686683654785:4.7619309425354004] [-0.86116659641265869:2.8867108821868896] [-21.371454238891602:7.3048324584960938] [-5.4486432075500488:3.9605777263641357] [-0.86116659641265869:3.8682053089141846] [-18.675790786743164:6.8505892753601074] [-5.036837100982666:4.9578170776367188] [-0.86116659641265869:3.0165584087371826] [-18.781408309936523:7.3048324584960938] [-5.2727909088134766:37.129920959472656] [-0.86116659641265869:2.6521937847137451] [-21.371454238891602:7.3048324584960938] [-5.4486432075500488:4.5326547622680664] [-0.86116659641265869:3.8682053089141846] [-18.628982543945312:6.8505892753601074] [-5.0902605056762695:4.3723845481872559] [-0.86116659641265869:2.9905250072479248] [-18.809013366699219:7.3048324584960938] [-5.2727909088134766:3.8715384006500244] [-0.86116659641265869:2.879366397857666] [-21.371454238891602:7.3048324584960938] [-5.4486432075500488:4.5326547622680664] [-0.86116659641265869:3.8682053089141846] [-18.628982543945312:6.8505892753601074] [-5.0902605056762695:4.2544069290161133] [-0.86116659641265869:2.9710385799407959] [-18.809013366699219:7.3048324584960938] [-5.2304973602294922:5.0980539321899414] [-0.86116659641265869:2.8730342388153076] [-21.371454238891602:7.3048324584960938] [-5.1971073150634766:4.5326547622680664] [-0.86116659641265869:3.8682053089141846] [-18.628982543945312:6.8505892753601074] [-5.0902605056762695:4.2544069290161133] [-0.86116659641265869:2.9668424129486084] [-18.770606994628906:7.3048324584960938] [-5.4486432075500488:5.0980539321899414] [-0.86116659641265869:2.8667056560516357] [-21.370254516601562:7.3048324584960938] [-5.2349491119384766:4.5126214027404785] [-0.86116659641265869:3.8682053089141846] [-18.667388916015625:6.8505892753601074] [-5.123650074005127:5.1759634017944336] [-0.86116659641265869:2.9673910140991211] [-18.781408309936523:7.3048324584960938] [-5.4486432075500488:5.0980539321899414] [-0.86116659641265869:2.8702816963195801] [-21.370254516601562:7.3048324584960938] [-5.2349491119384766:4.7841906547546387] [-0.86116659641265869:3.8682053089141846] [-18.667388916015625:7.3048324584960938] [-5.123650074005127:5.1759634017944336] [-0.86116659641265869:2.9727141857147217] [-18.781408309936523:7.3048324584960938] [-5.5109705924987793:4.6484060287475586] [-0.86116659641265869:2.8801565170288086] [-21.370254516601562:7.3048324584960938] [-5.2349491119384766:4.7841906547546387] [-0.86116659641265869:3.8682053089141846] [-18.667388916015625:7.3048324584960938] [-5.123650074005127:5.1759634017944336] [-0.86116659641265869:2.9780368804931641] [-18.628982543945312:7.3048324584960938] [-5.5109705924987793:4.6484060287475586] [-0.86116659641265869:2.8900284767150879] [-21.396657943725586:7.3048324584960938] [-5.7335686683654785:4.7841906547546387] [-0.86116659641265869:3.8682053089141846] [-18.634983062744141:7.3048324584960938] [-5.8137040138244629:5.017918586730957] [-0.86116659641265869:2.9808814525604248] [-18.628982543945312:7.3048324584960938] [-4.9077301025390625:4.241051197052002] [-0.86116659641265869:2.8974514007568359] [-21.396657943725586:7.3048324584960938] [-4.9077301025390625:4.5393328666687012] [-0.86116659641265869:3.8682053089141846] [-18.634983062744141:7.3048324584960938] [-5.8137040138244629:5.017918586730957] [-0.86116659641265869:2.9550895690917969] [-18.628982543945312:7.3048324584960938] [-4.9077301025390625:4.5549149513244629] [-0.86116659641265869:2.8972551822662354] [-21.396657943725586:7.3048324584960938] [-5.0657744407653809:4.7619309425354004] [-0.86116659641265869:3.8682053089141846] [-18.634983062744141:7.3048324584960938] [-5.8137040138244629:5.2360649108886719] [-0.86116659641265869:2.9443359375] [-18.667388916015625:7.3048324584960938] [-6.025172233581543:4.5549149513244629] [-0.86116659641265869:2.9019415378570557] [-21.480672836303711:7.3048324584960938] [-5.0657744407653809:4.7619309425354004] [-0.86116659641265869:3.8682053089141846] [-18.628982543945312:7.3048324584960938] [-5.161491870880127:5.2360649108886719] [-0.86116659641265869:2.933582067489624] [-18.667388916015625:7.3048324584960938] [-6.025172233581543:4.6127901077270508] [-0.86116659641265869:2.9306690692901611] [-21.480672836303711:7.3048324584960938] [-5.0657744407653809:4.7619309425354004] [-0.86116659641265869:3.8682053089141846] [-18.628982543945312:7.3048324584960938] [-4.9656052589416504:5.2360649108886719] [-0.86116659641265869:2.9230015277862549] [-18.667388916015625:7.3048324584960938] [-6.025172233581543:4.6127901077270508] [-0.86116659641265869:2.9594001770019531] [-21.480672836303711:7.3048324584960938] [-4.9923171997070312:4.2811188697814941] [-0.86116659641265869:3.8682053089141846] [-18.628982543945312:7.3048324584960938]
tree_sizes=6741 6819 6837 6840 6861

Tree=0
num_leaves=63
num_cat=0
split_feature=532 469 532 181 469 534 55 505 357 469 514 532 444 535 441 340 361 229 111 387 225 63 255 240 405 486 3 513 465 136 262 116 348 456 149 388 420 84 3 441 253 477 441 25 64 531 27 395 135 451 388 242 514 165 426 97 536 273 460 460 441 510
split_gain=84286.3 6517.89 5199.6 2171.36 1020.08 1011.24 997.233 831.968 633.566 624.394 611.814 606.211 468.719 460.089 691.375 443.225 417.245 405.439 396.271 388.638 405.564 393.7 387.096 382.089 375.677 371.013 365.539 363.877 363.545 358.219 338.234 423.343 316.397 309.633 375.678 305.125 352.365 390.522 309.006 299.662 295.671 308.914 295.222 284.981 281.701 280.933 271.044 270.804 269.434 259.128 498.822 484.161 247.67 246.113 304.624 276.318 245.611 241.276 239.705 238.904 233.964 226.305
threshold=-0.66503524780273426 -0.65446934103965748 -0.80584377050399769 -0.64956766366958607 -0.80283287167549122 -0.49027097225189203 -0.83332231640815724 -0.55410549044609059 0.47135274112224584 -0.82516643404960621 -0.67800953984260548 -0.73784223198890675 0.42015516757965093 -0.8189699351787566 -0.43907341361045832 -0.53583762049674977 -0.80906203389167775 0.088969700038433089 2.1764540672302251 0.22649486362934115 -1.13357937335968 1.4418804645538332 -0.17863363772630689 1.1391470432281496 0.73179256916046154 1.993923604488373 2.4524759054183964 -0.78743943572044361 1.0100400447845461 -0.79879167675971974 -0.56199523806571949 -1.4321225285530088 -0.31441849470138544 0.90096703171730053 0.11392746493220331 -0.17029421776533124 -0.55816337466239918 1.616619944572449 0.079580109566450133 -1.13357937335968 -0.78418621420860279 -0.11408020183444022 2.4302159547805791 -0.78048464655876149 -0.14720301330089566 -0.61047396063804615 1.7546306848526003 -2.6466882228851314 -0.53479060530662526 -0.64342665672302235 -0.39933153986930842 0.11831171810626985 -0.75321996212005604 0.49138659238815313 0.40234734117984777 -0.3994638174772262 -0.17156202346086499 -1.1346923708915708 -0.55470964312553395 -0.59644261002540577 1.3472762107849123 0.81637975573539745
decision_type=2 2 2 2 2 2 2 2 2 2 2 2 2 2 2 2 2 2 2 2 2 2 2 2 2 2 2 2 2 2 2 2 2 2 2 2 2 2 2 2 2 2 2 2 2 2 2 2 2 2 2 2 2 2 2 2 2 2 2 2 2 2
left_child=2 4 9 10 61 13 33 8 18 -1 -3 27 45 -4 19 40 -9 49 60 20 39 46 25 -16 29 42 30 57 35 -17 31 -18 -26 34 -5 38 -37 -38 48 43 -6 -42 44 -15 47 -10 -22 -12 -24 56 51 59 -21 54 -19 -56 -13 -7 -14 -51 -8 -2
right_child=1 3 5 6 15 11 7 16 12 -11 22 17 58 14 23 24 26 53 -20 52 21 -23 28 -25 32 -27 -28 -29 -30 -31 -32 -33 -34 -35 -36 36 37 -39 -40 -41 41 -43 -44 -45 -46 -47 -48 -49 -50 50 -52 -53 -54 -55 55 -57 -58 -59 -60 -61 -62 -63
leaf_value=-1.8956630614859211 -2.0482511796055705 -1.9657573273357336 -2.0252896703894718 -2.5460693088502677 -2.0045096807337059 -2.5460693088502677 -2.498322115570947 -2.2300101231878009 -2.1930841736283697 -1.9615987181214241 -2.1752447481016555 -2.1295335875650827 -2.2758958936701776 -2.5460693088502677 -2.0727197893309275 -2.1856533037364372 -2.0407885468102265 -2.4668689744053629 -1.9591257661114529 -2.0407885468102265 -2.5141378348376628 -2.0390785159242624 -2.5460693088502677 -2.4114402240745161 -2.0082899010156474 -2.0764296519725791 -2.2086538343211517 -1.9767898161218407 -2.1289924018863964 -2.4630274532209757 -2.4849638833627044 -2.4181919018072864 -2.3740066237903377 -2.0427473808405523 -2.167035070461556 -2.0592605825035339 -2.5021891848131586 -2.0071613878026175 -2.5216171151996729 -2.4729569058148053 -2.0915687243604806 -2.3999500810807026 -2.0138623059789986 -2.0820500635418577 -2.1968555538628789 -2.5460693088502677 -2.0727197893309275 -2.4756892001288868 -2.2077011794807118 -2.0138623059789986 -1.9285463304525887 -2.4679530729225037 -2.3458334512186672 -2.1059092583762014 -1.9827303038032262 -2.386315638580855 -1.9889225706110043 -2.0846948148049949 -1.9883111767860395 -2.3342738050416023 -2.2346099237019081 -2.2278740872848948
leaf_weight=797.08532166481018 109.23807263374329 12.494587898254393 59.17229425907135 11.081818878650667 20.082993686199188 2.964563012123107 63.273868083953857 17.205857455730438 10.270629465579988 653.36616867780685 8.1471130251884443 43.518230795860291 11.182260870933534 3.7409961819648734 114.88485932350159 15.088312447071074 8.370810389518736 15.258266925811766 4.1178060770034781 25.112431168556213 37.845413684844971 5.9589831829071036 7.6937468647956839 8.9762167334556562 13.482775568962099 9.0060738921165449 12.535315573215483 313.11127346754074 36.21813577413559 50.93346506357193 1483.2478056550026 66.151004314422607 10.535054504871367 15.606292009353636 15.941301882266997 19.859296321868896 13.770013988018038 5.6060590147972098 24.710663199424744 8.2643969655036909 15.953244745731352 16.540736794471741 4.5413150787353507 28.647644281387329 12.11180657148361 12.493515551090239 3.8294953107833853 94.437608301639557 25.00004631280899 18.16526031494141 17.612524509429932 15.470021426677702 9.0527729988098127 30.200510621070862 9.6532802581787127 7.5645200610160819 108.45076894760132 64.171874582767487 20.583058953285217 8.5586791634559614 9.699979364871977 20.888211667537689
leaf_count=1782 550 44 273 157 85 42 841 144 79 2251 60 284 103 53 630 114 41 194 14 123 514 29 109 105 58 50 100 1166 236 644 19351 782 116 77 115 104 184 24 339 106 93 190 20 162 94 177 21 1216 199 80 50 197 95 184 37 85 428 366 81 88 82 174
internal_value=-2.19189 -2.40785 -1.98511 -2.4386 -2.17832 -2.07536 -2.45896 -2.46488 -2.34408 -1.92536 -2.30755 -2.04031 -2.21365 -2.15048 -2.18056 -2.27068 -2.47489 -2.09695 -2.43634 -2.26481 -2.32022 -2.41922 -2.32391 -2.09727 -2.33804 -2.38588 -2.47758 -1.99944 -2.2641 -2.39964 -2.47974 -2.3758 -2.16871 -2.22007 -2.32247 -2.31473 -2.20727 -2.35896 -2.38818 -2.20422 -2.15533 -2.24855 -2.40925 -2.13565 -2.4249 -2.38681 -2.47358 -2.45183 -2.28733 -2.06388 -2.15205 -2.24534 -2.12162 -2.20865 -2.3042 -2.16004 -2.02919 -2.10507 -2.08955 -2.11648 -2.46327 -2.07708
internal_weight=4718.74 2308.1 2410.64 2035.36 272.743 960.185 1761.76 1719.13 131.621 1450.45 273.596 654.7 54.5295 305.486 246.313 142.617 1587.51 274.452 77.0917 122.452 88.2869 47.6339 261.102 123.861 90.0396 128.244 1570.3 380.248 132.858 66.0218 1557.77 74.5218 24.0178 42.6294 27.0231 96.6398 39.2354 19.3761 57.4045 40.653 52.577 32.494 119.238 32.3886 114.697 22.7641 41.6749 102.585 32.6938 211.775 59.8065 42.194 34.1652 62.6766 32.4761 17.2178 151.969 67.1364 31.7653 26.7239 72.9738 130.126
internal_count=36192 26847 9345 24823 2024 5312 22144 21795 1377 4033 2679 3201 440 2111 1838 1300 20418 1627 937 1103 885 564 2635 735 932 1440 20274 1574 1195 758 20174 823 174 349 272 959 312 208 647 321 368 283 1390 215 1370 256 535 1276 308 1127 415 365 218 500 316 122 712 408 184 168 923 724
is_linear=0
shrinkage=1


Tree=1
num_leaves=63
num_cat=0
split_feature=532 469 55 532 181 523 469 444 361 514 534 441 147 163 59 438 435 460 165 232 516 348 349 397 366 340 447 372 21 451 336 478 327 522 345 297 127 448 381 174 189 185 42 183 156 468 513 369 460 370 507 417 405 451 98 358 378 99 345 174 477 60
split_gain=34689.6 3811.25 1553.46 1478.29 728.449 537.737 425.923 424.903 355.059 334.477 333.991 319.593 318.806 332.878 310.78 327.063 303.388 334.271 287.866 269.943 269.393 316.146 263.525 263.099 255.577 249.121 254.566 288.402 248.431 247.969 231.36 227.558 213.469 210.627 267.229 208.775 206.655 201.828 200.003 194.064 319.732 288.942 188.497 265.286 185.924 187.328 185.179 189.853 251.847 261.285 182.592 182.494 187.799 178.113 266.427 177.795 308.054 177.418 176.936 186.703 172.177 187.162
threshold=-0.65618216991424549 -0.65446934103965748 -0.56626990437507618 -0.76903048157691944 -0.77561888098716725 -0.53744271397590626 -0.80283287167549122 0.27546645700931555 -0.80906203389167775 -0.83220225572586048 -0.43684744834899897 -0.78298744559288014 -0.30996651947498316 -0.7501486837863921 0.13532233238220218 0.14302057772874835 1.8492349386215212 -0.42331260442733759 1.1302430033683779 -0.18115730583667752 2.5370630025863652 0.87648123502731334 3.3951641321182255 -0.30219249427318567 0.32443803548812872 -0.53583762049674977 1.2070394158363345 1.9115623831748965 -1.1346923708915708 -0.79264739155769337 -0.90541642904281605 -0.61391037702560414 2.0328782796859746 1.7579696774482729 0.97887638211250316 0.70062875747680675 -0.61517417430877674 -0.85708135366439808 1.3350332975387575 1.7824555039405825 1.2504460811614992 0.13031660765409472 -0.14746993780136106 1.221508324146271 -0.22537924349308011 -0.14079200476408002 0.61158958077430736 -0.96885684132575978 -0.59644261002540577 -0.3717991411685943 0.57819983363151561 1.0567857027053835 -0.93658012151718129 0.28983946144580847 0.27739554643630987 -0.84388169646263111 1.5487274527549746 1.6811733841896059 -1.7290293574333189 2.2120698690414433 1.1947964429855349 -0.56261536478996266
decision_type=2 2 2 2 2 2 2 2 2 2 2 2 2 2 2 2 2 2 2 2 2 2 2 2 2 2 2 2 2 2 2 2 2 2 2 2 2 2 2 2 2 2 2 2 2 2 2 2 2 2 2 2 2 2 2 2 2 2 2 2 2 2
left_child=3 6 12 9 36 7 -2 51 -7 -1 14 50 13 19 -5 38 17 18 44 28 31 -22 30 24 32 -13 27 60 -3 -12 -19 -10 -9 34 35 53 -4 -15 -16 55 -41 -42 -17 -44 45 -14 47 -31 -49 -50 -8 -6 -53 -32 -55 56 -33 -37 -39 -60 -27 -62
right_child=1 2 4 10 5 8 11 23 20 -11 29 25 16 37 15 42 -18 22 -20 -21 21 -23 -24 -25 -26 26 -28 -29 -30 46 33 39 -34 -35 -36 57 -38 58 -40 40 41 -43 43 -45 -46 -47 -48 48 49 -51 -52 52 -54 54 -56 -57 -58 -59 59 -61 61 -63
leaf_value=0.34853517648301874 0.28070676810933487 0.2776306799929073 0.053671137483493281 0.2500483608075515 -0.040316369827774798 0.22081545043310255 -0.054923230473051289 -0.028171732570576438 0.28813397650249395 0.31383658149870008 0.33599809688452947 0.28454695049762607 0.2795678406348367 0.36153883678911553 -0.0068776238221742864 0.29694416148686081 0.3369657913139199 0.045020444991936234 0.22446983800098128 0.24532774845864008 0.0032446007333946899 0.40440582441337791 -0.012916384086687306 0.37765802671604282 0.24027063197066184 -0.033702130538714736 0.31124936558626781 0.38896232761443694 -0.029581586039925778 0.30609779123018621 0.3172041038250597 0.034166340846866032 0.34951184484691394 0.40774738705889518 0.021636213229842185 -0.054710653078632182 0.30834691852491791 0.30375899692307695 0.28164161150834416 0.022742031977791028 0.41263542824119581 -0.054191951190074132 -0.055394886580352215 0.36480702875121979 -0.041233349604571735 -0.05456312270788613 0.30843020751779915 0.23845239253289857 -0.0026384275203230646 0.30254140725858014 0.21257669491840586 0.33522944533102622 0.0064466659417426186 -0.054788453912393099 0.3515689249508489 -0.0032444865625240525 0.4378459753153166 0.31581712827183561 -0.013801609520087155 0.29331014897369895 0.30001968355349123 -0.054742585125287471
leaf_weight=1427.6362125724554 179.29473599791527 9.0634092912077886 11.099098540842531 183.55727107077837 43.0235241279006 19.693821378052235 21.829094380140308 22.984749846160415 7.0419270768761626 1352.4582487046719 143.12714020162821 53.2236038595438 10.831075742840769 4.3431925624608985 37.221501737833023 32.514576390385628 23.097443476319313 18.119890220463276 21.596411786973476 42.203683897852898 10.515685789287092 9.214980334043501 14.391809850931166 15.3545561209321 32.663753353059292 28.767300248146057 16.480089142918587 6.7996001839637747 24.023060664534569 83.318292744457722 59.979785740375519 20.517540708184246 4.4686436355113974 15.651068598031996 15.813045553863047 9.584856264293192 28.212828375399113 5.0442733466625205 7.1623788177967063 47.11517009139061 11.646431162953379 4.6333382576704016 10.863918304443361 5.7410170510411254 44.961663529276848 6.8463090285658827 144.0398378893733 219.25014352798462 22.991622738540173 10.092285230755804 9.0134027749299985 7.7365896403789547 9.902396544814108 8.8402046412229556 7.4188074991106978 1351.8554895743728 6.140349566936492 4.8732914850115767 103.71692755818367 5.1967347040772429 10.199377469718458 5.8502233922481528
leaf_count=2163 702 47 111 902 579 128 274 300 43 3454 367 233 65 15 393 128 103 192 145 269 136 44 171 65 190 361 83 24 301 276 280 255 14 46 182 125 123 25 34 593 61 65 128 15 577 91 464 1019 256 32 59 37 120 114 28 17684 31 18 1299 26 52 75
internal_value=0.216564 0.0708264 0.0461689 0.313625 0.0237689 0.0186223 0.228492 0.113741 0.00992225 0.331655 0.257924 0.166967 0.127973 0.0793148 0.212253 0.138057 0.163926 0.147196 0.0670536 0.1615 0.00709434 0.190602 0.190842 0.192936 0.145756 0.203503 0.14016 0.0855352 0.0545734 0.278241 0.211746 0.00459547 0.0333046 0.236476 0.211309 0.244379 0.236443 0.0270096 0.0396817 0.00321074 0.0887474 0.279773 0.226948 0.0898864 0.0127803 0.150162 0.261007 0.240657 0.219048 0.090457 0.0232509 0.0152123 0.150653 0.277414 0.130628 -0.000722909 0.127149 0.0701802 0.01426 0.000852001 0.0394993 0.170706
internal_weight=6130.85 2450.88 2119.42 3679.97 1663.82 1624.51 331.457 136.134 1488.37 2780.09 899.88 152.163 455.597 193.591 277.061 93.5034 262.006 238.908 84.2355 75.2902 1468.68 19.7307 154.673 75.4717 60.1171 121.32 68.0966 51.6165 33.0865 622.819 140.281 1448.95 27.4534 122.161 106.51 90.6969 39.3119 118.301 44.3839 1441.91 63.3949 16.2798 49.1195 16.6049 62.639 17.6774 479.692 335.652 252.334 33.0839 30.8425 60.6625 17.639 76.2388 16.259 1378.51 26.6579 14.4581 113.958 108.914 44.8169 16.0496
internal_count=36192 26561 24698 9631 20579 20345 1863 1305 19040 5617 4014 1161 4119 1982 1600 698 2137 2034 878 617 18912 180 1156 569 504 828 595 512 348 2414 985 18732 314 793 747 565 234 1365 427 18689 719 126 271 143 733 156 2047 1583 1307 288 333 736 157 422 142 17970 286 143 1350 1325 488 127
is_linear=0
shrinkage=0.05


Tree=2
num_leaves=63
num_cat=0
split_feature=532 469 55 523 181 532 532 469 397 450 469 523 478 55 340 27 528 55 534 486 203 351 33 499 310 102 177 309 433 313 54 147 483 196 19 441 321 538 441 514 169 531 235 516 108 331 455 361 507 172 342 195 0 539 477 44 93 424 12 134 18 285
split_gain=19988.8 2517.79 1151.5 840.786 566.547 385.94 326.405 277.489 271.545 268.156 266.668 261.753 215.285 215.007 214.148 206.12 254.231 203.333 220.601 201.563 197.693 197.453 253.469 312.064 341.436 274.765 230.849 220.874 192.23 192.141 186.605 210.281 202.666 271.472 184.262 181.915 210.754 179.357 177.195 173.188 171.741 170.893 170.687 170.568 165.544 164.899 234.345 161.554 158.299 156.774 156.035 154.244 233.077 150.804 150.049 145.214 143.588 142.076 136.487 235.769 151.128 207.639
threshold=-0.6488116681575774 -0.64504641294479359 -0.53822642564773548 -0.79954928159713734 -0.77561888098716725 -0.51466661691665638 -0.69479155540466297 -0.36952464282512659 -0.30901111662387842 -0.57485824823379505 -0.79314056038856495 -0.69416460394859303 -0.61391037702560414 -0.27846615016460413 0.27645206451416021 0.086258042603731169 -0.38008493185043329 -0.84352412819862355 1.0601247549057009 -0.44018641114234919 -3.6783717870712276 0.94326069951057445 -1.1346923708915708 -0.47969512641429896 -0.383970096707344 1.094627380371094 -1.1346923708915708 -0.41013567149639124 -0.12292968854308127 0.1875276863574982 -0.7284509241580962 -0.2843677401542663 1.4196205735206606 -0.26655972003936762 -0.85407370328903187 1.3016435503959658 1.4018127322196963 0.40433199703693395 -0.78298744559288014 -0.56142702698707569 -0.1679103001952171 -0.98666471242904652 -0.84385555982589711 1.8915284872055056 2.5248199701309209 -0.5365413725376128 0.32452325522899633 -0.80906203389167775 1.1435990333557131 -0.36064867675304407 -0.36116407811641688 0.91432294249534618 -0.89985144138336171 -0.10727532580494879 0.73179256916046154 -0.37438610196113581 -0.32666137814521784 -0.82406595349311818 0.27546645700931555 -1.0000000180025095e-35 0.80302390456199657 -0.96663090586662281
decision_type=2 2 2 2 2 2 2 2 2 2 2 2 2 2 2 2 2 2 2 2 2 2 2 2 2 2 2 2 2 2 2 2 2 2 2 2 2 2 2 2 2 2 2 2 2 2 2 2 2 2 2 2 2 2 2 2 2 2 2 2 2 2
left_child=3 10 7 57 -4 8 19 17 15 47 41 -8 -11 38 29 -6 39 -3 20 -5 -19 34 26 24 25 50 -23 -28 54 30 31 49 33 37 -14 36 -20 -32 48 -17 -35 56 -42 -18 -36 -40 -47 -7 -12 -9 -24 52 -48 -34 -16 -13 -2 -1 59 -57 61 -61
right_child=1 2 4 6 5 9 11 14 -10 12 13 55 21 -15 28 16 43 18 35 -21 -22 22 23 -25 -26 -27 27 -29 -30 -31 32 -33 53 40 44 -37 -38 -39 45 -41 42 -43 -44 -45 -46 46 51 -49 -50 -51 -52 -53 -54 -55 -56 58 -58 -59 -60 60 -62 -63
leaf_value=0.26297921270647401 0.20362970684475298 0.20167574585409828 0.19336889999998361 0.19394025553487021 -0.011694974554701762 0.16029230815715051 0.022130568882748908 0.0078677421828998746 0.23439915249941504 0.30246834435285908 -0.054847336671233364 0.23814719834076553 0.31123594447003566 -0.055478709755357729 0.046725313177240234 0.26926011024728808 -0.033206673626124485 0.26070207943920021 -0.0090971699579541904 0.23268637472539414 -0.0012205847731644346 0.36598359932440194 0.19725267889556641 -0.013898849571111703 0.34068067251319323 0.27263011975932716 0.24696533216787167 -0.054247475487464406 -0.03565216715288809 0.27814610695158604 -0.055035401833291267 0.25818429778976609 0.36560338455863101 0.24903512876152176 0.0025177749909331562 0.25349649926692552 0.26794923484617428 0.23214243561167366 0.23405589263863247 0.014370023366230299 0.25711736908975319 0.23619145298863278 0.011591480079355244 0.27026829113802225 0.22086669685286717 0.0089452450030744184 0.29465490699569491 -0.032764643203883059 0.24224595343341848 0.25421078628820054 -0.025924070623775022 0.303247290147791 -0.05514525709196455 0.11974322692546804 0.27082628877151982 -0.056794493170213893 0.012512368967478614 0.24091533796190459 0.19596214217360144 0.22317843303882057 0.23767142296197089 0.026850845858195152
leaf_weight=1438.8209829702973 23.062799841165543 23.376633822917938 45.798643536865711 540.80918357521296 56.105219997465611 11.142539061605929 30.406028464436531 19.161948263645176 27.007447227835655 6.7235684543848029 17.262796476483349 71.405671007931232 4.9400781020522109 14.126468494534491 17.719566419720653 27.773007862269878 27.847129940986633 7.6118388772010794 26.234495900571346 884.83195308595896 134.51421659439802 11.498537071049212 9.5998111441731435 119.91261723637581 13.738600209355353 12.935167744755743 11.996364749968052 12.353227064013481 30.835724249482155 28.817940771579742 40.535809956490993 53.659652128815651 11.435300379991533 23.641368746757507 787.61996807903051 19.485983982682228 9.2972405776381475 6.2791842669248572 57.961761862039566 8.7682323157787305 9.6006809100508672 180.57473665475845 26.945182651281357 5.5534927025437346 8.7773736417293531 28.051627069711685 8.5979922041296977 394.46196264028549 6.0568067058920851 9.7420645877718908 42.526479311287403 18.423757091164589 10.674046963453291 13.72021611779928 12.912437215447424 16.731923557817936 17.125620760023594 1480.2472069263458 104.75104227662086 21.49698031693697 30.621279455721378 36.055899769067764
leaf_count=1588 78 125 216 1937 692 64 241 214 138 21 221 229 22 167 174 107 347 33 304 2258 1553 68 85 1591 69 100 85 172 364 95 509 211 25 84 10158 88 36 31 198 106 34 517 278 29 74 293 31 5369 25 57 563 48 131 100 52 168 123 2575 444 80 93 304
internal_value=0.173739 0.061347 0.0405347 0.2354 0.0199733 0.015014 0.207858 0.104977 0.0905217 0.00703401 0.179741 0.161488 0.0204534 0.130841 0.13587 0.0596939 0.11696 0.0622477 0.0457148 0.217988 0.0128072 0.018623 0.0589711 0.0368948 0.114189 0.0663626 0.181344 0.0941517 0.0524766 0.156918 0.140648 0.19962 0.103806 0.0737847 0.00681262 0.130724 0.0633948 -0.0165169 0.148742 0.208098 0.144023 0.215438 0.0760917 0.0172518 0.00492427 0.172574 0.118373 -0.0274611 0.0223168 0.0908974 0.0151772 0.199804 0.100914 0.231507 0.141192 0.176564 0.122188 0.251791 0.15559 0.115278 0.14793 0.100183
internal_weight=7210.7 2554.53 2172.61 4656.18 1647.08 1601.28 1737.11 525.527 153.055 1448.23 381.918 311.469 1042.62 161.155 305.007 126.047 69.9419 220.52 197.144 1425.64 142.126 1035.9 234.561 198.713 78.8001 65.0615 35.8481 24.3496 61.4677 243.539 214.721 82.5637 132.158 107.002 801.337 55.0177 35.5317 46.815 147.029 36.5412 60.1872 220.763 36.5459 33.4006 796.397 123.709 65.7474 405.605 23.3196 28.904 52.1263 37.6958 19.272 25.1555 30.632 281.063 40.1884 2919.07 209.657 104.906 88.1742 57.5529
internal_count=36192 26275 24443 9917 20076 19860 5754 4367 1419 18441 1832 1559 13008 1114 2228 1281 589 2139 2014 4195 1586 12987 2733 2408 817 748 325 257 590 1638 1543 482 1061 936 10254 428 340 540 947 213 396 718 312 376 10232 701 503 5433 246 271 648 210 162 125 226 1318 201 4163 1089 645 477 384
is_linear=0
shrinkage=0.05


Tree=3
num_leaves=63
num_cat=0
split_feature=532 469 55 532 181 532 486 366 183 499 408 460 534 496 10 435 513 8 462 361 441 235 186 490 351 5 38 138 153 427 14 39 231 8 132 168 57 501 534 242 532 388 360 174 471 521 93 195 441 106 536 465 90 84 113 67 414 151 51 423 198 154
split_gain=13286.5 1906.88 974.58 721.052 432.725 206.278 198.142 270.26 256.882 207.174 215.674 196.969 187.488 186.693 236.153 207.593 192.265 192.773 179.946 173.911 190.965 176.493 172.063 284.461 283.379 262.639 306.765 242.766 224.604 221.885 211.025 197.696 171.701 168.078 167.145 166.204 165.973 217.67 158.929 161.088 158.843 197.186 209.5 170.72 146.469 193.125 145.254 144.77 143.26 139.336 140.39 137.323 133.864 156.923 127.783 158.903 159.462 204.078 174.455 160.667 129.684 146.626
threshold=-0.62474569678306568 -0.6860266625881194 -0.53822642564773548 -0.73784223198890675 -0.77561888098716725 -0.82455736398696888 1.6110549569129946 1.3328073620796206 0.5670699179172517 -0.7525554597377776 -0.44909033179283137 -0.42331260442733759 -0.43684744834899897 -0.80884328484535206 -0.43683388829231257 0.96329456567764293 -0.8553318679332732 0.54317408800125133 -0.34335625171661371 -0.80906203389167775 0.24986767023801806 -0.7933201491832732 0.61604151129722606 -0.26460197567939753 0.49806448817253118 0.23312718421220782 -0.15718588232994077 -0.30551455914974207 1.993923604488373 0.07467281818389894 -0.72076320648193348 1.6555745601654055 -0.36116407811641688 0.67188960313797008 -0.27546381950378412 0.72400155663490307 0.91432294249534618 1.1547288298606875 -0.44352537393569941 0.61872693896293651 -0.5257272720336913 -0.22400382161140439 0.58376479148864757 -0.57708424329757679 -0.67836633324623097 0.25652706623077398 -0.95327505469322193 0.2487546503543854 -1.1346923708915708 3.7889583110809331 0.67579641938209545 1.8692687153816225 1.9160143136978152 1.7256929874420168 0.32272067666053778 0.3835610449314118 0.28659634292125707 -0.55285635590553273 0.088484074920415892 -0.0027811599429696794 0.51587235927581798 -0.77255734801292408
decision_type=2 2 2 2 2 2 2 2 2 2 2 2 2 2 2 2 2 2 2 2 2 2 2 2 2 2 2 2 2 2 2 2 2 2 2 2 2 2 2 2 2 2 2 2 2 2 2 2 2 2 2 2 2 2 2 2 2 2 2 2 2 2
left_child=3 44 11 5 -4 -1 19 9 -9 10 -8 46 13 -5 15 16 18 -18 -15 34 40 -22 25 24 30 -23 29 -26 33 -27 -24 -25 -29 52 -6 -34 -11 -38 39 -7 41 42 -21 -44 45 47 -3 -2 -16 50 54 -48 53 -28 55 56 58 -58 59 -13 61 -59
right_child=1 2 4 12 6 38 7 8 -10 36 -12 49 -14 14 48 -17 17 -19 -20 20 21 22 23 31 27 26 28 32 -30 -31 -32 -33 35 -35 -36 -37 37 -39 -40 -41 -42 -43 43 -45 -46 -47 51 -49 -50 -51 -52 -53 -54 -55 -56 -57 57 60 -60 -61 -62 -63
leaf_value=0.20687410563294481 0.17299532596599904 0.11713530690330286 0.15607072175707912 0.20775177412612714 0.22350806925019664 0.16953062178268877 0.32516705390530709 0.0058679145184576502 0.32326684973931191 -0.030594853718087824 -0.054230596670959953 0.14674177208225128 0.16511585050733232 0.043703338497553174 0.12199734955019932 0.20146799176863672 0.010649084573241499 0.22079143694945169 0.24450643495741994 -0.040848044242917783 0.32943098823394368 -0.022608102576166921 0.26123868395720512 -0.037353527890153324 0.0019425569441491612 0.081818649439727609 -0.034070425106388164 0.39344345770100575 0.31957999418631455 0.4397866570507491 0.0047036554660617406 0.21047653282143292 0.26953491849995126 0.23072455067295464 -0.057015696944200112 -0.054527667742537957 0.0086107008185312764 0.29315007217409533 0.1960156861380612 0.027420440509097678 -0.01928760395642181 0.24192875769073538 0.29812840581488281 0.0057708336282354762 0.18409207534096328 -0.058020240553443285 0.011495397138328136 -0.011498592228163965 -0.057101681015827681 -0.055262634743297616 -0.055980100466608319 0.18547524028974582 0.21359684423752465 0.21731837144035532 0.16841027948609194 -0.01095638509282122 -0.01252637903569126 0.21785978073026754 -0.033682147198706214 -0.055485717719519358 0.25922894998568757 0.03428934797023727
leaf_weight=2756.0134881436825 62.284063830971718 62.404414340853691 53.427424676716328 47.447161108255386 17.189564928412441 610.22381368279457 11.132767006754877 10.025079101324083 17.507229059934616 76.148626729846001 5.6453003436326972 62.022297464311123 687.38156145066023 17.833089426159859 16.767629243433475 60.179543785750866 70.167106352746487 12.92340202629566 29.801473490893841 42.850834544748068 4.7138399556279174 285.11044469475746 9.5126447305083257 70.504779309034348 10.708516612648962 8.7672386839985865 88.881550721824169 16.167879566550255 6.4656442627310744 8.5511538311839086 50.967150025069714 9.0836714729666692 13.001692354679109 8.4503061622381193 7.6834821030497542 5.6873867586255065 18.999556154012684 10.400696992874144 1171.4095619916916 20.614937670528889 743.26458435505629 12.099224142730234 10.213365718722345 9.7700260132551175 242.69175856560469 14.464344240725039 134.93735392391682 12.82183353602886 33.419440340250731 11.753773227334021 11.008841402828692 12.382643796503542 6.7678830474615088 6.6739015728235236 114.65548398345709 26.698460668325424 13.959270462393759 24.00355531275272 27.082381285727024 11.669663935899733 39.881935343146324 19.8930256664753
leaf_count=3025 208 438 224 125 63 1593 67 126 74 1015 79 362 2389 127 93 174 532 33 61 543 25 3750 52 941 133 82 1186 70 46 32 633 67 72 58 73 76 229 63 2034 117 9941 42 36 104 742 134 1437 101 329 143 124 55 61 59 574 279 149 78 295 139 101 179
internal_value=0.146347 0.0521825 0.0355239 0.189922 0.016088 0.198273 0.0114223 0.0661621 0.207695 0.034307 0.197511 0.0917706 0.150917 0.117091 0.0992492 0.124622 0.0892454 0.0433334 0.169331 0.00577689 0.00349415 0.0246684 0.0222951 0.0623773 0.115998 0.0045653 0.0621423 0.210164 0.0331264 0.258569 0.0450531 -0.00906793 0.274133 0.0164066 0.136852 0.170917 0.00836398 0.10927 0.18512 0.164887 -0.0122925 0.0570914 0.0214995 0.155193 0.163924 0.10928 0.0532012 0.141499 0.00273577 0.114077 0.11975 0.0261189 -0.00129269 -0.0165126 0.125442 0.103566 0.118969 0.164473 0.0748362 0.114718 0.193965 0.134669
internal_weight=8095.17 2560.99 2228.73 5534.18 1656.37 4558.26 1602.95 149.859 27.5323 122.327 16.7781 572.353 975.92 288.539 241.092 190.905 130.725 83.0905 47.6346 1453.09 1428.21 610.016 605.302 185.634 106.045 419.668 134.558 45.5655 117.239 17.3184 60.4798 79.5885 34.857 110.774 24.873 18.6891 105.549 29.4003 1802.25 630.839 818.198 74.9335 62.8342 19.9834 332.262 89.5702 209.724 75.1059 50.1871 362.629 350.875 147.32 102.323 95.5555 339.866 225.211 198.512 97.7378 100.774 73.692 83.7785 43.8966
internal_count=36192 25560 24375 10632 20022 6769 19798 1653 200 1453 146 4353 3863 1474 1349 927 753 565 188 18145 18009 7343 7318 2044 1036 5274 1524 351 1410 114 685 1008 218 1364 136 148 1307 292 3744 1710 10666 725 683 140 1185 443 1930 309 422 2423 2280 1492 1306 1245 2156 1582 1303 507 796 501 358 257
is_linear=0
shrinkage=0.05


Tree=4
num_leaves=63
num_cat=0
split_feature=523 28 532 478 505 469 235 534 10 316 201 172 361 450 147 27 44 342 252 201 108 432 513 33 117 361 388 504 471 263 527 118 102 54 291 271 438 181 222 49 366 209 432 516 450 426 108 354 531 72 450 22 51 111 387 195 316 336 333 84 117 435
split_gain=9680.89 1238.32 571.635 553.395 422.686 310.099 282.805 220.706 197.419 205.322 203.545 207.301 181.589 200.689 169.005 194.609 168.021 159.123 259.806 245.956 298.156 175.354 268.09 161.381 151.405 149.639 139.927 160.36 147.094 132.535 150.328 132.15 130.735 147.872 152.083 130.303 157.212 129.462 136.628 289.478 253.778 260.569 175.572 148.199 145.988 315.12 140.04 129.365 125.237 229.818 242.994 124.678 124.638 123.307 122.994 120.759 150.071 119.146 115.995 115.479 123.953 115.342
threshold=-0.6568336784839629 -0.49358217418193812 -0.59220057725906361 -0.69337922334671009 -0.77832442522048939 -0.79314056038856495 -0.78651461005210865 0.44241501390933996 -0.83924615383148182 -0.76202732324600209 0.67169097065925609 -0.80607566237449635 -0.80906203389167775 -0.57485824823379505 -0.3478082120418548 1.0812714695930483 -0.38898469507694239 1.0679156184196474 2.4814134836196904 1.1324690580368044 -0.57040628790855397 1.2882876992225649 -0.89094755053520192 -0.77074459195137013 -0.16972972452640531 -0.82708337903022755 -0.4182982444763183 -0.011685074772685764 1.0000000180025095e-35 0.02038459945470095 -0.4819487184286117 -0.83970007300376881 1.1146612167358401 0.96552047133445751 1.2882876992225649 -0.82704907655715931 0.21313899010419848 -0.85560691356658924 -1.1346923708915708 -0.83876281976699818 1.7869074344635012 1.0684854984283449 2.1252565383911137 2.5370630025863652 -0.53701657056808461 -0.64608964323997486 2.5248199701309209 -0.62271681427955616 1.1424859762191775 -0.81081220507621754 1.1680847406387331 -0.84155493974685658 -1.1335794329643247 -0.14079200476408002 2.6628310680389409 -0.90430340170860279 -0.40013489127159113 0.96329456567764293 -0.41458764672279352 1.8837375640869143 1.6433316469192507 1.7512916922569277
decision_type=2 2 2 2 2 2 2 2 2 2 2 2 2 2 2 2 2 2 2 2 2 2 2 2 2 2 2 2 2 2 2 2 2 2 2 2 2 2 2 2 2 2 2 2 2 2 2 2 2 2 2 2 2 2 2 2 2 2 2 2 2 2
left_child=4 5 26 -4 -1 -2 24 25 57 35 11 53 -8 54 15 -12 47 37 19 21 -21 59 -23 -22 -5 -6 27 -3 -29 -27 -31 -18 33 34 51 36 -10 -15 39 -39 41 42 -41 44 45 -40 48 -13 -46 50 52 -32 -50 -11 -14 56 -51 -7 -49 60 -19 -16
right_child=1 2 3 6 7 8 12 -9 9 10 14 16 13 17 61 -17 31 18 -20 20 23 22 -24 -25 -26 29 -28 28 -30 30 32 -33 -34 -35 -36 -37 -38 38 43 40 -42 -43 -44 -45 46 -47 -48 58 49 55 -52 -53 -54 -55 -56 -57 -58 -59 -60 -61 -62 -63
leaf_value=0.17227936798360186 0.15196124072427331 -0.0099369906419281197 0.15121994783887241 0.19736950184752738 0.17193997804012473 0.15668558516046385 0.13342545552368906 0.16239777764111746 -0.057098133189499058 0.016052272656364941 -0.055627182801945667 -0.023197391859086279 -0.026734347882473131 0.23643574120508604 0.11127338382828547 0.15866927342436554 0.1426833791764886 -0.043051021911517579 0.34188629461831677 0.2995806443831619 0.17998424146178704 0.27980208773956317 0.0008167207941054711 -0.054353923590087207 -0.0094491566502171703 0.1333153215805713 0.15748577558696478 -0.016905176801755972 0.16540349166125032 -0.03390863249475836 0.19599192256456216 -0.01051306190625583 0.15819631837364662 0.14941518386688385 0.14708898070086182 0.14133284074726549 0.12760082574574946 0.36653914591018355 0.41167123141701806 -0.029922008495360169 0.29587191206049279 0.40929515692337531 0.25426427361137266 0.15914699179055769 -0.020512227270946974 -0.054363067319576866 0.17263060396481589 -0.055392902406277901 0.21087786403830214 0.28607389249889503 0.31636058475892792 0.0041795099401170715 -0.054395849603267703 0.15148033477214348 0.255336677151838 -0.037610419621778794 0.013153109142695935 -0.0080345362219535008 0.16535165216011172 0.17225373947737196 0.11495645728868074 0.23763922789997369
leaf_weight=4121.9453852474689 194.39519882202148 38.330521982163191 73.971630312502384 30.632998242974281 159.21609324216843 111.57470317929983 28.198900878429413 832.19839236140251 20.864637725055218 24.375189695507288 29.255847226828337 18.444749750196934 413.5074080042541 6.1062914654612532 95.962535705417395 16.608783975243568 15.012712769210337 106.0059216953814 7.600460857152938 18.719744764268398 12.790122099220754 14.384776808321474 21.453906446695328 17.26341550797224 12.443825364112852 552.78693547099829 85.224381607025862 14.629533361643551 45.399152159690857 22.111152514815331 9.3244952857494336 225.85966354981065 73.898956447839737 54.128128424286842 31.713349737226963 141.04706959053874 25.727550707757473 7.1662042513489714 6.4852785393595687 74.320271424949169 8.5712257698178274 3.9015674889087668 5.8636642694473258 14.027178078889845 588.11881080642343 8.2308888509869558 10.568462654948233 6.9781246855854979 6.7719083726406089 7.0182902365922955 12.99287263303995 92.64529325067997 12.792609564960005 54.139764968305826 3.9010867848992339 72.013169810175896 17.841074988245964 12.176101259887217 40.436294250190258 7.947146773338317 14.057979159057139 22.243752099573612
leaf_count=4923 468 365 235 115 293 454 121 1626 212 194 348 200 5570 10 585 79 78 1432 32 99 87 69 247 239 104 1649 242 132 156 145 14 2414 179 140 85 626 118 35 36 999 42 15 41 99 7743 115 69 84 43 23 62 570 176 212 31 972 217 110 204 58 114 37
internal_value=0.126962 0.0517869 0.0269057 0.0175701 0.163405 0.0949241 0.0112799 0.143393 0.082042 0.0722293 0.0568045 0.036942 0.00771953 0.00535701 0.103443 0.0219752 0.0183854 0.0167094 0.0546444 0.0443766 0.142942 0.0150365 0.112795 0.0453752 0.137625 0.127511 0.110591 0.0699576 0.120973 0.119055 0.091282 -0.000964876 0.101859 0.0796916 0.0514607 0.117385 0.04489 0.00702669 0.0053915 0.0603737 0.0366944 0.0102753 -0.00914013 -0.00186015 -0.0049005 0.151014 -0.00805173 0.0891569 -0.0107129 0.0338143 0.148741 0.0217195 0.0374239 0.109436 -0.0240981 -0.00481076 0.090204 0.140478 0.132864 -0.0123324 -0.0245503 0.135053
internal_weight=8834.32 2884.36 1829.25 1645.67 5949.97 1055.1 1571.7 1828.02 860.707 736.957 549.317 385.246 1528.62 1500.42 164.071 45.8646 306.732 1083.01 220.223 212.623 48.7733 163.85 35.8387 30.0535 43.0768 995.824 183.584 98.3592 60.0287 836.608 283.821 240.872 261.71 187.811 133.683 187.639 46.5922 862.79 856.683 99.8229 92.6567 84.0855 80.1839 756.861 742.833 14.7162 728.117 65.8592 717.549 129.43 32.5574 101.97 19.5645 78.515 417.408 96.8725 24.8594 123.751 47.4144 128.011 120.064 118.206
internal_count=36192 26568 20145 19250 9624 6423 19015 4701 5955 5391 4435 3386 18796 18675 1049 427 2980 13074 2377 2345 425 1920 316 326 219 3075 895 653 288 2782 1133 2492 988 809 669 956 330 10697 10687 1132 1097 1055 1040 9555 9456 151 9305 488 9236 1493 281 584 219 406 5601 1212 240 564 288 1604 1546 622
is_linear=0
shrinkage=0.05


end of trees

feature_importances:
Column_532=13
Column_469=10
Column_441=9
Column_55=6
Column_361=6
Column_534=6
Column_181=5
Column_460=5
Column_388=4
Column_450=4
Column_513=4
Column_514=4
Column_523=4
Column_27=3
Column_84=3
Column_108=3
Column_147=3
Column_174=3
Column_195=3
Column_235=3
Column_340=3
Column_366=3
Column_435=3
Column_451=3
Column_477=3
Column_478=3
Column_486=3
Column_516=3
Column_531=3
Column_3=2
Column_8=2
Column_10=2
Column_33=2
Column_44=2
Column_51=2
Column_54=2
Column_93=2
Column_102=2
Column_111=2
Column_117=2
Column_165=2
Column_172=2
Column_183=2
Column_201=2
Column_242=2
Column_316=2
Column_336=2
Column_342=2
Column_345=2
Column_348=2
Column_351=2
Column_387=2
Column_397=2
Column_405=2
Column_426=2
Column_432=2
Column_438=2
Column_444=2
Column_465=2
Column_471=2
Column_499=2
Column_505=2
Column_507=2
Column_536=2
Column_0=1
Column_5=1
Column_12=1
Column_14=1
Column_18=1
Column_19=1
Column_21=1
Column_22=1
Column_25=1
Column_28=1
Column_38=1
Column_39=1
Column_42=1
Column_49=1
Column_57=1
Column_59=1
Column_60=1
Column_63=1
Column_64=1
Column_67=1
Column_72=1
Column_90=1
Column_97=1
Column_98=1
Column_99=1
Column_106=1
Column_113=1
Column_116=1
Column_118=1
Column_127=1
Column_132=1
Column_134=1
Column_135=1
Column_136=1
Column_138=1
Column_149=1
Column_151=1
Column_153=1
Column_154=1
Column_156=1
Column_163=1
Column_168=1
Column_169=1
Column_177=1
Column_185=1
Column_186=1
Column_189=1
Column_196=1
Column_198=1
Column_203=1
Column_209=1
Column_222=1
Column_225=1
Column_229=1
Column_231=1
Column_232=1
Column_240=1
Column_252=1
Column_253=1
Column_255=1
Column_262=1
Column_263=1
Column_271=1
Column_273=1
Column_285=1
Column_291=1
Column_297=1
Column_309=1
Column_310=1
Column_313=1
Column_321=1
Column_327=1
Column_331=1
Column_333=1
Column_349=1
Column_354=1
Column_357=1
Column_358=1
Column_360=1
Column_369=1
Column_370=1
Column_372=1
Column_378=1
Column_381=1
Column_395=1
Column_408=1
Column_414=1
Column_417=1
Column_420=1
Column_423=1
Column_424=1
Column_427=1
Column_433=1
Column_447=1
Column_448=1
Column_455=1
Column_456=1
Column_462=1
Column_468=1
Column_483=1
Column_490=1
Column_496=1
Column_501=1
Column_504=1
Column_510=1
Column_521=1
Column_522=1
Column_527=1
Column_528=1
Column_535=1
Column_538=1
Column_539=1

parameters:
[boosting: gbdt]
[objective: binary]
[metric: binary_logloss]
[tree_learner: serial]
[device_type: cpu]
[data_sample_strategy: bagging]
[data: ]
[valid: ]
[num_iterations: 300]
[learning_rate: 0.05]
[num_leaves: 63]
[num_threads: 32]
[seed: 2021]
[deterministic: 0]
[force_col_wise: 0]
[force_row_wise: 0]
[histogram_pool_size: -1]
[max_depth: -1]
[min_data_in_leaf: 50]
[min_sum_hessian_in_leaf: 0.001]
[bagging_fraction: 1]
[pos_bagging_fraction: 1]
[neg_bagging_fraction: 1]
[bagging_freq: 0]
[bagging_seed: 5064]
[bagging_by_query: 0]
[feature_fraction: 1]
[feature_fraction_bynode: 1]
[feature_fraction_seed: 6682]
[extra_trees: 0]
[extra_seed: 17862]
[early_stopping_round: 0]
[early_stopping_min_delta: 0]
[first_metric_only: 0]
[max_delta_step: 0]
[lambda_l1: 0]
[lambda_l2: 0]
[linear_lambda: 0]
[min_gain_to_split: 0]
[drop_rate: 0.1]
[max_drop: 50]
[skip_drop: 0.5]
[xgboost_dart_mode: 0]
[uniform_drop: 0]
[drop_seed: 14392]
[top_rate: 0.2]
[other_rate: 0.1]
[min_data_per_group: 100]
[max_cat_threshold: 32]
[cat_l2: 10]
[cat_smooth: 10]
[max_cat_to_onehot: 4]
[top_k: 20]
[monotone_constraints: ]
[monotone_constraints_method: basic]
[monotone_penalty: 0]
[feature_contri: ]
[forcedsplits_filename: ]
[refit_decay_rate: 0.9]
[cegb_tradeoff: 1]
[cegb_penalty_split: 0]
[cegb_penalty_feature_lazy: ]
[cegb_penalty_feature_coupled: ]
[path_smooth: 0]
[interaction_constraints: ]
[verbosity: -1]
[saved_feature_importance_type: 0]
[use_quantized_grad: 0]
[num_grad_quant_bins: 4]
[quant_train_renew_leaf: 0]
[stochastic_rounding: 1]
[linear_tree: 0]
[max_bin: 255]
[max_bin_by_feature: ]
[min_data_in_bin: 3]
[bin_construct_sample_cnt: 200000]
[data_random_seed: 6638]
[is_enable_sparse: 1]
[enable_bundle: 1]
[use_missing: 1]
[zero_as_missing: 0]
[feature_pre_filter: 1]
[pre_partition: 0]
[two_round: 0]
[header: 0]
[label_column: ]
[weight_column: ]
[group_column: ]
[ignore_column: ]
[categorical_feature: ]
[forcedbins_filename: ]
[precise_float_parser: 0]
[parser_config_file: ]
[objective_seed: 14162]
[num_class: 1]
[is_unbalance: 0]
[scale_pos_weight: 12.0846]
[sigmoid: 1]
[boost_from_average: 1]
[reg_sqrt: 0]
[alpha: 0.9]
[fair_c: 1]
[poisson_max_delta_step: 0.7]
[tweedie_variance_power: 1.5]
[lambdarank_truncation_level: 30]
[lambdarank_norm: 1]
[label_gain: ]
[lambdarank_position_bias_regularization: 0]
[eval_at: ]
[multi_error_top_k: 1]
[auc_mu_weights: ]
[num_machines: 1]
[local_listen_port: 12400]
[time_out: 120]
[machine_list_filename: ]
[machines: ]
[gpu_platform_id: -1]
[gpu_device_id: -1]
[gpu_use_dp: 0]
[num_gpu: 1]

end of parameters

pandas_categorical:null
