tree
version=v4
num_class=1
num_tree_per_iteration=1
label_index=0
max_feature_idx=239
objective=binary sigmoid:1
feature_names=Column_0 Column_1 Column_2 Column_3 Column_4 Column_5 Column_6 Column_7 Column_8 Column_9 Column_10 Column_11 Column_12 Column_13 Column_14 Column_15 Column_16 Column_17 Column_18 Column_19 Column_20 Column_21 Column_22 Column_23 Column_24 Column_25 Column_26 Column_27 Column_28 Column_29 Column_30 Column_31 Column_32 Column_33 Column_34 Column_35 Column_36 Column_37 Column_38 Column_39 Column_40 Column_41 Column_42 Column_43 Column_44 Column_45 Column_46 Column_47 Column_48 Column_49 Column_50 Column_51 Column_52 Column_53 Column_54 Column_55 Column_56 Column_57 Column_58 Column_59 Column_60 Column_61 Column_62 Column_63 Column_64 Column_65 Column_66 Column_67 Column_68 Column_69 Column_70 Column_71 Column_72 Column_73 Column_74 Column_75 Column_76 Column_77 Column_78 Column_79 Column_80 Column_81 Column_82 Column_83 Column_84 Column_85 Column_86 Column_87 Column_88 Column_89 Column_90 Column_91 Column_92 Column_93 Column_94 Column_95 Column_96 Column_97 Column_98 Column_99 Column_100 Column_101 Column_102 Column_103 Column_104 Column_105 Column_106 Column_107 Column_108 Column_109 Column_110 Column_111 Column_112 Column_113 Column_114 Column_115 Column_116 Column_117 Column_118 Column_119 Column_120 Column_121 Column_122 Column_123 Column_124 Column_125 Column_126 Column_127 Column_128 Column_129 Column_130 Column_131 Column_132 Column_133 Column_134 Column_135 Column_136 Column_137 Column_138 Column_139 Column_140 Column_141 Column_142 Column_143 Column_144 Column_145 Column_146 Column_147 Column_148 Column_149 Column_150 Column_151 Column_152 Column_153 Column_154 Column_155 Column_156 Column_157 Column_158 Column_159 Column_160 Column_161 Column_162 Column_163 Column_164 Column_165 Column_166 Column_167 Column_168 Column_169 Column_170 Column_171 Column_172 Column_173 Column_174 Column_175 Column_176 Column_177 Column_178 Column_179 Column_180 Column_181 Column_182 Column_183 Column_184 Column_185 Column_186 Column_187 Column_188 Column_189 Column_190 Column_191 Column_192 Column_193 Column_194 Column_195 Column_196 Column_197 Column_198 Column_199 Column_200 Column_201 Column_202 Column_203 Column_204 Column_205 Column_206 Column_207 Column_208 Column_209 Column_210 Column_211 Column_212 Column_213 Column_214 Column_215 Column_216 Column_217 Column_218 Column_219 Column_220 Column_221 Column_222 Column_223 Column_224 Column_225 Column_226 Column_227 Column_228 Column_229 Column_230 Column_231 Column_232 Column_233 Column_234 Column_235 Column_236 Column_237 Column_238 Column_239
feature_infos=[-7.2386941909790039:9.5747213363647461] [-0.78305685520172119:2.3965311050415039] [-4.9296307563781738:9.5747213363647461] [-0.7830965518951416:2.3965311050415039] [-5.3636817932128906:9.5747213363647461] [-0.7830965518951416:2.3965311050415039] [0:0.97681432962417603] none [-1:1] [-1:1] [-48.520000457763672:42.869998931884766] none [-7.2386941909790039:9.5747213363647461] [-0.78306156396865845:2.3965311050415039] [-5.5377426147460938:5.917236328125] [-0.7830965518951416:2.3965311050415039] [-5.3636817932128906:14.018787384033203] [-0.78305685520172119:2.3965311050415039] [0:0.97826087474822998] [-160.56584167480469:158.58616638183594] [-1:1] [-1:0.99999046325683594] [-36.959999084472656:42.869998931884766] none [-7.2386941909790039:3.8835866451263428] [-0.78306156396865845:2.3965311050415039] [-4.7820096015930176:3.7932510375976562] [-0.7830965518951416:2.3965311050415039] [-5.3636817932128906:14.018787384033203] [-0.78309023380279541:2.3965311050415039] [0:0.97680902481079102] [-81.702507019042969:80.258575439453125] [-1:1] [-1:0.99996191263198853] [-36.959999084472656:22.219999313354492] none [-7.2386941909790039:9.5747213363647461] [-0.7830965518951416:2.3965311050415039] [-5.5377426147460938:9.5747213363647461] [-0.7830965518951416:2.3965311050415039] [-5.3636817932128906:14.018787384033203] [-0.78308701515197754:2.3965311050415039] [0:0.97727274894714355] [-51.962223052978516:55.688888549804688] [-1:1] [-1:0.99991434812545776] [-48.520000457763672:42.869998931884766] [-0.26955556869506836:0.26955556869506836] [-6.6834611892700195:9.5747213363647461] [-0.78306156396865845:2.3965311050415039] [-5.5377426147460938:9.5747213363647461] [-0.7830965518951416:2.3965311050415039] [-5.5377426147460938:14.018787384033203] [-0.7830965518951416:2.3965311050415039] [0:0.97680288553237915] [-51.770442962646484:55.688888549804688] [-1:1] [-1:0.99984771013259888] [-48.520000457763672:42.869998931884766] [-0.26955556869506836:0.26955556869506836] [-6.6834611892700195:9.5747213363647461] [-0.78306156396865845:2.3965311050415039] [-5.5377426147460938:9.5747213363647461] [-0.7830965518951416:2.3965311050415039] [-5.5377426147460938:5.2782783508300781] [-0.78309023380279541:2.3965311050415039] [0:0.97681432962417603] [-51.770442962646484:55.270557403564453] [-1:1] [-1:0.99976199865341187] [-48.520000457763672:42.869998931884766] [-0.14038889110088348:0.26955556869506836] [-6.6834611892700195:9.5747213363647461] [-0.7830965518951416:2.3965311050415039] [-5.5377426147460938:9.5747213363647461] [-0.7830965518951416:2.3965311050415039] [-5.4363908767700195:14.018787384033203] [-0.7830965518951416:2.3965311050415039] [0:0.97680902481079102] [-52.35894775390625:55.270557403564453] [-1:1] [-1:0.99965733289718628] [-48.520000457763672:42.869998931884766] [-0.26955556869506836:0.26955556869506836] [-4.8150591850280762:9.5747213363647461] [-0.7830965518951416:2.3965311050415039] [-4.9296307563781738:5.917236328125] [-0.78309023380279541:2.3965311050415039] [-5.5377426147460938:14.018787384033203] [-0.7830965518951416:2.3965311050415039] [0:0.97727274894714355] [-52.35894775390625:52.494667053222656] [-1:1] [-1:0.99953359365463257] [-31.489999771118164:42.869998931884766] [-0.26955556869506836:0.26955556869506836] [-6.2868661880493164:5.917236328125] [-0.78306156396865845:2.3965311050415039] [-5.5377426147460938:9.5747213363647461] [-0.7830965518951416:2.3965311050415039] [-5.5377426147460938:14.018787384033203] [-0.7830965518951416:2.3965311050415039] [0:0.97680288553237915] [-50.312393188476562:53.905887603759766] [-1:1] [-1:0.99939084053039551] [-48.520000457763672:32.739997863769531] [-0.26955556869506836:0.1574999988079071] [-6.2868661880493164:9.5747213363647461] [-0.7830965518951416:2.3965311050415039] [-4.6696410179138184:6.5077214241027832] [-0.78309023380279541:2.3965311050415039] [-5.5377426147460938:14.018787384033203] [-0.7830965518951416:2.3965311050415039] [0:0.97681432962417603] [-52.35894775390625:53.905887603759766] [-1:1] [-1:0.99922901391983032] [-28.979999542236328:42.869998931884766] [-0.26955556869506836:0.26955556869506836] [-6.2868661880493164:9.5747213363647461] [-0.7830965518951416:2.3965311050415039] [-5.5377426147460938:9.5747213363647461] [-0.7830965518951416:2.3965311050415039] [-5.665534496307373:3.7624044418334961] [-0.7830965518951416:2.3965311050415039] [0:0.97680902481079102] [-50.312393188476562:53.905887603759766] [-1:1] [-1:0.99904823303222656] [-48.520000457763672:42.869998931884766] [-0.26955556869506836:0.26955556869506836] [-4.5440530776977539:5.917236328125] [-0.7830965518951416:2.3965311050415039] [-5.1741976737976074:9.5747213363647461] [-0.78309023380279541:2.3965311050415039] [-5.665534496307373:14.018787384033203] [-0.7830965518951416:2.3965311050415039] [0:0.97666162252426147] [-52.35894775390625:50.191444396972656] [-1:1] [-1:0.99884837865829468] [-48.520000457763672:31.909999847412109] [-0.17733334004878998:0.15505555272102356] [-4.5440530776977539:9.5747213363647461] [-0.7830965518951416:2.3965311050415039] [-5.1741976737976074:9.5747213363647461] [-0.78307586908340454:2.3965311050415039] [-5.665534496307373:6.5077214241027832] [-0.7830965518951416:2.3965311050415039] [0:0.97642946243286133] [-52.35894775390625:53.905887603759766] [-1:1] [-1:0.99862951040267944] [-48.520000457763672:42.869998931884766] [-0.26955556869506836:0.26955556869506836] [-3.8698415756225586:6.5077214241027832] [-0.78303927183151245:2.3965311050415039] [-5.5377426147460938:5.2782783508300781] [-0.7830965518951416:2.3965311050415039] [-5.665534496307373:14.018787384033203] [-0.7830965518951416:2.3965311050415039] [0:0.97054606676101685] [-52.35894775390625:53.905887603759766] [-1:1] [-1:0.99839168787002563] [-25.180000305175781:34.479999542236328] [-0.26955556869506836:0.13527777791023254] [-4.5440530776977539:14.018787384033203] [-0.78306156396865845:2.3965311050415039] [-5.3636817932128906:5.2782783508300781] [-0.7830965518951416:2.3965311050415039] [-5.665534496307373:14.018787384033203] [-0.7830965518951416:2.3965311050415039] [0:0.97642946243286133] [-52.35894775390625:53.905887603759766] [-1:1] [-1:0.99839168787002563] [-25.180000305175781:51.110000610351562] [-0.17733334004878998:0.35899999737739563] [-3.6032419204711914:14.018787384033203] [-0.78303927183151245:2.3965311050415039] [-5.5377426147460938:9.5747213363647461] [-0.7830965518951416:2.3965311050415039] [-5.665534496307373:14.018787384033203] [-0.7830965518951416:2.3965311050415039] [0.00032959436066448689:0.97642946243286133] [-52.35894775390625:52.494667053222656] [-1:1] [-1:0.99862951040267944] [-48.520000457763672:51.110000610351562] [-0.26955556869506836:0.35899999737739563] [-2.7241232395172119:9.5747213363647461] [-0.7830965518951416:2.3965311050415039] [-5.665534496307373:6.5077214241027832] [-0.7830965518951416:2.3965311050415039] [-5.665534496307373:14.018787384033203] [-0.7830965518951416:2.3965311050415039] [0.0051014539785683155:0.97642946243286133] [-48.160167694091797:52.494667053222656] [-1:1] [-1:0.99884837865829468] [-28.169998168945312:42.869998931884766] [-0.14977778494358063:0.26955556869506836] [-2.574298620223999:14.018787384033203] [-0.7830965518951416:2.3965311050415039] [-5.3636817932128906:14.018787384033203] [-0.7830965518951416:2.3965311050415039] [-5.665534496307373:6.5077214241027832] [-0.7830965518951416:2.3965311050415039] [0.02331860363483429:0.97642946243286133] [-48.160167694091797:53.905887603759766] [-1:1] [-1:0.99904823303222656] [-65.709999084472656:51.110000610351562] [-0.38161110877990723:0.35899999737739563] [-2.574298620223999:5.1460800170898438] [-0.7830965518951416:2.3965311050415039] [-5.665534496307373:9.5747213363647461] [-0.7830965518951416:2.3965311050415039] [-5.665534496307373:14.018787384033203] [-0.7830965518951416:2.3965311050415039] [0.036350231617689133:0.95667558908462524] [-47.677944183349609:53.905887603759766] [-1:1] [-1:0.99922901391983032] [-48.520000457763672:34.479999542236328] [-0.38161110877990723:0.14927777647972107] [-2.574298620223999:14.018787384033203] [-0.7830965518951416:2.3965311050415039] [-5.3636817932128906:14.018787384033203] [-0.7830965518951416:2.3965311050415039] [-5.5377426147460938:6.5077214241027832] [-0.7830965518951416:2.3965311050415039] [0.043936025351285934:0.95647275447845459] [-47.967777252197266:53.905887603759766] [-1:1] [-1:0.99939084053039551] [-65.709999084472656:51.110000610351562] [-0.26955556869506836:0.35899999737739563]
tree_sizes=6816 6832 6840 6869 6878 6919 6906 6936 6947 6943 6961 6992 6978 6971 6999 6988 6988 6999 7000 6975 6997 7012 6991 6997 6999 6975 6989 7008 6999 7006 6966 7030 7007 7005 7011 7008 6994 6995 7008 6987 7015 7013 6945 7038 7039 7019 7022 7027 7006 7027 7031 7015 7037 7022 7020 7040 7042 7023 6990 7002 7004 7002 7005 7013 6984 7027 6987 6975 6995 7026 7021

Tree=0
num_leaves=63
num_cat=0
split_feature=229 222 181 229 181 207 234 229 15 49 61 127 1 121 1 205 76 222 125 169 48 115 117 181 123 6 171 204 227 29 80 235 43 207 149 237 133 54 229 214 153 103 85 223 145 211 182 222 107 108 218 41 195 138 88 76 223 229 96 183 199 214
split_gain=327499 149757 27884.8 23235.4 9687.69 9031.07 7481.9 6972.7 6714.73 7581.05 5025.92 4566.21 4152.61 4023.72 3690.32 3434.35 3378.9 3180.64 3172.13 3104.44 3270.17 3088.13 3078.57 3134.16 3077.88 3071.37 2977.83 2938.94 2890.81 2834.74 2802.47 2763.1 2753.96 2997.66 3644.95 2853.32 4420.99 2722.91 2647.27 2473.14 2885.91 2418.64 2414.73 2401.97 2393.21 2361.44 2341.5 2300.85 2551.34 2277.39 2244.28 3245.1 2351.76 2226.7 2216 2212.98 2200.89 2194.04 2776.81 2299.8 2156.89 2157.45
threshold=-0.59026393294334401 0.76505029201507579 -0.69673544168472279 -0.67316085100173939 -0.22299608588218686 -0.18113866448402402 0.77459362149238598 -0.5369209051132201 -0.59399446845054615 -0.61878365278244007 -0.63330420851707447 7.0843877792358407 0.12019480019807817 -0.72642284631729115 -0.72047454118728627 -0.75445520877838124 0.66125383973121654 0.77473250031471264 -0.57676324248313893 -0.61638459563255299 0.51363244652748119 -2.0984727144241329 -0.41667649149894709 -0.62647676467895497 -0.44281975924968714 0.36331276595592504 -0.76090592145919789 -0.96478480100631703 0.003305555554106832 -0.70171231031417836 0.99799686670303356 -0.17936109006404874 -2.0900003910064693 -0.36351902782917017 -0.70202073454856861 -0.49052239954471583 -0.088864233344793306 0.038508839905262 -0.74785351753234852 -10.655000209808348 -0.76744312047958363 0.22119548171758655 -0.088461227715015397 3.1684448719024663 0.1048252582550049 1.0000000180025095e-35 -0.93614178895950306 0.90979966521263134 -0.045916667208075516 -0.10108945891261099 -0.69377833604812611 -0.40866021811962122 -0.76842966675758351 0.79087975621223461 -0.0063473575282841912 2.6001617908477788 4.9460279941558847 -0.55238583683967579 2.2057701349258427 -0.39559513330459589 2.9928338527679448 5.810000181198121
decision_type=2 2 2 2 2 2 2 2 2 2 2 2 2 2 2 2 2 2 2 2 2 2 2 2 2 2 2 2 2 2 2 2 2 2 2 2 2 2 2 2 2 2 2 2 2 2 2 2 2 2 2 2 2 2 2 2 2 2 2 2 2 2
left_child=3 2 27 10 7 17 13 11 16 -10 -1 21 15 -5 -11 -9 29 19 31 -3 -21 45 23 -15 28 43 -23 -2 -20 -6 56 -7 -16 55 54 36 -36 41 -39 -25 -41 -12 -33 -24 -38 -4 -18 48 -26 -22 51 52 -40 -8 -35 -34 -17 -50 59 -59 61 -30
right_child=1 5 4 6 8 18 53 12 9 14 37 -13 -14 22 32 30 46 -19 24 20 49 26 25 39 47 -27 -28 -29 60 -31 -32 42 33 34 35 -37 44 38 50 40 -42 -43 -44 -45 -46 -47 -48 -49 57 -51 -52 -53 -54 -55 -56 -57 -58 58 -60 -61 -62 -63
leaf_value=-2.1191420563715546 -3.011889633529103 -2.0731713881266547 -2.3543034756401648 -2.2660986266752596 -2.2980395704840557 -3.0999602612923711 -2.2657888287939176 -2.2783443925815048 -2.5643669319152291 -2.5734582827292654 -2.4049180389640332 -2.1153820101390988 -2.477659655213206 -2.5603383075441952 -3.220283698451555 -3.2165446609227955 -2.6630314869698681 -2.2742703060639284 -2.9540337056062862 -3.1240373704510924 -3.1721021590050489 -2.4408504811597997 -2.3920841655801164 -2.1196932296924516 -2.2655849596454356 -3.113575467264881 -3.1137256348160252 -2.3072918513222231 -2.929086993693816 -2.7579466936951569 -2.4391077855158239 -2.2503527394315448 -3.1771977369664564 -2.2224437622023769 -3.1387289583349816 -3.1050748680655178 -2.3714779436039501 -2.1508866385555887 -2.1256777905172033 -2.7676794069561161 -3.2484649008408986 -3.2263716928243884 -3.3303675297155868 -2.8738136895864663 -3.3303675297155868 -3.008281907118151 -3.2992817810949893 -2.2576227536950255 -2.2953171220123947 -2.2414795353857588 -2.2469941667275739 -2.2592867437125816 -2.7844160241670912 -2.9778311505288357 -3.0793657769484066 -2.1931360425660582 -2.8021224752679998 -3.3303675297155868 -2.143281668473489 -2.6886719681374425 -2.3714779436039501 -2.1722920349865289
leaf_weight=1477.6927724853158 16.663947589695454 22.162229642271996 31.264156233519316 102.22560161724687 41.127232275903225 11.516778543591498 398.81308659911156 10.089319869875906 77.943625096231699 35.057696755975485 30.106742586940527 16.380130313336849 20.227409843355417 153.34866352379322 301.31008509546518 1701.847040746361 21.869824547320604 560.30971577391028 105.76578486710787 32.151740379631519 8.3832283504307252 17.898810300976038 236.14548705518246 9.8630760423839074 54.826300051063299 18.36010130122304 202.10110573098063 132.27860519662499 52.901633586734533 180.79081580042839 11.90920829772949 130.21870069205761 277.18776008114219 26.345715466886759 48.463224973529577 200.22996274754405 51.195326540619135 456.701375618577 16.520121730864048 87.243116553872824 48.598247487097979 12.757960148155687 5.3896695747971526 29.060641396790743 7.4545429833233348 24.715938549488783 42.681125644594431 63.076990339905024 42.300902623683214 30.461690034717321 458.02654070779681 105.29164055362344 75.33639270812273 11.290534716099499 10.571836475282906 5.8333538845181456 32.65164814889431 14.734096694737671 22.353475615382195 266.72140505164862 56.729956436902285 11.456720642745493
leaf_count=7775 374 97 306 827 358 278 3224 84 1078 491 324 85 246 2109 7971 44899 344 4621 2256 791 214 205 2483 52 443 448 4932 1175 1103 3174 136 1014 7103 191 1206 4853 518 2682 89 1548 1312 339 154 575 213 553 1194 500 366 232 3537 838 1361 246 251 39 601 421 128 4327 574 72
internal_value=-2.61604 -2.87894 -3.05574 -2.26073 -3.0851 -2.45858 -2.45429 -3.15274 -2.97971 -3.03867 -2.18022 -2.92647 -3.18998 -2.55543 -3.07703 -3.19818 -2.76533 -2.31925 -2.56723 -2.58978 -2.75104 -2.97461 -2.6062 -2.71812 -2.61212 -2.48817 -3.05898 -2.38612 -2.76306 -2.67271 -3.20349 -2.35642 -3.09604 -3.03637 -2.93726 -2.99365 -2.78535 -2.25837 -2.24329 -2.88418 -2.93968 -2.64941 -2.29328 -2.44487 -2.49336 -2.64304 -3.08372 -2.53833 -2.58249 -2.44232 -2.30771 -2.44876 -2.66594 -2.28539 -2.46783 -3.15692 -3.20874 -2.63269 -2.67966 -2.72226 -2.59624 -2.79437
internal_weight=8764.93 5037.55 3546.09 3727.38 3397.15 1491.46 1094.95 2069.08 1328.06 1041.59 2632.43 292.36 1776.72 684.845 963.65 1756.5 286.469 653.469 837.992 93.1589 70.9967 275.98 582.619 299.053 690.867 283.566 220 148.943 226.854 221.918 1746.41 147.125 928.592 627.282 344.261 307.343 107.113 1154.74 1111.88 145.704 135.841 42.8647 135.608 265.206 58.6499 55.9801 64.551 464.013 400.936 38.8449 655.175 197.148 91.8565 410.104 36.9176 283.021 1734.5 346.11 303.809 281.456 121.088 64.3584
internal_count=129940 100171 82580 29769 81031 17591 12824 52047 28984 23914 16945 6081 45966 9354 22836 45720 5070 5955 11636 1334 1237 5996 8527 5021 10190 3506 5137 1549 4005 3532 45636 1446 22345 14374 7232 6790 1937 9170 8507 2912 2860 663 1168 3058 731 859 1538 6185 5685 446 5825 2288 1450 3470 442 7142 45500 5242 4876 4748 1749 1175
is_linear=0
shrinkage=1


Tree=1
num_leaves=63
num_cat=0
split_feature=229 234 49 229 97 6 229 222 205 237 234 231 49 235 5 236 229 43 27 206 182 44 107 9 159 119 67 55 119 127 43 33 13 187 222 147 33 29 101 127 225 163 168 6 170 76 100 151 199 233 9 125 121 130 86 114 163 194 201 167 3 51
split_gain=31973.7 25115.9 6156.23 6389.02 3126.22 3024.21 2564.01 2725.22 1934.03 2559.02 1920.05 1848.17 1847.82 1845.49 2183.98 1783.38 2126.4 1762.83 1757.01 1752.38 1629.71 1604.08 1566.93 1544.08 1850.53 1674.96 1631.35 1535.14 1530.97 1445.17 1390.78 1390.68 2026.02 1943.66 1374.14 1365.61 1509.6 1352.08 1293.63 1420.6 1287.56 1287.41 1277.51 1273.2 1271.55 1259.23 1255.7 1535.75 1247.43 1148.9 1124.86 1123.69 1089.38 1069.1 1053.93 1044.75 1039.06 1153.46 1032.66 1030.18 1027.81 1567.28
threshold=-0.52767613530158985 0.77255433797836315 -0.58229103684425343 -0.20565042644739148 -0.66243675351142872 0.087074201554059996 -0.6304679512977599 0.77136832475662243 0.10793094709515573 1.0000000180025095e-35 0.60690599679946911 -0.19129998236894605 0.044805796816945083 3.3583332300186162 -0.77541536092758168 -0.78666386008262623 -0.30197650194168085 -5.8312499523162833 -0.67197564244270314 1.4720697999000552 -0.47124457359313959 -0.41270604729652399 0.015083333477377893 0.57536083459854137 -0.10475364699959754 -0.079083334654569612 1.4545556306838991 -1.5140832066535947 -0.0089166667312383634 -5.5065834522247306 4.3306384086608896 0.29445663094520574 -0.54428967833518971 -6.5845832824707022 0.90979966521263134 -0.66411957144737233 -0.6867687702178954 -0.33673700690269465 -0.76221194863319386 -4.7985002994537345 -0.8468879461288451 -0.99566650390624989 -1.0573235154151914 0.045473223552107818 1.9898464083671572 -1.1410491466522215 2.3445783853530888 -3.4773610830307002 -3.3893884420394893 -0.4160886257886886 -0.26092512905597681 -0.71929490566253651 2.133339643478394 -13.309999942779539 0.81107848882675182 0.44990566372871404 1.3959167599678042 0.52024233341217052 0.91618576645851146 0.0070277778431773194 -0.52760222554206837 -0.23230764269828794
decision_type=2 2 2 2 2 2 2 2 2 2 2 2 2 2 2 2 2 2 2 2 2 2 2 2 2 2 2 2 2 2 2 2 2 2 2 2 2 2 2 2 2 2 2 2 2 2 2 2 2 2 2 2 2 2 2 2 2 2 2 2 2 2
left_child=6 2 15 4 -4 8 -1 11 35 22 19 31 29 45 -15 38 -17 20 50 23 -16 -18 59 24 25 -7 27 41 -14 -12 -29 32 -8 -34 -9 36 -5 40 55 -40 -13 -27 -30 -42 -11 -6 -47 -48 -49 -43 -19 54 -25 -20 -35 -2 -31 -58 -46 -10 -41 -62
right_child=1 -3 3 5 13 10 7 34 9 44 12 37 28 14 17 16 21 18 53 -21 -22 -23 -24 52 -26 26 -28 30 42 56 -32 -33 33 51 -36 -37 -38 -39 39 60 43 49 -44 -45 58 46 47 48 -50 -51 -52 -53 -54 -55 -56 -57 57 -59 -60 -61 61 -63
leaf_value=0.38322290820443827 0.27237706680931228 0.34925168185109734 0.48927176464526556 0.49968186842096146 0.49754052852630865 1.0081242681537979 0.27385975480463853 0.39524538684501548 0.72768596120343576 -0.05227061144981119 0.48513511928464503 -0.05322814116054897 0.067095476957941963 1.1922261568181995 0.71274228400740369 -0.016016850590404461 0.017386673030826503 -0.052711602874590202 0.7124814108446722 -0.016325421618719874 -0.052268085050701629 0.38944309625529516 -0.052350832725659914 -0.052373977096427063 0.61231017551859623 0.12251475217854194 0.47429216890950826 0.052994298685836841 0.69247727826052019 0.04056091165806984 0.48743877316595408 0.36397241482711234 0.53126125309479588 0.055555823837673338 0.16181861046304635 -0.0015683711290728518 -0.0056739590417289321 0.44103471426537166 -0.052952843427469157 0.5332791589238014 0.028821666711116217 0.19606227058022319 0.31666975608724401 0.37887933273953178 0.69046504541897769 0.0225421839591761 1.0967210256454407 0.94624494331755149 -0.052129745707970715 0.58878878266846191 0.59316415712740955 -0.0016265350528762554 1.0493579343421782 -0.019408726478446141 0.54602117939931138 0.96120900408121723 0.029604128085274479 0.42889821823575014 -0.052258783849479268 0.11053380370351584 0.023409459135517792 0.40814207431450367
leaf_weight=8230.5124338902533 8.1379260495305079 2598.9778894260526 41.533797949552536 31.177886206656694 14.419363569468258 8.7568382397294027 311.72080025449395 981.13289645686746 40.801224302500486 56.344229433685541 24.639068555086851 28.30292210355401 44.155199583619833 5.3316939808428279 24.262066874653101 72.632408287376165 37.147040612995625 9.2824058756232244 5.2047465816140166 36.718067482113838 9.7631047330796701 131.60750041529536 10.32899324595928 32.727777346968651 65.725332543253899 37.876266553997993 105.55901221558452 112.75775774568319 30.245644584298134 255.91373633220792 22.018983744084835 136.46317621320486 22.622911781072617 24.372292429208755 67.377242736518383 313.26268206909299 28.093549408018589 211.66175378113985 19.044813383370638 85.912941746413708 32.170660268515348 26.620727993547916 89.621228985488415 134.87423456460238 12.484642017632725 1545.2890738733113 5.7749747931957272 3.987221691757445 14.531393561512228 61.983134765177965 24.624350734055042 206.57895089685917 2.4088489785790435 120.70792143419385 19.893184870481491 17.011412009596825 32.199183315038681 41.26595076546073 7.4861894696950904 8.1051615737378579 34.955190561711788 109.06027506664395
leaf_count=23621 93 16106 310 237 50 25 3247 3447 270 1411 220 547 814 16 146 1694 517 202 55 851 245 820 252 793 294 746 836 2196 142 5272 55 1076 23 430 607 7328 570 1251 398 626 526 415 1008 1092 67 38092 28 30 380 370 129 4070 8 2881 82 51 659 392 188 142 794 697
internal_value=0.316176 0.228971 0.148392 0.123736 0.0604479 0.19876 0.370459 0.322206 0.0989162 0.260637 0.247954 0.268289 0.18005 0.0504597 0.193905 0.30929 0.210186 0.166447 0.0968749 0.316505 0.493232 0.307544 0.507225 0.342156 0.367555 0.324723 0.308408 0.241384 0.318783 0.115772 0.123971 0.220239 0.18672 0.0873918 0.380245 0.0400723 0.260153 0.353485 0.396558 0.362037 0.258625 0.366498 0.411496 0.311463 0.0692372 0.0324225 0.0281496 0.38483 0.162829 0.470795 0.416347 0.0473605 0.0231571 0.0108448 0.275974 0.738314 0.0881423 0.253891 0.41205 0.625407 0.39641 0.31476
internal_weight=16886.2 6478.48 3879.5 3363.99 1824.71 1539.28 10407.7 2177.17 508.085 135.55 1031.19 1128.66 518.04 1783.18 199.176 515.51 241.387 193.845 159.819 513.153 34.0252 168.755 59.2354 476.435 441.298 375.573 366.816 261.257 164.022 354.018 134.777 721.651 585.188 273.467 1048.51 372.534 59.2714 407.01 274.123 248.973 195.348 126.48 119.867 167.045 76.3151 1584 1569.58 24.2936 18.5186 88.6039 33.9068 250.844 35.1366 125.913 44.2655 25.1493 329.379 73.4651 19.9708 48.9064 229.928 144.015
internal_count=129940 89921 73815 68125 42564 25561 40019 16398 10465 2330 15096 12344 8507 42254 3674 5690 3031 3658 3267 6589 391 1337 664 5738 4937 4643 4618 3782 1964 6543 2251 8928 7852 4605 4054 8135 807 3416 2659 2515 2165 1531 1150 1618 1666 38580 38530 438 410 785 331 4582 801 2936 512 144 6323 1051 255 412 2117 1491
is_linear=0
shrinkage=0.05


Tree=2
num_leaves=63
num_cat=0
split_feature=229 222 133 229 141 17 68 1 175 205 205 136 166 8 31 99 205 6 26 237 28 115 163 151 231 15 67 233 233 135 216 179 231 227 119 110 14 155 237 48 120 4 12 52 62 31 182 181 55 66 190 231 9 202 178 193 91 228 234 16 38 89
split_gain=14998.9 13309.7 3385.97 3132.46 1827.77 1735.85 1787.17 1693.08 1679.62 1389.63 1331.88 1041.14 1123.36 1033.85 1032.5 1343.51 992.31 1545.71 1195.32 1119.08 948.161 924.525 915.336 1497.92 1551 1246.33 1274.45 992.01 1803.13 943.362 1319.86 1368.21 1198.61 1230.43 1223.98 1148.34 1064.77 1028.45 1004.89 904.084 918.186 879.23 894.201 873.701 859.513 840.538 828.348 834.279 825.173 790.558 779.142 758.721 745.504 741.389 1045.4 731.589 727.321 951.727 1028.46 945.41 941.206 856.881
threshold=-0.5369209051132201 0.75952059030532848 -0.6481228470802306 -0.20565042644739148 -0.42459350824356074 -0.6786687672138213 0.99913862347602855 0.16847268491983416 2.9314450025558476 -0.68858441710472096 -0.26872473955154413 1.6130813956260683 9.1250000000000018 -0.64445582032203663 -0.97304230928421009 -0.60016849637031544 0.14711910486221316 0.15586427599191668 0.34397801756858831 -0.0327190039679408 1.1415742039680483 -3.0314164161682124 -2.4940562248229976 2.0498609542846684 0.15805225819349292 -0.67233973741531361 1.8823891282081606 0.021515789441764358 0.018701825290918354 -0.53447258472442616 -0.51531067490577687 0.007305555511265994 -0.14992184937000272 0.085138890892267241 -0.055138887837529175 0.46956634521484381 1.985439717769623 0.02180555555969477 -0.8959035575389861 -0.79513031244277943 0.68989670276641857 2.2983089685440068 -2.2217698097228999 -0.39853554964065546 0.4034672230482102 -32.759998321533196 0.60396793484687816 -0.13184329122304914 -2.8299996852874751 0.40462049841880804 -1.3899999260902403 -0.76019924879074086 -0.98933362960815419 11.690000057220461 9.3049998283386248 -0.1086701564490795 0.82797226309776317 -0.18481504917144773 0.80501326918602001 0.88158428668975841 -0.918515384197235 -0.77969908714294422
decision_type=2 2 2 2 2 2 2 2 2 2 2 2 2 2 2 2 2 2 2 2 2 2 2 2 2 2 2 2 2 2 2 2 2 2 2 2 2 2 2 2 2 2 2 2 2 2 2 2 2 2 2 2 2 2 2 2 2 2 2 2 2 2
left_child=9 2 -2 5 14 8 7 22 11 -1 -6 12 -4 -10 15 44 17 53 21 -19 43 -18 23 24 25 26 -7 28 29 30 31 35 33 -31 -34 37 -32 38 -24 -16 -41 42 -36 -21 55 -17 47 -45 -23 -26 -40 -3 -11 -12 -55 -5 -53 59 61 -58 -60 -59
right_child=1 51 3 4 10 6 -8 -9 13 52 16 -13 -14 -15 39 45 18 19 -20 20 -22 48 27 -25 49 -27 -28 -29 -30 32 36 -33 34 -35 41 -37 -38 -39 50 40 -42 -43 -44 46 -46 -47 -48 -49 -50 -51 -52 56 -54 54 -56 -57 57 58 60 -61 -62 -63
leaf_value=0.2772025709721973 0.25179415976209635 0.30236452817247211 0.015325748055473288 0.088646608795964657 0.35792206716106245 -0.052648537456475575 0.40451987255828525 0.33729592322012597 0.47217286308752704 0.16061677255705645 -0.043321628551617607 0.38061000717061205 0.3805403533131464 -0.052622535850525953 0.31406804093001084 0.31323480074858862 -0.052897038092518459 -0.053004678773671945 0.040521368675860543 0.03301193495201802 -0.052937026483002553 -0.053144806599130512 0.86515715839929541 0.95662435282953739 0.46030840967886866 -0.013067558411995667 0.54855541179347855 -0.036853716276285545 1.2692918056149658 -0.023143193344199536 -0.0036320411414169948 -0.05236808741200083 0.59201659533401074 0.78378919843523676 0.9422054808514686 -0.052233970199154947 0.36159876121528889 -0.05226992959839169 -0.052254885399124457 0.22178287322263046 -0.0031643560675761219 0.4992450991226951 0.012249732416615521 0.3290424224175223 0.025955204553212409 0.024360034694111563 0.38680537567202289 -0.015962402841121711 0.3390338304645828 -0.052411546160549938 0.4549186177305668 0.25679428562179601 0.24872918746164352 -0.052544195057508694 1.1007104987074647 0.38203818672276441 0.093936151239169013 0.68509508639850791 0.068155507001806864 0.28008895899142544 0.28960408540240146 0.032350754817361306
leaf_weight=7480.6679818183184 443.8759920373559 571.93221364542842 155.97742153331637 27.716676756739616 48.148021019995213 14.681608930230139 34.623021770268679 47.318560101091862 60.436783034354448 250.18742655590177 286.42844745889306 30.474164824932814 24.341121900826693 11.109812349081038 243.88808808848262 28.697933617979288 21.618272244930267 64.887325521558523 112.75061146914959 46.082941427826881 36.524988610297441 14.982966911047695 13.015014961361883 5.2611492350697509 38.57588480040431 168.55585692822933 22.059832666069269 515.13036448508501 3.0123342275619498 594.22843059152365 190.46394185349345 31.560950271785259 14.403348505496977 4.7620011903345576 2.6688191816210738 16.879636991769075 22.290887013077736 10.978741135448216 8.8613425828516466 330.64311411976814 52.577335096895695 11.967727422714232 82.248299721628428 34.565424889326096 33.251093279570341 205.49481327086687 84.212015807628632 35.53889038041234 127.98256196826696 9.3381290994584543 52.067596547305584 1995.4239213839173 5929.1404299326241 4.5613224916160089 3.4523326829075813 91.03685799986124 274.21262767165899 5.3872715532779685 53.321910817176104 90.78765956312418 479.13394596800208 75.340315833687782
leaf_count=13338 2687 1326 3476 348 291 332 138 239 291 1576 6613 266 108 263 1362 90 466 1339 2015 822 769 321 92 35 174 3977 196 12714 3 14948 4491 782 121 49 19 426 186 278 222 3193 929 34 1970 286 510 4004 622 666 895 221 323 9266 23568 108 8 413 2309 18 450 439 1724 795
internal_value=0.230715 0.176907 0.120566 0.106471 0.152859 0.0656183 0.048554 0.0419995 0.181356 0.262708 0.101909 0.110308 0.0646259 0.390682 0.199206 0.134891 0.0877983 0.0514548 0.165935 0.13097 0.181356 0.251851 0.0343765 0.121583 0.104232 0.04445 0.308319 0.020061 0.0477354 0.0442521 0.111938 0.235261 0.0112688 -0.016728 0.161957 0.324432 0.0346342 0.3993 0.466346 0.238814 0.19092 0.0980228 0.0414769 0.224058 0.250648 0.0597587 0.28111 0.154145 0.297933 0.360383 0.381157 0.249625 0.245162 -0.0300507 0.444285 0.313562 0.239481 0.204163 0.242214 0.140239 0.267427 0.075911
internal_weight=21781.7 8121.75 4576.21 4132.33 1935.04 2197.29 1914.95 1880.33 282.339 13660 921.736 210.793 180.319 71.5466 1013.31 386.197 873.588 596.254 277.334 301.812 236.924 164.584 1833.01 258.472 253.211 205.297 36.7414 1574.54 1059.41 1056.4 346.118 133.363 710.279 598.99 111.288 101.802 212.755 84.9227 73.944 627.109 383.22 96.8848 84.9171 200.399 152.005 234.193 154.316 70.1043 142.966 47.914 60.9289 3545.54 6179.33 294.442 8.01366 118.754 2973.61 978.184 613.183 365 532.456 80.7276
internal_count=129940 91458 75131 72444 26070 46374 41970 41832 4404 38482 15221 3850 3584 554 10849 5365 14930 11233 3697 4504 3165 1682 41593 4935 4900 4505 528 36658 23944 23941 6800 2123 17141 14997 2144 1341 4677 915 637 5484 4122 2023 1989 2396 1271 4094 1574 952 1216 395 545 16327 25144 6729 116 761 15001 5735 2987 2748 2174 813
is_linear=0
shrinkage=0.05


Tree=3
num_leaves=63
num_cat=0
split_feature=229 234 157 157 15 55 46 69 234 2 235 187 3 231 24 5 96 147 193 9 194 229 231 205 70 229 169 80 129 138 97 168 94 62 8 221 202 108 107 2 8 83 147 108 193 181 150 17 65 58 201 131 137 214 183 183 59 234 70 139 234 233
split_gain=9224.49 8473.24 2463.98 2969.96 1613.15 1458.39 1458.69 1236.13 1416.38 1254.54 1044.79 1041.64 1061.54 993.518 935.147 831.099 817.733 770.768 750.529 746.535 923.679 736.728 832.433 762.658 850.225 714.292 709.041 708.389 698.305 942.741 844.101 691.043 685.111 745.481 732.847 682.265 669.396 711.412 665.935 648.173 614.369 599.031 581.573 656.987 566.181 564.958 556.815 553.852 952.2 545.669 539.137 538.208 536.99 703.461 626.048 617.523 533.665 523.439 525.342 509.776 832.185 525.505
threshold=-0.55238583683967579 0.77255433797836315 -0.59627264738082875 -0.18803528696298596 -0.59723687171936024 3.0516113042831425 -5.9199998378753653 0.40474165976047521 0.72704389691352855 0.46956634521484381 4.6822502613067636 -1.3990556597709654 -0.60287198424339283 -0.54711318016052235 -0.33463972806930536 -0.76304498314857472 0.60617125034332286 -0.29088594019412989 -0.31047086417675013 0.87985393404960643 0.31092843413352972 -0.7048935294151305 -0.030243001878261563 -0.65935328602790821 -6.6099998950958243 0.089532840996980681 -0.62450301647186268 0.019633645191788677 -0.19722913205623624 0.23618960380554202 -0.75155457854270924 0.63261085748672496 0.66000017523765575 -0.072446528822183595 0.098016906529665007 -0.69418457150459278 8.6849999427795428 1.8554447293281557 0.034694444388151176 0.85734790563583385 -0.59657368063926686 -0.071527779102325426 -0.69809710979461659 -0.96258148550987233 -0.77866971492767323 -0.21283241361379621 0.60480597615242015 -0.52139395475387562 -0.59241652488708485 -4.7299997806549063 -0.99873894453048695 0.0076944443862885245 -0.65704250335693348 -1.920000374317169 -0.17442886531352994 -0.1510386988520622 0.038138888776302345 0.39998826384544378 4.7549998760223398 2.7320834398269658 0.93601593375206005 1.5873814523220064
decision_type=2 2 2 2 2 2 2 2 2 2 2 2 2 2 2 2 2 2 2 2 2 2 2 2 2 2 2 2 2 2 2 2 2 2 2 2 2 2 2 2 2 2 2 2 2 2 2 2 2 2 2 2 2 2 2 2 2 2 2 2 2 2
left_child=13 2 46 4 11 10 -7 9 18 25 26 16 41 -1 -14 -8 27 40 -9 42 -21 -15 23 -23 -25 32 -6 36 30 -30 -26 -27 34 56 -5 -32 37 51 -12 52 -10 -13 43 -3 -43 -17 57 48 -11 -31 -24 -4 -37 -54 -55 -56 -34 -2 -59 60 -52 -61
right_child=1 19 3 7 5 6 15 8 17 47 38 12 14 21 -16 45 -18 -19 -20 20 -22 22 50 24 28 31 -28 -29 29 49 35 -33 33 -35 -36 39 -38 -39 -40 -41 -42 44 -44 -45 -46 -47 -48 -49 -50 -51 59 -53 53 54 55 -57 -58 58 -60 61 -62 -63
leaf_value=0.22556318262454519 0.067082984028469586 -0.029163637071853595 0.27221935277208936 0.16036920364758322 0.2791128142073136 0.35894308330474645 0.46543791505609527 0.30477188252664311 0.027481659581118392 0.0067433056052976156 -0.0052121743013319368 0.44489247192036585 0.36260785576464388 0.21103694582327101 -0.052498415089442002 0.0040448822099619771 -0.015606785273775865 -0.0049053426438316044 0.0039638876495876338 0.038115340347573426 0.24973648164230258 0.1918278414921869 -0.057792714664372795 -0.0040994448201889305 0.280562528122205 0.26319385821511648 0.0032709718513198871 -0.053027704591937598 -0.056306098345118363 0.053922224405972441 -0.05616169348492081 0.04357144657192083 0.22252945720847733 0.099657340348357742 0.030066684333614938 0.23415935767744359 0.69738764322130631 0.76630677715030759 0.29797534041398066 -0.035218933420031892 0.37011293844471638 0.39978010426308669 0.20787083113571372 0.16859875164760507 -0.011269017747857438 0.23866132428820858 -0.013152962738194454 0.038661847806021749 0.25367585335236981 0.23351670252092038 0.21963262135327533 0.037142323903246302 0.19280677742385374 -0.023892860355990059 0.32647292504031489 -0.0047751752735252541 0.4089024298231051 0.2292323419784229 0.041417160838630063 -0.058304807903942268 0.018037269072783545 0.1673793842048874
leaf_weight=5228.2939241789281 65.099759086966515 46.513016574084759 145.26687708497047 349.45273338630795 23.638060469180346 60.68978064507246 12.763015702366827 21.969457399100065 16.357969209551811 64.865989193320274 27.77357404306531 7.97349939495325 47.629088491201401 5811.722247466445 18.971823513507843 139.57764429226518 35.496698305010796 27.403973273932934 369.39455495029688 153.76315801590681 77.579392425715923 1170.961134430021 19.45579906180501 100.6733621545136 66.624488975852728 331.0582567024976 1612.3170325048268 18.30380168184638 34.88995411247015 47.495264388620853 67.982824768871069 40.16240943595767 151.82241281680763 94.422595344483852 156.11200103163719 104.3239728435874 8.8453203216195089 6.4810663498938075 52.059696085751057 63.72839418053627 65.353784780949354 8.7035361640155298 3786.1159477941692 432.46236788481474 223.55019260197878 31.438361838459969 31.637698840349913 270.42778190225363 98.055954560637474 386.24651323631406 2177.2273712791502 29.251177061349154 127.42711376398802 123.43871746212244 31.116233959794044 25.682567726820707 51.418267358094454 548.94550389051437 39.941419564187527 28.289396032691002 52.424215421080589 292.38712593540549
leaf_count=9228 794 421 857 3266 99 220 69 64 272 1014 568 56 339 9032 456 3025 739 497 7365 1293 244 3214 182 1003 164 1434 36512 391 393 346 824 483 923 1285 2356 375 67 49 140 748 252 4 13220 1872 4866 234 472 4103 510 1180 5144 513 701 1439 78 261 173 2141 361 256 396 957
internal_value=0.184244 0.146064 0.103262 0.0901326 0.053393 0.0321547 0.146408 0.133886 0.065264 0.155246 0.0158757 0.129023 0.0677329 0.20769 0.244361 0.0762225 0.206208 0.224563 0.0208499 0.196559 0.109081 0.198983 0.184746 0.163242 0.134867 0.182075 0.00725664 0.244035 0.147833 0.193738 0.112586 0.239433 0.155566 0.215747 0.120133 0.0920019 0.272676 0.251921 0.192498 0.113175 0.301521 0.0187641 0.201304 0.149394 0.00413474 0.0471751 0.19171 0.0825363 0.155362 0.213851 0.204415 0.232818 0.13613 0.10289 0.0393185 0.176693 0.26968 0.201621 0.216494 0.206415 0.214893 0.14747
internal_weight=25761.5 9801.07 5304.63 4619.01 2510.73 1960.26 244.469 2108.28 500.48 1607.8 1715.79 550.473 306.828 15960.4 66.6009 183.779 243.645 109.116 391.364 4496.43 231.343 10732.1 4920.37 2350.59 1179.63 1174.45 1635.96 208.148 1078.96 468.632 610.324 371.221 803.228 297.663 505.565 543.7 189.844 180.999 79.8333 475.717 81.7118 240.227 4265.09 478.975 232.254 171.016 685.624 433.35 162.922 433.742 2569.78 174.518 411.989 307.665 180.238 56.7988 203.241 653.987 588.887 2550.33 2229.65 320.677
internal_count=129940 94019 76969 73201 49204 40867 3548 23997 8450 15547 37319 8337 5721 35921 795 3328 2616 1021 7429 17050 1537 26693 17661 10726 7512 9920 36611 1877 6509 1919 4590 1917 8003 2381 5622 4426 1486 1419 708 3602 524 4926 15513 2293 4870 3259 3768 5627 1524 1526 6935 1370 2854 2479 1778 339 1096 3296 2502 6753 5540 1213
is_linear=0
shrinkage=0.05


Tree=4
num_leaves=63
num_cat=0
split_feature=229 222 73 109 17 231 114 62 147 210 73 120 108 4 144 85 55 146 10 96 217 228 187 48 42 14 58 127 123 88 2 138 187 236 210 24 12 48 185 179 14 44 128 238 16 34 111 120 238 133 208 154 134 124 8 231 148 186 50 65 98 160
split_gain=6359.42 5735.61 1658.02 1624.56 1261.61 864.26 1061.9 1007.88 978.895 832.989 817.478 814.726 803.129 711.652 719.712 754.253 687.71 717.018 786.112 679.345 670.977 707.075 619.632 617.665 606.99 606.394 664.047 675.107 595.664 586.434 1118.94 548.139 528.513 525.68 515.66 566.923 501.291 495.961 496.805 483.533 480.505 580.371 471.306 632.832 470.775 468.845 628.827 505.643 673.763 473.822 779.582 467.709 607.11 528.277 475.826 463.358 495.933 593.658 461.7 459.738 459.195 457.267
threshold=-0.55238583683967579 0.75952059030532848 -0.58305174112319935 -0.20089132338762281 -0.65511405467987049 -0.14992184937000272 0.52951243519783031 -0.46243137121200556 -0.57986018061637867 0.70218047499656688 -0.36364699900150294 -0.0019407529325690118 -1.0991863012313841 -0.35446944832801813 0.53566545248031627 -0.43410679697990412 3.1785272359848027 1.1768270134925845 -5.9650001525878897 -0.0019407529325690118 -0.74265962839126576 -0.39192564785480494 4.1601388454437265 0.86836445331573497 0.0079753361642360705 -0.4448049515485763 -2.7199996709823604 -1.6892225146293638 -0.31405511498451227 1.8290050625801089 0.9080239236354829 0.47071219980716711 0.35677829384803778 -0.71782085299491871 0.70045977830886852 1.3310583233833315 2.3335617780685429 0.35719782114028936 -0.75580495595931996 -0.029861111193895336 0.26906569302082067 -0.32762940227985377 -0.97768935561180104 -1.8900000452995298 -1.1168127655982969 2.5600003004074101 -0.59379175305366505 -0.1429522559046745 -0.70000025629997242 -0.1289776340126991 -0.34785954654216761 3.6000000238418584 1.2032667398452761 1.0159859061241152 -0.98203879594802845 -0.60050871968269337 -0.14956215769052503 0.76048237085342418 -0.97580128908157338 -0.73446014523506153 1.0137825608253481 0.72294640541076671
decision_type=2 2 2 2 2 2 2 2 2 2 2 2 2 2 2 2 2 2 2 2 2 2 2 2 2 2 2 2 2 2 2 2 2 2 2 2 2 2 2 2 2 2 2 2 2 2 2 2 2 2 2 2 2 2 2 2 2 2 2 2 2 2
left_child=20 2 12 4 19 8 7 10 13 59 32 24 -2 14 15 -6 17 18 -13 37 -1 -22 31 25 -5 -20 27 -27 -21 -10 -31 61 -7 -30 35 45 -23 38 -4 -32 -28 -42 43 -15 -25 46 49 48 -48 -26 -51 52 53 54 -14 -3 -57 -58 -50 -9 -47 -17
right_child=1 55 3 11 5 6 -8 9 29 -11 -12 16 51 42 -16 22 -18 -19 23 28 21 36 -24 44 34 26 40 -29 33 30 39 -33 -34 -35 -36 -37 -38 -39 -40 -41 41 -43 -44 -45 -46 60 47 -49 58 50 -52 -53 -54 -55 -56 56 57 -59 -60 -61 -62 -63
leaf_value=0.186552438690189 0.0047744174171295405 0.18572949938096528 -0.052895391923047444 -0.027914785011699091 -0.020656581673318134 0.34299961490293973 -0.052792166848791316 0.34314995508832508 -0.0192445582344965 0.2498155384611144 0.019028310389324427 -0.025656581601435871 -0.016638494434755815 0.3021895634522595 -0.052655862301699802 0.2569417724140603 0.18186883599790238 -0.043584313214526833 0.01864877746452244 -0.039295797956867322 0.14862971812951034 0.17513894884726278 0.5467225395435682 0.44688046364633949 0.29431040808136028 0.1790931732660187 0.25346131340893652 -0.036620150604976899 0.21145481389462839 -0.052435438950293824 0.58688111887141758 -0.05270901924374094 0.092282074280267093 -0.052839816853117699 0.01777695586031916 0.020107537226693888 0.017340716149802562 0.049051540783567077 0.22862827086919391 0.19422644922164772 -0.053854654568610764 0.1841805955704931 -0.016504304190955887 -0.05287971678887024 -0.038981959432490929 0.25609501797428941 0.14504822704535497 0.20899534026834166 0.14615980046968785 0.20538563751455993 -0.02559878485973105 0.21967003801043838 -0.055564738566214002 -0.0035493762840115486 0.17848342093330311 0.15960683979797774 0.14145897515179215 0.012510891516477139 -0.053490218337005027 -0.0064076183895487434 -0.053660056851908181 -0.053410654180467337
leaf_weight=5798.3849012888968 87.677054852247238 1529.1069927662611 16.946385700255632 52.049738977104425 40.925324477255344 96.322638340294361 99.252142190933228 9.9630380235612375 1035.2970990352333 46.969362169504166 36.551046200096607 142.36289316043258 33.271922618150711 29.701560385525227 42.98455524072051 122.31595538556576 138.55443612113595 136.05173510685563 108.37898118421435 93.124109942466021 3994.8934973180294 8340.0956131368876 13.258023768663405 5.2735633850097647 94.370712019503117 67.598630603402853 157.38099645078182 78.265163123607635 68.536168701946735 39.846086576581001 12.422260638326405 20.144929856061935 26.887044824659824 25.933159679174423 72.194336611777544 71.253385219722986 50.635387640446424 63.323936924338341 208.21844137832522 21.257568664848804 33.951731197535992 104.18977030366659 212.57809722423553 21.729369442909956 91.339029803872108 181.18819964677095 170.14969412796199 94.096822272986174 39.384880661964417 194.6577263250947 44.967321328818798 261.0091935954988 37.297560293227434 49.780288830399513 512.7951997499913 3183.550585731864 289.6236565746367 129.01996180787683 109.37417582049966 168.28579320758581 12.810600236058233 13.143983598798512
leaf_count=6124 1191 3075 369 1048 833 480 2258 44 24243 153 713 2813 406 247 1005 769 946 2732 1602 1936 11234 18273 78 2 390 576 658 1494 326 971 50 463 346 593 946 1127 290 950 1397 224 628 788 4309 474 1750 791 1474 510 417 621 618 865 553 582 2348 11808 1192 880 2129 3326 238 264
internal_value=0.154414 0.124214 0.090001 0.0778584 0.0509895 0.0343997 0.0930336 0.130629 0.016934 0.0624913 0.226685 0.109443 0.149188 0.0737679 0.133732 0.171922 0.0779852 0.0624211 0.0807062 0.12451 0.172515 0.165943 0.218596 0.104132 0.138876 0.124622 0.150643 0.0633493 0.0504421 -0.00955428 0.126892 0.190638 0.288288 0.138902 0.146881 0.156089 0.174187 0.172674 0.20744 0.339051 0.193729 0.125677 0.0163555 0.152174 -0.0124613 0.166386 0.1484 0.107146 0.077094 0.199413 0.16204 0.163348 0.14013 0.15238 0.166595 0.162668 0.152879 0.101719 -0.000631641 0.0131305 0.235641 0.226828
internal_weight=29082.9 10898.9 5767.59 4785.76 2585.92 2109.84 484.231 384.979 1625.6 225.218 159.761 2199.84 981.831 516.782 252.773 209.788 1063.35 924.792 788.741 476.082 18184 12385.6 168.863 646.378 1136.5 549.765 441.386 145.864 187.593 1108.82 73.5259 155.605 123.21 94.4693 1084.45 1012.25 8390.73 288.489 225.165 33.6798 295.522 138.142 264.009 51.4309 96.6126 941 747.001 413.006 318.909 333.996 239.625 894.154 633.145 595.847 546.067 5131.3 3602.19 418.644 148.759 178.249 193.999 135.46
internal_count=129940 94019 77064 71119 46821 41250 7320 5062 33930 3523 1539 24298 5945 8442 3412 2407 13989 13043 10311 5571 35921 29797 1574 7498 10309 5746 4144 2070 2855 25488 1245 1496 826 919 9261 8315 18563 2716 1766 274 2074 1416 5030 721 1752 7188 6159 4530 4020 1629 1239 4754 3889 3336 2754 16955 13880 2072 2546 3370 1029 1033
is_linear=0
shrinkage=0.05


Tree=5
num_leaves=63
num_cat=0
split_feature=229 234 49 1 101 62 102 231 219 230 236 163 3 120 4 12 134 46 37 238 134 59 232 114 216 216 48 231 120 228 236 75 29 197 206 111 147 178 229 202 46 192 143 48 98 211 178 199 152 85 171 49 99 26 223 47 3 111 16 150 171 139
split_gain=4967.52 4984.46 1664.43 1214.36 1007.62 1078.65 1002.45 1086.61 964.65 687.906 653.858 627.724 622.224 586.769 641.385 579.859 668.586 625.231 509.751 502.332 569.668 544.077 495.315 574.257 490.616 478.39 472.329 467.943 452.691 449.092 447.162 628.482 462.824 577.143 450.208 439.093 432.895 440.402 431.271 432.409 429.058 427.465 675.444 424.562 420.911 493.808 440.827 428.698 413.765 408.754 408.216 397.752 396.314 709.527 567.002 434.874 402.104 392.758 419.938 512.322 391.974 391.666
threshold=-0.60820260643959034 0.78151008486747753 -0.58229103684425343 0.017924422398209575 -0.68733006715774525 -0.46243137121200556 0.50245535373687755 -0.14992184937000272 -0.57713523507118214 -1.0991863012313841 -0.037079656496644013 -2.5910274982452388 -0.14610710740089414 -0.27294722199439997 2.364408135414124 -1.0837631821632383 -0.53734374046325672 -4.569999933242797 -0.4899283498525619 0.92000010609626781 0.54888534545898449 -0.03419444523751735 -1.1146094202995298 0.56523102521896373 -0.05702336132526397 2.2961056232452397 -1.1146094202995298 -0.54711318016052235 -0.27955712378025049 2.4150842428207402 -0.78666386008262623 0.078893814235925688 -0.3179811537265777 -0.65038275718688954 -0.30159014463424677 -0.77193444967269886 -0.69809710979461659 2.5149998664855961 -0.58709779381752003 1.1599999070167544 1.6500000357627871 -0.4448049515485763 -0.038527777418494218 1.011579215526581 0.52905556559562694 -0.24436109513044355 -2.879999995231628 2.7436401844024663 -0.99993813037872303 0.26154761016368872 -0.7476341426372527 -0.31003049015998835 -0.31176340579986567 0.33075819909572607 1.0000000180025095e-35 -0.033416667953133576 -0.29182237386703486 -0.67310920357704151 -0.84800961613655079 0.71107196807861339 -0.56110912561416615 -1.0990834832191465
decision_type=2 2 2 2 2 2 2 2 2 2 2 2 2 2 2 2 2 2 2 2 2 2 2 2 2 2 2 2 2 2 2 2 2 2 2 2 2 2 2 2 2 2 2 2 2 2 2 2 2 2 2 2 2 2 2 2 2 2 2 2 2 2
left_child=27 2 30 4 10 6 7 8 11 22 44 -6 51 15 38 28 -17 -18 50 20 40 -22 23 24 -7 -10 -21 -1 -11 -24 -2 32 33 -32 -35 -20 37 61 39 -15 43 42 -38 -19 45 -4 -47 -46 -25 -43 -3 -9 55 54 56 -5 -54 -44 59 -59 -36 -37
right_child=1 18 3 52 5 9 -8 12 25 13 -12 -13 -14 14 -16 16 17 19 35 26 21 -23 29 48 -26 -27 -28 -29 -30 -31 31 -33 -34 34 60 36 41 -39 -40 -41 -42 49 57 -45 47 46 -48 -49 -50 -51 -52 -53 53 -55 -56 -57 -58 58 -60 -61 -62 -63
leaf_value=0.16260102341283372 0.14900679261628341 0.029801649720870765 0.0064791993016121117 -0.019880922960279837 -0.053859395523891233 0.18322403630746817 -0.036857685648432802 0.24287069634988165 0.02074955889989653 -0.053156387912168569 0.0023944498737292741 0.15000191272275987 0.063920732575353661 -0.057908719695738131 0.18010463800798937 -0.020344880897848527 -0.035817801052818149 0.25156766750128701 0.19689114097546789 0.17488345529501848 0.19655082321498718 -0.053215127496418935 0.0062794155046436099 0.37379567576175265 0.058411794968238354 0.2665791578228705 -0.036913985004634824 0.14531741633183751 0.39308214796525043 0.49180875457440287 -0.056474594982375927 0.16986874358626525 -0.010879378321879759 0.0074638047718994949 -0.05598247676224103 0.15294239744040825 -0.041654986395467178 -0.060515259059397065 -0.022326923373747934 0.19416389975368392 0.059294368469163097 0.14661523564797488 -0.029498930342939864 -0.053396865636172554 0.19211750093749014 -0.054422090529437965 0.15258081332579793 -0.054909337968536531 -0.054935884416501782 -0.022284527829941284 0.16492476201098261 0.097323658219874307 -0.056339312946350334 -0.039527753967598694 -0.025815651072395841 0.15778935353284529 0.19701824549465718 0.14061306505333945 0.1418295453895306 -0.020622732895152256 0.18226469071033366 0.05129736156797781
leaf_weight=5881.5752717331052 983.84959891997278 57.32639667391777 108.88778391107917 36.653252199292183 42.035575397312641 211.88816010951996 153.20791820809245 210.46227968111634 562.18389578908682 153.96276714652777 115.90038273110986 371.30162686109543 98.979156833142042 26.664297830313444 44.311119243502617 158.63029126636684 75.32420451939106 167.05677763745189 250.96129241585732 39.231547139585018 36.509456045925617 54.132423613220453 218.47884771227837 6.150988280773162 125.2916355561465 20.512457560747862 80.005159091204405 11719.584496751428 5.9012300148606291 4.8687380217015734 51.424473106861115 201.27773129940033 142.65000725910068 61.831639066338539 18.96757809445262 179.6148057281971 71.222531899809837 48.612383380532265 1024.3153496924788 47.003692734986544 45.821252390742302 2750.3601209372282 43.257423922419548 12.249349165707825 273.43516839668155 28.600633198395371 255.26921535655856 18.768724836409092 66.136014770716429 36.294206093996763 2238.0124780386686 60.414917033165693 17.49933885037899 91.232110422104597 47.267713125795126 570.59654886089265 149.05090941116214 98.196160987019539 741.81527942791581 98.87595983594656 192.21992680057883 200.6386626586318
leaf_count=6889 4096 268 1768 510 759 985 2786 711 10028 3347 1925 3456 1216 259 268 3050 1509 936 428 224 267 1143 4010 3 1458 112 1595 19808 14 47 646 641 1554 630 252 553 521 374 21138 164 627 7323 312 248 1449 505 1648 292 1031 276 4115 705 221 1690 838 2814 548 294 2114 648 858 1036
internal_value=0.133307 0.111422 0.0832639 0.0707216 0.0609043 0.0509357 0.0844186 0.0980218 0.0708462 0.0314022 0.112225 0.12927 0.171206 0.0168409 -0.00639664 0.048867 0.0693115 0.0971801 0.142361 0.12021 0.153227 0.0473876 0.0767585 0.109429 0.136845 0.0294034 0.0327721 0.151093 -0.0366839 0.0168634 0.127567 0.0960083 0.0641808 0.0971829 0.126125 0.132616 0.128838 0.0811936 -0.0139232 0.102926 0.19584 0.134159 0.107025 0.230734 0.130809 0.0970018 0.131725 0.176251 -0.0184546 0.144415 0.16155 0.210409 0.123708 0.0772116 0.127022 0.147065 0.170398 0.117807 0.124594 0.0597171 0.160867 0.09931
internal_weight=31904.8 14303.6 7488.41 5836.19 4923.89 4123.03 1519.1 1365.89 996.034 2603.93 800.862 413.337 369.856 1971.12 1142.29 828.824 668.96 510.33 6815.19 435.006 315.769 90.6419 632.814 409.467 337.18 582.696 119.237 17601.2 159.864 223.348 1652.22 668.371 467.094 324.444 273.019 4519.85 4268.89 428.866 1097.98 73.668 225.127 3840.02 1053.37 179.306 684.962 392.758 283.87 292.204 72.287 2786.65 2295.34 270.877 912.3 305.05 213.818 607.25 166.55 982.145 938.887 197.072 211.188 380.253
internal_count=129940 103243 84981 76304 69683 62096 19773 16987 14355 42323 7587 4215 2632 34789 21829 12960 9599 6549 18262 5040 3221 1410 7534 3477 2443 10140 1819 26697 3361 4057 8677 4581 3940 2386 1740 13879 13451 1963 21561 423 1811 11488 3889 1184 5662 3921 2153 1741 1034 7599 4383 1416 6621 3297 1607 3324 769 3368 3056 942 1110 1589
is_linear=0
shrinkage=0.05


Tree=6
num_leaves=63
num_cat=0
split_feature=229 234 145 90 6 26 146 5 19 209 16 84 58 4 87 170 25 113 154 168 231 183 73 82 110 162 62 101 118 130 149 101 70 144 216 198 15 52 26 231 170 172 170 47 24 82 9 36 205 151 162 63 172 100 143 115 55 107 169 230 15 107
split_gain=3976.51 3746.18 1309.19 987.867 1004.84 871.94 740.113 705.287 688.497 811.423 683.103 678.407 717.337 608.746 567.058 532.039 873.083 528.559 650.181 520.868 511.845 503.503 502.513 465.082 460.558 444.22 439.865 511.681 593.189 585.262 562.861 497.07 452.583 439.865 474.942 439.424 625.834 543.922 435.093 421.819 414.765 404.236 491.897 399.833 398.706 391.664 382.416 697.081 377.865 374.177 373.772 372.746 397.007 510.854 403.272 385.699 371.677 369.501 359.164 358.676 358.253 348.51
threshold=-0.62692031264305104 0.78151008486747753 -0.65355601906776417 0.45529651641845709 0.14930161833763125 0.81989172101020824 -0.18040844053030011 -0.75989556312561024 0.75216573476791393 -0.35545945167541498 0.8000619411468507 0.6722702980041505 -2.8400000333786006 2.2983089685440068 -0.66426745057106007 -1.074950039386749 -0.32102805376052851 -0.51470005512237538 -3.179999470710754 -1.1146094202995298 -0.57371398806571949 0.14141009002923968 -0.35365821421146387 4.0950002670288095 0.86836445331573497 0.35057663917541509 -1.1013895869255064 -0.38918817043304438 -1.0000000180025095e-35 4.4949998855590829 -0.29294474422931666 -0.40256804227828974 -2.9800001382827754 1.7651092410087588 0.83311164379119884 0.30365061759948736 -0.37942352890968317 0.39245070517063146 -1.081559896469116 -0.57371398806571949 -0.19803486019372937 -1.0176640748977659 0.42329694330692297 -0.014916666783392428 0.49380272626876837 -1.4799999594688413 0.87985393404960643 -0.54395365715026844 -0.7613033354282378 2.2332491874694829 0.63988912105560314 -0.58166942000389088 -1.0617302060127256 1.1834369301795962 0.0022500000195577745 3.2774721384048466 -13.391777992248533 -0.033472223207354539 -0.2649004459381103 1.3707178235054018 -0.44796918332576746 -0.04947222210466861
decision_type=2 2 2 2 2 2 2 2 2 2 2 2 2 2 2 2 2 2 2 2 2 2 2 2 2 2 2 2 2 2 2 2 2 2 2 2 2 2 2 2 2 2 2 2 2 2 2 2 2 2 2 2 2 2 2 2 2 2 2 2 2 2
left_child=48 2 50 4 5 8 26 -5 9 11 15 12 56 -12 19 22 -17 20 -19 -9 -10 -11 44 -24 49 -14 -6 29 -29 31 -30 51 -32 -16 -35 36 37 61 60 -3 -39 46 43 -43 -8 -23 -41 58 -1 -18 -2 -28 54 55 -53 -54 -4 -49 -48 -20 -13 -7
right_child=1 39 3 7 6 35 10 14 17 21 13 38 25 -15 33 16 24 18 59 -21 -22 45 23 -25 -26 -27 27 28 30 -31 32 -33 -34 34 -36 -37 -38 40 -40 41 -42 42 -44 -45 -46 -47 47 57 -50 -51 -52 52 53 -55 -56 -57 -58 -59 -60 -61 -62 -63
leaf_value=0.14677781348464719 0.12789783883588976 0.14184553580943893 0.23418681287012164 0.14394220425764204 0.17142948161810354 0.32816977423672022 0.21934057252551087 0.17095411246804082 0.11954785396820283 -0.014166708702527304 -0.018817495787416736 0.1872880413073198 0.13977770775813991 0.26338228315357765 -0.021652826142561685 0.015375403950214897 0.1391245552772164 0.019337246802780945 0.15495595279945021 0.017750090645968962 -0.033049425385113511 0.18767233291023 -0.054008362483226505 0.16141393895903511 -0.013404428171220671 0.0034009856622104363 0.18538464196164717 -0.018445492462808424 -0.054055979611102679 -0.054868849238140893 -0.017000262960367999 0.34562048573835397 0.18183590169352404 0.0034615524923998706 0.3622601573188487 -0.021977403228116775 -0.053181010500857454 -0.054048789425434299 -0.053974822071901775 0.12587011522013733 0.25315261580347531 -0.061996202329512244 0.12353695348341903 0.06758089832570395 -0.05530161194949345 -0.054063638549183037 0.20177282877186797 0.1190539987285399 0.12968034138278881 -0.053840754621542912 -0.025942538715659987 0.034538367309206112 -0.031983154047807258 0.17644557584208093 0.21799679513239206 0.2058443767371895 -0.0050323068977443999 -0.039508916012786617 -0.0076670387506440479 -0.015614386701603348 -0.054617681303402034 -0.053883246950490307
leaf_weight=4217.8295747190714 1246.2192717827857 2440.1385565251112 17.809796918183565 109.19692835211754 358.65449831075966 6.923762969672679 170.19248775020242 90.875072378665209 100.65121552348137 518.57790045067668 256.34699764102697 43.027988966554403 544.53191244415939 20.649471826851368 676.24638820812106 404.50045234337449 461.87884219177067 122.33450141362846 570.9968826957047 142.43474855460227 121.03084906749427 58.924111172556877 47.741560373455286 52.724075440317392 64.626238059252501 67.065700624138117 229.71523223444819 144.87758769281209 42.853192821145058 38.42414765805006 34.880191620439291 29.762011047452688 159.41737155988812 22.077714383602142 15.840728934854267 453.91606939770281 72.015996839851141 12.963431127369402 139.37197498045862 4347.363894816488 72.082408899441361 76.147589333355427 344.39411213994026 272.86212199553847 14.327158536761997 23.414275523275137 99.587764110416174 51.234870232641697 13820.00141986832 26.567278537899256 40.774460002779961 41.963289823383093 116.22824077680707 61.573541730642319 104.67321372404695 19.97785597294569 183.89860191196203 129.87869779020548 25.765858586877584 32.578633047640324 23.754819553345442 43.290771538391709
leaf_count=3342 3805 3559 23 509 1616 44 533 305 477 9108 4202 232 4119 96 11145 5761 2772 1754 3498 1814 2013 319 869 156 1051 1059 752 2367 820 665 556 170 876 288 63 8650 1587 256 2704 11501 278 539 780 1068 236 444 88 172 20792 484 386 473 1964 328 404 99 3054 961 188 519 428 819
internal_value=0.117513 0.0995839 0.076581 0.068266 0.0759605 0.0567706 0.0973097 0.0236157 0.0699543 0.0501559 0.0732228 0.0773208 0.097856 0.00221987 0.00974795 0.0890511 0.0712023 0.103809 0.124446 0.0774236 0.0362349 0.00407049 0.149024 0.0590446 0.112032 0.124823 0.123775 0.10709 0.0612678 0.134343 0.109965 0.146382 0.146141 -0.012361 0.153353 0.00556712 0.0658871 0.129282 -0.00369326 0.124619 0.206326 0.116758 0.0811429 0.0393095 0.198016 0.118931 0.122065 0.068082 0.133678 0.128629 0.123024 0.136054 0.103152 0.0569288 0.165496 0.0028999 0.0160895 0.00534664 0.158723 0.145749 0.101242 -0.00120438
internal_weight=34300.6 16262.8 8475.38 7188.39 6131.72 3229.16 2902.55 1056.67 2567.97 1620.38 1519.55 1019.46 813.306 276.996 947.475 1242.56 957.573 947.592 725.91 233.31 221.682 600.916 284.985 100.466 553.072 611.598 1383 1024.35 382.028 642.318 237.151 603.893 194.298 714.165 37.9184 661.192 207.276 135.26 206.155 7787.37 85.0458 5347.23 693.404 349.01 184.52 82.3384 4653.83 306.467 18037.8 488.446 1286.99 574.131 344.416 197.78 146.637 136.206 201.708 181.114 125.354 603.576 66.7828 50.2145
internal_count=129940 105806 86950 82759 68635 41385 27250 14124 29751 21490 16160 11619 8255 4298 13615 11862 10068 8261 5771 2119 2490 9871 1794 1025 4307 5178 11090 9474 4619 4855 2252 4190 1432 11496 351 11634 2984 1397 3364 18856 534 15297 2387 1607 769 763 12910 1409 24134 3256 4191 4020 3268 2391 877 2063 3077 1133 276 4017 660 863
is_linear=0
shrinkage=0.05


Tree=7
num_leaves=63
num_cat=0
split_feature=229 234 13 1 145 101 62 138 218 224 15 117 143 47 144 193 97 94 199 163 134 96 83 219 100 24 227 120 49 229 131 109 238 235 67 65 235 19 110 67 223 146 130 204 194 143 149 115 30 86 229 158 3 210 60 120 16 60 5 103 36 70
split_gain=3325.51 2990.88 1023.36 858.355 695.334 677.767 760.501 692.832 584.601 547.976 544.216 478.108 477.003 474.918 467.539 450.927 455.328 559.587 444.891 611.02 435.079 435.078 421.049 420.632 416.707 416.537 402.104 384.89 367.875 367.404 360.591 357.663 378.497 468.444 367.913 356.523 356.377 353.444 346.874 423.356 487.862 410.259 347.944 346.29 343.277 338.755 332.695 471.245 394.914 360.026 347.615 603.932 400.752 392.009 355.676 345.961 339.668 334.438 362.267 330.404 333.169 357.194
threshold=-0.60820260643959034 0.77255433797836315 -0.73025348782539357 0.017924422398209575 -0.65355601906776417 -0.68733006715774525 -0.46243137121200556 0.56298279762268078 0.23160949349403384 0.11103504523634912 -0.59399446845054615 -0.41667649149894709 0.010694444179534914 -0.035861110314726823 0.90141397714614879 -0.53642171621322621 -0.13276614993810651 -5.2049999237060538 -1.9087490439414976 2.8134161233901982 -0.78411379456520069 0.6722702980041505 -0.035527778789401047 -0.30049400031566614 0.26465909183025366 0.59074807167053234 -0.040805554017424576 -0.017363921739161011 -0.25336632132530207 -0.7081971764564513 0.026805555447936062 -0.55736750364303578 3.7499998807907109 -1.8659447431564329 -6.0422492027282706 -0.48885841667652125 0.530055731534958 -7.1293334960937491 -0.47785447537899012 -2.3032222986221309 -1.3310838341712949 -0.1407489478588104 -0.059999790042638772 -0.10990266874432562 -0.18701834976673123 -0.035361111164093011 -0.73874071240425099 -2.2562503814697261 0.61800000071525585 1.3398715853691103 -0.33436897397041315 -1.0925764441490171 -0.163982979953289 0.8241126835346223 -0.41175536811351771 1.1944534182548525 1.1614039540290835 0.048735251650214202 -0.45891503989696497 3.466778159141541 1.2208931446075442 -2.9800001382827754
decision_type=2 2 2 2 2 2 2 2 2 2 2 2 2 2 2 2 2 2 2 2 2 2 2 2 2 2 2 2 2 2 2 2 2 2 2 2 2 2 2 2 2 2 2 2 2 2 2 2 2 2 2 2 2 2 2 2 2 2 2 2 2 2
left_child=29 2 26 4 -4 9 7 8 12 18 14 24 13 -7 25 20 -17 -18 27 23 -12 35 -15 -20 -10 30 -2 -6 -19 -1 45 -3 33 43 -35 -22 -14 -5 -24 41 42 -40 -41 -33 -26 -8 -36 55 49 50 53 52 -52 -49 -53 -48 -55 58 -51 60 -39 -62
right_child=1 31 3 37 5 6 10 -9 11 -11 15 -13 36 22 -16 16 17 28 19 -21 21 -23 38 -25 44 -27 -28 -29 -30 -31 -32 32 -34 34 46 -37 -38 59 39 40 -42 -43 -44 -45 -46 -47 47 48 -50 57 51 54 -54 56 -56 -57 -58 -59 -60 -61 61 -63
leaf_value=0.12421479111990474 -0.058846035713919581 0.12790130570175859 0.098767971335670723 -0.054465092770289582 0.18231153069959277 -0.054310265127035184 -0.053962397575489922 -0.036427018865292579 0.00676024017512784 -0.026661116125552282 -0.055452890009299018 -0.024398044908126883 0.084262183984586639 -0.0058526887695735481 -0.054003348330822598 -0.014173273781176155 0.1079629642841427 0.13767088391994711 -0.00023665322738850795 0.16210648658572446 -0.0032362122211354555 -0.03455604512720669 0.17984114786484476 0.10327975467038464 -5.646965622115732e-05 -0.023279996658752931 0.13197887067196909 0.025435380069613069 -0.026107826847188279 0.110408326607855 -0.028693597559038192 -0.018617172517753227 0.13178673455150319 -0.020662288893511207 0.13572361706901956 0.14850413088463529 -0.029229150287475043 0.12586726932301337 0.23968020919556221 -0.054176241073011139 -0.0011152005455120609 0.0018286553268470963 0.18454565955184382 0.095658565193345022 0.15325689313836768 0.12310133602636442 0.03575776932570103 0.11937651702804414 0.15852119297704564 0.1311611652035157 0.11858841363006384 0.079717675670404844 -0.033985849578017244 0.079825290116334963 -0.014267261683267514 0.1158177547672848 -0.063790302844131994 0.1592771120457189 -0.036468933113913658 0.0085806630519648531 0.12178048222885179 -0.054757459696941395
leaf_weight=12158.720669463277 28.784975945949554 2002.1017247214913 755.69791941717267 34.931196706369519 215.11639676243067 37.186442323029041 28.923836879432201 152.10108321905136 148.59461488947272 94.920351438224316 64.527111995965242 214.63349825143814 202.01817889884114 53.293943822383881 74.731359075754881 1308.3903992716223 195.1438476908952 40.060935832560062 235.1585572771728 146.73415232822299 48.584881193935871 58.413667563349009 297.39359677955508 168.41870845295489 47.80726733058691 84.897558875381947 674.1961002741009 47.783683320507407 237.87493383325636 7981.8329855203629 51.316492082551122 144.84877697378397 998.61933308839798 60.704510062932968 676.84041815251112 190.45874417200685 105.1869982406497 857.97237469255924 83.629771742969751 18.345624335110188 121.72278846427798 23.147500082850456 90.866414811462164 122.23942288756371 154.52157131955028 408.79149336367846 464.99106625840068 1298.6642340607941 315.75259347259998 87.644175417721272 459.79878579452634 167.49690818414092 47.482602640986443 400.49321469664574 252.28946816921234 190.10659011825919 45.888336271047592 412.80541850626469 50.976437319070101 78.577945010736585 58.366783332079649 56.28260488435626
leaf_count=11811 307 3319 2806 641 659 661 519 2985 2269 1706 966 3614 1915 795 1377 27166 1634 226 3149 583 528 735 1535 1149 714 1395 2259 583 4373 14886 862 798 1631 333 942 998 1760 3768 256 331 1886 383 319 307 898 2637 2035 2766 575 182 1353 663 307 1187 1636 453 293 617 333 858 402 906
internal_value=0.105179 0.0883107 0.0665511 0.0609972 0.0538212 0.0475896 0.0397063 0.0655445 0.0752482 0.0870227 0.0235077 0.034385 0.0976249 0.119735 0.0636348 0.0113643 0.00102666 0.0430649 0.100292 0.0747307 0.06224 0.087771 0.129137 0.0429623 0.0703382 0.0789524 0.124165 0.153798 -0.0025012 0.118743 0.0967003 0.109528 0.103593 0.0981779 0.101671 0.117663 0.0454028 0.102003 0.140464 0.105789 0.067722 0.188118 0.144445 0.0336839 0.117031 0.111401 0.103195 0.0979459 0.105156 0.099929 0.0923383 0.067596 0.104307 0.105483 0.0232332 0.0589908 0.0650615 0.136713 0.0695168 0.107202 0.11517 0.0351161
internal_weight=36335.8 16195.3 7995.51 7292.53 6206.39 5450.7 4542.56 1750.45 1598.35 908.132 2792.12 565.557 1032.79 725.586 648.661 2143.45 1781.47 473.08 813.211 550.311 361.984 297.457 688.4 403.577 350.923 573.929 702.981 262.9 277.936 20140.6 489.032 8199.74 6197.64 5199.02 4931.93 239.044 307.205 1086.13 635.106 337.712 230.935 106.777 109.212 267.088 202.329 437.715 4871.23 4194.39 3539.29 3223.54 2672.11 927.068 507.281 1745.05 419.786 655.098 446.382 551.426 138.621 1051.2 972.622 114.649
internal_count=129940 103243 83513 80947 74372 71566 63737 20321 17336 7829 43416 7495 9841 6166 6790 36626 33399 6233 6123 4881 3227 2261 5505 4298 3881 5413 2566 1242 4599 26697 4018 19730 16411 14780 13675 1526 3675 6575 4710 3175 2536 639 650 1105 1612 3156 13342 12400 9912 9337 8205 3959 1660 4246 2299 2488 1480 1132 515 5934 5076 1308
is_linear=0
shrinkage=0.05


Tree=8
num_leaves=63
num_cat=0
split_feature=205 234 229 205 49 165 123 51 137 150 195 224 234 229 4 155 174 176 17 177 233 103 134 226 6 169 145 49 67 163 51 8 65 126 16 219 32 179 3 91 9 118 37 151 178 34 211 204 135 198 87 131 156 12 181 79 166 216 36 79 10 9
split_gain=2915.77 2395.95 1102.7 768.906 769.043 611.209 567.763 598.851 646.951 633.075 613.794 492.368 489.431 537.029 474.569 456.431 456.012 449.841 545.473 621.374 470.78 429.343 409.964 404.059 402.82 494.155 402.285 395.153 393.948 402.024 388.086 384.58 370.082 366.469 491.053 354.874 354.874 625.757 477.189 483.591 353.702 352.594 334.602 378.003 332.311 440.863 392.982 340.57 338.707 329.305 321.173 311.148 310.808 304.375 331.547 297.279 432.757 360.294 342.167 300.485 296.777 292.877
threshold=-0.64563322067260731 0.8034019172191621 -0.58083078265190113 -0.14740994572639463 -0.58229103684425343 -0.43247817456722254 -0.28124612569808954 -0.53327462077140797 -0.044982943683862679 0.5447882115840913 -0.27418257296085352 -0.78666386008262623 0.71890804171562206 0.080746710300445571 1.4390203356742861 -0.01080555561929941 0.30891945958137518 -0.97581917047500599 -0.32582370936870569 -0.6511038839817046 -0.67059567570686329 -4.075777292251586 1.4566467404365542 4.9049999713897714 0.077600196003913893 -0.47329096496105189 -0.15193615108728406 -0.60336321592330922 4.4721667766571054 1.2286943197250368 -0.64272943139076222 -0.97676354646682728 -0.60104447603225697 0.54045444726943981 1.1812337040901186 -0.52774211764335621 0.050157042220234878 0.019638888537883762 -0.26582810282707209 -0.22216661274433133 -0.39273749291896815 0.45999987423419958 -0.56655743718147267 -1.9252501130104063 1.3400000929832461 10.195000171661379 0.78191664814949047 1.6615540385246279 -0.67531505227088917 0.63151749968528759 -0.75897666811943043 -0.001583333301823586 -0.79733362793922413 -0.1407489478588104 -0.41684696078300471 0.66058281064033519 4.1299998760223398 -0.86563608050346363 1.5712184309959414 1.0174995064735415 -9.1050000190734846 0.31109040975570684
decision_type=2 2 2 2 2 2 2 2 2 2 2 2 2 2 2 2 2 2 2 2 2 2 2 2 2 2 2 2 2 2 2 2 2 2 2 2 2 2 2 2 2 2 2 2 2 2 2 2 2 2 2 2 2 2 2 2 2 2 2 2 2 2
left_child=-1 2 16 4 11 14 7 9 42 10 17 61 13 31 36 -8 27 30 19 20 -19 26 -15 40 25 -17 41 52 29 -13 -6 -7 -12 -14 -35 -23 -5 38 39 -38 -10 -3 43 -9 45 55 51 48 -48 -20 -21 -46 -2 54 -22 -37 57 58 -57 -59 -11 -4
right_child=1 21 3 5 6 12 15 8 23 60 32 28 33 22 -16 24 -18 18 49 50 53 35 -24 -25 -26 -27 -28 -29 -30 -31 -32 -33 -34 34 -36 44 37 -39 -40 -41 -42 -43 -44 -45 46 -47 47 -49 -50 -51 -52 -53 -54 -55 -56 56 -58 59 -60 -61 -62 -63
leaf_value=0.11004783737994379 -0.066202393636549867 0.10123704867979387 0.11360330558249199 0.12608259518165219 0.14286796538115729 0.071616182695626321 0.017267101646792613 0.17742626409838336 -0.044779406429510157 0.095830098348337792 0.43906989856648082 -0.041234289561438556 0.12931227700961853 0.0855256821443688 -0.014941931423383237 0.099048549719310236 0.097809165908425741 -0.054010535467938471 -0.032104830074009071 0.12012246028209034 -0.054470122483004126 0.11867138963096696 -0.054002919706715551 0.15541054644088304 0.097522424315555772 -0.042818470810853868 -0.06328811905242214 0.0030062506961426819 0.14518069490869936 0.086558300283703704 -0.022340238722727002 -0.03219573931392293 0.14519530342344419 -0.057824399619567306 0.15704462701208016 0.11442445115105493 -0.041996622128391767 -0.055730506902992499 0.14184877683860181 0.10114303223387869 0.074380029376872089 -0.042077817542462558 -0.025360680111454162 -0.053765429262129343 -0.050937852814583975 -0.064459667145460128 -0.063175360665995189 -0.064905252652661352 0.10797407858795156 0.21314026386286367 -0.053884458520820938 0.058809544141661931 0.11275656137097918 0.046249443838207061 0.21041871049569294 -0.0048106994939210983 -0.020350165641825606 0.0061593557869852947 0.13739514203914524 0.11010194583528868 -0.028071517566087181 -0.058535222771367405
leaf_weight=17753.633591417223 27.390520118176937 226.53202617168427 693.55741111934185 882.97759720869362 215.49518238380551 121.1686472799629 408.15075532905757 44.210033681243658 99.420877650380135 57.438261905685067 16.071173686534166 164.90709884651005 293.20341612026095 457.52716422639787 85.914124306291342 116.21818074584007 3113.519453458488 31.658477129414678 244.90430189110339 35.890642328187823 12.896156921982763 2950.2628774344921 59.490453861653805 84.412668019533157 775.04093200340867 130.09069188125432 65.848972618579865 256.16125125065446 63.537605699151754 98.186514450237155 42.569126138463616 338.28617507405579 32.133041404187679 70.370093325152993 42.739923309534788 2705.6300764009356 95.927143957465887 78.126563670113683 271.70248253643513 153.30943798646331 166.6855082642287 52.948554649949074 1022.2007098942995 29.463137067854404 97.995970658957958 38.98474708199501 30.379264250397682 33.088361099362373 596.77068237960339 14.498261362314222 101.54997130483389 189.41501303017139 212.40817769989371 50.110698189586401 140.63873320631683 156.46068874001503 88.660781241953373 73.971825167536736 57.974044561386108 1158.0572006255388 304.77250017039478 25.622628696262836
leaf_count=20498 170 460 2619 3402 877 1003 5968 206 1480 334 22 2073 1130 3327 892 963 7277 574 4648 198 225 3534 1095 368 5910 2886 431 1423 258 638 820 5973 175 786 182 5116 1305 1125 655 884 1438 269 20999 588 592 243 206 201 1240 41 1913 614 432 587 435 818 462 336 78 2180 4079 279
internal_value=0.0952472 0.0823066 0.0676991 0.057534 0.0460062 0.0779364 0.0364049 0.0231062 0.000968548 0.0477249 0.0693972 0.0843499 0.0537044 0.034516 0.0993066 0.0619604 0.0907161 0.0599874 0.0372779 0.0760241 0.125362 0.102501 0.0694709 0.0600957 0.0798207 0.02412 0.0478905 0.0461876 0.0334428 0.00645789 0.115616 -0.00481818 0.243172 0.0998189 0.0233663 0.104807 0.10593 0.0762257 0.0960155 0.0460509 0.0298605 0.0740856 -0.0179435 0.0849688 0.0969819 0.102914 0.0701912 0.0914351 0.0996836 -0.0183978 -0.00844505 0.0213899 0.0923153 0.153247 0.188169 0.104453 0.0868779 0.0934504 0.0336357 0.103861 -0.00842358 0.10747
internal_weight=38059.2 20305.5 11782.6 8173.07 5222.33 2950.74 4176.52 2747.02 1446.39 1300.63 938.416 1045.81 1382.79 976.472 1567.96 1429.5 3609.48 890.212 632.147 372.745 235.304 8522.98 517.018 350.519 1021.35 246.309 345.33 495.96 326.631 263.094 258.064 459.455 48.2042 406.313 113.11 8177.65 1482.04 599.066 520.939 249.237 266.106 279.481 1095.87 73.6732 5227.39 4279.74 947.649 660.238 627.15 259.403 137.441 287.411 239.799 203.646 153.535 4240.75 1535.12 1446.46 214.435 1232.03 362.211 719.18
internal_count=129940 109442 92662 83360 61601 21759 55734 40007 25079 14928 10515 5867 13496 11398 8263 15727 9302 10318 8621 3932 1821 16780 4422 3286 9759 3849 1160 2025 2969 2711 1697 6976 197 2098 968 15620 7371 3969 2844 2189 2918 729 21793 794 12086 9233 2853 1647 1446 4689 2111 1206 602 1247 660 8990 3874 3412 896 2516 4413 2898
is_linear=0
shrinkage=0.05


Tree=9
num_leaves=63
num_cat=0
split_feature=217 234 85 1 116 120 63 60 19 198 75 231 178 4 88 115 38 219 134 203 142 22 230 76 91 133 178 34 146 190 47 58 142 16 15 186 66 223 89 5 70 130 84 163 215 4 38 139 132 238 71 163 151 28 63 19 148 218 95 4 103 10
split_gain=2604.42 1901.14 881.81 525.754 531.524 707.665 679.864 535.6 587.01 521.03 567.598 847.414 467.956 468.669 466.473 442.733 413.803 410.278 386.207 372.437 366.799 362.755 362.074 401.588 356.938 338.259 325.72 435.427 389.144 326.894 318.672 355.007 314.082 364.801 311.367 371.952 389.708 388.378 402.736 324.402 375.617 415.686 306.022 348.374 304.772 304.567 307.697 303.517 300.487 334.635 440.763 398.003 414.134 300.411 297.694 295.12 294.275 294.12 317.525 324.606 290.48 289.005
threshold=-0.65729609131813038 0.80124327540397655 -0.56566154956817616 0.017924422398209575 0.019633645191788677 1.6769772171974184 -0.27859984338283533 0.7361661195755006 1.0162479281425478 0.68026471138000499 -0.2087505757808685 -0.22348655760288236 0.28999991714954382 -0.39853554964065546 -0.46022807061672205 2.2480003833770756 -0.25532074272632593 -0.46600243449211115 -0.49988755583763117 -0.0083611113950610143 -1.0000000180025095e-35 8.7449998855590838 0.42109364271163946 0.6149844527244569 1.8865553140640261 -0.49504674971103663 4.0099999904632577 10.195000171661379 0.8066718876361848 -1.0000000180025095e-35 -0.0063055555801838628 -5.7700002193450919 3.9149999618530278 1.7562960982322695 -0.45561698079109186 0.39674340188503271 0.54510903358459484 -0.82977768778800953 -0.44569097459316248 -0.33007329702377314 -2.4099999666213985 -5.0199997425079337 0.3748243004083634 -0.85936078429222096 0.0039166667265817532 -0.22447448968887326 0.39685732126235967 -0.64655524492263783 0.5797315537929536 11.25500011444092 -0.037750000134110444 2.6226671934127812 -3.196361660957336 0.75819927453994762 -0.53632950782775868 -7.1293334960937491 1.2913989424705508 -0.98461449146270741 0.0011388888815417888 0.2756755948066712 -2.8950002193450923 2.5300000905990605
decision_type=2 2 2 2 2 2 2 2 2 2 2 2 2 2 2 2 2 2 2 2 2 2 2 2 2 2 2 2 2 2 2 2 2 2 2 2 2 2 2 2 2 2 2 2 2 2 2 2 2 2 2 2 2 2 2 2 2 2 2 2 2 2
left_child=-1 2 20 4 5 12 7 -6 -9 10 11 -8 15 18 -15 32 24 -3 60 -10 25 26 23 57 -17 30 27 -19 -28 -30 31 -2 34 45 39 37 48 38 -36 42 -41 -42 -4 -44 -40 -34 -47 -12 49 50 -37 52 61 -20 -21 -5 -32 -16 -59 -60 -14 -52
right_child=1 17 3 55 6 -7 9 8 19 -11 47 -13 13 14 22 16 -18 21 53 54 -22 -23 -24 -25 -26 -27 28 -29 29 -31 56 -33 33 -35 35 36 -38 -39 44 40 41 -43 43 -45 -46 46 -48 -49 -50 -51 51 -53 -54 -55 -56 -57 -58 58 59 -61 -62 -63
leaf_value=0.10115616465584798 -0.063751996650104767 0.10575141108576902 0.13280196249843967 -0.055547233954164027 -0.029231394615314737 -0.025679704903870455 -0.053644735098252461 -0.022428174743984414 -0.055116094916872561 0.11265288391049218 0.043697175637316663 0.1553913270923924 0.092040020215934382 -0.046004523321436445 0.1423255050434967 0.096141427702351623 -0.017756632623180089 0.091674255097221768 0.099327085465809664 -0.056182333769804929 0.096384113550315731 0.0060249959113848131 -0.036144586049705871 -0.041472038292407212 -0.057633426824146329 -0.029847473955918538 0.011651098072118221 -0.063982944316768417 -0.066035415564449626 0.11794298475940404 0.056189516415712432 0.10148159074782025 -0.05601020793349612 0.14659309314130162 -0.055141528060253055 0.12150972149687717 -0.059885359687009178 -0.032119751518061797 0.1463788233327854 -0.017842621180894816 -0.055989253385588522 0.1063235296999383 0.11662853321448437 -0.023903470314041136 -0.053775394835267665 0.079420099829330876 -0.05506662773286624 -0.044601129155664471 0.13336520294661988 0.17735503403980585 -0.055543243205688167 0.11430100379149893 -0.042304481843080562 -0.015129452081021334 0.16786755135016029 0.086815767339502303 -0.063271012479317532 -0.028169447939218328 0.13552989990236972 -0.011719770984209631 -0.045229172530715692 0.16106178234607987
leaf_weight=17874.91298564896 34.101622130721807 3600.6937563344836 715.71614934876561 37.456220014020801 652.73745233565569 249.51628175750375 68.949913088232279 154.35562720894814 28.338167537003756 287.59759044647217 175.72994674742222 163.33629511855543 58.190222145989537 243.25380318053067 122.97636633366346 228.69623116590083 254.84165087901056 4881.3521293923259 510.18561047315598 16.703786663711071 2153.4683318249881 144.834313377738 134.99418631568551 85.100540304556489 45.193905906751752 89.461471360176802 302.06720039248466 45.345388449728489 27.24525660276413 212.12691017240286 685.87681844085455 695.2869998626411 103.18730393610895 63.023544862866402 46.691374529153109 180.84588402323425 45.679472338408232 170.20866970717907 118.51087552122772 101.52721745893359 44.063443148508668 376.40427740104496 110.36729143001139 73.44685816578567 22.654564365744591 177.2872804440558 55.954177714884281 218.12950273603201 274.29726151376963 65.33363950997591 21.92901455052197 94.850091494619846 198.06042635068297 64.586658392101526 131.87684971652925 1295.3596697971225 55.741471793502569 88.929424773901701 116.53232117369771 55.135351505130529 114.12734140083194 51.719126936048269
leaf_count=19020 278 4274 3203 653 11179 3683 1488 2590 527 1147 1970 827 274 3761 623 1292 3211 10510 2748 275 5786 617 2335 1318 648 1038 1267 290 160 334 2919 1760 1672 286 842 721 486 2981 622 1454 685 2030 612 930 473 1378 992 3540 1383 128 361 402 3352 991 614 6323 442 1308 405 731 1688 103
internal_value=0.087032 0.0753665 0.062607 0.0539126 0.0486941 0.0565868 0.0258865 -0.00295204 0.0488283 0.0569427 0.0313542 0.0933428 0.0605082 0.0379155 0.0124517 0.0704006 0.0281 0.0925781 0.0667818 0.110997 0.0830081 0.0841274 0.0360072 0.0567894 0.0707674 0.0645491 0.0861961 0.0902416 0.0493853 0.0970026 0.07029 0.0937563 0.077588 0.0361952 0.0836841 0.0659059 0.082536 0.0225867 0.0721538 0.0998272 0.068472 0.0893138 0.118023 0.060476 0.114258 0.0155142 0.047157 -0.0052047 0.0898702 0.0703993 0.057634 0.0261202 -0.00466263 0.0864657 0.142679 0.0828149 0.0472106 0.07859 0.048513 0.088237 0.0011255 0.0965668
internal_weight=39517.1 21642.2 12428.5 8714.59 7381.77 5484.02 1897.76 984.012 331.274 913.743 626.146 232.286 5234.5 1594.01 846.922 3640.49 528.732 9213.66 747.09 176.919 3713.94 5612.97 603.668 468.674 273.89 1560.47 5468.14 4926.7 541.439 239.372 1471.01 729.389 3111.76 399.452 2712.31 1290.78 932.715 358.065 187.857 1421.53 521.995 420.468 899.53 183.814 141.165 336.429 233.241 393.859 887.035 612.738 547.405 366.559 271.709 574.772 148.581 1332.82 741.618 383.573 260.597 171.668 172.318 73.6481
internal_count=129940 110920 93468 81245 74269 50112 24157 15185 4006 8972 7825 2315 46429 16182 10481 30247 5151 17452 5701 1416 12223 13178 6720 4385 1940 6437 12561 10800 1761 494 5399 2038 25096 4328 20768 11854 6936 4918 1937 8914 4169 2715 4745 1542 1095 4042 2370 5510 6450 5067 4939 4218 3816 3739 889 6976 3361 3067 2444 1136 1962 464
is_linear=0
shrinkage=0.05


Tree=10
num_leaves=63
num_cat=0
split_feature=217 234 193 193 17 206 29 58 234 39 145 231 195 13 190 161 146 125 113 117 39 151 125 10 95 72 192 15 71 170 22 224 179 217 226 39 112 142 238 14 19 28 163 37 229 43 110 41 227 123 166 9 148 115 217 178 158 207 127 14 37 237
split_gain=2329.06 1605.5 812.3 669.65 613.692 588.735 473.102 472.097 462.534 384.067 533.728 535.056 543.567 463.582 560.556 415.227 398.859 395.524 383.128 381.79 378.86 346.193 342.76 339.014 469.468 417.908 333.032 401.436 339.089 333.215 327.096 324.237 316.069 331.438 315.231 306.963 306.04 304.147 319.344 299.57 398.066 298.325 290.315 285.227 313.635 507.258 454.97 497.135 318.431 280.326 418.31 325.909 279.339 277.561 273.834 288.973 326.233 269.698 262.991 262.325 254.663 254.331
threshold=-0.65729609131813038 0.8034019172191621 -0.5554557442665099 -0.2196940407156944 -0.74216830730438221 1.6086747050285342 0.048355050384998328 -9.7800002098083478 0.40499906241893774 -0.61005157232284535 -0.45547468960285181 -0.16448377072811124 -0.6438828408718108 -0.33536180853843683 6.7850000858306894 -0.71433705091476429 -0.71140474081039418 -0.51438847184181202 -0.33197470009326929 0.98734235763549816 -0.42610128223896021 3.90636157989502 1.6835660040378573 -5.9650001525878897 -0.055194443091750138 -0.70920145511627186 -0.02838043216615915 -0.12318994849920271 -0.054027779027819627 0.7361661195755006 7.7200000286102304 -0.2100446820259094 -0.01230555586516857 -0.58166942000389088 -2.2400001287460323 -0.5722028613090514 -1.1146094202995298 11.414999961853029 -15.49499988555908 1.5712184309959414 -3.5956665277481075 2.3577982187271123 1.0167772173881533 0.142046794295311 -0.47578616440296168 4.6471111774444589 -0.98902109265327443 -0.71686089038848866 -0.0026388888945803042 -0.44281975924968714 -5.1400001049041739 -0.77851521968841542 0.3417747169733048 -0.1339999660849571 -0.31211872398853296 -0.66000005602836598 -1.1146094202995298 -0.72474956512451161 -2.0810008049011226 0.4056705385446549 -0.1997021287679672 -0.99056696891784657
decision_type=2 2 2 2 2 2 2 2 2 2 2 2 2 2 2 2 2 2 2 2 2 2 2 2 2 2 2 2 2 2 2 2 2 2 2 2 2 2 2 2 2 2 2 2 2 2 2 2 2 2 2 2 2 2 2 2 2 2 2 2 2 2
left_child=-1 2 8 4 35 7 9 61 32 31 13 12 36 14 15 -11 -13 -18 -19 23 -15 30 -3 25 -25 -9 28 49 -24 -29 -20 39 33 -2 -8 -4 -12 38 -17 52 -41 57 54 44 -30 46 48 53 -46 50 -28 -52 59 -48 -27 -56 -57 -14 -34 -6 -50 -5
right_child=1 22 3 5 6 -7 34 19 -10 10 11 16 41 20 -16 37 17 18 21 -21 -22 -23 26 24 -26 42 27 29 43 -31 -32 -33 58 -35 -36 -37 -38 -39 -40 40 -42 -43 -44 -45 45 -47 47 -49 60 -51 51 -53 -54 -55 55 56 -58 -59 -60 -61 -62 -63
leaf_value=0.093268826724388826 0.098124028908759431 0.095847905153343863 -0.0061409351861957499 0.10914495637870535 0.089939797112346828 -0.025913542477035836 -0.018589515148641097 -0.056316878335219804 0.082505698939623118 0.080976892590408411 0.10652156599303564 -0.055916626959411908 0.47624767310288929 -0.056288693983168658 0.12012962154392059 0.17884372752463282 -0.039828212678379001 0.12847576988158801 -0.056846450388166436 -0.055120729860722951 0.12541873355498212 0.16493593163679643 -0.066199357864712358 -0.0418464174667992 0.082313457805608031 0.28148555037687933 -0.067267386775450633 0.059883612692053501 0.081407850142117863 -0.069146742700833153 0.14512518114671794 -0.028929910575234471 0.075582380762921605 -0.059220555061369452 0.098733267081367745 0.11090341003760276 -0.0068531108572468082 0.21729588040070413 -0.020685083788542821 0.21822851596312534 -0.056184628980165623 0.16342708775336443 -0.026609399910031528 0.14377093500114674 0.11357961283515011 0.12361056878509341 -0.065452820543351622 -0.026006848542721603 -0.065274548803457108 0.10553378084437826 0.023930409021544616 0.096540706154451372 -0.0088585427195280505 0.12957306035497315 0.1009438224369202 0.1031215986898346 -0.055426607044413156 -0.043749458129795582 -0.02850181080347361 -0.0091526832066081074 0.075013462964589189 -0.039039147171448366
leaf_weight=18402.575727265328 222.16581772640347 4088.6826431900263 66.290121894329786 35.878973811864853 396.55787311866879 176.51987287029624 68.239614501595497 98.389999181032181 3620.5106028299779 161.37689728103578 111.71595178171992 90.664520405232906 2.50036547333002 33.017103109508753 133.11270888708532 20.742737393826246 81.711677093058825 197.7541362773627 97.483408115804195 58.974259033799171 218.69508533552289 34.024170819669962 51.071474440395832 78.016364058479667 3156.7830859236419 15.509870044887064 51.151645973324776 433.94320632517338 900.85240769386292 56.557192906737328 25.235715597867966 100.42076243460178 83.193178962916136 39.404905822128057 355.63741203397512 361.49075488932431 127.40642720460892 14.537294393405316 603.42486126162112 61.520466439425945 16.831168293952942 17.962007252499461 84.739230578765273 106.83050526678562 194.61014202237129 157.6276992559433 22.749452702701092 434.86517103016376 58.158081784844398 1815.2900565564632 200.6762176156044 672.18746598809958 132.32520735636353 92.113540358841419 230.7790026795119 54.521164514124393 80.127856099978089 913.4216582570225 224.35620390810072 80.314309347420931 72.896801240742207 150.06309310346842
leaf_count=19020 529 5211 621 110 2156 2797 983 1534 9685 890 462 1519 11 575 502 20 1355 1072 1520 957 857 58 303 990 17244 21 294 1088 1669 300 110 1766 290 432 1774 1513 1800 105 8115 187 262 183 1196 146 312 224 136 2258 346 2527 743 1275 1686 96 1337 241 1331 20185 1603 997 165 2246
internal_value=0.0800966 0.0692482 0.0578163 0.0491433 0.0357801 0.0634695 0.0298295 0.0673713 0.0759189 0.024057 0.0156067 -0.00234917 -0.0211494 0.0413663 0.0251237 0.00931718 0.0395068 0.0593402 0.0821986 0.0711219 0.101584 0.0238132 0.0849613 0.0730817 0.079319 0.0373125 0.0765969 0.086663 0.0610543 0.0450058 -0.0153134 0.0549942 0.0340167 0.0744205 0.0798456 0.0927659 0.0461146 -0.00878855 -0.0140542 0.0672518 0.15928 -0.0383725 0.0570948 0.064239 0.0598455 0.0410419 0.0261742 -0.00156997 0.0730067 0.0941221 0.0717032 0.0798472 0.0554156 0.0909468 0.0757147 0.0669812 0.00877165 -0.0423299 -0.000346675 0.0732507 0.012758 -0.0104459
internal_weight=40747.2 22344.6 12934.3 8744.72 4524.41 4220.3 4096.63 4043.78 4189.63 3672.76 2884.79 1699.88 1173.01 1184.91 933.194 800.082 526.874 436.209 354.497 3857.84 251.712 156.743 9410.26 3798.87 3234.8 564.067 5321.58 3229.81 2091.78 490.5 122.719 787.97 569.12 261.571 423.877 427.781 239.122 638.705 624.168 687.549 78.3516 933.884 465.677 2040.7 1933.87 1033.02 875.393 549.728 325.665 2739.31 924.015 872.864 609.197 114.863 380.938 365.428 134.649 915.922 307.549 476.872 131.055 185.942
internal_count=129940 110920 93827 81288 51284 30004 49150 27207 12539 46393 39339 28275 22641 11064 9632 9130 5634 4115 2760 24851 1432 1688 17093 23894 18234 5660 11882 6227 5655 1388 1630 7054 2854 961 2757 2134 2262 8240 8135 5288 449 20379 4126 5352 5206 3537 3313 2490 823 4839 2312 2018 4839 232 2930 2909 1572 20196 1893 3153 511 2356
is_linear=0
shrinkage=0.05


Tree=11
num_leaves=63
num_cat=0
split_feature=229 234 102 6 26 62 76 17 111 3 122 170 184 95 167 62 229 229 100 143 29 238 96 172 233 50 228 231 232 187 192 103 111 120 196 226 187 239 95 103 128 130 157 94 83 190 187 84 235 160 91 220 1 127 85 218 218 208 194 151 80 9
split_gain=2126.89 1447.9 596.601 633.288 665.508 520.171 504.983 473.349 510.255 474.817 449.346 384.087 378.05 354.369 338.734 342.496 338.274 330.713 324.834 316.386 306.49 299.448 291.406 364.152 314.65 292.445 290.467 298.175 287.69 301.068 326.397 295.943 302.638 293.2 407.14 283.234 296.665 282.527 280.356 329.387 276.369 275.876 277.626 316.843 271.605 269.836 268.031 265.149 261.851 258.097 254.84 278.768 263.667 261.979 253.208 249.052 240.801 266.971 259.865 288.554 248.625 237.769
threshold=-0.6304679512977599 0.77255433797836315 0.4755456298589707 0.14930161833763125 1.6439276337623598 1.0864915251731875 0.42770360410213476 -0.75710546970367421 -0.6984349489212035 -0.14610710740089414 -0.41836526989936823 -0.60123956203460682 -0.28396372497081751 0.042416667565703399 0.055861109867692001 2.3555948734283452 0.10032607242465021 -0.76182243227958668 2.2652595043182377 1.0000000180025095e-35 -0.56035000085830677 2.5900000333786015 0.63261085748672496 -0.052616756409406655 -0.77814823389053334 -0.58140978217124928 -0.28837032616138453 -0.57371398806571949 -1.0220706462860105 0.020500490441918377 -0.18261174857616422 1.689999043941498 -0.42771732807159418 0.02670217584818602 -0.25752404332160944 -3.5199996232986446 0.15491706132888797 0.011750000063329937 -0.032583331689238541 -2.0096387863159175 -0.99894830584526051 0.23000007122755053 -0.64553067088127125 -9.9500002861022931 0.02374999970197678 -9.8150000572204572 -7.3553879261016837 1.6968069672584536 -1.0000000180025095e-35 -0.25311744213104242 0.18222182244062426 -1.0242739915847776 -0.19108851999044416 0.021139186806976799 -0.74546086788177479 0.42770360410213476 0.25804911553859716 0.7493860423564912 -0.18040844053030011 -2.3673886060714717 -0.99227553606033314 -0.70246198773384083
decision_type=2 2 2 2 2 2 2 2 2 2 2 2 2 2 2 2 2 2 2 2 2 2 2 2 2 2 2 2 2 2 2 2 2 2 2 2 2 2 2 2 2 2 2 2 2 2 2 2 2 2 2 2 2 2 2 2 2 2 2 2 2 2
left_child=17 2 3 4 5 6 11 48 49 46 12 19 -8 38 15 -7 -12 -1 -15 21 -14 -2 24 41 -5 -25 35 -28 -26 33 31 32 -31 -30 -35 36 55 54 39 -13 -29 42 -24 -44 -21 -40 -10 56 -4 -9 52 -52 -37 -54 -19 -3 60 58 59 -58 -47 -43
right_child=1 26 7 22 -6 14 10 8 9 -11 16 13 20 18 -16 -17 -18 37 -20 44 -22 -23 23 25 28 -27 27 40 29 30 -32 -33 -34 34 -36 50 -38 -39 45 -41 -42 61 43 -45 -46 47 -48 -49 -50 -51 51 -53 53 -55 -56 -57 57 -59 -60 -61 -62 -63
leaf_value=0.09501426381839817 -0.05659843229859516 -0.067092087361401098 -0.059116964406336382 -0.05751435893222645 -0.03956272976114171 -0.031236183052859492 -0.029585536868571599 0.096904216597551274 0.095439572016634971 0.049930430388348615 -0.025709114329836653 0.10028540591013901 -0.057085789860427498 -0.033848740350252308 0.10242001504275507 0.088400758723485962 0.074717635902407542 0.093803677303319358 0.2222577367263226 0.079938168587005975 0.10017039399789934 0.061324934932259711 0.096054799480058184 0.053321562488229106 0.090506208425334314 -0.049375203469187876 0.096167672240538016 -0.067354604947803542 0.095083675467545509 -0.031938326014318931 -0.0094352503962398613 0.1307440050257315 0.082473132362365628 0.080455144177838334 -0.044227563522548391 0.088379065959566572 -0.040469376761905027 0.089663000595277029 -0.056422691506631296 -0.033065325464136146 0.075202933355088125 -0.023775904587934143 0.11442594452570798 -0.025562773008818197 -0.035970711875864578 -0.056389955566265172 -0.041121639068518422 -0.056082389129188809 0.12829434050730198 -0.030400340118425385 0.056636899784147057 -0.05192294532817672 0.073037112474162613 -0.048959577798319949 0.072227393815494353 0.074543175184073579 0.11088109189642892 -0.025012638585568597 0.10105562363082464 -0.055832974595845797 0.11090678580263923 0.10909402076276009
leaf_weight=5981.4857437238097 155.84900036081672 36.335758939385414 21.843025043606758 44.712144561111927 247.69984219409525 424.11183553934097 92.417969761416316 191.30281415954232 38.14085129648447 232.33948421292007 461.57318544387817 79.994259456172585 34.446566423401237 113.25498894974589 71.026944959536195 69.646511752158403 102.46557355485857 1637.5722986459732 13.900764007121323 281.70720604993403 308.25675714574754 82.244127640500665 116.51325086131692 122.66453148424625 1674.4029839374125 159.41016700491309 2294.6273383051157 34.24878566712141 706.06728071160614 102.4554859213531 258.56684698723257 114.11165229603648 132.61106168664992 178.7146904617548 103.33107317052782 1468.5899330787361 125.11830374598503 6058.293551556766 31.993722168728709 109.96630223467946 4637.1801566630602 37.816306384280324 50.629881005734205 200.44276550412178 61.591102486476302 22.71200786717236 620.16520606540143 30.356589429080486 127.03071092814207 50.277754792943597 1120.4729526527226 62.429774969816208 111.58292894437909 72.66228624433279 8015.3202747553587 212.86042181029916 43.715019732713699 70.58677644841373 339.85585242137313 63.887067163363099 1000.8517839722335 307.07548965886235
leaf_count=4107 2378 217 271 642 4518 6885 1363 795 94 1667 7074 460 485 1735 514 553 616 1336 18 1921 1725 600 181 950 7996 2360 2445 200 3531 1352 3090 425 813 1142 1519 2469 571 6386 512 1635 10051 500 223 2759 882 350 10184 511 281 728 3136 284 301 392 11792 433 162 965 1587 1071 4729 1068
internal_value=0.0741538 0.0624276 0.0488189 0.0535486 0.0400063 0.0448531 0.0520351 0.016981 0.00596024 -0.0115211 0.0219854 0.064033 0.0601615 0.0748092 0.000325345 -0.0143609 -0.00746518 0.0850088 -0.00585098 0.0284258 0.0843639 -0.0158644 0.0671054 0.0433681 0.074227 -0.00471593 0.0756734 0.0814079 0.0760282 0.0608377 0.0331461 0.0646776 0.0326061 0.0778695 0.034776 0.0632293 0.0223502 0.0811995 0.0805265 0.02309 0.0741578 0.062405 0.0322677 0.00266656 0.059143 0.0873288 -0.0332096 0.0902546 0.100797 0.0704096 0.0686253 0.0509075 0.0813056 0.0249243 0.0758877 0.0538911 0.0931361 0.0653591 0.0796153 0.0118972 0.107195 0.0945252
internal_weight=41773.5 20080.8 9904.74 8623.64 4314.11 4066.41 3501.63 1281.1 1132.23 890.646 999.16 2502.47 435.121 1921.08 564.785 493.758 564.039 21692.7 127.156 581.391 342.703 238.093 4309.53 994.552 3314.97 282.075 10176.1 6966.06 3270.26 1595.86 607.745 349.178 235.067 988.113 282.046 3210.05 374.314 15711.2 1793.92 189.961 4671.43 712.478 367.586 251.073 343.298 1603.96 658.306 1571.97 148.874 241.581 2835.74 1182.9 1652.84 184.245 9652.89 249.196 1541.61 518.045 447.458 107.602 1023.56 344.892
internal_count=129940 106319 85820 71800 43249 38731 30779 14020 13468 11945 11263 19516 3573 13735 7952 7438 7690 23621 1753 5781 2210 2978 28551 8041 20510 3310 20499 12696 19868 11872 5680 2590 2165 6192 2661 7803 1221 19514 11982 2095 10251 4731 3163 2982 2803 9887 10278 9375 552 1523 6582 3420 3162 693 13128 650 8864 3785 2820 1233 5079 1568
is_linear=0
shrinkage=0.05


Tree=12
num_leaves=63
num_cat=0
split_feature=205 234 229 133 222 127 169 169 157 58 72 218 125 38 19 180 4 103 214 19 59 125 19 13 71 94 145 110 108 206 134 205 6 60 205 1 236 183 103 118 112 62 235 75 82 17 15 12 187 125 136 91 124 77 5 95 39 86 16 71 206 175
split_gain=1997.91 1326.25 661.258 518.079 385.832 364.064 406.159 540.416 399.9 338.922 326.095 327.646 333.993 347.151 354.612 328.203 328.137 317.404 310.603 319.632 312.32 308.301 500.787 439.971 315.191 306.495 305.646 304.543 303.444 302.011 293.732 290.389 276.827 276.653 268.575 295.652 267.286 338.136 273.201 266.255 264.614 264.113 260.721 260.262 251.32 269.089 249.99 264.138 248.945 241.444 264.017 240.947 236.321 234.442 228.611 227.362 225.154 242.418 224.525 224.377 222.761 222.688
threshold=-0.64563322067260731 0.8034019172191621 -0.71518519520759571 -0.71252706646919239 0.4014489352703095 -0.83583316206932057 -0.56041440367698658 -0.27065636217594141 -0.45983555912971491 -8.8550000190734846 0.18754339963197711 -1.0947797298431394 -0.42713227868080134 -0.44921155273914332 -2.2428314685821529 1.1173378825187685 1.3971574306488039 -4.075777292251586 -7.5999996662139884 0.88424885272979747 0.023805554956197742 -0.37333373725414271 -0.57674968242645253 0.17081611603498462 -0.012749999761581419 -7.3899996280670157 -0.15193615108728406 -0.37870582938194269 0.48278620839118963 1.7871423959732058 -0.82817992568016041 -0.7613033354282378 0.12928993999958041 1.5073226094245913 -0.30618712306022638 -0.39294011890888209 0.26513479650020605 -0.054164161905646317 1.8835279345512392 0.45999987423419958 -0.92953187227249134 2.3555948734283452 -4.7518892288207999 -0.77236133813858021 1.4599998593330386 0.12456919625401498 -0.34147942066192621 -0.98902109265327443 -3.0539436340332027 -0.1471484303474426 1.679180443286896 4.2612497806549081 1.3795309662818911 -0.35713829100131983 0.063502032309770598 0.052194444462656982 -0.37422719597816462 0.27126899361610418 -0.61225607991218556 0.034916667267680175 0.94988670945167553 2.5838884115219121
decision_type=2 2 2 2 2 2 2 2 2 2 2 2 2 2 2 2 2 2 2 2 2 2 2 2 2 2 2 2 2 2 2 2 2 2 2 2 2 2 2 2 2 2 2 2 2 2 2 2 2 2 2 2 2 2 2 2 2 2 2 2 2 2
left_child=31 2 -2 4 43 6 40 8 32 -9 11 15 13 14 58 16 33 26 -12 27 55 24 23 30 -14 -15 39 28 -20 36 54 -1 -8 -7 -10 53 44 38 -38 -3 -5 49 -22 -4 45 -11 56 -48 -24 51 -51 -19 -50 -36 -23 -21 57 -34 -13 -26 -6 -46
right_child=1 17 3 5 60 10 7 9 34 29 18 12 21 25 -16 -17 -18 41 19 20 42 22 48 -25 59 -27 -28 -29 -30 -31 -32 -33 46 -35 35 -37 37 -39 -40 -41 -42 -43 -44 -45 61 -47 47 -49 52 50 -52 -53 -54 -55 -56 -57 -58 -59 -60 -61 -62 -63
leaf_value=0.090197628456073028 0.084161664044667475 0.071086548669278854 0.21603760049873055 0.0094196564563243535 0.097076387198523198 0.085327373420711616 -0.015996276144173423 -0.015503848769183148 -0.028600956358068377 0.066746386303081551 -0.042874770750295034 -0.057487902159862284 0.13976710495509256 0.075852445964463333 0.0041456108364387343 -0.028193666469553513 -0.059001319808484269 0.087131171767207527 0.052495295796900134 0.060629952623119869 0.144442525112328 0.0068001031642339954 -0.038286315584182766 0.12139209226972601 -0.035093557746953476 -0.025470058229700072 -0.065256605672725954 -0.015345915609488552 -0.0230163490017791 -0.054539199145623211 -0.048196356883132091 0.076794880824003334 0.089357119027119056 -0.058677009279798568 0.11396118569904629 -0.054213529248027817 -0.055438264092395634 0.075050031414284291 0.08775050330959093 -0.047824946809212947 0.089465409766174231 -0.044645139850087397 -0.057886988499785574 -0.064738926538390293 0.10953638087891496 -0.056654712721147651 0.087668921623831719 -0.059001408227492759 0.076134180895990833 0.069451613554482372 -0.070268125200526138 0.014056256651482656 -0.057823212716956597 -0.054343406232749671 0.16843408397968568 -0.058127674172459932 0.16209722042211283 -0.058897808189196425 0.10334499831373872 0.096585009580736486 0.0095720814012464524 -0.057573477438676746
leaf_weight=5671.7841856181622 1188.4310997277498 260.4308564811945 9.4515079930424672 116.41587156057358 813.36384031176567 947.39853379689157 124.33793295174837 144.20355112850666 473.95489948429167 1189.1161803808063 179.30992119759321 24.064968924969435 169.14588979072869 86.636261751875281 265.9354853592813 84.615093253552914 44.204994758591056 3743.5792427584529 499.85186523385346 910.74971885420382 18.668155567720532 96.254524571821094 57.098111743107438 62.657066678628325 59.664280071854591 538.86275129392743 70.839265048503876 655.43168479762971 181.29742851294577 52.770944621413946 291.45356416702271 14059.33318278566 174.15406558290124 34.569110630080104 108.90032427757978 56.630057994276285 137.67224385216832 186.56626092270017 43.945801759138703 57.461514465510845 912.69356911815703 46.071869924664497 108.23736801929772 65.103772129863501 517.58009234629571 45.881685638800263 57.458574445918202 65.904988737776875 718.9605861119926 5403.813826918602 34.023793824017048 116.30857519060373 34.503755809739232 25.54460134729743 28.310415560379624 42.168800743296742 86.114149363711476 32.759897192940116 220.78932048939168 70.669107479974627 79.8733542971313 20.734380666166544
leaf_count=4098 1191 460 7 548 1295 3900 1455 1906 8124 6808 2871 380 545 704 2440 945 557 4157 3594 5788 41 1143 676 195 934 6986 431 8819 2413 944 4803 16400 672 437 617 1116 2161 928 287 269 1945 207 1549 465 2172 586 200 837 4339 10733 187 336 521 509 114 574 195 432 1093 305 320 276
